FANN_FLO_2.1
num_layers=3
learning_rate=0.700000
connection_rate=1.000000
network_type=0
learning_momentum=0.400000
training_algorithm=0
train_error_function=1
train_stop_function=0
cascade_output_change_fraction=0.010000
quickprop_decay=-0.000100
quickprop_mu=1.750000
rprop_increase_factor=1.200000
rprop_decrease_factor=0.500000
rprop_delta_min=0.000000
rprop_delta_max=50.000000
rprop_delta_zero=0.100000
cascade_output_stagnation_epochs=12
cascade_candidate_change_fraction=0.010000
cascade_candidate_stagnation_epochs=12
cascade_max_out_epochs=150
cascade_min_out_epochs=50
cascade_max_cand_epochs=150
cascade_min_cand_epochs=50
cascade_num_candidate_groups=2
bit_fail_limit=3.49999994039535522461e-01
cascade_candidate_limit=1.00000000000000000000e+03
cascade_weight_multiplier=4.00000005960464477539e-01
cascade_activation_functions_count=10
cascade_activation_functions=3 5 7 8 10 11 14 15 16 17 
cascade_activation_steepnesses_count=4
cascade_activation_steepnesses=2.50000000000000000000e-01 5.00000000000000000000e-01 7.50000000000000000000e-01 1.00000000000000000000e+00 
layer_sizes=22 61 41 
scale_included=0
neurons (num_inputs, activation_function, activation_steepness)=(0, 0, 0.00000000000000000000e+00) (0, 0, 0.00000000000000000000e+00) (0, 0, 0.00000000000000000000e+00) (0, 0, 0.00000000000000000000e+00) (0, 0, 0.00000000000000000000e+00) (0, 0, 0.00000000000000000000e+00) (0, 0, 0.00000000000000000000e+00) (0, 0, 0.00000000000000000000e+00) (0, 0, 0.00000000000000000000e+00) (0, 0, 0.00000000000000000000e+00) (0, 0, 0.00000000000000000000e+00) (0, 0, 0.00000000000000000000e+00) (0, 0, 0.00000000000000000000e+00) (0, 0, 0.00000000000000000000e+00) (0, 0, 0.00000000000000000000e+00) (0, 0, 0.00000000000000000000e+00) (0, 0, 0.00000000000000000000e+00) (0, 0, 0.00000000000000000000e+00) (0, 0, 0.00000000000000000000e+00) (0, 0, 0.00000000000000000000e+00) (0, 0, 0.00000000000000000000e+00) (0, 0, 0.00000000000000000000e+00) (22, 5, 1.00000000000000000000e+00) (22, 5, 1.00000000000000000000e+00) (22, 5, 1.00000000000000000000e+00) (22, 5, 1.00000000000000000000e+00) (22, 5, 1.00000000000000000000e+00) (22, 5, 1.00000000000000000000e+00) (22, 5, 1.00000000000000000000e+00) (22, 5, 1.00000000000000000000e+00) (22, 5, 1.00000000000000000000e+00) (22, 5, 1.00000000000000000000e+00) (22, 5, 1.00000000000000000000e+00) (22, 5, 1.00000000000000000000e+00) (22, 5, 1.00000000000000000000e+00) (22, 5, 1.00000000000000000000e+00) (22, 5, 1.00000000000000000000e+00) (22, 5, 1.00000000000000000000e+00) (22, 5, 1.00000000000000000000e+00) (22, 5, 1.00000000000000000000e+00) (22, 5, 1.00000000000000000000e+00) (22, 5, 1.00000000000000000000e+00) (22, 5, 1.00000000000000000000e+00) (22, 5, 1.00000000000000000000e+00) (22, 5, 1.00000000000000000000e+00) (22, 5, 1.00000000000000000000e+00) (22, 5, 1.00000000000000000000e+00) (22, 5, 1.00000000000000000000e+00) (22, 5, 1.00000000000000000000e+00) (22, 5, 1.00000000000000000000e+00) (22, 5, 1.00000000000000000000e+00) (22, 5, 1.00000000000000000000e+00) (22, 5, 1.00000000000000000000e+00) (22, 5, 1.00000000000000000000e+00) (22, 5, 1.00000000000000000000e+00) (22, 5, 1.00000000000000000000e+00) (22, 5, 1.00000000000000000000e+00) (22, 5, 1.00000000000000000000e+00) (22, 5, 1.00000000000000000000e+00) (22, 5, 1.00000000000000000000e+00) (22, 5, 1.00000000000000000000e+00) (22, 5, 1.00000000000000000000e+00) (22, 5, 1.00000000000000000000e+00) (22, 5, 1.00000000000000000000e+00) (22, 5, 1.00000000000000000000e+00) (22, 5, 1.00000000000000000000e+00) (22, 5, 1.00000000000000000000e+00) (22, 5, 1.00000000000000000000e+00) (22, 5, 1.00000000000000000000e+00) (22, 5, 1.00000000000000000000e+00) (22, 5, 1.00000000000000000000e+00) (22, 5, 1.00000000000000000000e+00) (22, 5, 1.00000000000000000000e+00) (22, 5, 1.00000000000000000000e+00) (22, 5, 1.00000000000000000000e+00) (22, 5, 1.00000000000000000000e+00) (22, 5, 1.00000000000000000000e+00) (22, 5, 1.00000000000000000000e+00) (22, 5, 1.00000000000000000000e+00) (22, 5, 1.00000000000000000000e+00) (22, 5, 1.00000000000000000000e+00) (22, 5, 1.00000000000000000000e+00) (0, 5, 1.00000000000000000000e+00) (61, 5, 1.00000000000000000000e+00) (61, 5, 1.00000000000000000000e+00) (61, 5, 1.00000000000000000000e+00) (61, 5, 1.00000000000000000000e+00) (61, 5, 1.00000000000000000000e+00) (61, 5, 1.00000000000000000000e+00) (61, 5, 1.00000000000000000000e+00) (61, 5, 1.00000000000000000000e+00) (61, 5, 1.00000000000000000000e+00) (61, 5, 1.00000000000000000000e+00) (61, 5, 1.00000000000000000000e+00) (61, 5, 1.00000000000000000000e+00) (61, 5, 1.00000000000000000000e+00) (61, 5, 1.00000000000000000000e+00) (61, 5, 1.00000000000000000000e+00) (61, 5, 1.00000000000000000000e+00) (61, 5, 1.00000000000000000000e+00) (61, 5, 1.00000000000000000000e+00) (61, 5, 1.00000000000000000000e+00) (61, 5, 1.00000000000000000000e+00) (61, 5, 1.00000000000000000000e+00) (61, 5, 1.00000000000000000000e+00) (61, 5, 1.00000000000000000000e+00) (61, 5, 1.00000000000000000000e+00) (61, 5, 1.00000000000000000000e+00) (61, 5, 1.00000000000000000000e+00) (61, 5, 1.00000000000000000000e+00) (61, 5, 1.00000000000000000000e+00) (61, 5, 1.00000000000000000000e+00) (61, 5, 1.00000000000000000000e+00) (61, 5, 1.00000000000000000000e+00) (61, 5, 1.00000000000000000000e+00) (61, 5, 1.00000000000000000000e+00) (61, 5, 1.00000000000000000000e+00) (61, 5, 1.00000000000000000000e+00) (61, 5, 1.00000000000000000000e+00) (61, 5, 1.00000000000000000000e+00) (61, 5, 1.00000000000000000000e+00) (61, 5, 1.00000000000000000000e+00) (61, 5, 1.00000000000000000000e+00) (0, 5, 1.00000000000000000000e+00) 
connections (connected_to_neuron, weight)=(0, 3.59575080871582031250e+01) (1, 8.21365890502929687500e+01) (2, -1.57444667816162109375e+01) (3, -1.58367252349853515625e+01) (4, -4.07677620649337768555e-01) (5, 7.13927764892578125000e+01) (6, 1.95005855560302734375e+01) (7, -1.04868049621582031250e+01) (8, -1.48503742218017578125e+01) (9, -4.63520050048828125000e+01) (10, -2.49153327941894531250e+01) (11, 6.44310235977172851562e+00) (12, -2.57348079681396484375e+01) (13, -2.02605037689208984375e+01) (14, -3.80566139221191406250e+01) (15, 2.59893302917480468750e+01) (16, 1.04744358062744140625e+01) (17, -3.59214973449707031250e+01) (18, 4.22939586639404296875e+00) (19, 5.34247283935546875000e+01) (20, 2.90824871063232421875e+01) (21, -8.39715290069580078125e+00) (0, 1.90660619735717773438e+00) (1, -2.97600197792053222656e+00) (2, -5.47288208007812500000e+01) (3, -3.73180127143859863281e+00) (4, -7.85028533935546875000e+01) (5, -4.72598876953125000000e+01) (6, -2.01567955017089843750e+01) (7, 2.99960441589355468750e+01) (8, 8.22700347900390625000e+01) (9, 1.04297437667846679688e+01) (10, -6.32560424804687500000e+01) (11, -5.24562988281250000000e+01) (12, 1.87457275390625000000e+01) (13, 1.52876052856445312500e+01) (14, -3.35429992675781250000e+01) (15, -4.21126976013183593750e+01) (16, -7.17147674560546875000e+01) (17, 3.46465492248535156250e+01) (18, 5.68441658020019531250e+01) (19, -5.47037315368652343750e+01) (20, 1.50495223999023437500e+01) (21, 1.31435575485229492188e+01) (0, -1.73535022735595703125e+01) (1, -3.55326004028320312500e+01) (2, -5.75935935974121093750e+01) (3, -1.16522133350372314453e+00) (4, 4.30157203674316406250e+01) (5, -6.50529937744140625000e+01) (6, -4.56808815002441406250e+01) (7, 2.67272052764892578125e+01) (8, 1.53020353317260742188e+01) (9, 4.81072425842285156250e+01) (10, 4.03861160278320312500e+01) (11, 3.86690063476562500000e+01) (12, -3.74302566051483154297e-01) (13, 1.70790748596191406250e+01) (14, -2.86990184783935546875e+01) (15, 4.09636163711547851562e+00) (16, -2.44347858428955078125e+01) (17, 1.07379280090332031250e+02) (18, 6.46498641967773437500e+01) (19, 1.51647453308105468750e+01) (20, 4.96678771972656250000e+01) (21, -2.54637413024902343750e+01) (0, -4.86403732299804687500e+01) (1, 8.81153488159179687500e+01) (2, 1.87139846801757812500e+02) (3, -5.03512229919433593750e+01) (4, 7.98007659912109375000e+01) (5, 4.72223815917968750000e+01) (6, 5.34243698120117187500e+01) (7, 2.86406860351562500000e+01) (8, 5.50663604736328125000e+01) (9, -1.36466054916381835938e+01) (10, -9.06921157836914062500e+01) (11, -4.42443923950195312500e+01) (12, -2.92869949340820312500e+01) (13, 4.17505722045898437500e+01) (14, -4.85277223587036132812e+00) (15, -3.69318389892578125000e+01) (16, 1.72193984985351562500e+01) (17, -5.81648406982421875000e+01) (18, -9.91373634338378906250e+00) (19, -5.34159278869628906250e+01) (20, 3.72301177978515625000e+01) (21, -9.71121132373809814453e-01) (0, 4.77827072143554687500e+01) (1, -1.37761831283569335938e+01) (2, 1.03919235229492187500e+02) (3, -3.33796405792236328125e+00) (4, 2.19507904052734375000e+01) (5, -1.31605310440063476562e+01) (6, -2.46054630279541015625e+01) (7, 1.75766718387603759766e+00) (8, 2.85559349060058593750e+01) (9, -1.27821493148803710938e+01) (10, -1.88492145538330078125e+01) (11, -2.17124915122985839844e+00) (12, 2.58855171203613281250e+01) (13, -1.01045579910278320312e+01) (14, -4.44765281677246093750e+01) (15, -4.22792396545410156250e+01) (16, -4.16845512390136718750e+01) (17, -2.64038562774658203125e+00) (18, -4.41772537231445312500e+01) (19, 2.54808425903320312500e+01) (20, -9.39505481719970703125e+00) (21, -7.95961141586303710938e+00) (0, 4.33851356506347656250e+01) (1, -6.22260437011718750000e+01) (2, -6.09422683715820312500e+00) (3, -1.70086879730224609375e+01) (4, -1.15584020614624023438e+01) (5, 2.18414516448974609375e+01) (6, 2.66041984558105468750e+01) (7, 2.78613147735595703125e+01) (8, 3.91928443908691406250e+01) (9, 4.01654357910156250000e+01) (10, -4.43026046752929687500e+01) (11, -5.63670387268066406250e+01) (12, -1.61952610015869140625e+01) (13, -2.91410522460937500000e+01) (14, -6.54124784469604492188e+00) (15, -3.56912841796875000000e+01) (16, -3.35049819946289062500e+01) (17, -3.41706237792968750000e+01) (18, 2.41741123199462890625e+01) (19, 8.07036972045898437500e+00) (20, 3.22268791198730468750e+01) (21, 4.22330379486083984375e+00) (0, -2.78883266448974609375e+01) (1, -2.17678642272949218750e+01) (2, -5.76295928955078125000e+01) (3, -1.22557497024536132812e+00) (4, 5.57332382202148437500e+01) (5, -1.91390838623046875000e+01) (6, -3.22544212341308593750e+01) (7, 2.31581420898437500000e+01) (8, 1.47455000877380371094e+00) (9, -1.30837860107421875000e+01) (10, 2.47390460968017578125e+01) (11, 2.75949611663818359375e+01) (12, -1.27479791641235351562e+01) (13, -6.24049034118652343750e+01) (14, -3.04430694580078125000e+01) (15, 7.25486803054809570312e+00) (16, 3.79252471923828125000e+01) (17, 5.86817979812622070312e+00) (18, -6.34903335571289062500e+01) (19, 4.28574104309082031250e+01) (20, 7.53629744052886962891e-01) (21, 9.43531692028045654297e-01) (0, 7.78382415771484375000e+01) (1, 5.85008544921875000000e+01) (2, 1.91937980651855468750e+01) (3, 6.67966766357421875000e+01) (4, 6.83556747436523437500e+00) (5, 2.36201763153076171875e+00) (6, 7.85521888732910156250e+00) (7, 1.30239057540893554688e+01) (8, 5.66033096313476562500e+01) (9, 2.39948539733886718750e+01) (10, -2.72214736938476562500e+01) (11, -5.94252243041992187500e+01) (12, -4.93758201599121093750e+01) (13, -6.13254547119140625000e+01) (14, -1.51562166213989257812e+00) (15, 1.97905998229980468750e+01) (16, 1.61351528167724609375e+01) (17, 3.97000236511230468750e+01) (18, -4.37719306945800781250e+01) (19, 3.70774040222167968750e+01) (20, -1.48439388275146484375e+01) (21, -1.64373931884765625000e+01) (0, 4.37238159179687500000e+01) (1, 8.38105697631835937500e+01) (2, 2.63601264953613281250e+01) (3, 1.10955743789672851562e+01) (4, 1.01930374145507812500e+02) (5, -4.62966995239257812500e+01) (6, 2.23770761489868164062e+00) (7, 3.23220291137695312500e+01) (8, 2.89952239990234375000e+01) (9, 5.69326171875000000000e+01) (10, 2.55127563476562500000e+01) (11, -2.94757766723632812500e+01) (12, -2.04160137176513671875e+01) (13, -6.01855926513671875000e+01) (14, -8.53964233398437500000e+00) (15, -3.08554916381835937500e+01) (16, -4.16344490051269531250e+01) (17, 1.81702232360839843750e+01) (18, 3.82526931762695312500e+01) (19, -3.35187482833862304688e+00) (20, -1.41427383422851562500e+01) (21, -1.96794166564941406250e+01) (0, -2.79258899688720703125e+01) (1, -5.05695838928222656250e+01) (2, -2.44667425751686096191e-01) (3, -7.30184631347656250000e+01) (4, 6.83035507202148437500e+01) (5, 1.30748968124389648438e+01) (6, -3.89154853820800781250e+01) (7, -4.93360471725463867188e+00) (8, -3.03288459777832031250e+01) (9, 1.03532180786132812500e+01) (10, 8.29994964599609375000e+00) (11, 1.56530990600585937500e+01) (12, 4.52439270019531250000e+01) (13, 6.64848632812500000000e+01) (14, 1.63192214965820312500e+01) (15, 4.60829200744628906250e+01) (16, 5.47144584655761718750e+01) (17, 4.22697105407714843750e+01) (18, -5.07395505905151367188e+00) (19, 2.96228733062744140625e+01) (20, 2.43812751770019531250e+01) (21, -1.76278152465820312500e+01) (0, 3.39263763427734375000e+01) (1, 2.56293201446533203125e+01) (2, -1.64618873596191406250e+01) (3, 3.10109806060791015625e+01) (4, 4.11605033874511718750e+01) (5, 2.73680858612060546875e+01) (6, 2.17621231079101562500e+01) (7, -2.94666461944580078125e+01) (8, -4.42901878356933593750e+01) (9, -2.80004177093505859375e+01) (10, -2.91458129882812500000e+01) (11, -8.93390464782714843750e+00) (12, 6.40479028224945068359e-01) (13, -4.57366752624511718750e+01) (14, -1.75162792205810546875e+01) (15, 3.99068379402160644531e+00) (16, 9.39210700988769531250e+00) (17, -3.56576652526855468750e+01) (18, 8.14527587890625000000e+01) (19, -9.80027313232421875000e+01) (20, -5.31657600402832031250e+01) (21, -3.06673765182495117188e+00) (0, 7.67263352870941162109e-01) (1, 1.14229042053222656250e+02) (2, 5.66035385131835937500e+01) (3, 5.07220954895019531250e+01) (4, 3.27800788879394531250e+01) (5, -6.39881248474121093750e+01) (6, -3.58613929748535156250e+01) (7, -2.09015197753906250000e+01) (8, -1.69003982543945312500e+01) (9, -1.15944013595581054688e+01) (10, -9.64382457733154296875e+00) (11, 2.04588584899902343750e+01) (12, 1.19541292190551757812e+01) (13, 2.67003917694091796875e+01) (14, -1.34085454940795898438e+01) (15, -4.42451286315917968750e+00) (16, -6.06250143051147460938e+00) (17, -3.31616759300231933594e+00) (18, 3.85474166870117187500e+01) (19, -2.43563690185546875000e+01) (20, -1.29212074279785156250e+01) (21, 1.81920852661132812500e+01) (0, -1.14139223098754882812e+01) (1, -7.88221073150634765625e+00) (2, 5.74967613220214843750e+01) (3, -1.51434164047241210938e+01) (4, 3.46829104423522949219e+00) (5, -4.47034263610839843750e+00) (6, 1.11121520996093750000e+01) (7, -1.56021251678466796875e+01) (8, 2.52812218666076660156e+00) (9, 2.49348506927490234375e+01) (10, 5.97260513305664062500e+01) (11, 4.29155349731445312500e+01) (12, 8.46420192718505859375e+00) (13, -2.21172261238098144531e+00) (14, 1.24781847000122070312e+01) (15, -8.09493923187255859375e+00) (16, 2.56092109680175781250e+01) (17, 2.39162273406982421875e+01) (18, -1.51814069747924804688e+01) (19, 2.36644482612609863281e+00) (20, 1.74174380302429199219e+00) (21, -6.65742969512939453125e+00) (0, 1.58568973541259765625e+01) (1, 1.77783451080322265625e+01) (2, 3.93655490875244140625e+00) (3, 5.00374555587768554688e+00) (4, -3.42756004333496093750e+01) (5, 8.95386710762977600098e-02) (6, -1.49313430786132812500e+01) (7, -6.37077426910400390625e+00) (8, 1.18163776397705078125e+01) (9, 3.02536563873291015625e+01) (10, -4.51834793090820312500e+01) (11, -1.63373908996582031250e+01) (12, 3.04447345733642578125e+01) (13, -2.62953624725341796875e+01) (14, -2.74753894805908203125e+01) (15, 3.94530129432678222656e+00) (16, 2.77431511878967285156e+00) (17, 5.67832660675048828125e+00) (18, 1.03657207489013671875e+01) (19, -8.37945365905761718750e+00) (20, 5.85337543487548828125e+00) (21, -1.25498981475830078125e+01) (0, 2.32039585113525390625e+01) (1, 1.99986326694488525391e+00) (2, 1.47296943664550781250e+01) (3, 7.32686281204223632812e+00) (4, 1.54992980957031250000e+01) (5, 4.33136272430419921875e+00) (6, 1.83443050384521484375e+01) (7, -4.38948488235473632812e+00) (8, -4.66178169250488281250e+01) (9, -4.80412254333496093750e+01) (10, -4.60354728698730468750e+01) (11, -2.23138484954833984375e+01) (12, 2.59803733825683593750e+01) (13, 3.30710868835449218750e+01) (14, 3.83254203796386718750e+01) (15, 4.27539176940917968750e+01) (16, -2.79804754257202148438e+00) (17, 3.67368888854980468750e+01) (18, -1.73291282653808593750e+01) (19, 9.09854030609130859375e+00) (20, 2.07897741347551345825e-02) (21, -4.20924377441406250000e+00) (0, -1.79775562286376953125e+01) (1, 1.54719483852386474609e+00) (2, -3.07979545593261718750e+01) (3, 3.50855789184570312500e+01) (4, 1.35971937179565429688e+01) (5, 1.15756607055664062500e+01) (6, -1.52704458236694335938e+01) (7, 6.49317016601562500000e+01) (8, -1.60476188659667968750e+01) (9, -5.13336868286132812500e+01) (10, 4.71250009536743164062e+00) (11, 5.85891485214233398438e+00) (12, 4.37178077697753906250e+01) (13, 5.08905906677246093750e+01) (14, -1.08097648620605468750e+00) (15, -1.64843788146972656250e+01) (16, -1.52702884674072265625e+01) (17, 5.47846755981445312500e+01) (18, 5.58959579467773437500e+01) (19, 1.48525629043579101562e+01) (20, 1.96707038879394531250e+01) (21, -3.32382893562316894531e+00) (0, 1.90454635620117187500e+01) (1, -2.19938488006591796875e+01) (2, 4.10319366455078125000e+01) (3, -1.48873033523559570312e+01) (4, 9.64731216430664062500e+00) (5, 3.19674320220947265625e+01) (6, 2.46999340057373046875e+01) (7, -4.19564276933670043945e-01) (8, -1.57002410888671875000e+01) (9, -8.30325622558593750000e+01) (10, -7.36784267425537109375e+00) (11, 3.25712585449218750000e+01) (12, 1.58718194961547851562e+01) (13, 6.33894348144531250000e+01) (14, 2.56919021606445312500e+01) (15, -3.64153785705566406250e+01) (16, -9.25148487091064453125e+00) (17, 4.28787384033203125000e+01) (18, -1.02781410217285156250e+01) (19, -8.47324905395507812500e+01) (20, 6.84945449829101562500e+01) (21, 1.24490909576416015625e+01) (0, 1.78882198333740234375e+01) (1, 7.00012874603271484375e+00) (2, 3.97616600990295410156e+00) (3, -9.47991752624511718750e+00) (4, 2.94637565612792968750e+01) (5, -3.84856643676757812500e+01) (6, -6.98189697265625000000e+01) (7, -2.99551906585693359375e+01) (8, 7.46675348281860351562e+00) (9, 1.32145452499389648438e+01) (10, -4.40029144287109375000e+00) (11, 2.00281620025634765625e+01) (12, -5.40769805908203125000e+01) (13, -3.20976142883300781250e+01) (14, 3.07793445587158203125e+01) (15, 2.25465221405029296875e+01) (16, 1.48003091812133789062e+01) (17, 5.10365638732910156250e+01) (18, 8.95047149658203125000e+01) (19, -6.27722740173339843750e+00) (20, -1.90521085262298583984e+00) (21, -1.62284793853759765625e+01) (0, -3.41369323730468750000e+01) (1, -8.31638717651367187500e+01) (2, 3.71380081176757812500e+01) (3, 7.64124870300292968750e+00) (4, 9.58266925811767578125e+00) (5, 1.52832946777343750000e+02) (6, 1.22840942382812500000e+02) (7, 2.90388851165771484375e+01) (8, 1.21372060775756835938e+01) (9, 2.10927639007568359375e+01) (10, -4.61943397521972656250e+01) (11, -5.13611907958984375000e+01) (12, -1.14400730133056640625e+01) (13, -2.79529895782470703125e+01) (14, 3.25244789123535156250e+01) (15, 7.44535970687866210938e+00) (16, 4.19478721618652343750e+01) (17, -5.65781593322753906250e+00) (18, -1.59395294189453125000e+01) (19, -2.22956542968750000000e+01) (20, 1.38967123031616210938e+01) (21, 2.00096073150634765625e+01) (0, -6.30967597961425781250e+01) (1, 1.34639648437500000000e+02) (2, 7.27697067260742187500e+01) (3, -4.37164163589477539062e+00) (4, 1.67852306365966796875e+01) (5, 1.28394193649291992188e+01) (6, -3.36042213439941406250e+01) (7, 5.74940223693847656250e+01) (8, 1.28899211883544921875e+01) (9, -1.19360046386718750000e+01) (10, 3.56416225433349609375e+00) (11, -5.22138786315917968750e+00) (12, -3.48190269470214843750e+01) (13, -2.11270542144775390625e+01) (14, -6.01918678283691406250e+01) (15, 4.77895355224609375000e+01) (16, 5.32296104431152343750e+01) (17, -2.74822801351547241211e-01) (18, -5.20705986022949218750e+01) (19, 6.23148536682128906250e+01) (20, 8.76328587532043457031e-01) (21, -1.74285590648651123047e+00) (0, 4.78069038391113281250e+01) (1, 1.99499340057373046875e+01) (2, 1.88382301330566406250e+01) (3, -4.27373352050781250000e+01) (4, 4.71066665649414062500e+01) (5, -2.36216602325439453125e+01) (6, -9.61936759948730468750e+00) (7, -9.23688659667968750000e+01) (8, -1.43630218505859375000e+00) (9, 3.10218219757080078125e+01) (10, -1.97370262145996093750e+01) (11, -2.47467441558837890625e+01) (12, -3.80165176391601562500e+01) (13, -7.12541151046752929688e+00) (14, 6.35189743041992187500e+01) (15, 3.79867019653320312500e+01) (16, 1.46624164581298828125e+01) (17, -8.61126804351806640625e+00) (18, -3.64104347229003906250e+01) (19, 4.99902839660644531250e+01) (20, -3.57178268432617187500e+01) (21, -8.13889408111572265625e+00) (0, 6.79311447143554687500e+01) (1, 5.26836585998535156250e+01) (2, 6.99207019805908203125e+00) (3, 6.11338844299316406250e+01) (4, -9.47895240783691406250e+00) (5, 1.82484283447265625000e+01) (6, 1.97200603485107421875e+01) (7, 1.91575355529785156250e+01) (8, 3.66123619079589843750e+01) (9, 4.70022201538085937500e+01) (10, 3.15564022064208984375e+01) (11, 3.86606674194335937500e+01) (12, 3.53605880737304687500e+01) (13, -9.20673084259033203125e+00) (14, 5.04087104797363281250e+01) (15, 1.56254253387451171875e+01) (16, 6.44396057128906250000e+01) (17, 1.01846218109130859375e+01) (18, 4.22944526672363281250e+01) (19, 4.29700889587402343750e+01) (20, -7.98416948318481445312e+00) (21, -1.49218994140625000000e+02) (0, 1.39710702896118164062e+01) (1, -3.86470375061035156250e+01) (2, -2.87535762786865234375e+01) (3, -1.43037824630737304688e+01) (4, -3.45051994323730468750e+01) (5, 3.96061248779296875000e+01) (6, 4.84024925231933593750e+01) (7, -3.08167400360107421875e+01) (8, 2.78441390991210937500e+01) (9, 2.43517589569091796875e+01) (10, 7.34297752380371093750e+00) (11, -2.06103534698486328125e+01) (12, 3.12090167999267578125e+01) (13, 5.18247947692871093750e+01) (14, 4.08754806518554687500e+01) (15, -6.81064300537109375000e+01) (16, -4.95829124450683593750e+01) (17, -2.22900104522705078125e+01) (18, 2.30028533935546875000e+01) (19, -2.13225817680358886719e+00) (20, -2.38930492401123046875e+01) (21, 1.86527252197265625000e+01) (0, 9.31284141540527343750e+00) (1, 5.54927902221679687500e+01) (2, -5.18558835983276367188e+00) (3, -3.52200012207031250000e+01) (4, 7.99832992553710937500e+01) (5, 3.48915328979492187500e+01) (6, 1.01864452362060546875e+01) (7, 2.79789566993713378906e-01) (8, -7.44138431549072265625e+00) (9, -4.29115753173828125000e+01) (10, -4.93276977539062500000e+01) (11, -1.40292568206787109375e+01) (12, -9.55245399475097656250e+00) (13, 7.79573678970336914062e+00) (14, 4.97680015563964843750e+01) (15, 2.71037292480468750000e+00) (16, 1.55457000732421875000e+01) (17, 1.98379764556884765625e+01) (18, 7.20145034790039062500e+01) (19, -1.02546386718750000000e+02) (20, 5.60595083236694335938e+00) (21, -8.64487552642822265625e+00) (0, -2.35600018501281738281e+00) (1, -2.68941822052001953125e+01) (2, 1.75754795074462890625e+01) (3, -1.36545667648315429688e+01) (4, 3.02450132369995117188e+00) (5, -1.64366931915283203125e+01) (6, -5.12086915969848632812e+00) (7, 3.37949104309082031250e+01) (8, -1.75904178619384765625e+00) (9, 2.35891652107238769531e+00) (10, -3.01153221130371093750e+01) (11, -1.89531002044677734375e+01) (12, -3.84744186401367187500e+01) (13, 5.66168117523193359375e+00) (14, 2.69209957122802734375e+01) (15, 3.18841915130615234375e+01) (16, -2.03985176086425781250e+01) (17, 2.65088329315185546875e+01) (18, 7.74320449829101562500e+01) (19, 2.78961982727050781250e+01) (20, 2.94480590820312500000e+01) (21, 8.38578224182128906250e+00) (0, -5.44068260192871093750e+01) (1, -6.38329811096191406250e+01) (2, -5.49953269958496093750e+00) (3, -3.79011268615722656250e+01) (4, -7.85764408111572265625e+00) (5, -3.11712856292724609375e+01) (6, -3.37932586669921875000e+01) (7, -2.44584674835205078125e+01) (8, -2.12532463073730468750e+01) (9, -3.05892086029052734375e+01) (10, -4.18254203796386718750e+01) (11, -5.36871910095214843750e+01) (12, -1.12158699035644531250e+01) (13, -1.16510367393493652344e+00) (14, -2.17992477416992187500e+01) (15, 1.04680099487304687500e+01) (16, -4.69601058959960937500e+01) (17, -9.90048217773437500000e+00) (18, -3.96989059448242187500e+01) (19, -1.41663312911987304688e+01) (20, 6.95802688598632812500e+00) (21, 6.07983512878417968750e+01) (0, -4.37891632318496704102e-01) (1, -6.41751174926757812500e+01) (2, -4.29995880126953125000e+01) (3, -3.58154067993164062500e+01) (4, 1.62697887420654296875e+01) (5, -3.12199764251708984375e+01) (6, -1.59976634979248046875e+01) (7, 2.43699951171875000000e+01) (8, -1.50991764068603515625e+01) (9, -2.67687072753906250000e+01) (10, 5.51917915344238281250e+01) (11, 9.30776977539062500000e+01) (12, 6.03565120697021484375e+00) (13, 3.30999107360839843750e+01) (14, 3.36169891357421875000e+01) (15, -6.40943069458007812500e+01) (16, -4.86445121765136718750e+01) (17, 1.57893434166908264160e-01) (18, -2.47421627044677734375e+01) (19, 4.24871368408203125000e+01) (20, -2.55858211517333984375e+01) (21, -1.20568904876708984375e+01) (0, -2.60734252929687500000e+01) (1, -2.10173435211181640625e+01) (2, 6.08863449096679687500e+00) (3, -4.72581672668457031250e+01) (4, -7.46121520996093750000e+01) (5, 9.51909332275390625000e+01) (6, 1.64165172576904296875e+01) (7, 1.94749221801757812500e+01) (8, 1.35023889541625976562e+01) (9, -2.50859680175781250000e+01) (10, -6.98605346679687500000e+01) (11, -7.37307891845703125000e+01) (12, 6.64782791137695312500e+01) (13, 4.89493789672851562500e+01) (14, 2.41876640319824218750e+01) (15, -1.45912256240844726562e+01) (16, -3.58118391036987304688e+00) (17, -1.70963935852050781250e+01) (18, -9.49919891357421875000e+01) (19, -2.57771892547607421875e+01) (20, 3.16102561950683593750e+01) (21, 3.95706329345703125000e+01) (0, -7.24877700805664062500e+01) (1, -4.33560600280761718750e+01) (2, 8.64885616302490234375e+00) (3, -3.96372184753417968750e+01) (4, -1.43116893768310546875e+01) (5, -7.31881570816040039062e+00) (6, -1.39297747611999511719e+00) (7, -3.48199691772460937500e+01) (8, -2.66622886657714843750e+01) (9, -1.69490146636962890625e+01) (10, -3.50019226074218750000e+01) (11, -6.97235794067382812500e+01) (12, -1.69993419647216796875e+01) (13, -9.87357902526855468750e+00) (14, -5.70746688842773437500e+01) (15, -4.55447540283203125000e+01) (16, -7.34760589599609375000e+01) (17, -4.20265998840332031250e+01) (18, -1.44885215759277343750e+01) (19, -2.55334644317626953125e+01) (20, 2.32748489379882812500e+01) (21, 1.30366012573242187500e+02) (0, -4.20154838562011718750e+01) (1, 1.03688682556152343750e+02) (2, 3.80177917480468750000e+01) (3, 2.01415119171142578125e+01) (4, -8.45241317749023437500e+01) (5, -9.69253444671630859375e+00) (6, -2.42672119140625000000e+01) (7, 3.63152389526367187500e+01) (8, 3.12101726531982421875e+01) (9, 2.04527645111083984375e+01) (10, 4.20205163955688476562e+00) (11, -3.09206256866455078125e+01) (12, -6.18426513671875000000e+01) (13, -8.04362106323242187500e+00) (14, 1.74678993225097656250e+01) (15, -7.38970260620117187500e+01) (16, -4.38146896362304687500e+01) (17, -5.04449119567871093750e+01) (18, -8.70923709869384765625e+00) (19, 5.59417343139648437500e+00) (20, -1.17764225006103515625e+01) (21, 1.41372289657592773438e+01) (0, 2.70882244110107421875e+01) (1, -5.18547344207763671875e+00) (2, 2.87458038330078125000e+00) (3, -2.59057134389877319336e-01) (4, 2.02426195144653320312e+00) (5, 2.44887161254882812500e+00) (6, 7.66317510604858398438e+00) (7, -3.59638290405273437500e+01) (8, -3.44023132324218750000e+01) (9, -1.76507053375244140625e+01) (10, 3.42252540588378906250e+01) (11, 1.22418832778930664062e+01) (12, -3.45978889465332031250e+01) (13, -4.09353494644165039062e+00) (14, 3.57824172973632812500e+01) (15, 3.26571121215820312500e+01) (16, -2.83121967315673828125e+00) (17, -6.22226333618164062500e+01) (18, -8.30015563964843750000e+01) (19, 3.44398994445800781250e+01) (20, 1.46637897491455078125e+01) (21, -1.08193588256835937500e+01) (0, -1.49623727798461914062e+01) (1, -2.68715400695800781250e+01) (2, -1.56244459152221679688e+01) (3, 2.32701921463012695312e+00) (4, -1.71958065032958984375e+01) (5, -4.86778450012207031250e+00) (6, -5.76674537658691406250e+01) (7, 1.41218328475952148438e+01) (8, -2.67300376892089843750e+01) (9, -7.15622711181640625000e+01) (10, 1.72569122314453125000e+01) (11, 1.80465927124023437500e+01) (12, -1.80516109466552734375e+01) (13, -2.71856727600097656250e+01) (14, 1.66717014312744140625e+01) (15, -1.03488378524780273438e+01) (16, 3.34294724464416503906e+00) (17, -4.15893669128417968750e+01) (18, -4.43449668884277343750e+01) (19, 2.15441493988037109375e+01) (20, 3.00464957952499389648e-01) (21, -8.22191524505615234375e+00) (0, -1.10101585388183593750e+01) (1, 9.59822559356689453125e+00) (2, -2.64459896087646484375e+01) (3, -4.19437319040298461914e-01) (4, -5.12183532714843750000e+01) (5, 1.74233646392822265625e+01) (6, -7.27732706069946289062e+00) (7, -1.23101186752319335938e+01) (8, -4.01455802917480468750e+01) (9, -3.33172683715820312500e+01) (10, 1.97264366149902343750e+01) (11, -2.56388378143310546875e+00) (12, -1.29475708007812500000e+01) (13, -2.30659923553466796875e+01) (14, 2.48517684936523437500e+01) (15, 3.98402137756347656250e+01) (16, 7.70665054321289062500e+01) (17, 1.89852352142333984375e+01) (18, -7.70408105850219726562e+00) (19, 3.83007278442382812500e+01) (20, -7.53382349014282226562e+00) (21, -1.67562520503997802734e+00) (0, 1.18280515670776367188e+01) (1, -1.66668014526367187500e+01) (2, -6.31092147827148437500e+01) (3, 6.58821153640747070312e+00) (4, -4.61554298400878906250e+01) (5, -2.81198902130126953125e+01) (6, 4.30417209863662719727e-01) (7, -4.05504875183105468750e+01) (8, -4.86344375610351562500e+01) (9, -9.41519546508789062500e+00) (10, -2.09223442077636718750e+01) (11, -5.92964315414428710938e+00) (12, 6.77584991455078125000e+01) (13, 4.36529960632324218750e+01) (14, -1.87507076263427734375e+01) (15, 3.73937911987304687500e+01) (16, 7.16330261230468750000e+01) (17, -2.60656166076660156250e+01) (18, -2.41673202514648437500e+01) (19, -3.40478324890136718750e+00) (20, 1.94662990570068359375e+01) (21, 1.35433697700500488281e+00) (0, -6.50135955810546875000e+01) (1, -1.99456405639648437500e+01) (2, -2.84266262054443359375e+01) (3, -1.15082149505615234375e+01) (4, -6.48007736206054687500e+01) (5, -4.55990791320800781250e+01) (6, -2.80730419158935546875e+01) (7, 1.94909515380859375000e+01) (8, 4.03535461425781250000e+01) (9, -1.33730173110961914062e+01) (10, -5.97209072113037109375e+00) (11, -3.50204696655273437500e+01) (12, -1.30101194381713867188e+01) (13, 2.42174301147460937500e+01) (14, -3.62575149536132812500e+01) (15, -1.58965330123901367188e+01) (16, -6.94073562622070312500e+01) (17, -4.24980964660644531250e+01) (18, -4.86674261093139648438e+00) (19, -5.98868370056152343750e+01) (20, 2.03482666015625000000e+01) (21, 1.07855758666992187500e+02) (0, -2.06274757385253906250e+01) (1, 2.91182250976562500000e+01) (2, -1.84634742736816406250e+01) (3, 6.92266769409179687500e+01) (4, 3.88877182006835937500e+01) (5, 2.64176349639892578125e+01) (6, 4.28866653442382812500e+01) (7, -1.65904502868652343750e+01) (8, -5.52755308151245117188e+00) (9, -3.35468215942382812500e+01) (10, 4.07230033874511718750e+01) (11, 7.08078613281250000000e+01) (12, 4.09355506896972656250e+01) (13, 3.60411930084228515625e+00) (14, -5.64563226699829101562e+00) (15, -3.69316444396972656250e+01) (16, -5.99511108398437500000e+01) (17, -3.70072021484375000000e+01) (18, -9.61109466552734375000e+01) (19, 4.40741195678710937500e+01) (20, -2.02362403869628906250e+01) (21, 7.81097555160522460938e+00) (0, 1.74376735687255859375e+01) (1, -3.28734207153320312500e+01) (2, 2.95754928588867187500e+01) (3, 8.09900569915771484375e+00) (4, -4.57712669372558593750e+01) (5, 4.09519500732421875000e+01) (6, -3.50173454284667968750e+01) (7, 4.74137115478515625000e+01) (8, -6.29150199890136718750e+00) (9, -4.02831344604492187500e+01) (10, -4.08826370239257812500e+01) (11, -6.46310882568359375000e+01) (12, 6.69183349609375000000e+01) (13, 6.34214744567871093750e+01) (14, -1.73451862335205078125e+01) (15, 1.14394979476928710938e+01) (16, 2.89075374603271484375e+01) (17, -4.42323722839355468750e+01) (18, -1.32294044494628906250e+01) (19, -6.62275218963623046875e+00) (20, 3.23200378417968750000e+01) (21, 6.38987064361572265625e+00) (0, 1.36288661956787109375e+01) (1, 1.09080200195312500000e+01) (2, -2.54708385467529296875e+01) (3, -6.27187461853027343750e+01) (4, 3.12548007965087890625e+01) (5, -1.49475887417793273926e-01) (6, 4.55287132263183593750e+01) (7, 2.74921302795410156250e+01) (8, -6.30647838115692138672e-02) (9, 1.75923073291778564453e+00) (10, -1.88449077606201171875e+01) (11, 1.45198841094970703125e+01) (12, 2.38164234161376953125e+01) (13, -2.47869529724121093750e+01) (14, -3.07336959838867187500e+01) (15, -2.15441379547119140625e+01) (16, -3.02231597900390625000e+01) (17, 1.86676177978515625000e+01) (18, 6.03398399353027343750e+01) (19, 1.78233492374420166016e+00) (20, 1.18454465866088867188e+01) (21, -9.64647102355957031250e+00) (0, 3.43469619750976562500e+01) (1, 3.92065048217773437500e+01) (2, 3.92657089233398437500e+01) (3, 1.19800148010253906250e+01) (4, -2.38429665565490722656e+00) (5, 8.36506080627441406250e+00) (6, -1.47396984100341796875e+01) (7, 3.84403839111328125000e+01) (8, 7.10252141952514648438e+00) (9, 3.27665824890136718750e+01) (10, 8.65029716491699218750e+00) (11, -1.21618051528930664062e+01) (12, 1.42456474304199218750e+01) (13, -1.05996675491333007812e+01) (14, 1.99012680053710937500e+01) (15, 5.88723802566528320312e+00) (16, 4.60246543884277343750e+01) (17, 1.66578903198242187500e+01) (18, -1.19074182510375976562e+01) (19, 2.86583023071289062500e+01) (20, -9.99885272979736328125e+00) (21, -6.27215156555175781250e+01) (0, 3.06427803039550781250e+01) (1, 2.85492858886718750000e+01) (2, -5.49894332885742187500e+01) (3, 2.32302703857421875000e+01) (4, 6.93584871292114257812e+00) (5, 2.46092987060546875000e+00) (6, -3.33795394897460937500e+01) (7, 2.33996086120605468750e+01) (8, -9.46111011505126953125e+00) (9, -4.53099060058593750000e+00) (10, 4.86558198928833007812e+00) (11, -1.60930194854736328125e+01) (12, 6.13127517700195312500e+01) (13, 6.71299591064453125000e+01) (14, -2.62455787658691406250e+01) (15, -5.98710556030273437500e+01) (16, -1.37475767135620117188e+01) (17, 5.09257736206054687500e+01) (18, 5.00733947753906250000e+01) (19, -4.85163307189941406250e+00) (20, 5.96844053268432617188e+00) (21, 1.44158105850219726562e+01) (0, -2.16066417694091796875e+01) (1, -1.58331823348999023438e+01) (2, 1.46868915557861328125e+01) (3, -1.92333831787109375000e+01) (4, -4.46073913574218750000e+01) (5, -2.57661418914794921875e+01) (6, -2.99771060943603515625e+01) (7, 2.09751224517822265625e+00) (8, -9.62630367279052734375e+00) (9, -3.14309310913085937500e+00) (10, -1.36466875076293945312e+01) (11, 3.88767385482788085938e+00) (12, 6.05414314270019531250e+01) (13, 2.67006130218505859375e+01) (14, -1.24544763565063476562e+01) (15, -2.50271606445312500000e+00) (16, -1.68629398345947265625e+01) (17, 2.43335304260253906250e+01) (18, 4.01525955200195312500e+01) (19, -1.49226570129394531250e+01) (20, 3.51946296691894531250e+01) (21, 5.45292758941650390625e+00) (0, 1.08782569885253906250e+02) (1, 4.65225944519042968750e+01) (2, -1.46042871475219726562e+00) (3, 8.77550048828125000000e+01) (4, 1.24216718673706054688e+01) (5, 5.51343078613281250000e+01) (6, 5.54874114990234375000e+01) (7, 2.03886280059814453125e+01) (8, 3.20785636901855468750e+01) (9, 4.10630187988281250000e+01) (10, 5.74062843322753906250e+01) (11, 5.34746513366699218750e+01) (12, 3.76313743591308593750e+01) (13, 2.00665225982666015625e+01) (14, 7.64681091308593750000e+01) (15, 2.55033950805664062500e+01) (16, 9.09518661499023437500e+01) (17, -2.39267063140869140625e+00) (18, 4.66776199340820312500e+01) (19, 5.21020622253417968750e+01) (20, -3.51447612047195434570e-01) (21, -1.55802322387695312500e+02) (0, -4.06378746032714843750e+01) (1, -1.84668083190917968750e+01) (2, -3.83436241149902343750e+01) (3, -3.88965682983398437500e+01) (4, -2.07212276458740234375e+01) (5, -8.36115875244140625000e+01) (6, -6.06810684204101562500e+01) (7, -5.46890401840209960938e+00) (8, 5.30984992980957031250e+01) (9, 5.37131996154785156250e+01) (10, 5.12579870223999023438e+00) (11, -2.96830863952636718750e+01) (12, 1.76751213073730468750e+01) (13, -8.94114017486572265625e+00) (14, 1.47610578536987304688e+01) (15, 8.08620738983154296875e+00) (16, -3.36488647460937500000e+01) (17, -1.05526530742645263672e+00) (18, 5.55259895324707031250e+01) (19, -6.62276763916015625000e+01) (20, -7.84192037582397460938e+00) (21, -7.31709909439086914062e+00) (0, 2.86773777008056640625e+01) (1, -8.12100887298583984375e+00) (2, 3.39207229614257812500e+01) (3, -1.78736438751220703125e+01) (4, -1.50452489852905273438e+01) (5, -1.62649898529052734375e+01) (6, -5.53970184326171875000e+01) (7, -1.17812871932983398438e+01) (8, -2.60138645172119140625e+01) (9, 3.05711326599121093750e+01) (10, -4.75298976898193359375e+00) (11, -3.00235157012939453125e+01) (12, 7.39802627563476562500e+01) (13, 4.43898811340332031250e+01) (14, -1.59398565292358398438e+01) (15, 1.79038715362548828125e+01) (16, -4.30707645416259765625e+00) (17, 2.51898746490478515625e+01) (18, -1.33803615570068359375e+01) (19, 1.47087326049804687500e+01) (20, -2.54045352935791015625e+01) (21, 4.04527568817138671875e+00) (0, -5.81170883178710937500e+01) (1, -9.77483451366424560547e-01) (2, -6.57962188720703125000e+01) (3, 4.59745254516601562500e+01) (4, -1.00067726135253906250e+02) (5, -4.92021560668945312500e+01) (6, -1.19548957824707031250e+02) (7, 4.25091743469238281250e+01) (8, 1.78991432189941406250e+01) (9, 9.51563167572021484375e+00) (10, 5.69606666564941406250e+01) (11, 1.34982690811157226562e+01) (12, -2.60017347335815429688e+00) (13, -5.78298759460449218750e+00) (14, 2.46444654464721679688e+00) (15, -6.13009452819824218750e+00) (16, 3.73948144912719726562e+00) (17, -1.68207397460937500000e+01) (18, 2.75249156951904296875e+01) (19, -3.26853523254394531250e+01) (20, -2.86324644088745117188e+00) (21, 1.03971357345581054688e+01) (0, -1.93771247863769531250e+01) (1, -9.36517333984375000000e+00) (2, 4.17730636596679687500e+01) (3, -9.12297897338867187500e+01) (4, -1.17015388488769531250e+02) (5, -3.14650573730468750000e+01) (6, -8.87495577335357666016e-02) (7, -1.52226042747497558594e+00) (8, 2.03673706054687500000e+01) (9, 1.20956192016601562500e+01) (10, -9.44103622436523437500e+00) (11, -4.00052785873413085938e+00) (12, -4.56845283508300781250e+01) (13, -1.09907054901123046875e+01) (14, 2.49126873016357421875e+01) (15, 1.06798486709594726562e+01) (16, 1.13072586059570312500e+01) (17, -2.34442291259765625000e+01) (18, -3.19367389678955078125e+01) (19, 7.58518600463867187500e+00) (20, -9.57508754730224609375e+00) (21, -1.01249866485595703125e+01) (0, 8.93285217285156250000e+01) (1, 4.65411682128906250000e+01) (2, 1.58262033462524414062e+01) (3, 6.49245223999023437500e+01) (4, 2.75529742240905761719e+00) (5, 3.66096229553222656250e+01) (6, 1.93417835235595703125e+01) (7, 3.31394844055175781250e+01) (8, 3.88966712951660156250e+01) (9, 2.87166118621826171875e+01) (10, 6.01915740966796875000e+01) (11, 7.20752639770507812500e+01) (12, 3.74825477600097656250e+01) (13, 6.60998010635375976562e+00) (14, 7.21055679321289062500e+01) (15, 3.68644294738769531250e+01) (16, 9.59430313110351562500e+01) (17, 2.94213638305664062500e+01) (18, 5.34120292663574218750e+01) (19, 4.39297103881835937500e+01) (20, -1.22781686782836914062e+01) (21, -1.77105117797851562500e+02) (0, 5.04257202148437500000e+01) (1, -2.40229439735412597656e+00) (2, -6.78315963745117187500e+01) (3, 5.19265785217285156250e+01) (4, 1.77173709869384765625e+01) (5, -6.46531600952148437500e+01) (6, -3.75125656127929687500e+01) (7, -5.58126831054687500000e+01) (8, -3.04376678466796875000e+01) (9, 3.84790271520614624023e-01) (10, 2.69978599548339843750e+01) (11, 2.31987152099609375000e+01) (12, -8.71542263031005859375e+00) (13, 4.17296600341796875000e+01) (14, 2.97438926696777343750e+01) (15, -7.31947803497314453125e+00) (16, -4.36590194702148437500e+01) (17, -7.07843494415283203125e+00) (18, 5.89677631855010986328e-01) (19, -3.17493839263916015625e+01) (20, 3.33602714538574218750e+01) (21, -8.93418788909912109375e+00) (0, 1.94394950866699218750e+01) (1, -6.42467880249023437500e+01) (2, -4.43762397766113281250e+01) (3, -6.28225755691528320312e+00) (4, 7.05842056274414062500e+01) (5, 7.50615978240966796875e+00) (6, -6.51393604278564453125e+00) (7, -1.98320178985595703125e+01) (8, -3.99514937400817871094e+00) (9, -6.97621297836303710938e+00) (10, -3.45207481384277343750e+01) (11, -1.85579700469970703125e+01) (12, -2.01012802124023437500e+01) (13, -1.66815795898437500000e+01) (14, 3.09150409698486328125e+01) (15, 4.10319061279296875000e+01) (16, 4.58552055358886718750e+01) (17, -2.04805221557617187500e+01) (18, 1.25674009323120117188e+01) (19, 3.10328865051269531250e+01) (20, -6.39547061920166015625e+00) (21, -1.14953174591064453125e+01) (0, 2.01688652038574218750e+01) (1, -3.98688774108886718750e+01) (2, -1.60767638683319091797e+00) (3, -1.41741523742675781250e+01) (4, -2.22714924812316894531e+00) (5, 1.28660213947296142578e+00) (6, 2.21313533782958984375e+01) (7, -7.72224044799804687500e+01) (8, -1.65568792819976806641e+00) (9, 2.41268291473388671875e+01) (10, 1.16421756744384765625e+01) (11, 1.80808906555175781250e+01) (12, -3.47895584106445312500e+01) (13, -2.58693523406982421875e+01) (14, -1.13909416198730468750e+01) (15, 3.28994483947753906250e+01) (16, 2.82023906707763671875e+01) (17, 4.11301841735839843750e+01) (18, -4.52095260620117187500e+01) (19, -5.51694717407226562500e+01) (20, -8.52573680877685546875e+00) (21, -1.51960983276367187500e+01) (0, -3.27132415771484375000e+01) (1, -1.25259872436523437500e+02) (2, -5.17285776138305664062e+00) (3, -4.25958366394042968750e+01) (4, -3.11763477325439453125e+01) (5, -3.25069313049316406250e+01) (6, -3.47439384460449218750e+01) (7, -4.59368591308593750000e+01) (8, -4.01626586914062500000e+01) (9, 2.41414661407470703125e+01) (10, 3.96420326232910156250e+01) (11, 3.95720176696777343750e+01) (12, 2.83372325897216796875e+01) (13, 5.93030662536621093750e+01) (14, 4.40697250366210937500e+01) (15, -3.07491073608398437500e+01) (16, -4.81963882446289062500e+01) (17, 5.64902210235595703125e+00) (18, 1.22890510559082031250e+01) (19, 8.55267524719238281250e+00) (20, -3.40866546630859375000e+01) (21, -4.10254621505737304688e+00) (0, -3.41164817810058593750e+01) (1, -6.24604415893554687500e+00) (2, 3.14817752838134765625e+01) (3, -5.76087296009063720703e-01) (4, 1.29473628997802734375e+01) (5, -3.60579719543457031250e+01) (6, -2.78955326080322265625e+01) (7, -4.36163749694824218750e+01) (8, -1.70780658721923828125e+01) (9, 6.83866119384765625000e+01) (10, 5.79972610473632812500e+01) (11, 3.00452175140380859375e+01) (12, 3.75311546325683593750e+01) (13, -2.11591148376464843750e+01) (14, 6.48783540725708007812e+00) (15, -6.16168826818466186523e-02) (16, -9.66511535644531250000e+00) (17, 7.11492633819580078125e+00) (18, -2.63718605041503906250e+01) (19, -1.37867660522460937500e+01) (20, 2.01098842620849609375e+01) (21, -4.34196949005126953125e+00) (0, 2.30247993469238281250e+01) (1, -2.94467124938964843750e+01) (2, 1.53543510437011718750e+01) (3, 2.10982685089111328125e+01) (4, -2.14755821228027343750e+00) (5, -3.41736946105957031250e+01) (6, -4.70988044738769531250e+01) (7, 1.08371267318725585938e+01) (8, 9.40024852752685546875e+00) (9, 1.67673625946044921875e+01) (10, 8.30118656158447265625e+00) (11, 1.70398330688476562500e+01) (12, 1.30126113891601562500e+01) (13, 2.04937839508056640625e+01) (14, -5.18027544021606445312e+00) (15, 1.75699920654296875000e+01) (16, -1.10591850280761718750e+01) (17, 9.95294418334960937500e+01) (18, 2.16624794006347656250e+01) (19, 6.85950622558593750000e+01) (20, -1.18368158340454101562e+01) (21, -4.04633522033691406250e+01) (0, 1.43803291320800781250e+01) (1, -3.38139801025390625000e+01) (2, -6.13340034484863281250e+01) (3, -3.02037010192871093750e+01) (4, 6.40888900756835937500e+01) (5, -3.75646400451660156250e+01) (6, -5.17059288024902343750e+01) (7, -3.40501327514648437500e+01) (8, 8.10027217864990234375e+00) (9, 2.60445919036865234375e+01) (10, 3.59709072113037109375e+00) (11, 2.34181804656982421875e+01) (12, 2.89824409484863281250e+01) (13, 1.54428024291992187500e+01) (14, 4.72994766235351562500e+01) (15, -5.86785469055175781250e+01) (16, -4.39549751281738281250e+01) (17, 1.61165084838867187500e+01) (18, 4.56905708312988281250e+01) (19, -2.46884727478027343750e+01) (20, -4.06528549194335937500e+01) (21, -7.09071111679077148438e+00) (0, 2.33870525360107421875e+01) (1, -2.73337669372558593750e+01) (2, -4.41901254653930664062e+00) (3, -1.50603036880493164062e+01) (4, -1.93178215026855468750e+01) (5, 8.13877105712890625000e+00) (6, 5.94950723648071289062e+00) (7, 3.09817447662353515625e+01) (8, 9.38256759643554687500e+01) (9, 5.54131431579589843750e+01) (10, -3.04967098236083984375e+01) (11, -1.33463468551635742188e+01) (12, -1.27302406311035156250e+02) (13, -1.35218383789062500000e+02) (14, -5.01890411376953125000e+01) (15, 4.34762477874755859375e+00) (16, 1.49606389999389648438e+01) (17, 4.07705612182617187500e+01) (18, -5.32926445007324218750e+01) (19, -2.63659934997558593750e+01) (20, -1.86122150421142578125e+01) (21, -1.61906738281250000000e+01) (0, -5.91556625366210937500e+01) (1, -8.68266597390174865723e-02) (2, -3.47306709289550781250e+01) (3, -4.78710985183715820312e+00) (4, -3.17017478942871093750e+01) (5, -4.47042541503906250000e+01) (6, -3.80829963684082031250e+01) (7, 5.82592887878417968750e+01) (8, 5.72099151611328125000e+01) (9, 3.99874954223632812500e+01) (10, -9.51785945892333984375e+00) (11, -1.43181314468383789062e+01) (12, 1.12862520217895507812e+01) (13, 7.88161516189575195312e+00) (14, 1.81219615936279296875e+01) (15, -1.93810157775878906250e+01) (16, -4.58093185424804687500e+01) (17, 1.91709194183349609375e+01) (18, 7.68612976074218750000e+01) (19, -1.89551811218261718750e+01) (20, -6.29675521850585937500e+01) (21, 1.12959184646606445312e+01) (0, -3.23693008422851562500e+01) (1, -9.36019229888916015625e+00) (2, -4.18908843994140625000e+01) (3, 5.31928491592407226562e+00) (4, 4.79747848510742187500e+01) (5, 9.98977661132812500000e+01) (6, 7.96501235961914062500e+01) (7, -1.38108377456665039062e+01) (8, 7.17112731933593750000e+01) (9, 5.84687156677246093750e+01) (10, -4.24074983596801757812e+00) (11, -4.54511260986328125000e+01) (12, -3.54094429016113281250e+01) (13, 7.38587951660156250000e+00) (14, 6.77648162841796875000e+00) (15, -5.02167930603027343750e+01) (16, -2.48009777069091796875e+01) (17, 4.14121932983398437500e+01) (18, -3.36651992797851562500e+01) (19, -1.84332580566406250000e+01) (20, -5.90088653564453125000e+00) (21, 1.71359348297119140625e+01) (0, -2.19887809753417968750e+01) (1, -2.99744491577148437500e+01) (2, -1.42936538696289062500e+02) (3, -2.53206062316894531250e+01) (4, 7.47437591552734375000e+01) (5, -2.62390327453613281250e+01) (6, 4.30636739730834960938e+00) (7, 1.85106048583984375000e+01) (8, 1.44281482696533203125e+01) (9, -2.79098415374755859375e+00) (10, 4.07607727050781250000e+01) (11, 4.81478347778320312500e+01) (12, -4.37145948410034179688e+00) (13, -1.93223495483398437500e+01) (14, -2.66303138732910156250e+01) (15, 2.24632873535156250000e+01) (16, 1.38291358947753906250e+01) (17, 6.84305953979492187500e+01) (18, -1.80458183288574218750e+01) (19, 5.25239524841308593750e+01) (20, -1.19453401565551757812e+01) (21, -1.24754028320312500000e+01) (0, -3.99538078308105468750e+01) (1, -7.36776351928710937500e+01) (2, -2.10548019409179687500e+01) (3, 1.49544954299926757812e+01) (4, -2.17882633209228515625e+01) (5, -4.48844108581542968750e+01) (6, 5.84188747406005859375e+00) (7, 4.37521476745605468750e+01) (8, 5.79883918762207031250e+01) (9, 3.33698272705078125000e+01) (10, -5.25663185119628906250e+00) (11, -8.69189262390136718750e+00) (12, -1.57686691284179687500e+01) (13, 1.83784651756286621094e+00) (14, -4.49607505798339843750e+01) (15, -6.12641334533691406250e+00) (16, -3.01681079864501953125e+01) (17, -1.31819259643554687500e+02) (18, -8.07711791992187500000e+01) (19, -3.37662048339843750000e+01) (20, 2.16458282470703125000e+01) (21, 1.00292835235595703125e+01) (0, 1.85952281951904296875e+01) (1, 5.18438873291015625000e+01) (2, -2.67662944793701171875e+01) (3, -3.32721185684204101562e+00) (4, -7.86117839813232421875e+00) (5, -1.01235227584838867188e+01) (6, -1.37935543060302734375e+01) (7, 1.85152301788330078125e+01) (8, 7.90500354766845703125e+00) (9, -1.68097877502441406250e+01) (10, 6.42093086242675781250e+00) (11, 1.05866250991821289062e+01) (12, -1.03986463546752929688e+01) (13, 7.12848377227783203125e+00) (14, 1.89860463142395019531e-01) (15, -4.72244834899902343750e+01) (16, -3.50119400024414062500e+01) (17, -5.08193283081054687500e+01) (18, 1.73573913574218750000e+01) (19, 3.27491836547851562500e+01) (20, 2.84660854339599609375e+01) (21, 2.93619174957275390625e+01) (22, 1.03780174255371093750e+01) (23, -1.07782030105590820312e+01) (24, 2.72531509399414062500e+00) (25, -1.00139303207397460938e+01) (26, 2.84274196624755859375e+00) (27, 7.67062282562255859375e+00) (28, 2.77471780776977539062e+00) (29, 7.30741977691650390625e+00) (30, 1.27653872966766357422e+00) (31, 1.43226897716522216797e+00) (32, 5.23743677139282226562e+00) (33, -6.83883810043334960938e+00) (34, 7.79298830032348632812e+00) (35, 3.30171489715576171875e+00) (36, 7.95923650264739990234e-01) (37, -4.20929718017578125000e+00) (38, -1.48458929061889648438e+01) (39, -1.31631441116333007812e+01) (40, 1.21151371002197265625e+01) (41, -7.61937904357910156250e+00) (42, -3.72947978973388671875e+00) (43, 1.86876316070556640625e+01) (44, 9.89687252044677734375e+00) (45, -8.75881385803222656250e+00) (46, -5.81944608688354492188e+00) (47, -1.98574523925781250000e+01) (48, 7.89872741699218750000e+00) (49, 3.00953960418701171875e+00) (50, -2.05793952941894531250e+01) (51, -4.69747734069824218750e+00) (52, 7.68308258056640625000e+00) (53, -4.74312162399291992188e+00) (54, 7.82867527008056640625e+00) (55, 3.36997318267822265625e+00) (56, -2.29356117248535156250e+01) (57, 5.41184616088867187500e+00) (58, -4.11953115463256835938e+00) (59, 2.36611223220825195312e+00) (60, 1.12359285354614257812e+01) (61, -1.10837440490722656250e+01) (62, -5.39056396484375000000e+00) (63, 1.97347450256347656250e+01) (64, -5.70812988281250000000e+00) (65, -2.40729856491088867188e+00) (66, -2.97747087478637695312e+00) (67, -4.39121341705322265625e+00) (68, 2.00931472778320312500e+01) (69, -6.13223934173583984375e+00) (70, 7.57103538513183593750e+00) (71, 8.55518817901611328125e+00) (72, 4.16026782989501953125e+00) (73, -6.82076454162597656250e+00) (74, 7.06968641281127929688e+00) (75, 2.62316465377807617188e+00) (76, 1.17045965194702148438e+01) (77, -7.75141525268554687500e+00) (78, 9.45552921295166015625e+00) (79, 9.97458362579345703125e+00) (80, -3.62104773521423339844e+00) (81, -7.74002838134765625000e+00) (82, -2.19512748718261718750e+01) (22, 1.17168388366699218750e+01) (23, 9.75862979888916015625e+00) (24, -6.19879484176635742188e-01) (25, 8.60301399230957031250e+00) (26, 6.29360437393188476562e+00) (27, 5.73986482620239257812e+00) (28, -7.10092401504516601562e+00) (29, -7.24200296401977539062e+00) (30, -1.18605089187622070312e+00) (31, 2.15156879425048828125e+01) (32, 7.21256113052368164062e+00) (33, 1.07973718643188476562e+01) (34, -4.15016555786132812500e+00) (35, 2.85261845588684082031e+00) (36, 1.25560104846954345703e+00) (37, 1.11512460708618164062e+01) (38, 9.38961315155029296875e+00) (39, 3.92801785469055175781e+00) (40, 1.25765025615692138672e+00) (41, -5.07978439331054687500e+00) (42, 5.50620734691619873047e-01) (43, 2.25629959106445312500e+01) (44, -3.96006751060485839844e+00) (45, 1.16804084777832031250e+01) (46, 5.37960863113403320312e+00) (47, -1.60799427032470703125e+01) (48, -3.12723326683044433594e+00) (49, -1.20315494537353515625e+01) (50, -1.73599586486816406250e+01) (51, -1.15483531951904296875e+01) (52, -1.12304449081420898438e+01) (53, -5.57650041580200195312e+00) (54, -1.06617631912231445312e+01) (55, 1.17206096649169921875e+00) (56, -1.59713592529296875000e+01) (57, -9.64108180999755859375e+00) (58, 1.88451461791992187500e+01) (59, 2.14644088745117187500e+01) (60, 1.54172964096069335938e+01) (61, 1.01842117309570312500e+01) (62, 1.13096580505371093750e+01) (63, 2.06536560058593750000e+01) (64, 1.85736918449401855469e+00) (65, 6.83899164199829101562e+00) (66, -1.34549140930175781250e+01) (67, -1.19694620370864868164e-01) (68, 2.27082824707031250000e+01) (69, 8.43541240692138671875e+00) (70, -5.78668451309204101562e+00) (71, 1.13501033782958984375e+01) (72, 1.45560541152954101562e+01) (73, 7.62456846237182617188e+00) (74, 1.31837558746337890625e+01) (75, 3.16121840476989746094e+00) (76, -5.92265748977661132812e+00) (77, 3.12176775932312011719e+00) (78, 9.81626510620117187500e+00) (79, -1.67078380584716796875e+01) (80, 5.87649583816528320312e+00) (81, -1.18880963325500488281e+00) (82, -2.28778572082519531250e+01) (22, -4.01813459396362304688e+00) (23, -5.93276977539062500000e+00) (24, 9.50349712371826171875e+00) (25, -8.02344894409179687500e+00) (26, -3.73313760757446289062e+00) (27, -1.19759759902954101562e+01) (28, 6.83192825317382812500e+00) (29, -6.38954114913940429688e+00) (30, -4.84411191940307617188e+00) (31, 8.21498298645019531250e+00) (32, -6.58457708358764648438e+00) (33, -1.27292633056640625000e+01) (34, -2.74374151229858398438e+00) (35, 4.43973731994628906250e+00) (36, 7.38664245605468750000e+00) (37, 5.70679187774658203125e+00) (38, -5.64361000061035156250e+00) (39, 7.47745084762573242188e+00) (40, -1.75468158721923828125e+01) (41, -1.73420982360839843750e+01) (42, 3.44017632305622100830e-02) (43, 2.79475688934326171875e+01) (44, -6.28602695465087890625e+00) (45, -9.40953540802001953125e+00) (46, -9.68853592872619628906e-01) (47, -9.56956481933593750000e+00) (48, 1.03233928680419921875e+01) (49, -1.04149093627929687500e+01) (50, -2.77215480804443359375e+01) (51, -7.25513029098510742188e+00) (52, 6.68089437484741210938e+00) (53, 1.06824636459350585938e+00) (54, 3.71735572814941406250e+00) (55, 6.54701519012451171875e+00) (56, -2.85929927825927734375e+01) (57, -3.04146981239318847656e+00) (58, -9.92949867248535156250e+00) (59, 4.76561117172241210938e+00) (60, 1.66501064300537109375e+01) (61, 7.58025074005126953125e+00) (62, -9.11235046386718750000e+00) (63, 2.50336856842041015625e+01) (64, -2.74829626083374023438e+00) (65, 3.15728473663330078125e+00) (66, 2.40292286872863769531e+00) (67, -7.12349191308021545410e-02) (68, 2.96691150665283203125e+01) (69, 9.62786865234375000000e+00) (70, 1.25456876754760742188e+01) (71, 1.49344043731689453125e+01) (72, 8.85314655303955078125e+00) (73, 2.76680946350097656250e-01) (74, 1.51899814605712890625e+01) (75, 6.82240867614746093750e+00) (76, 4.37966489791870117188e+00) (77, -6.00619673728942871094e-01) (78, 8.10530757904052734375e+00) (79, 2.06024818420410156250e+01) (80, -1.22934949398040771484e+00) (81, -2.66824316978454589844e+00) (82, -3.11082744598388671875e+01) (22, -1.64546089172363281250e+01) (23, 7.49119997024536132812e+00) (24, 1.18049459457397460938e+01) (25, -2.87648940086364746094e+00) (26, 2.33432555198669433594e+00) (27, 8.24765110015869140625e+00) (28, 5.81107044219970703125e+00) (29, 5.41551053524017333984e-01) (30, 1.10899238586425781250e+01) (31, 3.52821898460388183594e+00) (32, -1.17649526596069335938e+01) (33, -9.82526874542236328125e+00) (34, 1.82927504181861877441e-01) (35, 2.28952097892761230469e+00) (36, -3.15080714225769042969e+00) (37, 1.83565244078636169434e-01) (38, -1.18885660171508789062e+00) (39, -2.51677870750427246094e-01) (40, 5.16648483276367187500e+00) (41, -5.97032403945922851562e+00) (42, -2.77377462387084960938e+00) (43, 1.80234565734863281250e+01) (44, 4.33687448501586914062e-01) (45, -2.84483027458190917969e+00) (46, 7.34363842010498046875e+00) (47, -1.38272495269775390625e+01) (48, 9.84804153442382812500e+00) (49, 5.46614789962768554688e+00) (50, -2.08645172119140625000e+01) (51, -4.51887273788452148438e+00) (52, -1.16437292098999023438e+01) (53, -2.48091578483581542969e+00) (54, -6.07235431671142578125e+00) (55, 1.45917668938636779785e-01) (56, -1.62585506439208984375e+01) (57, -8.04366588592529296875e+00) (58, 5.75938177108764648438e+00) (59, -2.28315925598144531250e+00) (60, 1.23272914886474609375e+01) (61, -3.01618427038192749023e-02) (62, -1.59930005669593811035e-01) (63, 1.34863548278808593750e+01) (64, 6.74052286148071289062e+00) (65, -2.99044919013977050781e+00) (66, 8.82719230651855468750e+00) (67, -4.51711654663085937500e+00) (68, 1.83257179260253906250e+01) (69, 8.80601465702056884766e-01) (70, 2.16859889030456542969e+00) (71, -5.78849363327026367188e+00) (72, -2.49083161354064941406e+00) (73, -2.05111241340637207031e+00) (74, 6.19436597824096679688e+00) (75, -3.25287699699401855469e+00) (76, 1.06775131225585937500e+01) (77, 1.30466670989990234375e+01) (78, 1.05571279525756835938e+01) (79, 1.11572694778442382812e+01) (80, 8.85658645629882812500e+00) (81, 1.27335727214813232422e-01) (82, -1.92976512908935546875e+01) (22, 8.62237739562988281250e+00) (23, -5.83089876174926757812e+00) (24, -2.70886015892028808594e+00) (25, -6.43861889839172363281e-02) (26, -4.50852870941162109375e+00) (27, -1.06925888061523437500e+01) (28, -1.32638585567474365234e+00) (29, 1.25993576049804687500e+01) (30, 6.56273365020751953125e+00) (31, 2.82711648941040039062e+00) (32, 3.44097638130187988281e+00) (33, 1.30771522521972656250e+01) (34, 8.85225868225097656250e+00) (35, 3.73455166816711425781e-01) (36, 1.07390270233154296875e+01) (37, 1.44840538501739501953e+00) (38, 5.27460765838623046875e+00) (39, 8.96969413757324218750e+00) (40, -1.54965200424194335938e+01) (41, 4.93969535827636718750e+00) (42, -5.04554271697998046875e+00) (43, 1.71223888397216796875e+01) (44, 2.42504334449768066406e+00) (45, -1.43165659904479980469e+00) (46, -5.47542285919189453125e+00) (47, -1.46599235534667968750e+01) (48, -3.12073063850402832031e+00) (49, -2.53938388824462890625e+01) (50, -2.31746768951416015625e+01) (51, 4.98319387435913085938e-01) (52, -1.69735208153724670410e-01) (53, 4.27618861198425292969e-01) (54, 4.08701086044311523438e+00) (55, -2.56422281265258789062e+00) (56, -1.80815410614013671875e+01) (57, -1.77812786102294921875e+01) (58, -8.09409713745117187500e+00) (59, 7.03729009628295898438e+00) (60, 1.25455970764160156250e+01) (61, 4.19387483596801757812e+00) (62, -6.99249553680419921875e+00) (63, 2.14279193878173828125e+01) (64, -1.24498891830444335938e+01) (65, 2.55613327026367187500e-01) (66, 1.44956340789794921875e+01) (67, -1.33075428009033203125e+00) (68, 2.34114665985107421875e+01) (69, 9.26181316375732421875e+00) (70, -7.90250349044799804688e+00) (71, 1.22182595729827880859e+00) (72, -7.95422649383544921875e+00) (73, 1.13420877456665039062e+01) (74, 7.69056797027587890625e+00) (75, 9.26544189453125000000e+00) (76, 7.67131996154785156250e+00) (77, -5.97278642654418945312e+00) (78, 5.97599172592163085938e+00) (79, 7.17355728149414062500e+00) (80, -7.90422487258911132812e+00) (81, 1.32680110931396484375e+01) (82, -2.53278713226318359375e+01) (22, -9.68234419822692871094e-01) (23, -1.16504755020141601562e+01) (24, -2.68332743644714355469e+00) (25, 1.19225664138793945312e+01) (26, 9.57107925415039062500e+00) (27, 6.02663040161132812500e+00) (28, -1.25030672550201416016e+00) (29, 2.75802612304687500000e-01) (30, 2.93629908561706542969e+00) (31, 5.52820110321044921875e+00) (32, -3.93209791183471679688e+00) (33, -1.21345150470733642578e+00) (34, 5.65501880645751953125e+00) (35, 2.39164423942565917969e+00) (36, 3.40390920639038085938e+00) (37, -1.05572385787963867188e+01) (38, 1.48519058227539062500e+01) (39, 4.92404651641845703125e+00) (40, 5.27963829040527343750e+00) (41, -1.27623474597930908203e+00) (42, 1.30141286849975585938e+01) (43, 1.75868072509765625000e+01) (44, 1.09348764419555664062e+01) (45, 1.05818920135498046875e+01) (46, 4.19316768646240234375e-01) (47, -1.00481061935424804688e+01) (48, 5.06423902511596679688e+00) (49, 9.44463062286376953125e+00) (50, -1.44624853134155273438e+01) (51, 7.82122075557708740234e-01) (52, 1.55959367752075195312e+01) (53, 6.70084476470947265625e+00) (54, 1.00734863281250000000e+01) (55, -1.08407974243164062500e+01) (56, -1.74043998718261718750e+01) (57, 1.56796380877494812012e-01) (58, -1.18188774585723876953e+00) (59, -5.18646335601806640625e+00) (60, 1.57887248992919921875e+01) (61, -1.42023010253906250000e+01) (62, 7.63832688331604003906e-01) (63, 1.90256328582763671875e+01) (64, 1.55194461345672607422e+00) (65, -2.94689565896987915039e-01) (66, -5.48455762863159179688e+00) (67, 1.59639787673950195312e+01) (68, 1.77955245971679687500e+01) (69, 1.07224893569946289062e+01) (70, 7.95473527908325195312e+00) (71, 1.70476186275482177734e+00) (72, 8.60621738433837890625e+00) (73, 9.34154987335205078125e+00) (74, -4.67089939117431640625e+00) (75, 2.85781860351562500000e+00) (76, 1.02903854846954345703e+00) (77, -3.19988799095153808594e+00) (78, -1.21113848686218261719e+00) (79, -7.22557687759399414062e+00) (80, 2.41918730735778808594e+00) (81, -2.09681749343872070312e+00) (82, -2.06128215789794921875e+01) (22, 9.41963195800781250000e+00) (23, -7.03922748565673828125e+00) (24, 6.94878518581390380859e-01) (25, -8.96737766265869140625e+00) (26, -3.41308665275573730469e+00) (27, 6.21897315979003906250e+00) (28, -3.99523830413818359375e+00) (29, -5.02920567989349365234e-01) (30, -5.39639854431152343750e+00) (31, 8.85396674275398254395e-02) (32, 7.27136898040771484375e+00) (33, 7.89455294609069824219e-01) (34, 1.54482972621917724609e+00) (35, -3.06476521492004394531e+00) (36, -3.44624900817871093750e+00) (37, 3.18558645248413085938e+00) (38, -1.17292451858520507812e+00) (39, 7.48429965972900390625e+00) (40, 1.20607700347900390625e+01) (41, -9.05481147766113281250e+00) (42, -3.75337219238281250000e+00) (43, 1.79646568298339843750e+01) (44, 1.11197805404663085938e+01) (45, -3.84264945983886718750e+00) (46, 1.24190492630004882812e+01) (47, -1.23112287521362304688e+01) (48, -2.96143651008605957031e-01) (49, 3.29144030809402465820e-01) (50, -9.64474582672119140625e+00) (51, -1.07414073944091796875e+01) (52, 2.28837919235229492188e+00) (53, -6.24011576175689697266e-01) (54, -6.55225419998168945312e+00) (55, -7.37241840362548828125e+00) (56, -9.57426166534423828125e+00) (57, 2.04548120498657226562e+00) (58, 1.52924513816833496094e+00) (59, 8.18191337585449218750e+00) (60, 8.09898567199707031250e+00) (61, -5.03074455261230468750e+00) (62, -4.50026655197143554688e+00) (63, 1.75099372863769531250e+01) (64, -1.02537231445312500000e+01) (65, -2.60536050796508789062e+00) (66, -1.53458538055419921875e+01) (67, -2.49865436553955078125e+00) (68, 1.69957733154296875000e+01) (69, 6.53296709060668945312e+00) (70, 3.88002252578735351562e+00) (71, -1.09919528961181640625e+01) (72, -3.79246950149536132812e+00) (73, 3.82902801036834716797e-01) (74, -3.40688085556030273438e+00) (75, -1.15790474414825439453e+00) (76, -1.02802438735961914062e+01) (77, 2.01460385322570800781e+00) (78, 9.42764949798583984375e+00) (79, 6.01628589630126953125e+00) (80, 5.95587682723999023438e+00) (81, 6.52974128723144531250e+00) (82, -1.90365447998046875000e+01) (22, -1.60013446807861328125e+01) (23, -1.04956989288330078125e+01) (24, 8.63886892795562744141e-01) (25, 3.14582419395446777344e+00) (26, 8.46860122680664062500e+00) (27, -3.90004467964172363281e+00) (28, 4.52021169662475585938e+00) (29, -1.12632789611816406250e+01) (30, 3.89401644468307495117e-01) (31, 7.38442087173461914062e+00) (32, -9.39055919647216796875e+00) (33, -7.04777538776397705078e-01) (34, 8.45065975189208984375e+00) (35, 7.07505285739898681641e-01) (36, 1.83168768882751464844e+00) (37, 1.97527790069580078125e+00) (38, 3.34395241737365722656e+00) (39, 2.11368584632873535156e+00) (40, -1.66082630157470703125e+01) (41, 1.20147438049316406250e+01) (42, 1.29861068725585937500e+00) (43, 2.12905616760253906250e+01) (44, -1.18414297103881835938e+01) (45, -1.44546794891357421875e+01) (46, 9.19171035289764404297e-01) (47, -1.03766708374023437500e+01) (48, 3.27054905891418457031e+00) (49, -1.84500741958618164062e+00) (50, -1.89724235534667968750e+01) (51, -1.05092132091522216797e+00) (52, 2.35550427436828613281e+00) (53, 5.30147886276245117188e+00) (54, -7.36244344711303710938e+00) (55, 3.80189394950866699219e+00) (56, -1.22613277435302734375e+01) (57, -7.78325700759887695312e+00) (58, 1.08459424972534179688e+01) (59, 2.55095887184143066406e+00) (60, 1.91592254638671875000e+01) (61, 3.58663821220397949219e+00) (62, 2.47341379523277282715e-01) (63, 1.70984191894531250000e+01) (64, -7.13203144073486328125e+00) (65, 1.24056816101074218750e+01) (66, -3.09126591682434082031e+00) (67, 3.34503531455993652344e+00) (68, 2.32997741699218750000e+01) (69, -1.06253945827484130859e+00) (70, 1.27318739891052246094e+00) (71, -2.55460500717163085938e+00) (72, 2.47545623779296875000e+00) (73, 1.78347682952880859375e+00) (74, 7.26241636276245117188e+00) (75, 1.58759438991546630859e+00) (76, -1.03187465667724609375e+01) (77, -9.17153644561767578125e+00) (78, -1.04143714904785156250e+01) (79, 2.10583043098449707031e+00) (80, -7.00884151458740234375e+00) (81, -1.10026721954345703125e+01) (82, -2.42707214355468750000e+01) (22, -5.32836484909057617188e+00) (23, 1.41144218444824218750e+01) (24, -8.36287975311279296875e+00) (25, 9.30581283569335937500e+00) (26, 7.83209371566772460938e+00) (27, -1.69073247909545898438e+00) (28, 5.99858331680297851562e+00) (29, 1.20713167190551757812e+01) (30, 1.81032981872558593750e+01) (31, -6.90001916885375976562e+00) (32, 1.21079463958740234375e+01) (33, 2.49850437045097351074e-01) (34, -2.26374173164367675781e+00) (35, 1.29226512908935546875e+01) (36, 8.38692855834960937500e+00) (37, -5.00219297409057617188e+00) (38, 3.86708706617355346680e-01) (39, 1.24096431732177734375e+01) (40, 3.82379651069641113281e+00) (41, -3.32585787773132324219e+00) (42, 2.85199189186096191406e+00) (43, 2.79521732330322265625e+01) (44, -5.48453390598297119141e-01) (45, 6.77956295013427734375e+00) (46, -2.96530318260192871094e+00) (47, -1.38681573867797851562e+01) (48, -1.83217182159423828125e+01) (49, -1.29638385772705078125e+01) (50, -2.35309295654296875000e+01) (51, -1.56987962722778320312e+01) (52, -9.05085945129394531250e+00) (53, 2.25832983851432800293e-01) (54, -1.57615222930908203125e+01) (55, -3.55621147900819778442e-03) (56, -2.38553714752197265625e+01) (57, -1.52475271224975585938e+01) (58, -1.95270023345947265625e+01) (59, 3.96190333366394042969e+00) (60, 1.43562040328979492188e+01) (61, -4.80492162704467773438e+00) (62, 1.32301664352416992188e+00) (63, 2.51462535858154296875e+01) (64, 1.12237882614135742188e+01) (65, 4.48400688171386718750e+00) (66, -9.72537612915039062500e+00) (67, 4.42219114303588867188e+00) (68, 2.78549900054931640625e+01) (69, 3.41239380836486816406e+00) (70, -2.08602333068847656250e+00) (71, 8.99780750274658203125e+00) (72, -3.20541024208068847656e+00) (73, 6.94369745254516601562e+00) (74, -7.53870829939842224121e-02) (75, 4.62413930892944335938e+00) (76, 1.93814659118652343750e+01) (77, 1.47056543827056884766e+00) (78, 6.78911685943603515625e+00) (79, -9.18683719635009765625e+00) (80, 3.06434273719787597656e+00) (81, -6.69303274154663085938e+00) (82, -3.03350811004638671875e+01) (22, -6.61423301696777343750e+00) (23, 7.93237066268920898438e+00) (24, -3.99442076683044433594e+00) (25, 5.54662179946899414062e+00) (26, -3.98316860198974609375e+00) (27, 2.63517069816589355469e+00) (28, -4.48912382125854492188e-01) (29, 6.50223636627197265625e+00) (30, -1.18037700653076171875e+01) (31, -6.58745861053466796875e+00) (32, 2.72923016548156738281e+00) (33, -1.25322885513305664062e+01) (34, -1.19449806213378906250e+01) (35, 6.38394546508789062500e+00) (36, -1.03504238128662109375e+01) (37, 3.06978392601013183594e+00) (38, -7.96551179885864257812e+00) (39, 5.50785207748413085938e+00) (40, 2.50301003456115722656e+00) (41, -7.60358762741088867188e+00) (42, -9.12661170959472656250e+00) (43, 1.94611968994140625000e+01) (44, 7.22948455810546875000e+00) (45, -1.47672319412231445312e+01) (46, -2.60746449232101440430e-01) (47, -1.08399267196655273438e+01) (48, 1.88139331340789794922e+00) (49, -6.22345495223999023438e+00) (50, -1.11328248977661132812e+01) (51, 6.33638954162597656250e+00) (52, 1.00519925355911254883e-01) (53, -3.32106852531433105469e+00) (54, 4.61785507202148437500e+00) (55, -2.46260285377502441406e+00) (56, -1.32213392257690429688e+01) (57, -3.43349003791809082031e+00) (58, 3.40377783775329589844e+00) (59, -6.11116790771484375000e+00) (60, 1.19794607162475585938e+01) (61, 2.05538582801818847656e+00) (62, 6.05007469654083251953e-01) (63, 1.88678474426269531250e+01) (64, 7.96428537368774414062e+00) (65, -1.00531997680664062500e+01) (66, 9.18694496154785156250e+00) (67, 2.06476764678955078125e+01) (68, 1.91493644714355468750e+01) (69, 6.56442701816558837891e-01) (70, -5.05776262283325195312e+00) (71, -4.48570632934570312500e+00) (72, 9.26356410980224609375e+00) (73, -5.90502166748046875000e+00) (74, -1.55180943012237548828e+00) (75, 9.70894396305084228516e-01) (76, 6.18485307693481445312e+00) (77, 1.43968057632446289062e+01) (78, 4.83819484710693359375e+00) (79, -5.56501865386962890625e+00) (80, 1.05064563751220703125e+01) (81, -3.97151541709899902344e+00) (82, -2.21180915832519531250e+01) (22, -3.33566832542419433594e+00) (23, -8.84221172332763671875e+00) (24, 1.28194376826286315918e-01) (25, 1.12006597518920898438e+01) (26, 4.94653129577636718750e+00) (27, 5.20416915416717529297e-01) (28, -7.76425457000732421875e+00) (29, 7.32847034931182861328e-01) (30, -3.85917282104492187500e+00) (31, 2.71804690361022949219e+00) (32, -8.71617317199707031250e+00) (33, -8.15317821502685546875e+00) (34, -6.84077322483062744141e-01) (35, -5.48331081867218017578e-01) (36, -1.40482819080352783203e+00) (37, 4.05271917581558227539e-01) (38, 9.60516071319580078125e+00) (39, -9.84536457061767578125e+00) (40, 1.99291019439697265625e+01) (41, -5.41548824310302734375e+00) (42, 2.77107977867126464844e+00) (43, 1.28104705810546875000e+01) (44, 4.91979837417602539062e+00) (45, -8.65235328674316406250e+00) (46, -8.41049730777740478516e-01) (47, -1.68342475891113281250e+01) (48, -3.47393512725830078125e-01) (49, -1.50754392147064208984e+00) (50, -1.01834068298339843750e+01) (51, -1.18372642993927001953e+00) (52, 6.28507673740386962891e-01) (53, -3.32105565071105957031e+00) (54, -4.70941495895385742188e+00) (55, -3.18272143602371215820e-01) (56, -1.54031410217285156250e+01) (57, 2.04399514198303222656e+00) (58, 5.04438281059265136719e-01) (59, 2.43490815162658691406e+00) (60, 9.83203983306884765625e+00) (61, -1.19074761867523193359e+00) (62, -1.16459503173828125000e+01) (63, 1.98537178039550781250e+01) (64, -6.27691078186035156250e+00) (65, -1.46119117736816406250e+00) (66, -5.56801605224609375000e+00) (67, -5.89178657531738281250e+00) (68, 1.34506645202636718750e+01) (69, -2.46693348884582519531e+00) (70, 3.40398454666137695312e+00) (71, 2.99234127998352050781e+00) (72, 1.18042683601379394531e+00) (73, -1.50034463405609130859e+00) (74, -9.57146808505058288574e-02) (75, -2.06749987602233886719e+00) (76, -1.00711040496826171875e+01) (77, -3.06524825096130371094e+00) (78, 7.58063030242919921875e+00) (79, -7.84488248825073242188e+00) (80, -5.92821180820465087891e-01) (81, -4.19925785064697265625e+00) (82, -1.50496025085449218750e+01) (22, -6.59274148941040039062e+00) (23, -5.07168006896972656250e+00) (24, -4.48381471633911132812e+00) (25, -1.79560222625732421875e+01) (26, -4.14987659454345703125e+00) (27, -6.70780515670776367188e+00) (28, 1.05833892822265625000e+01) (29, 9.64785957336425781250e+00) (30, 1.68119945526123046875e+01) (31, 3.72557222843170166016e-01) (32, -4.35482120513916015625e+00) (33, 8.15970325469970703125e+00) (34, -3.95928335189819335938e+00) (35, -1.12669384479522705078e+00) (36, -4.33601284027099609375e+00) (37, -2.72398042678833007812e+00) (38, -1.00375909805297851562e+01) (39, 1.20263586044311523438e+01) (40, -7.78601455688476562500e+00) (41, 2.54153728485107421875e+01) (42, 9.73327732086181640625e+00) (43, 2.88286533355712890625e+01) (44, -3.77532386779785156250e+00) (45, -8.32283049821853637695e-02) (46, 2.87021875381469726562e+00) (47, -1.76332530975341796875e+01) (48, 5.62123680114746093750e+00) (49, -1.44597787857055664062e+01) (50, -1.90867938995361328125e+01) (51, 2.62064599990844726562e+00) (52, 7.70559597015380859375e+00) (53, 3.32991433143615722656e+00) (54, 1.45526301860809326172e+00) (55, -8.30255603790283203125e+00) (56, -1.82329387664794921875e+01) (57, -5.37348127365112304688e+00) (58, -9.62592697143554687500e+00) (59, -4.74394321441650390625e-01) (60, 1.90314273834228515625e+01) (61, -3.78884410858154296875e+00) (62, -7.38081550598144531250e+00) (63, 2.16678905487060546875e+01) (64, 9.57168865203857421875e+00) (65, 2.91634130477905273438e+00) (66, -8.32612323760986328125e+00) (67, 9.33314800262451171875e+00) (68, 2.40836429595947265625e+01) (69, -5.94467067718505859375e+00) (70, 7.90830564498901367188e+00) (71, -9.89873349666595458984e-01) (72, 1.06931362152099609375e+01) (73, -3.70631408691406250000e+00) (74, -1.80045652389526367188e+00) (75, -2.15549898147583007812e+00) (76, 8.05831718444824218750e+00) (77, 5.08173036575317382812e+00) (78, -3.54141378402709960938e+00) (79, 5.77827215194702148438e+00) (80, -1.48090925216674804688e+01) (81, -1.43364114761352539062e+01) (82, -2.76231594085693359375e+01) (22, 5.01389598846435546875e+00) (23, 3.24205696582794189453e-01) (24, 1.21338548660278320312e+01) (25, 7.35637569427490234375e+00) (26, 6.33396816253662109375e+00) (27, 6.45925104618072509766e-01) (28, 5.71975469589233398438e-01) (29, 1.11948242187500000000e+01) (30, 2.14343762397766113281e+00) (31, 6.42181539535522460938e+00) (32, -1.48991861343383789062e+01) (33, 9.58241176605224609375e+00) (34, 7.05202245712280273438e+00) (35, 5.86804342269897460938e+00) (36, -4.42618560791015625000e+00) (37, -1.47657096385955810547e+00) (38, -4.80839848518371582031e-01) (39, 1.52300155162811279297e+00) (40, -5.55678844451904296875e+00) (41, 6.27437019348144531250e+00) (42, 6.06803417205810546875e+00) (43, 1.47317037582397460938e+01) (44, 1.17165565490722656250e+01) (45, -8.54363822937011718750e+00) (46, -2.13990736007690429688e+00) (47, -1.00802621841430664062e+01) (48, -4.17547082901000976562e+00) (49, 1.09928054809570312500e+01) (50, -1.16576595306396484375e+01) (51, 1.66551434993743896484e+00) (52, -1.30939607620239257812e+01) (53, -1.13846187591552734375e+01) (54, -1.18569602966308593750e+01) (55, -2.64358967542648315430e-01) (56, -1.34552869796752929688e+01) (57, 2.39519476890563964844e+00) (58, -3.32673120498657226562e+00) (59, 6.13830327987670898438e-01) (60, 1.93213367462158203125e+01) (61, 1.77356195449829101562e+00) (62, -1.17723532021045684814e-02) (63, 1.46674642562866210938e+01) (64, 4.96882724761962890625e+00) (65, 4.84263610839843750000e+00) (66, -1.69996023178100585938e+00) (67, -5.63914823532104492188e+00) (68, 1.51199636459350585938e+01) (69, -1.43184646964073181152e-01) (70, -2.56490945816040039062e+00) (71, -5.76334810256958007812e+00) (72, -2.74090242385864257812e+00) (73, 5.86065578460693359375e+00) (74, 5.27768564224243164062e+00) (75, -1.75690814852714538574e-01) (76, 1.41566169261932373047e+00) (77, 3.93999505043029785156e+00) (78, 1.48912010192871093750e+01) (79, 9.03563117980957031250e+00) (80, 1.83000043034553527832e-01) (81, -9.51783239841461181641e-01) (82, -1.73323192596435546875e+01) (22, 9.76296138763427734375e+00) (23, -1.00670232772827148438e+01) (24, -7.99935698509216308594e-01) (25, -1.85123443603515625000e+01) (26, -3.53228163719177246094e+00) (27, -6.34107542037963867188e+00) (28, -2.58230257034301757812e+00) (29, -2.50577044486999511719e+00) (30, 6.46314764022827148438e+00) (31, 1.12134647369384765625e+01) (32, 3.80698919296264648438e-01) (33, 8.67573547363281250000e+00) (34, -1.63731575012207031250e+00) (35, 7.09208726882934570312e-01) (36, 4.48619222640991210938e+00) (37, 7.25284194946289062500e+00) (38, 4.08329963684082031250e-02) (39, -2.51255106925964355469e+00) (40, -7.73282384872436523438e+00) (41, 3.49503302574157714844e+00) (42, -1.51001200079917907715e-01) (43, 1.96475753784179687500e+01) (44, -1.39536409378051757812e+01) (45, 1.29702720642089843750e+01) (46, -3.17836308479309082031e+00) (47, -1.37352752685546875000e+01) (48, 2.66393637657165527344e+00) (49, -1.55943775177001953125e+00) (50, -2.04205379486083984375e+01) (51, -7.81502819061279296875e+00) (52, 4.31456947326660156250e+00) (53, 1.27945461273193359375e+01) (54, -1.31535959243774414062e+00) (55, 8.54274368286132812500e+00) (56, -2.00579471588134765625e+01) (57, 8.15152359008789062500e+00) (58, -2.45593953132629394531e+00) (59, 2.58240401744842529297e-01) (60, 1.56297397613525390625e+01) (61, -6.06834948062896728516e-01) (62, -1.74353194236755371094e+00) (63, 2.31798191070556640625e+01) (64, -5.00533866882324218750e+00) (65, 7.74422311782836914062e+00) (66, -9.50032138824462890625e+00) (67, -9.55366516113281250000e+00) (68, 2.40476245880126953125e+01) (69, 4.63114547729492187500e+00) (70, -6.91020786762237548828e-01) (71, -5.81486701965332031250e+00) (72, 2.53024905920028686523e-01) (73, -2.31161546707153320312e+00) (74, 3.25177979469299316406e+00) (75, 5.17083930969238281250e+00) (76, -1.07481088638305664062e+01) (77, 3.22295570373535156250e+00) (78, -8.89799976348876953125e+00) (79, 7.96682834625244140625e-01) (80, -9.16894817352294921875e+00) (81, 4.24017488956451416016e-01) (82, -2.50683536529541015625e+01) (22, 3.57295656204223632812e+00) (23, -8.73393440246582031250e+00) (24, -1.01629266738891601562e+01) (25, 6.59644985198974609375e+00) (26, 6.84170341491699218750e+00) (27, 8.93706989288330078125e+00) (28, 4.39584207534790039062e+00) (29, -2.17171454429626464844e+00) (30, -3.42489051818847656250e+00) (31, 3.47876071929931640625e+00) (32, -2.59164786338806152344e+00) (33, -2.06442189216613769531e+00) (34, -3.12448740005493164062e+00) (35, 1.29124283790588378906e+00) (36, -3.33206176757812500000e+00) (37, -7.92919492721557617188e+00) (38, -5.18456983566284179688e+00) (39, -3.78128767013549804688e+00) (40, -4.71037775278091430664e-01) (41, 1.10679111480712890625e+01) (42, -5.21803045272827148438e+00) (43, 2.05598468780517578125e+01) (44, -3.90734815597534179688e+00) (45, -9.83521270751953125000e+00) (46, -9.14454638957977294922e-01) (47, -6.70279073715209960938e+00) (48, -4.07656717300415039062e+00) (49, -1.25070810317993164062e+01) (50, -1.97617778778076171875e+01) (51, 3.90682792663574218750e+00) (52, 8.35754203796386718750e+00) (53, 3.14271020889282226562e+00) (54, -8.25968170166015625000e+00) (55, 3.61737346649169921875e+00) (56, -1.82719306945800781250e+01) (57, 3.06839489936828613281e+00) (58, 6.53218889236450195312e+00) (59, -6.85184764862060546875e+00) (60, 1.52654352188110351562e+01) (61, -6.79079484939575195312e+00) (62, -5.18068981170654296875e+00) (63, 1.94647350311279296875e+01) (64, -6.04999637603759765625e+00) (65, 2.73502588272094726562e+00) (66, -1.24141521751880645752e-01) (67, 9.46516633033752441406e-01) (68, 2.11408901214599609375e+01) (69, 1.86548292636871337891e+00) (70, 4.21880054473876953125e+00) (71, 5.98712205886840820312e+00) (72, -2.55895233154296875000e+00) (73, 4.66786241531372070312e+00) (74, -7.30394649505615234375e+00) (75, -9.07071971893310546875e+00) (76, 1.25151510238647460938e+01) (77, -1.24488010406494140625e+01) (78, -4.16379928588867187500e+00) (79, -5.02089738845825195312e+00) (80, 2.01246128082275390625e+01) (81, 9.38784217834472656250e+00) (82, -2.35735874176025390625e+01) (22, -5.81024980545043945312e+00) (23, -5.02485132217407226562e+00) (24, -1.81271827220916748047e+00) (25, 1.18090744018554687500e+01) (26, -4.04302507638931274414e-01) (27, 3.57793545722961425781e+00) (28, -1.34915695190429687500e+01) (29, -5.82376241683959960938e+00) (30, -3.52312207221984863281e+00) (31, -1.09713783264160156250e+01) (32, 6.47923707962036132812e+00) (33, 7.91905403137207031250e+00) (34, 3.22033643722534179688e+00) (35, -4.78494310379028320312e+00) (36, 6.51317358016967773438e+00) (37, 4.07877206802368164062e-01) (38, 2.06638455390930175781e+00) (39, 1.05319633483886718750e+01) (40, -2.32954597473144531250e+00) (41, -9.71010780334472656250e+00) (42, 2.16421699523925781250e+00) (43, 1.79961757659912109375e+01) (44, 1.02164115905761718750e+01) (45, -2.53582024574279785156e+00) (46, 1.22079315185546875000e+01) (47, -1.01746501922607421875e+01) (48, 2.72081828117370605469e+00) (49, -9.73313522338867187500e+00) (50, -1.73555717468261718750e+01) (51, 5.06525182723999023438e+00) (52, -1.29287898540496826172e+00) (53, -1.85178470611572265625e+00) (54, -2.00489854812622070312e+00) (55, 4.89846408367156982422e-01) (56, -1.74798393249511718750e+01) (57, -7.37090444564819335938e+00) (58, -1.73520302772521972656e+00) (59, -8.60527420043945312500e+00) (60, 1.12495727539062500000e+01) (61, -4.76150083541870117188e+00) (62, 2.24945068359375000000e+00) (63, 1.54584884643554687500e+01) (64, 1.95572197437286376953e+00) (65, 5.90643763542175292969e-01) (66, 4.31448888778686523438e+00) (67, -9.40751647949218750000e+00) (68, 1.99718379974365234375e+01) (69, 1.33539791107177734375e+01) (70, 3.41541504859924316406e+00) (71, -1.46106834411621093750e+01) (72, 2.23972344398498535156e+00) (73, -1.78862810134887695312e+00) (74, 7.62390470504760742188e+00) (75, 2.52460002899169921875e+00) (76, -1.30231304168701171875e+01) (77, 4.84067583084106445312e+00) (78, -2.97120237350463867188e+00) (79, -1.23213577270507812500e+01) (80, -1.21309070587158203125e+01) (81, 7.04945802688598632812e+00) (82, -2.18932266235351562500e+01) (22, -6.80313169956207275391e-01) (23, 3.72416734695434570312e+00) (24, -1.59987175464630126953e+00) (25, -8.33441162109375000000e+00) (26, -5.24838089942932128906e-01) (27, 2.46237468719482421875e+00) (28, -2.50524616241455078125e+00) (29, 6.96517038345336914062e+00) (30, -4.31142854690551757812e+00) (31, 1.17271614074707031250e+00) (32, -1.01450986862182617188e+01) (33, -4.42516469955444335938e+00) (34, -2.51956987380981445312e+00) (35, -4.19196081161499023438e+00) (36, 1.42123484611511230469e+00) (37, 2.10379743576049804688e+00) (38, 1.86203587800264358521e-02) (39, -2.81786680221557617188e-01) (40, 1.19720292091369628906e+00) (41, -1.71137447357177734375e+01) (42, 7.91707420349121093750e+00) (43, 1.61654376983642578125e+01) (44, 1.08767509460449218750e+01) (45, -8.58762454986572265625e+00) (46, 1.93471014499664306641e+00) (47, -1.08187904357910156250e+01) (48, 1.23060913085937500000e+01) (49, 1.05814247131347656250e+01) (50, -1.93065872192382812500e+01) (51, -1.09023141860961914062e+01) (52, 5.59864711761474609375e+00) (53, 4.75009649991989135742e-01) (54, 7.17129802703857421875e+00) (55, 2.65987396240234375000e+00) (56, -1.23720169067382812500e+01) (57, -1.60981976985931396484e+00) (58, 3.44564771652221679688e+00) (59, -8.70348155498504638672e-01) (60, 7.86934804916381835938e+00) (61, 5.01805496215820312500e+00) (62, -3.12682360410690307617e-01) (63, 1.84410743713378906250e+01) (64, -5.64090299606323242188e+00) (65, 2.80796480178833007812e+00) (66, 8.89497184753417968750e+00) (67, 9.06155395507812500000e+00) (68, 1.73493423461914062500e+01) (69, 8.61489105224609375000e+00) (70, 4.67751026153564453125e+00) (71, 1.97857487201690673828e+00) (72, 5.93574810028076171875e+00) (73, -2.03006219863891601562e+00) (74, 4.71155071258544921875e+00) (75, 9.65030670166015625000e+00) (76, -8.67115783691406250000e+00) (77, -4.06868076324462890625e+00) (78, -2.69281625747680664062e+00) (79, 5.19204497337341308594e-01) (80, -6.01173019409179687500e+00) (81, 2.65869855880737304688e+00) (82, -2.05505352020263671875e+01) (22, 1.07154893875122070312e+01) (23, -3.74411773681640625000e+00) (24, -1.13677892684936523438e+01) (25, 2.64815692901611328125e+01) (26, 1.00891685485839843750e+01) (27, -5.97173929214477539062e+00) (28, -2.21074253320693969727e-01) (29, -9.20264434814453125000e+00) (30, -1.05328273773193359375e+01) (31, -1.05584249496459960938e+01) (32, 1.12068166732788085938e+01) (33, 9.10810089111328125000e+00) (34, 8.44096660614013671875e-01) (35, 4.85319566726684570312e+00) (36, 5.73537683486938476562e+00) (37, -7.88812112808227539062e+00) (38, 1.75868816375732421875e+01) (39, -1.29994001388549804688e+01) (40, -2.20124149322509765625e+00) (41, 3.73640775680541992188e+00) (42, -2.31389069557189941406e+00) (43, 2.56485252380371093750e+01) (44, -3.73838901519775390625e+00) (45, -2.40066146850585937500e+00) (46, -8.32124328613281250000e+00) (47, -1.57541122436523437500e+01) (48, -7.03363084793090820312e+00) (49, 6.71386957168579101562e+00) (50, -2.00084381103515625000e+01) (51, 6.77891492843627929688e+00) (52, 1.62689244747161865234e+00) (53, 5.86619806289672851562e+00) (54, -9.57260417938232421875e+00) (55, 7.88465452194213867188e+00) (56, -1.66043643951416015625e+01) (57, 7.41500997543334960938e+00) (58, 1.18755397796630859375e+01) (59, 4.34138345718383789062e+00) (60, 1.05170307159423828125e+01) (61, 6.92874574661254882812e+00) (62, -1.62952363491058349609e+00) (63, 2.49351882934570312500e+01) (64, -2.69149160385131835938e+00) (65, 5.46243429183959960938e-01) (66, 1.89380097389221191406e+00) (67, -4.35299015045166015625e+00) (68, 2.62994956970214843750e+01) (69, -1.48339354991912841797e+00) (70, -1.16031866073608398438e+01) (71, -1.00781497955322265625e+01) (72, -3.11255741119384765625e+00) (73, -5.53693342208862304688e+00) (74, -1.08758964538574218750e+01) (75, 9.06026363372802734375e-02) (76, -1.42755880355834960938e+01) (77, -3.23461413383483886719e+00) (78, -6.42917966842651367188e+00) (79, -2.52743482589721679688e+00) (80, 9.89082813262939453125e+00) (81, -1.90098595619201660156e+00) (82, -2.84515762329101562500e+01) (22, 2.70476603507995605469e+00) (23, -3.39321970939636230469e+00) (24, 8.10735607147216796875e+00) (25, -1.35746812820434570312e+01) (26, -7.42064380645751953125e+00) (27, -3.37875485420227050781e+00) (28, 2.24757075309753417969e+00) (29, 1.51040506362915039062e+00) (30, -1.42054929733276367188e+01) (31, 7.22951316833496093750e+00) (32, 7.62886524200439453125e+00) (33, -4.77898502349853515625e+00) (34, -2.98203778266906738281e+00) (35, -8.15052986145019531250e-01) (36, 2.85127568244934082031e+00) (37, -3.60192894935607910156e+00) (38, -1.23368749618530273438e+01) (39, 1.04253664016723632812e+01) (40, -2.10817193984985351562e+00) (41, 2.59055304527282714844e+00) (42, 1.23668947219848632812e+01) (43, 1.43193960189819335938e+01) (44, -1.09969005584716796875e+01) (45, 4.17422294616699218750e+00) (46, 6.60180187225341796875e+00) (47, -1.37658681869506835938e+01) (48, -1.50431299209594726562e+00) (49, -1.30764064788818359375e+01) (50, -1.62398548126220703125e+01) (51, -7.88869953155517578125e+00) (52, 6.72449052333831787109e-01) (53, -3.41956734657287597656e+00) (54, 1.85007514953613281250e+01) (55, 1.16851682662963867188e+01) (56, -1.49146089553833007812e+01) (57, -8.36251640319824218750e+00) (58, -5.55633783340454101562e-01) (59, -4.84954261779785156250e+00) (60, 1.33683996200561523438e+01) (61, -1.10335407257080078125e+01) (62, -3.71273446083068847656e+00) (63, 1.84808731079101562500e+01) (64, 1.82576906681060791016e+00) (65, -5.50895512104034423828e-01) (66, 5.16632175445556640625e+00) (67, 2.38859581947326660156e+00) (68, 1.73666305541992187500e+01) (69, 5.47166061401367187500e+00) (70, 2.30741810798645019531e+00) (71, -2.33430266380310058594e+00) (72, -1.30617151260375976562e+01) (73, -3.32787364721298217773e-01) (74, 1.18921864032745361328e+00) (75, -2.50750374794006347656e+00) (76, -2.60651755332946777344e+00) (77, 3.67457842826843261719e+00) (78, -5.86693000793457031250e+00) (79, 1.51096324920654296875e+01) (80, -1.80337476730346679688e+00) (81, -4.36520004272460937500e+00) (82, -1.96369533538818359375e+01) (22, 1.43654155731201171875e+01) (23, -9.65635657310485839844e-01) (24, -5.92396211624145507812e+00) (25, -1.83328345417976379395e-01) (26, -2.12641048431396484375e+00) (27, 2.38487362861633300781e+00) (28, -3.29691100120544433594e+00) (29, 4.41978836059570312500e+00) (30, -7.34548807144165039062e+00) (31, -5.07232046127319335938e+00) (32, 6.49811506271362304688e+00) (33, -9.96915817260742187500e+00) (34, -5.48036336898803710938e+00) (35, 3.56775426864624023438e+00) (36, 2.83691287040710449219e-01) (37, -4.95666563510894775391e-02) (38, -3.57603406906127929688e+00) (39, -2.96816325187683105469e+00) (40, 5.09738969802856445312e+00) (41, -1.93111479282379150391e+00) (42, -9.84732913970947265625e+00) (43, 2.35245285034179687500e+01) (44, -2.24357581138610839844e+00) (45, 9.50452995300292968750e+00) (46, -1.56376945972442626953e+00) (47, -7.38503122329711914062e+00) (48, -1.50307159423828125000e+01) (49, 8.15443611145019531250e+00) (50, -1.74418525695800781250e+01) (51, 1.05170650482177734375e+01) (52, -2.99213719367980957031e+00) (53, 9.49726581573486328125e-01) (54, 1.14172859191894531250e+01) (55, -1.67848980426788330078e+00) (56, -1.63974933624267578125e+01) (57, -9.64796733856201171875e+00) (58, -2.24052023887634277344e+00) (59, -7.32649326324462890625e+00) (60, 1.63711566925048828125e+01) (61, 1.20693063735961914062e+00) (62, 4.01341438293457031250e+00) (63, 2.21038398742675781250e+01) (64, 1.77434489130973815918e-01) (65, -2.64091229438781738281e+00) (66, 8.44567108154296875000e+00) (67, 4.49314451217651367188e+00) (68, 2.31301422119140625000e+01) (69, -3.69255995750427246094e+00) (70, -7.68570899963378906250e-01) (71, -4.55891275405883789062e+00) (72, -1.36053752899169921875e+01) (73, -1.02671737670898437500e+01) (74, -2.03827172517776489258e-01) (75, -1.17958126068115234375e+01) (76, 1.73212680816650390625e+01) (77, 2.89086127281188964844e+00) (78, 1.30574426651000976562e+01) (79, -7.11633205413818359375e+00) (80, 3.89719319343566894531e+00) (81, 8.07662296295166015625e+00) (82, -2.51269454956054687500e+01) (22, 3.80390310287475585938e+00) (23, -1.18039369583129882812e+01) (24, -7.62224817276000976562e+00) (25, -5.09687840938568115234e-01) (26, 3.03843855857849121094e+00) (27, 6.96029067039489746094e-01) (28, 7.17698931694030761719e-01) (29, 1.64162960052490234375e+01) (30, 1.51168127059936523438e+01) (31, 6.56742095947265625000e+00) (32, 3.64717930555343627930e-01) (33, -8.19732093811035156250e+00) (34, 4.87475109100341796875e+00) (35, -3.15826606750488281250e+00) (36, 2.59773588180541992188e+00) (37, 8.18042874336242675781e-01) (38, -1.08730516433715820312e+01) (39, -8.65532302856445312500e+00) (40, 3.46878957748413085938e+00) (41, 1.44852676391601562500e+01) (42, 1.04472951889038085938e+01) (43, 2.28375511169433593750e+01) (44, -1.21099348068237304688e+01) (45, 5.22740364074707031250e+00) (46, -4.04392004013061523438e+00) (47, -1.27265195846557617188e+01) (48, 1.23795866966247558594e+00) (49, 5.55060267448425292969e-01) (50, -2.26068267822265625000e+01) (51, -4.76554393768310546875e+00) (52, 1.02966947555541992188e+01) (53, -8.54923820495605468750e+00) (54, 9.60878467559814453125e+00) (55, -7.53115701675415039062e+00) (56, -3.05552139282226562500e+01) (57, 1.53173322677612304688e+01) (58, -6.44255924224853515625e+00) (59, 5.09482192993164062500e+00) (60, 1.67950191497802734375e+01) (61, 1.62083721160888671875e+00) (62, -1.02014398574829101562e+01) (63, 2.73856430053710937500e+01) (64, -1.00806541442871093750e+01) (65, 1.09259235858917236328e+00) (66, -4.81220531463623046875e+00) (67, 2.23742753267288208008e-01) (68, 2.50774383544921875000e+01) (69, -7.60779714584350585938e+00) (70, 5.76055240631103515625e+00) (71, -7.49017000198364257812e+00) (72, -1.58002614974975585938e+01) (73, -1.27565536499023437500e+01) (74, 1.81720685958862304688e+00) (75, -9.80737113952636718750e+00) (76, 4.57205343246459960938e+00) (77, -5.96838951110839843750e+00) (78, 6.52600622177124023438e+00) (79, 1.12068014144897460938e+01) (80, -1.01338982582092285156e+00) (81, 1.23534917831420898438e+01) (82, -2.68574447631835937500e+01) (22, 9.56261634826660156250e+00) (23, 3.52492737770080566406e+00) (24, -6.88330173492431640625e+00) (25, -4.15013670921325683594e-01) (26, 1.28189718723297119141e+00) (27, 8.30730020999908447266e-01) (28, 8.84914016723632812500e+00) (29, 1.49985587596893310547e+00) (30, 1.48670780658721923828e+00) (31, -3.92537927627563476562e+00) (32, 2.35897707939147949219e+00) (33, 6.32850456237792968750e+00) (34, 1.19132912158966064453e+00) (35, 3.57600855827331542969e+00) (36, -6.85934543609619140625e+00) (37, -5.39759540557861328125e+00) (38, -4.32818746566772460938e+00) (39, 2.94622254371643066406e+00) (40, -8.50358581542968750000e+00) (41, -2.64070820808410644531e+00) (42, 4.57391071319580078125e+00) (43, 1.95250091552734375000e+01) (44, -3.89580726623535156250e+00) (45, 5.92119026184082031250e+00) (46, -9.63836383819580078125e+00) (47, -1.45645828247070312500e+01) (48, -1.83532953262329101562e+00) (49, -5.45435190200805664062e+00) (50, -1.91926918029785156250e+01) (51, 6.37539911270141601562e+00) (52, 6.44922733306884765625e+00) (53, 3.29482030868530273438e+00) (54, -1.59312176704406738281e+00) (55, 9.24050271511077880859e-01) (56, -1.72467403411865234375e+01) (57, 3.77064156532287597656e+00) (58, -7.76588296890258789062e+00) (59, 2.61408829689025878906e+00) (60, 1.35734100341796875000e+01) (61, -2.21107825636863708496e-01) (62, -6.10545015335083007812e+00) (63, 2.44979476928710937500e+01) (64, 3.43037581443786621094e+00) (65, -1.22196254730224609375e+01) (66, 2.58841180801391601562e+00) (67, 1.35201704502105712891e+00) (68, 2.45769653320312500000e+01) (69, 3.19727635383605957031e+00) (70, 2.76750802993774414062e+00) (71, 3.72265458106994628906e+00) (72, -1.00662908554077148438e+01) (73, -5.69754934310913085938e+00) (74, -7.61925029754638671875e+00) (75, -1.10337233543395996094e+00) (76, 9.46666049957275390625e+00) (77, 1.94457268714904785156e+00) (78, -7.38582229614257812500e+00) (79, -5.38892650604248046875e+00) (80, 1.60886802673339843750e+01) (81, 6.31562530994415283203e-01) (82, -2.64572525024414062500e+01) (22, -1.52490720748901367188e+01) (23, -2.75414562225341796875e+00) (24, -3.78770470619201660156e-01) (25, -1.41898763179779052734e+00) (26, -9.68426036834716796875e+00) (27, 5.99861431121826171875e+00) (28, -5.60061454772949218750e-01) (29, -1.10035257339477539062e+01) (30, 9.21215820312500000000e+00) (31, 2.88146018981933593750e+00) (32, 9.12217903137207031250e+00) (33, 7.19016742706298828125e+00) (34, 4.69589233398437500000e+00) (35, 7.85846328735351562500e+00) (36, -2.02056388854980468750e+01) (37, -5.40077590942382812500e+00) (38, -8.74983119964599609375e+00) (39, -6.60899639129638671875e+00) (40, -5.80199813842773437500e+00) (41, -3.19142198562622070312e+00) (42, 6.97773993015289306641e-01) (43, 2.07046966552734375000e+01) (44, 6.59852409362792968750e+00) (45, -3.41083228588104248047e-01) (46, -7.46002864837646484375e+00) (47, -1.66252460479736328125e+01) (48, -2.57034039497375488281e+00) (49, -3.51699781417846679688e+00) (50, -1.11830091476440429688e+01) (51, 2.20016193389892578125e+00) (52, -5.43354606628417968750e+00) (53, -6.23941802978515625000e+00) (54, -2.14389753341674804688e+00) (55, 2.25337362289428710938e+00) (56, -7.95904159545898437500e+00) (57, 4.28436946868896484375e+00) (58, -7.42122364044189453125e+00) (59, -2.49472141265869140625e+00) (60, 1.39561319351196289062e+01) (61, 9.14079475402832031250e+00) (62, -5.17305278778076171875e+00) (63, 1.81664562225341796875e+01) (64, -3.10317301750183105469e+00) (65, 1.12923536300659179688e+01) (66, 5.93586158752441406250e+00) (67, -2.79138803482055664062e+00) (68, 1.99991207122802734375e+01) (69, 7.80693626403808593750e+00) (70, -9.87137317657470703125e+00) (71, -4.69130229949951171875e+00) (72, 1.73557078838348388672e+00) (73, 1.50549316406250000000e+01) (74, -1.57063140869140625000e+01) (75, -7.29739069938659667969e-02) (76, -8.77358531951904296875e+00) (77, 2.60082292556762695312e+00) (78, -9.69578027725219726562e-01) (79, -4.96220970153808593750e+00) (80, 1.08796653747558593750e+01) (81, 3.89906787872314453125e+00) (82, -2.14193439483642578125e+01) (22, 9.01357173919677734375e+00) (23, -1.49769127368927001953e+00) (24, -7.03277063369750976562e+00) (25, -4.53690910339355468750e+00) (26, -4.40580511093139648438e+00) (27, 5.91816604137420654297e-01) (28, -2.47067475318908691406e+00) (29, -2.62303805351257324219e+00) (30, -1.20684461593627929688e+01) (31, 8.33578824996948242188e-01) (32, -9.47888946533203125000e+00) (33, -7.75963830947875976562e+00) (34, 2.01782092452049255371e-01) (35, 2.31237530708312988281e+00) (36, 1.81459510326385498047e+00) (37, 3.43735098838806152344e+00) (38, 4.34988880157470703125e+00) (39, -4.66610622406005859375e+00) (40, 3.86915516853332519531e+00) (41, 4.97747039794921875000e+00) (42, -1.66152775287628173828e+00) (43, 1.84405097961425781250e+01) (44, 9.37245273590087890625e+00) (45, -1.13418359756469726562e+01) (46, -2.26270842552185058594e+00) (47, -1.08104076385498046875e+01) (48, 1.60784232616424560547e+00) (49, 8.54925537109375000000e+00) (50, -1.35585384368896484375e+01) (51, 9.83170688152313232422e-01) (52, -2.14566779136657714844e+00) (53, -7.65255689620971679688e+00) (54, 1.27002086639404296875e+01) (55, 4.15500736236572265625e+00) (56, -1.14388141632080078125e+01) (57, 5.70581912994384765625e+00) (58, 2.66839385032653808594e-01) (59, 3.51202893257141113281e+00) (60, 8.55439090728759765625e+00) (61, 3.85514760017395019531e+00) (62, 2.96906971931457519531e+00) (63, 1.79113655090332031250e+01) (64, -4.84691572189331054688e+00) (65, 9.67067182064056396484e-02) (66, -1.61739292144775390625e+01) (67, 9.31043052673339843750e+00) (68, 1.88855476379394531250e+01) (69, -1.37220478057861328125e+00) (70, -6.90389442443847656250e+00) (71, -3.27176499366760253906e+00) (72, 3.31542801856994628906e+00) (73, -1.37602043151855468750e+00) (74, -7.39434576034545898438e+00) (75, -8.86593723297119140625e+00) (76, -2.77326602935791015625e+01) (77, 1.16909837722778320312e+00) (78, 1.07664954662322998047e+00) (79, 2.74006277322769165039e-01) (80, -2.12833905220031738281e+00) (81, 2.18735885620117187500e+00) (82, -2.14483375549316406250e+01) (22, 1.08128366470336914062e+01) (23, -1.21289980411529541016e+00) (24, -6.93460607528686523438e+00) (25, 1.16905298233032226562e+01) (26, -6.22523117065429687500e+00) (27, -1.15760892629623413086e-01) (28, -8.60030364990234375000e+00) (29, -5.79269707202911376953e-01) (30, 1.66532115936279296875e+01) (31, -1.05706605911254882812e+01) (32, 1.53288841247558593750e+01) (33, 8.16930770874023437500e+00) (34, 1.98198854923248291016e+00) (35, 3.19666838645935058594e+00) (36, -7.21179151535034179688e+00) (37, 2.80249285697937011719e+00) (38, 9.74826908111572265625e+00) (39, 8.30377006530761718750e+00) (40, -9.89026486873626708984e-01) (41, 6.89858198165893554688e+00) (42, -4.92371797561645507812e+00) (43, 1.82262935638427734375e+01) (44, -2.46803689002990722656e+00) (45, 1.24792461395263671875e+01) (46, 8.84640121459960937500e+00) (47, -1.63049468994140625000e+01) (48, -8.31823444366455078125e+00) (49, -1.60821044445037841797e+00) (50, -1.62166862487792968750e+01) (51, 1.75707030296325683594e+00) (52, -1.30138416290283203125e+01) (53, -7.99296426773071289062e+00) (54, -6.65298175811767578125e+00) (55, -7.97308206558227539062e+00) (56, -1.13526916503906250000e+01) (57, -2.96106076240539550781e+00) (58, -9.56724452972412109375e+00) (59, -2.49923205375671386719e+00) (60, 1.03195743560791015625e+01) (61, 2.54107928276062011719e+00) (62, -4.71807241439819335938e+00) (63, 2.13862514495849609375e+01) (64, -5.72271347045898437500e+00) (65, -7.65146589279174804688e+00) (66, -5.04289388656616210938e+00) (67, -8.22236728668212890625e+00) (68, 2.12996006011962890625e+01) (69, -1.32960832118988037109e+00) (70, 4.96883010864257812500e+00) (71, 