FANN_FLO_2.1
num_layers=3
learning_rate=0.700000
connection_rate=1.000000
network_type=0
learning_momentum=0.400000
training_algorithm=0
train_error_function=1
train_stop_function=0
cascade_output_change_fraction=0.010000
quickprop_decay=-0.000100
quickprop_mu=1.750000
rprop_increase_factor=1.200000
rprop_decrease_factor=0.500000
rprop_delta_min=0.000000
rprop_delta_max=50.000000
rprop_delta_zero=0.100000
cascade_output_stagnation_epochs=12
cascade_candidate_change_fraction=0.010000
cascade_candidate_stagnation_epochs=12
cascade_max_out_epochs=150
cascade_min_out_epochs=50
cascade_max_cand_epochs=150
cascade_min_cand_epochs=50
cascade_num_candidate_groups=2
bit_fail_limit=3.49999994039535522461e-01
cascade_candidate_limit=1.00000000000000000000e+03
cascade_weight_multiplier=4.00000005960464477539e-01
cascade_activation_functions_count=10
cascade_activation_functions=3 5 7 8 10 11 14 15 16 17 
cascade_activation_steepnesses_count=4
cascade_activation_steepnesses=2.50000000000000000000e-01 5.00000000000000000000e-01 7.50000000000000000000e-01 1.00000000000000000000e+00 
layer_sizes=22 61 41 
scale_included=0
neurons (num_inputs, activation_function, activation_steepness)=(0, 0, 0.00000000000000000000e+00) (0, 0, 0.00000000000000000000e+00) (0, 0, 0.00000000000000000000e+00) (0, 0, 0.00000000000000000000e+00) (0, 0, 0.00000000000000000000e+00) (0, 0, 0.00000000000000000000e+00) (0, 0, 0.00000000000000000000e+00) (0, 0, 0.00000000000000000000e+00) (0, 0, 0.00000000000000000000e+00) (0, 0, 0.00000000000000000000e+00) (0, 0, 0.00000000000000000000e+00) (0, 0, 0.00000000000000000000e+00) (0, 0, 0.00000000000000000000e+00) (0, 0, 0.00000000000000000000e+00) (0, 0, 0.00000000000000000000e+00) (0, 0, 0.00000000000000000000e+00) (0, 0, 0.00000000000000000000e+00) (0, 0, 0.00000000000000000000e+00) (0, 0, 0.00000000000000000000e+00) (0, 0, 0.00000000000000000000e+00) (0, 0, 0.00000000000000000000e+00) (0, 0, 0.00000000000000000000e+00) (22, 5, 1.00000000000000000000e+00) (22, 5, 1.00000000000000000000e+00) (22, 5, 1.00000000000000000000e+00) (22, 5, 1.00000000000000000000e+00) (22, 5, 1.00000000000000000000e+00) (22, 5, 1.00000000000000000000e+00) (22, 5, 1.00000000000000000000e+00) (22, 5, 1.00000000000000000000e+00) (22, 5, 1.00000000000000000000e+00) (22, 5, 1.00000000000000000000e+00) (22, 5, 1.00000000000000000000e+00) (22, 5, 1.00000000000000000000e+00) (22, 5, 1.00000000000000000000e+00) (22, 5, 1.00000000000000000000e+00) (22, 5, 1.00000000000000000000e+00) (22, 5, 1.00000000000000000000e+00) (22, 5, 1.00000000000000000000e+00) (22, 5, 1.00000000000000000000e+00) (22, 5, 1.00000000000000000000e+00) (22, 5, 1.00000000000000000000e+00) (22, 5, 1.00000000000000000000e+00) (22, 5, 1.00000000000000000000e+00) (22, 5, 1.00000000000000000000e+00) (22, 5, 1.00000000000000000000e+00) (22, 5, 1.00000000000000000000e+00) (22, 5, 1.00000000000000000000e+00) (22, 5, 1.00000000000000000000e+00) (22, 5, 1.00000000000000000000e+00) (22, 5, 1.00000000000000000000e+00) (22, 5, 1.00000000000000000000e+00) (22, 5, 1.00000000000000000000e+00) (22, 5, 1.00000000000000000000e+00) (22, 5, 1.00000000000000000000e+00) (22, 5, 1.00000000000000000000e+00) (22, 5, 1.00000000000000000000e+00) (22, 5, 1.00000000000000000000e+00) (22, 5, 1.00000000000000000000e+00) (22, 5, 1.00000000000000000000e+00) (22, 5, 1.00000000000000000000e+00) (22, 5, 1.00000000000000000000e+00) (22, 5, 1.00000000000000000000e+00) (22, 5, 1.00000000000000000000e+00) (22, 5, 1.00000000000000000000e+00) (22, 5, 1.00000000000000000000e+00) (22, 5, 1.00000000000000000000e+00) (22, 5, 1.00000000000000000000e+00) (22, 5, 1.00000000000000000000e+00) (22, 5, 1.00000000000000000000e+00) (22, 5, 1.00000000000000000000e+00) (22, 5, 1.00000000000000000000e+00) (22, 5, 1.00000000000000000000e+00) (22, 5, 1.00000000000000000000e+00) (22, 5, 1.00000000000000000000e+00) (22, 5, 1.00000000000000000000e+00) (22, 5, 1.00000000000000000000e+00) (22, 5, 1.00000000000000000000e+00) (22, 5, 1.00000000000000000000e+00) (22, 5, 1.00000000000000000000e+00) (22, 5, 1.00000000000000000000e+00) (22, 5, 1.00000000000000000000e+00) (0, 5, 1.00000000000000000000e+00) (61, 5, 1.00000000000000000000e+00) (61, 5, 1.00000000000000000000e+00) (61, 5, 1.00000000000000000000e+00) (61, 5, 1.00000000000000000000e+00) (61, 5, 1.00000000000000000000e+00) (61, 5, 1.00000000000000000000e+00) (61, 5, 1.00000000000000000000e+00) (61, 5, 1.00000000000000000000e+00) (61, 5, 1.00000000000000000000e+00) (61, 5, 1.00000000000000000000e+00) (61, 5, 1.00000000000000000000e+00) (61, 5, 1.00000000000000000000e+00) (61, 5, 1.00000000000000000000e+00) (61, 5, 1.00000000000000000000e+00) (61, 5, 1.00000000000000000000e+00) (61, 5, 1.00000000000000000000e+00) (61, 5, 1.00000000000000000000e+00) (61, 5, 1.00000000000000000000e+00) (61, 5, 1.00000000000000000000e+00) (61, 5, 1.00000000000000000000e+00) (61, 5, 1.00000000000000000000e+00) (61, 5, 1.00000000000000000000e+00) (61, 5, 1.00000000000000000000e+00) (61, 5, 1.00000000000000000000e+00) (61, 5, 1.00000000000000000000e+00) (61, 5, 1.00000000000000000000e+00) (61, 5, 1.00000000000000000000e+00) (61, 5, 1.00000000000000000000e+00) (61, 5, 1.00000000000000000000e+00) (61, 5, 1.00000000000000000000e+00) (61, 5, 1.00000000000000000000e+00) (61, 5, 1.00000000000000000000e+00) (61, 5, 1.00000000000000000000e+00) (61, 5, 1.00000000000000000000e+00) (61, 5, 1.00000000000000000000e+00) (61, 5, 1.00000000000000000000e+00) (61, 5, 1.00000000000000000000e+00) (61, 5, 1.00000000000000000000e+00) (61, 5, 1.00000000000000000000e+00) (61, 5, 1.00000000000000000000e+00) (0, 5, 1.00000000000000000000e+00) 
connections (connected_to_neuron, weight)=(0, -3.48452043533325195312e+00) (1, -7.64260387420654296875e+00) (2, -4.82281875610351562500e+01) (3, 1.35130701065063476562e+01) (4, 4.18302268981933593750e+01) (5, -6.77965879440307617188e+00) (6, -6.88412761688232421875e+00) (7, 1.65999546051025390625e+01) (8, 5.04723777770996093750e+01) (9, -1.46439027786254882812e+01) (10, 1.47714834213256835938e+01) (11, 1.26065540313720703125e+01) (12, -2.83958377838134765625e+01) (13, -3.83265037536621093750e+01) (14, 5.57863950729370117188e+00) (15, 1.71502895355224609375e+01) (16, 3.75047016143798828125e+00) (17, -3.75320892333984375000e+01) (18, -2.89949607849121093750e+01) (19, 2.77668247222900390625e+01) (20, -3.55669212341308593750e+01) (21, -1.02602691650390625000e+01) (0, -1.13057208061218261719e+00) (1, -3.25253868103027343750e+00) (2, -2.10961952209472656250e+01) (3, 7.08752107620239257812e+00) (4, -2.68916168212890625000e+01) (5, -7.84668982028961181641e-01) (6, -1.47205305099487304688e+01) (7, -2.35027198791503906250e+01) (8, -2.69461765289306640625e+01) (9, -3.19351673126220703125e+01) (10, -1.70933113098144531250e+01) (11, -1.72681503295898437500e+01) (12, -1.31577463150024414062e+01) (13, 8.06210327148437500000e+00) (14, 5.94292068481445312500e+00) (15, 1.22254772186279296875e+01) (16, -3.87633371353149414062e+00) (17, 1.35710840225219726562e+01) (18, 6.60005044937133789062e+00) (19, -7.48677015304565429688e-01) (20, 1.26004428863525390625e+01) (21, 1.96757812500000000000e+01) (0, -8.58971595764160156250e+00) (1, 2.29885177612304687500e+01) (2, 1.43160057067871093750e+00) (3, 1.09448680877685546875e+01) (4, 3.44589948654174804688e+00) (5, 1.02729902267456054688e+01) (6, -6.18019676208496093750e+00) (7, 5.55147981643676757812e+00) (8, -1.35795078277587890625e+01) (9, -2.16569519042968750000e+01) (10, -8.62954425811767578125e+00) (11, -5.49557399749755859375e+00) (12, -3.00003128051757812500e+01) (13, -4.59568367004394531250e+01) (14, -9.75358676910400390625e+00) (15, -2.05687179565429687500e+01) (16, -7.26234197616577148438e+00) (17, -2.75348110198974609375e+01) (18, -1.20759792327880859375e+01) (19, -6.55844039916992187500e+01) (20, -1.64403400421142578125e+01) (21, 1.27574815750122070312e+01) (0, 5.21355211734771728516e-01) (1, 6.87561607360839843750e+00) (2, -4.70865249633789062500e+00) (3, -1.99601995944976806641e+00) (4, 1.86168365478515625000e+01) (5, -1.40700922012329101562e+01) (6, 1.06344404220581054688e+01) (7, 1.51444330215454101562e+01) (8, 1.56052827835083007812e+01) (9, -1.33796472549438476562e+01) (10, 3.14918289184570312500e+01) (11, 1.35292406082153320312e+01) (12, 2.86138701438903808594e+00) (13, -2.16097640991210937500e+01) (14, 1.92205581665039062500e+01) (15, 1.91180438995361328125e+01) (16, 2.34444026947021484375e+01) (17, 8.18865776062011718750e+00) (18, -6.42249774932861328125e+00) (19, 9.13867378234863281250e+00) (20, -1.26970109939575195312e+01) (21, -4.05095024108886718750e+01) (0, -1.71311187744140625000e+01) (1, -2.56570577621459960938e-01) (2, -9.59188652038574218750e+00) (3, -4.63047456741333007812e+00) (4, -2.08289012908935546875e+01) (5, 6.58393526077270507812e+00) (6, -1.96699142456054687500e+01) (7, -2.60037612915039062500e+00) (8, -2.08262557983398437500e+01) (9, 2.59751963615417480469e+00) (10, -3.05852718353271484375e+01) (11, 3.83785724639892578125e+00) (12, -1.02482433319091796875e+01) (13, 2.78371620178222656250e+01) (14, -2.46432247161865234375e+01) (15, -2.82004375457763671875e+01) (16, -3.21926994323730468750e+01) (17, -6.47622871398925781250e+00) (18, -2.64184665679931640625e+00) (19, -1.74136543273925781250e+01) (20, 1.03379878997802734375e+01) (21, 5.08257331848144531250e+01) (0, 4.11997222900390625000e+01) (1, 3.08299674987792968750e+01) (2, -3.01955723762512207031e+00) (3, 4.29486198425292968750e+01) (4, 1.02234382629394531250e+01) (5, -1.80108947753906250000e+01) (6, -6.88857746124267578125e+00) (7, 1.03934383392333984375e+01) (8, 1.62269477844238281250e+01) (9, 2.48854751586914062500e+01) (10, 2.35767974853515625000e+01) (11, -1.61692943572998046875e+01) (12, -1.23801202774047851562e+01) (13, 6.06176233291625976562e+00) (14, 1.19284973144531250000e+01) (15, 1.68606300354003906250e+01) (16, 2.25115356445312500000e+01) (17, 8.81773662567138671875e+00) (18, -8.99997329711914062500e+00) (19, 3.40159683227539062500e+01) (20, -1.88100128173828125000e+01) (21, -2.45832843780517578125e+01) (0, 2.89684104919433593750e+01) (1, -5.65698242187500000000e+00) (2, -1.44302396774291992188e+01) (3, 1.66279315948486328125e+01) (4, 1.44530129432678222656e+00) (5, -1.59962186813354492188e+01) (6, 8.20250320434570312500e+00) (7, 2.81981029510498046875e+01) (8, -1.10723936557769775391e+00) (9, -1.24707329273223876953e+00) (10, 8.61984348297119140625e+00) (11, 6.25147342681884765625e+00) (12, -1.33293113708496093750e+01) (13, -1.49169597625732421875e+01) (14, -2.77688312530517578125e+01) (15, 1.22412462234497070312e+01) (16, -1.26791048049926757812e+01) (17, -1.57321643829345703125e+01) (18, -5.05909061431884765625e+00) (19, -8.52045238018035888672e-01) (20, 1.16197242736816406250e+01) (21, -1.00490677356719970703e+00) (0, -9.11106204986572265625e+00) (1, -1.01703035831451416016e+00) (2, -2.69308319091796875000e+01) (3, -5.97546195983886718750e+00) (4, -2.34638862609863281250e+01) (5, -3.11247425079345703125e+01) (6, 1.87073783874511718750e+01) (7, -1.07709217071533203125e+01) (8, -3.17994461059570312500e+01) (9, -1.91296231746673583984e+00) (10, 1.54339218139648437500e+01) (11, 2.25941009521484375000e+01) (12, -5.64562110900878906250e+01) (13, -4.50402450561523437500e+01) (14, 1.52530682086944580078e+00) (15, 2.40157775878906250000e+01) (16, 1.74348564147949218750e+01) (17, -5.91990327835083007812e+00) (18, 1.71211452484130859375e+01) (19, 5.43978691101074218750e+00) (20, -8.97219467163085937500e+00) (21, -2.61358809471130371094e+00) (0, 1.14656066894531250000e+01) (1, 2.23966464996337890625e+01) (2, -7.71733939647674560547e-01) (3, 1.94909400939941406250e+01) (4, 1.29588937759399414062e+01) (5, 1.62878379821777343750e+01) (6, -1.17736911773681640625e+01) (7, 1.04091901779174804688e+01) (8, 1.48487291336059570312e+01) (9, -1.44635410308837890625e+01) (10, -8.43814563751220703125e+00) (11, -1.32827377319335937500e+00) (12, -2.82572231292724609375e+01) (13, 5.30749273300170898438e+00) (14, 2.61420488357543945312e+00) (15, -1.60880680084228515625e+01) (16, -1.10976324081420898438e+01) (17, -1.20944404602050781250e+00) (18, 4.00016517639160156250e+01) (19, 3.69937629699707031250e+01) (20, 1.71124744415283203125e+01) (21, 7.36230373382568359375e+00) (0, -1.49490127563476562500e+01) (1, -2.60616531372070312500e+01) (2, 3.06180267333984375000e+01) (3, -3.75842323303222656250e+01) (4, 2.09029464721679687500e+01) (5, 4.29464912414550781250e+01) (6, 2.72075653076171875000e+01) (7, -5.50524711608886718750e+00) (8, -7.61331844329833984375e+00) (9, 1.67987215518951416016e+00) (10, -1.12840604782104492188e+00) (11, 9.15186405181884765625e+00) (12, -8.19716167449951171875e+00) (13, -1.61011333465576171875e+01) (14, 4.14873361587524414062e+00) (15, -5.53503990173339843750e+00) (16, 1.23259725570678710938e+01) (17, 2.16156253814697265625e+01) (18, -1.77337512969970703125e+01) (19, -2.10569343566894531250e+01) (20, 2.29820370674133300781e+00) (21, -2.94500517845153808594e+00) (0, -9.46688652038574218750e+00) (1, 3.38945817947387695312e+00) (2, 2.46829376220703125000e+01) (3, 6.80908679962158203125e+00) (4, 1.81430358886718750000e+01) (5, 5.82215232849121093750e+01) (6, 3.38935995101928710938e+00) (7, 2.82907199859619140625e+01) (8, 1.90677280426025390625e+01) (9, -3.27073059082031250000e+01) (10, -6.71738433837890625000e+00) (11, 1.23856770992279052734e+00) (12, -2.84244670867919921875e+01) (13, 1.01342225074768066406e+00) (14, 2.27239761352539062500e+01) (15, 1.51349964141845703125e+01) (16, 3.32558860778808593750e+01) (17, 2.02567749023437500000e+01) (18, -3.02985248565673828125e+01) (19, 4.98755073547363281250e+01) (20, -6.45183134078979492188e+00) (21, -1.54787254333496093750e+01) (0, 9.84363365173339843750e+00) (1, 1.97241973876953125000e+01) (2, 6.45865631103515625000e+01) (3, -1.97478027343750000000e+01) (4, 6.09441642761230468750e+01) (5, -1.19762620925903320312e+01) (6, -2.98757610321044921875e+01) (7, 1.40905618667602539062e+01) (8, 2.66695308685302734375e+01) (9, 2.74283099174499511719e+00) (10, 1.58558139801025390625e+01) (11, -1.35040593147277832031e+00) (12, -1.93072376251220703125e+01) (13, -1.22685194015502929688e+01) (14, -1.01579303741455078125e+01) (15, -1.82789154052734375000e+01) (16, -1.23333282470703125000e+01) (17, -7.16938495635986328125e+00) (18, 2.13153877258300781250e+01) (19, -5.13955974578857421875e+00) (20, 1.73301620483398437500e+01) (21, 2.38698577880859375000e+00) (0, 1.34953622817993164062e+01) (1, 7.86284351348876953125e+00) (2, 1.32590227127075195312e+01) (3, 1.03626537322998046875e+00) (4, -3.70068244934082031250e+01) (5, 4.74656391143798828125e+00) (6, -4.91430244445800781250e+01) (7, 5.74503660202026367188e+00) (8, -2.25749564170837402344e+00) (9, -5.60669593811035156250e+01) (10, 1.03053011000156402588e-01) (11, -1.72123980522155761719e+00) (12, 6.01625347137451171875e+00) (13, -1.46734113693237304688e+01) (14, 1.66058826446533203125e+01) (15, 1.36218547821044921875e+01) (16, -5.15834689140319824219e-01) (17, 5.20183105468750000000e+01) (18, -1.67441196441650390625e+01) (19, -6.38200807571411132812e+00) (20, 1.39022169113159179688e+01) (21, -5.72095870971679687500e-01) (0, -8.34761714935302734375e+00) (1, 4.45640373229980468750e+00) (2, -8.97528934478759765625e+00) (3, 5.21414184570312500000e+00) (4, -5.92824506759643554688e+00) (5, 1.08014459609985351562e+01) (6, -4.37871456146240234375e+00) (7, -1.88644180297851562500e+01) (8, -4.62330722808837890625e+00) (9, 9.16501140594482421875e+00) (10, -2.21832389831542968750e+01) (11, -4.81386661529541015625e+00) (12, 1.04946365356445312500e+01) (13, 2.09868049621582031250e+01) (14, -1.58820009231567382812e+01) (15, -3.19921283721923828125e+01) (16, -3.49586143493652343750e+01) (17, -1.62566776275634765625e+01) (18, 3.36995148658752441406e+00) (19, -4.99878692626953125000e+00) (20, 4.98298835754394531250e+00) (21, 3.93674163818359375000e+01) (0, -1.22606601715087890625e+01) (1, -1.38406162261962890625e+01) (2, 2.59444446563720703125e+01) (3, -1.47694647312164306641e+00) (4, 4.18203239440917968750e+01) (5, 6.51860904693603515625e+00) (6, 2.54527664184570312500e+01) (7, -1.10845127105712890625e+01) (8, 1.97926368713378906250e+01) (9, 3.87844200134277343750e+01) (10, -3.50464487075805664062e+00) (11, -1.36597976684570312500e+01) (12, -3.60519752502441406250e+01) (13, 1.09411382675170898438e+01) (14, 6.06852197647094726562e+00) (15, -2.45093307495117187500e+01) (16, -1.03211069107055664062e+01) (17, -1.00079584121704101562e+01) (18, 1.49115860462188720703e+00) (19, -2.58303189277648925781e+00) (20, 1.19838058948516845703e+00) (21, -5.40037155151367187500e+00) (0, 3.02105498313903808594e+00) (1, -1.60936412811279296875e+01) (2, 1.29668540954589843750e+01) (3, -7.69551134109497070312e+00) (4, -1.21941728591918945312e+01) (5, 2.46804885864257812500e+01) (6, 8.21741294860839843750e+00) (7, 7.51562213897705078125e+00) (8, 1.00204429626464843750e+01) (9, -3.79461669921875000000e+00) (10, -2.15950012207031250000e+01) (11, -2.79352607727050781250e+01) (12, 5.63757133483886718750e+00) (13, -6.27338981628417968750e+00) (14, 9.41500949859619140625e+00) (15, 6.30022001266479492188e+00) (16, 1.67526226043701171875e+01) (17, 1.13362193107604980469e+00) (18, 2.81152286529541015625e+01) (19, -1.74575405120849609375e+01) (20, 2.23763446807861328125e+01) (21, -7.56534957885742187500e+00) (0, 1.09011402130126953125e+01) (1, -7.36551952362060546875e+00) (2, 3.26732139587402343750e+01) (3, -1.70003433227539062500e+01) (4, -3.32870140075683593750e+01) (5, 1.85907630920410156250e+01) (6, 4.74685192108154296875e+00) (7, -2.46368923187255859375e+01) (8, -2.37456150054931640625e+01) (9, -3.89250206947326660156e+00) (10, -1.69425940513610839844e+00) (11, -1.87904918193817138672e+00) (12, 2.91835379600524902344e+00) (13, 1.83286082744598388672e+00) (14, -1.26202068328857421875e+01) (15, 2.69354114532470703125e+01) (16, 4.54699172973632812500e+01) (17, -2.62763118743896484375e+01) (18, -1.85000591278076171875e+01) (19, -1.47483214735984802246e-01) (20, 3.76078605651855468750e+00) (21, 2.57773590087890625000e+00) (0, 1.99651756286621093750e+01) (1, 2.70494785308837890625e+01) (2, -2.52935867309570312500e+01) (3, 3.35585927963256835938e+00) (4, 1.68216342926025390625e+01) (5, 6.90430116653442382812e+00) (6, -2.93718166351318359375e+01) (7, 2.51964874267578125000e+01) (8, -3.88058161735534667969e+00) (9, -2.67979373931884765625e+01) (10, 1.58749780654907226562e+01) (11, 5.34649133682250976562e+00) (12, 6.63896512985229492188e+00) (13, 3.87408943176269531250e+01) (14, 1.46522598266601562500e+01) (15, 1.52885112762451171875e+01) (16, -6.48973608016967773438e+00) (17, 1.61328029632568359375e+01) (18, -6.78177690505981445312e+00) (19, -3.16244487762451171875e+01) (20, -4.12891244888305664062e+00) (21, -4.68791151046752929688e+00) (0, -2.75770454406738281250e+01) (1, 2.83973383903503417969e+00) (2, 2.40478610992431640625e+01) (3, 1.75238370895385742188e+00) (4, 1.31195459365844726562e+01) (5, 2.00100612640380859375e+01) (6, 7.22714424133300781250e+00) (7, 2.28500633239746093750e+01) (8, 1.61424922943115234375e+01) (9, 2.41378154754638671875e+01) (10, 7.17858314514160156250e+00) (11, 6.69137096405029296875e+00) (12, -5.66249513626098632812e+00) (13, 1.77366657257080078125e+01) (14, 1.36236276626586914062e+01) (15, -9.97946929931640625000e+00) (16, -1.06631059646606445312e+01) (17, 3.32559967041015625000e+01) (18, 2.75329494476318359375e+01) (19, -1.80823936462402343750e+01) (20, -3.31912589073181152344e+00) (21, -7.03982686996459960938e+00) (0, -6.65505933761596679688e+00) (1, -1.15442276000976562500e+01) (2, -6.68442106246948242188e+00) (3, 1.80175247192382812500e+01) (4, -9.73635101318359375000e+01) (5, 6.17232017517089843750e+01) (6, 7.69934158325195312500e+01) (7, -1.30689506530761718750e+01) (8, -1.33780658245086669922e+00) (9, -2.36277828216552734375e+01) (10, -1.55728435516357421875e+01) (11, -2.14658966064453125000e+01) (12, 1.10926322937011718750e+01) (13, 6.95399236679077148438e+00) (14, 2.93986701965332031250e+00) (15, -3.24200744628906250000e+01) (16, -3.10076122283935546875e+01) (17, -4.56203651428222656250e+00) (18, 2.68606204986572265625e+01) (19, -2.91899318695068359375e+01) (20, 4.46832418441772460938e+00) (21, 2.06861362457275390625e+01) (0, 3.73023071289062500000e+01) (1, -9.66456949710845947266e-01) (2, -3.27428388595581054688e+00) (3, 8.17528057098388671875e+00) (4, 9.77339076995849609375e+00) (5, 3.16522445678710937500e+01) (6, 3.99717750549316406250e+01) (7, -1.28098621368408203125e+01) (8, -7.37892532348632812500e+00) (9, -1.85114252567291259766e+00) (10, -9.00755977630615234375e+00) (11, -1.81363449096679687500e+01) (12, -1.32396554946899414062e+01) (13, 2.07741756439208984375e+01) (14, -8.74351596832275390625e+00) (15, -6.87179517745971679688e+00) (16, 5.38386154174804687500e+00) (17, 5.57232933044433593750e+01) (18, -5.94469785690307617188e+00) (19, 1.49343643188476562500e+01) (20, -9.51360106468200683594e-01) (21, 6.79011249542236328125e+00) (0, 3.33630180358886718750e+00) (1, 7.81875133514404296875e+00) (2, 2.34336681365966796875e+01) (3, -1.09991674423217773438e+01) (4, 5.87928819656372070312e+00) (5, 2.89351272583007812500e+01) (6, -1.47255241870880126953e+00) (7, -3.37116980552673339844e+00) (8, -2.73280944824218750000e+01) (9, -2.33557147979736328125e+01) (10, -2.07656707763671875000e+01) (11, -1.59982042312622070312e+01) (12, 9.66153144836425781250e+00) (13, -2.50502414703369140625e+01) (14, -2.27619972229003906250e+01) (15, -6.14227199554443359375e+00) (16, -1.61280803680419921875e+01) (17, 1.32603445053100585938e+01) (18, -2.20721969604492187500e+01) (19, -9.80969619750976562500e+00) (20, -1.61214847564697265625e+01) (21, 1.30352239608764648438e+01) (0, 1.59624481201171875000e+01) (1, 3.90780715942382812500e+01) (2, 1.23655700683593750000e+00) (3, 4.34358062744140625000e+01) (4, -3.31064491271972656250e+01) (5, -2.41295757293701171875e+01) (6, -1.69924049377441406250e+01) (7, -2.01016311645507812500e+01) (8, 3.10686540603637695312e+00) (9, 3.22953796386718750000e+01) (10, -1.99650406837463378906e+00) (11, -1.28259646892547607422e+00) (12, 6.51401758193969726562e+00) (13, -6.99329614639282226562e-01) (14, 3.45153331756591796875e+00) (15, -4.75274944305419921875e+00) (16, -3.33203458786010742188e+00) (17, 3.07454681396484375000e+01) (18, 5.03936004638671875000e+00) (19, -8.36059856414794921875e+00) (20, -8.11712074279785156250e+00) (21, 6.51467514038085937500e+00) (0, 3.27843815088272094727e-01) (1, -2.23604850769042968750e+01) (2, 3.64701366424560546875e+00) (3, -4.98059120178222656250e+01) (4, -4.50000877380371093750e+01) (5, -1.68293762207031250000e+01) (6, 1.16671657562255859375e+01) (7, 2.74352931976318359375e+01) (8, 2.47200584411621093750e+01) (9, -4.75613212585449218750e+00) (10, -1.29888219833374023438e+01) (11, -1.01214962005615234375e+01) (12, 3.34059143066406250000e+01) (13, 2.76369800567626953125e+01) (14, 1.43033304214477539062e+01) (15, -1.38972196578979492188e+01) (16, -3.53801651000976562500e+01) (17, 5.79734659194946289062e+00) (18, 2.27601222991943359375e+01) (19, -8.22885513305664062500e+00) (20, 4.25729751586914062500e+01) (21, -2.14917778968811035156e+00) (0, 1.10037736892700195312e+01) (1, 9.90662992000579833984e-01) (2, -2.88442516326904296875e+00) (3, -1.05536193847656250000e+01) (4, 3.37140226364135742188e+00) (5, -5.06070671081542968750e+01) (6, -1.87498474121093750000e+01) (7, 2.26889629364013671875e+01) (8, 4.76177597045898437500e+00) (9, 5.40576601028442382812e+00) (10, 1.75111389160156250000e+01) (11, 2.31052589416503906250e+01) (12, -3.64572486877441406250e+01) (13, -7.34362106323242187500e+01) (14, 3.06068038940429687500e+00) (15, -2.68402314186096191406e+00) (16, 3.03669242858886718750e+01) (17, 2.76572799682617187500e+01) (18, -1.53705453872680664062e+01) (19, 4.20247688293457031250e+01) (20, 2.28691220283508300781e+00) (21, -1.40769262313842773438e+01) (0, -4.72409248352050781250e+00) (1, 1.45530014038085937500e+01) (2, -8.46016025543212890625e+00) (3, 8.12059783935546875000e+00) (4, -1.44402389526367187500e+01) (5, -2.25367488861083984375e+01) (6, -9.61199665069580078125e+00) (7, -2.16971969604492187500e+01) (8, 1.46036663055419921875e+01) (9, 1.02053174972534179688e+01) (10, -5.59589385986328125000e+00) (11, -1.03058195114135742188e+01) (12, -6.08138227462768554688e+00) (13, -2.22192058563232421875e+01) (14, -2.47165393829345703125e+00) (15, 2.04942703247070312500e+01) (16, 1.43220500946044921875e+01) (17, -2.49727916717529296875e+01) (18, 1.04795484542846679688e+01) (19, -2.13607540130615234375e+01) (20, -1.79453887939453125000e+01) (21, -7.15351867675781250000e+00) (0, 1.19297437667846679688e+01) (1, -5.75211524963378906250e+00) (2, -1.21833972930908203125e+01) (3, 7.88952410221099853516e-01) (4, 1.61076736450195312500e+01) (5, -3.09630465507507324219e+00) (6, 2.92741203308105468750e+01) (7, -7.25008106231689453125e+00) (8, -2.44244647026062011719e+00) (9, 2.76840438842773437500e+01) (10, 8.54857635498046875000e+00) (11, 1.48588418960571289062e+01) (12, 3.11038665771484375000e+01) (13, 5.47563934326171875000e+00) (14, 7.32359838485717773438e+00) (15, -6.10370635986328125000e+00) (16, 1.32080471515655517578e+00) (17, 4.85959434509277343750e+01) (18, 2.61068916320800781250e+01) (19, 5.02146835327148437500e+01) (20, 2.21968955993652343750e+01) (21, -3.28650522232055664062e+00) (0, 6.66437377929687500000e+01) (1, -1.93567409515380859375e+01) (2, -2.42672195434570312500e+01) (3, -2.83897846937179565430e-01) (4, 1.19309673309326171875e+01) (5, 2.58002109527587890625e+01) (6, -4.33199346065521240234e-01) (7, -2.05107994079589843750e+01) (8, -2.83760929107666015625e+01) (9, -5.12271232604980468750e+01) (10, -2.72613549232482910156e+00) (11, 3.32097053527832031250e-01) (12, 2.11677913665771484375e+01) (13, 1.71854197978973388672e+00) (14, 1.99548416137695312500e+01) (15, -6.89169692993164062500e+00) (16, -1.93867988586425781250e+01) (17, -4.28064041137695312500e+01) (18, -2.71122303009033203125e+01) (19, 1.17975072860717773438e+01) (20, -2.08203372955322265625e+01) (21, 5.60172367095947265625e+00) (0, 1.20901155471801757812e+01) (1, 1.23538885116577148438e+01) (2, -1.24043216705322265625e+01) (3, -8.19675540924072265625e+00) (4, 5.80271530151367187500e+00) (5, 3.90522041320800781250e+01) (6, 1.08449602127075195312e+01) (7, 1.86561012268066406250e+01) (8, 7.10111665725708007812e+00) (9, -9.50052356719970703125e+00) (10, 2.49825210571289062500e+01) (11, 2.11028022766113281250e+01) (12, 6.90664672851562500000e+00) (13, -2.19723129272460937500e+01) (14, -1.09992051124572753906e+00) (15, 6.59241867065429687500e+00) (16, 1.52987861633300781250e+01) (17, -1.06201181411743164062e+01) (18, -1.87960872650146484375e+01) (19, 2.65473670959472656250e+01) (20, 1.70603046417236328125e+01) (21, -2.12977085113525390625e+01) (0, -8.05201816558837890625e+00) (1, 1.96904258728027343750e+01) (2, -2.80739326477050781250e+01) (3, 1.32160024642944335938e+01) (4, 4.05377769470214843750e+00) (5, -2.41857452392578125000e+01) (6, -2.14349822998046875000e+01) (7, 1.39461889266967773438e+01) (8, 5.87480773925781250000e+01) (9, 7.84663057327270507812e+00) (10, -9.85368824005126953125e+00) (11, -3.24832081794738769531e+00) (12, 3.84053015708923339844e+00) (13, 1.29547882080078125000e+01) (14, -3.37254180908203125000e+01) (15, -1.11148490905761718750e+01) (16, -1.70236320495605468750e+01) (17, 2.36170272827148437500e+01) (18, 1.43345308303833007812e+01) (19, -3.81907997131347656250e+01) (20, 5.78545904159545898438e+00) (21, 1.36662092208862304688e+01) (0, -2.85219993591308593750e+01) (1, 3.03431057929992675781e+00) (2, -5.06852874755859375000e+01) (3, 4.17429313659667968750e+01) (4, -7.89850044250488281250e+00) (5, -1.12599344253540039062e+01) (6, 9.69849586486816406250e+00) (7, 9.25689983367919921875e+00) (8, 8.27845573425292968750e+00) (9, -1.47370967864990234375e+01) (10, 1.26685590744018554688e+01) (11, -5.88033974170684814453e-01) (12, 1.82258377075195312500e+01) (13, 4.36729621887207031250e+01) (14, -4.21842432022094726562e+00) (15, -3.28682279586791992188e+00) (16, -9.63357257843017578125e+00) (17, 3.02243442535400390625e+01) (18, -7.75849819183349609375e-01) (19, -9.70378112792968750000e+00) (20, 4.16130790710449218750e+01) (21, -1.34933733940124511719e+00) (0, 3.04468917846679687500e+01) (1, 3.91430778503417968750e+01) (2, -1.77047786712646484375e+01) (3, -3.11160755157470703125e+00) (4, 3.65384025573730468750e+01) (5, 6.34820604324340820312e+00) (6, -1.39376133680343627930e-01) (7, 1.08166825771331787109e+00) (8, -2.81073379516601562500e+01) (9, -6.02524909973144531250e+01) (10, 3.01255455017089843750e+01) (11, 2.55359535217285156250e+01) (12, -1.68151807785034179688e+00) (13, 2.65541591644287109375e+01) (14, 2.51726913452148437500e+00) (15, 2.04871368408203125000e+01) (16, 1.33599605560302734375e+01) (17, 2.37110328674316406250e+01) (18, 3.68092002868652343750e+01) (19, 2.50038594007492065430e-01) (20, 2.38287830352783203125e+01) (21, -4.41549110412597656250e+00) (0, -1.29404363632202148438e+01) (1, -4.14788818359375000000e+01) (2, 2.89338855743408203125e+01) (3, 5.38620996475219726562e+00) (4, 1.15805740356445312500e+01) (5, -1.45043630599975585938e+01) (6, -3.56618690490722656250e+01) (7, -6.66058444976806640625e+00) (8, -1.08749990463256835938e+01) (9, -4.46480560302734375000e+00) (10, 1.61744251847267150879e-01) (11, -1.11416568756103515625e+01) (12, 8.68145179748535156250e+00) (13, 8.54235649108886718750e+00) (14, 7.78767764568328857422e-01) (15, 1.98747081756591796875e+01) (16, -1.24569261074066162109e+00) (17, -1.61108093261718750000e+01) (18, -1.58122711181640625000e+01) (19, -2.20352435111999511719e+00) (20, 9.89610385894775390625e+00) (21, 2.99629068374633789062e+00) (0, 2.12924365997314453125e+01) (1, -5.63342704772949218750e+01) (2, 1.92385177612304687500e+01) (3, 2.07916316986083984375e+01) (4, -4.00957641601562500000e+01) (5, -4.33330612182617187500e+01) (6, -2.14707260131835937500e+01) (7, -1.70319366455078125000e+01) (8, -2.82378311157226562500e+01) (9, -7.31751441955566406250e+00) (10, -2.97525768280029296875e+01) (11, -4.00915527343750000000e+01) (12, -1.73157596588134765625e+01) (13, -2.57066822052001953125e+01) (14, -1.86786708831787109375e+01) (15, 2.20987319946289062500e+01) (16, 1.38977491855621337891e+00) (17, 1.44857969284057617188e+01) (18, -6.83091783523559570312e+00) (19, 3.42342448234558105469e+00) (20, 2.49296875000000000000e+01) (21, 1.23967552185058593750e+01) (0, 2.85856723785400390625e+01) (1, -3.39438056945800781250e+01) (2, -1.76688613891601562500e+01) (3, 1.15797748565673828125e+01) (4, 1.44718945026397705078e+00) (5, 3.01929054260253906250e+01) (6, 1.70439453125000000000e+01) (7, 4.47423267364501953125e+00) (8, 7.49957847595214843750e+00) (9, -5.05241632461547851562e+00) (10, -3.97754907608032226562e+00) (11, -3.31311531066894531250e+01) (12, -2.41269760131835937500e+01) (13, 9.76624965667724609375e+00) (14, 3.98522704839706420898e-01) (15, -7.70397782325744628906e-01) (16, 4.84456872940063476562e+00) (17, 5.10742454528808593750e+01) (18, -4.23614578247070312500e+01) (19, 9.86203460693359375000e+01) (20, -1.20862460136413574219e+00) (21, -6.63087654113769531250e+00) (0, -3.21885261535644531250e+01) (1, -3.28525280952453613281e+00) (2, -1.26449251174926757812e+01) (3, -2.38622635602951049805e-01) (4, -1.09571027755737304688e+01) (5, 2.66251678466796875000e+01) (6, 4.84869003295898437500e+00) (7, -4.50309257507324218750e+01) (8, -3.65204124450683593750e+01) (9, -2.80850982666015625000e+01) (10, -9.04237687587738037109e-01) (11, -3.85052657127380371094e+00) (12, -1.61250591278076171875e+00) (13, 7.19594049453735351562e+00) (14, -5.87160348892211914062e-01) (15, 1.82343235015869140625e+01) (16, 2.06355571746826171875e+01) (17, -2.18782329559326171875e+01) (18, 3.14644241333007812500e+01) (19, 1.00477628707885742188e+01) (20, -1.26964359283447265625e+01) (21, 6.11368799209594726562e+00) (0, -1.41450586318969726562e+01) (1, 7.12854995727539062500e+01) (2, -5.99781322479248046875e+00) (3, 2.00864715576171875000e+01) (4, 2.39529018402099609375e+01) (5, 3.15704727172851562500e+01) (6, 2.12484283447265625000e+01) (7, -5.96049261093139648438e+00) (8, 1.39063673019409179688e+01) (9, 1.35696420669555664062e+01) (10, -2.18861413002014160156e+00) (11, 9.67840373516082763672e-01) (12, 9.93997287750244140625e+00) (13, 8.63677859306335449219e-01) (14, -5.13961839675903320312e+00) (15, -3.82437705993652343750e+01) (16, -7.94096517562866210938e+00) (17, 1.57106983661651611328e+00) (18, 3.01390857696533203125e+01) (19, 1.08648853302001953125e+01) (20, 5.08134365081787109375e+00) (21, 1.13600320816040039062e+01) (0, 8.56421852111816406250e+00) (1, -2.35842838287353515625e+01) (2, -3.42971076965332031250e+01) (3, 1.85747051239013671875e+01) (4, 7.25249328613281250000e+01) (5, -2.50366802215576171875e+01) (6, -2.81707992553710937500e+01) (7, -2.36720585823059082031e+00) (8, -1.34785871505737304688e+01) (9, 5.96623420715332031250e+00) (10, -5.29193782806396484375e+00) (11, 1.03373260498046875000e+01) (12, 3.74001655578613281250e+01) (13, 2.68924522399902343750e+01) (14, -6.84390830993652343750e+00) (15, 1.14331636428833007812e+01) (16, -3.02753391265869140625e+01) (17, 1.71589908599853515625e+01) (18, -2.08810596466064453125e+01) (19, -6.63279485702514648438e+00) (20, 1.37276077270507812500e+01) (21, 4.97559690475463867188e+00) (0, -3.11862602233886718750e+01) (1, -6.65780591964721679688e+00) (2, 1.61425266265869140625e+01) (3, -3.98704171180725097656e+00) (4, -6.75051689147949218750e+00) (5, 3.48014068603515625000e+01) (6, -2.54482250213623046875e+01) (7, -1.27137269973754882812e+01) (8, -4.50995802879333496094e-01) (9, 1.05668087005615234375e+01) (10, 1.08933506011962890625e+01) (11, -1.45171284675598144531e+00) (12, 1.76018047332763671875e+01) (13, -5.47926998138427734375e+00) (14, -1.38708848953247070312e+01) (15, 1.33958339691162109375e+01) (16, 7.73957777023315429688e+00) (17, -2.03335208892822265625e+01) (18, 9.37828826904296875000e+00) (19, 3.25772972106933593750e+01) (20, 1.14703664779663085938e+01) (21, -4.68929910659790039062e+00) (0, 1.40582621097564697266e+00) (1, 1.57353124618530273438e+01) (2, 4.55562171936035156250e+01) (3, -2.21636676788330078125e+01) (4, -4.62780303955078125000e+01) (5, -2.16778678894042968750e+01) (6, -3.76089019775390625000e+01) (7, -2.18872413635253906250e+01) (8, -2.14549350738525390625e+01) (9, -2.47510194778442382812e+00) (10, -2.77074890136718750000e+01) (11, -1.58853511810302734375e+01) (12, 2.62093620300292968750e+01) (13, 4.55704650878906250000e+01) (14, 1.33928518295288085938e+01) (15, 6.08294010162353515625e+00) (16, 2.46739215850830078125e+01) (17, -3.92400588989257812500e+01) (18, -2.51150455474853515625e+01) (19, 1.44190845489501953125e+01) (20, -6.42047882080078125000e+00) (21, -4.42523908615112304688e+00) (0, -6.19137048721313476562e-01) (1, -4.61463584899902343750e+01) (2, -3.33679161071777343750e+01) (3, 6.67956542968750000000e+01) (4, -2.03157672882080078125e+01) (5, -7.84177303314208984375e+00) (6, -3.59322929382324218750e+01) (7, -1.24942369461059570312e+01) (8, 1.13813486099243164062e+01) (9, 1.33530783653259277344e+00) (10, 6.88757610321044921875e+00) (11, 8.87947845458984375000e+00) (12, 1.71039924621582031250e+01) (13, 3.85907411575317382812e+00) (14, -2.96065497398376464844e+00) (15, 1.91977634429931640625e+01) (16, 1.01144285202026367188e+01) (17, 5.03133125305175781250e+01) (18, 1.07328433990478515625e+01) (19, -3.01754093170166015625e+00) (20, 3.70956764221191406250e+01) (21, -3.79092955589294433594e+00) (0, -2.41813068389892578125e+01) (1, -4.25149230957031250000e+01) (2, -5.72688407897949218750e+01) (3, 1.18958721160888671875e+01) (4, 2.48128185272216796875e+01) (5, 3.98487949371337890625e+00) (6, 9.97887551784515380859e-01) (7, 1.40057020187377929688e+01) (8, 3.14154314994812011719e+00) (9, -1.22178916931152343750e+01) (10, -2.57070693969726562500e+01) (11, -1.42040710449218750000e+01) (12, -1.41420221328735351562e+01) (13, 1.31487588882446289062e+01) (14, -7.88502264022827148438e+00) (15, -1.22614431381225585938e+01) (16, -1.65835285186767578125e+00) (17, -3.63202590942382812500e+01) (18, 7.16767883300781250000e+00) (19, 9.34271144866943359375e+00) (20, 2.66436367034912109375e+01) (21, 1.76471481323242187500e+01) (0, -6.53049898147583007812e+00) (1, -3.25179672241210937500e+01) (2, -1.60904521942138671875e+01) (3, -1.11144208908081054688e+01) (4, -1.68077220916748046875e+01) (5, -1.38955450057983398438e+01) (6, -2.34583415985107421875e+01) (7, -5.92496681213378906250e+00) (8, -2.70736169815063476562e+00) (9, -1.18962287902832031250e+01) (10, 4.57668685913085937500e+00) (11, 1.64209973812103271484e+00) (12, 1.30787820816040039062e+01) (13, 3.05123863220214843750e+01) (14, 8.00275707244873046875e+00) (15, -2.91984844207763671875e+00) (16, -2.24068260192871093750e+01) (17, -7.63323745727539062500e+01) (18, -8.63230133056640625000e+00) (19, -1.33691291809082031250e+01) (20, -1.00212001800537109375e+01) (21, 9.29070338606834411621e-02) (0, -6.90595436096191406250e+00) (1, -3.45820465087890625000e+01) (2, -4.71576004028320312500e+01) (3, 5.48870086669921875000e+00) (4, -1.54618511199951171875e+01) (5, -1.25411663055419921875e+01) (6, -1.65589656829833984375e+01) (7, 2.43721408843994140625e+01) (8, 4.74067866802215576172e-01) (9, -2.70782070159912109375e+01) (10, -2.34513139724731445312e+00) (11, -4.91323137283325195312e+00) (12, 2.65919914245605468750e+01) (13, 9.00886344909667968750e+00) (14, 1.04453029632568359375e+01) (15, -4.03790807723999023438e+00) (16, -1.07570543289184570312e+01) (17, -1.83221321105957031250e+01) (18, 1.82166862487792968750e+01) (19, -4.64295148849487304688e+00) (20, -5.14411687850952148438e-01) (21, 1.83769655227661132812e+00) (0, -2.81353778839111328125e+01) (1, 4.35793828964233398438e+00) (2, 1.61781005859375000000e+01) (3, 1.71669635772705078125e+01) (4, -1.99291360378265380859e+00) (5, -5.61886024475097656250e+00) (6, -1.59991359710693359375e+01) (7, -1.60397777557373046875e+01) (8, -3.22579193115234375000e+00) (9, 2.13632488250732421875e+01) (10, -2.06619429588317871094e+00) (11, -1.82962188720703125000e+01) (12, 1.72817478179931640625e+01) (13, -3.26394170522689819336e-01) (14, -2.92447900772094726562e+00) (15, -5.38841009140014648438e+00) (16, -1.37991209030151367188e+01) (17, 1.05177783966064453125e+01) (18, -3.38310146331787109375e+00) (19, 2.35523462295532226562e+00) (20, -2.65440297126770019531e+00) (21, 5.24909400939941406250e+00) (0, 1.96472854614257812500e+01) (1, -2.64686260223388671875e+01) (2, -1.05735578536987304688e+01) (3, -3.02647614479064941406e+00) (4, 6.83766031265258789062e+00) (5, 1.93557560443878173828e+00) (6, -1.43783473968505859375e+00) (7, 6.85776567459106445312e+00) (8, 1.79658222198486328125e+01) (9, -1.02933921813964843750e+01) (10, 9.99561977386474609375e+00) (11, 2.19280090332031250000e+01) (12, -3.50364990234375000000e+01) (13, -1.79873733520507812500e+01) (14, 1.49797801971435546875e+01) (15, 1.19730672836303710938e+01) (16, 1.58945980072021484375e+01) (17, 1.18576526641845703125e+00) (18, 1.83070678710937500000e+01) (19, -4.50883102416992187500e+01) (20, -9.74393558502197265625e+00) (21, -1.06448488235473632812e+01) (0, -8.44327831268310546875e+00) (1, -2.74373302459716796875e+01) (2, -5.60849151611328125000e+01) (3, -2.27518963813781738281e+00) (4, -4.91010589599609375000e+01) (5, 3.64662218093872070312e+00) (6, -2.42410621643066406250e+01) (7, -1.74218726158142089844e+00) (8, 7.98482084274291992188e+00) (9, 1.82758007049560546875e+01) (10, 3.60711383819580078125e+00) (11, -2.06503601074218750000e+01) (12, -2.32102737426757812500e+01) (13, -2.85752716064453125000e+01) (14, 1.44108378887176513672e+00) (15, -3.74159646034240722656e+00) (16, 1.21922578811645507812e+01) (17, -4.70083045959472656250e+00) (18, -1.08322629928588867188e+01) (19, 5.13340377807617187500e+01) (20, 1.77457466125488281250e+01) (21, 1.56323421001434326172e+00) (0, 1.19122304916381835938e+01) (1, 8.35353164672851562500e+01) (2, 5.25388031005859375000e+01) (3, -4.16949272155761718750e+00) (4, 4.25283813476562500000e+00) (5, -6.31331443786621093750e+00) (6, -1.55446443557739257812e+01) (7, -1.46735353469848632812e+01) (8, -3.60479087829589843750e+01) (9, -1.37777500152587890625e+01) (10, 7.76810407638549804688e+00) (11, 1.60972557067871093750e+01) (12, 5.04060630798339843750e+01) (13, 3.37881927490234375000e+01) (14, -9.57652473449707031250e+00) (15, 9.96927642822265625000e+00) (16, -3.37228035926818847656e+00) (17, -1.36580228805541992188e+01) (18, 5.59559345245361328125e+00) (19, 4.05469017028808593750e+01) (20, 2.76326656341552734375e+01) (21, 2.96805119514465332031e+00) (0, 1.87399902343750000000e+01) (1, 2.49413375854492187500e+01) (2, 8.79767990112304687500e+00) (3, -2.47186145782470703125e+01) (4, 8.71066093444824218750e+00) (5, 4.54387245178222656250e+01) (6, 8.85933208465576171875e+00) (7, -2.69602203369140625000e+00) (8, -6.56843423843383789062e+00) (9, -9.64626026153564453125e+00) (10, -2.44147109985351562500e+01) (11, -2.22384376525878906250e+01) (12, 1.01397352218627929688e+01) (13, 1.21608829498291015625e+01) (14, -2.30346903204917907715e-01) (15, -4.53774023056030273438e+00) (16, 1.35113942623138427734e+00) (17, -7.01376628875732421875e+00) (18, 3.51215910911560058594e+00) (19, 2.22126054763793945312e+00) (20, 4.55537147521972656250e+01) (21, 9.26004981994628906250e+00) (0, -1.29795467853546142578e+00) (1, 3.11312236785888671875e+01) (2, 3.73737373352050781250e+01) (3, -6.70295619964599609375e+00) (4, -3.98454780578613281250e+01) (5, -4.98629493713378906250e+01) (6, -3.76567306518554687500e+01) (7, 2.15392799377441406250e+01) (8, 2.24978218078613281250e+01) (9, 4.61199331283569335938e+00) (10, 3.12601776123046875000e+01) (11, 3.71665000915527343750e+01) (12, 1.28389024734497070312e+01) (13, -5.22551155090332031250e+00) (14, -1.05310618877410888672e+00) (15, -1.45045242309570312500e+01) (16, -4.00515937805175781250e+01) (17, 2.34456825256347656250e+01) (18, 9.13738059997558593750e+00) (19, 2.08536357879638671875e+01) (20, 8.04050254821777343750e+00) (21, -1.29199333190917968750e+01) (0, 8.66042912006378173828e-01) (1, 4.15447044372558593750e+01) (2, -5.27500772476196289062e+00) (3, 2.15479373931884765625e+01) (4, 3.41603355407714843750e+01) (5, 1.90860195159912109375e+01) (6, 1.03027219772338867188e+01) (7, -3.07428574562072753906e+00) (8, -1.24261629581451416016e+00) (9, -2.60453433990478515625e+01) (10, -2.74574050903320312500e+01) (11, -2.23289985656738281250e+01) (12, -2.16170368194580078125e+01) (13, -1.54477624893188476562e+01) (14, -3.31970691680908203125e+00) (15, 2.10610599517822265625e+01) (16, 2.66600360870361328125e+01) (17, 2.12171382904052734375e+01) (18, 1.18666753768920898438e+01) (19, -1.08139543533325195312e+01) (20, 1.69397544860839843750e+01) (21, 4.34190368652343750000e+00) (0, 5.48743200302124023438e+00) (1, -1.80581855773925781250e+00) (2, -1.25988807678222656250e+01) (3, -1.00489406585693359375e+01) (4, -6.27605056762695312500e+00) (5, -1.45970993041992187500e+01) (6, 6.03670997619628906250e+01) (7, 4.96350955963134765625e+00) (8, 1.58177709579467773438e+01) (9, -1.01847805082798004150e-01) (10, -6.70461893081665039062e+00) (11, -1.57623291015625000000e+01) (12, -4.55226173400878906250e+01) (13, -3.64939260482788085938e+00) (14, -4.00971269607543945312e+00) (15, 1.85569667816162109375e+00) (16, -5.67928457260131835938e+00) (17, -1.48808717727661132812e+01) (18, -1.65027122497558593750e+01) (19, 3.01423816680908203125e+01) (20, 1.10568561553955078125e+01) (21, 9.80941891670227050781e-01) (0, -1.46704168319702148438e+01) (1, 1.91248917579650878906e+00) (2, 4.94703483581542968750e+00) (3, -3.19066543579101562500e+01) (4, -1.58976211547851562500e+01) (5, -1.30179567337036132812e+01) (6, -1.99484367370605468750e+01) (7, 1.64155483245849609375e+01) (8, 7.97365283966064453125e+00) (9, 1.43453044891357421875e+01) (10, 2.27229251861572265625e+01) (11, 2.20574493408203125000e+01) (12, 1.43283560872077941895e-01) (13, -1.76012172698974609375e+01) (14, -1.32830734252929687500e+01) (15, 8.32034397125244140625e+00) (16, 7.03865575790405273438e+00) (17, 3.82841796875000000000e+01) (18, -5.05623245239257812500e+01) (19, 7.97787551879882812500e+01) (20, -2.88148174285888671875e+01) (21, -1.38104200363159179688e+01) (0, 9.62733030319213867188e-01) (1, -2.24784622192382812500e+01) (2, -3.99102439880371093750e+01) (3, -2.00398216247558593750e+01) (4, 4.20827827453613281250e+01) (5, -2.17217941284179687500e+01) (6, -4.73354034423828125000e+01) (7, -1.46675233840942382812e+01) (8, 2.69951844215393066406e+00) (9, -1.68178677558898925781e-01) (10, 4.31932687759399414062e+00) (11, 1.33891906738281250000e+01) (12, 1.27479162216186523438e+01) (13, -8.54935359954833984375e+00) (14, -9.25909614562988281250e+00) (15, 1.00967817306518554688e+01) (16, 3.33065490722656250000e+01) (17, 2.94471263885498046875e+01) (18, 1.63169670104980468750e+01) (19, 1.39722127914428710938e+01) (20, -2.06665611267089843750e+01) (21, 2.00040173530578613281e+00) (0, 2.49325923919677734375e+01) (1, 3.94179611206054687500e+01) (2, 1.56019926071166992188e+00) (3, -1.67090244293212890625e+01) (4, 2.37291736602783203125e+01) (5, 2.41013603210449218750e+01) (6, 2.71389808654785156250e+01) (7, 5.04612350463867187500e+00) (8, -4.19577312469482421875e+00) (9, 8.24715673923492431641e-01) (10, 2.53451395034790039062e+00) (11, -1.56677436828613281250e+00) (12, -1.63669147491455078125e+01) (13, -2.17461719512939453125e+01) (14, -6.30344581604003906250e+00) (15, -1.89640510082244873047e+00) (16, 1.22477655410766601562e+01) (17, 7.71789216995239257812e+00) (18, -2.27843589782714843750e+01) (19, -1.19817237854003906250e+01) (20, -2.14064826965332031250e+01) (21, -8.43578815460205078125e+00) (0, 1.28938713073730468750e+01) (1, 1.83962268829345703125e+01) (2, 5.23067617416381835938e+00) (3, -9.71882724761962890625e+00) (4, -4.88703823089599609375e+00) (5, -2.69325618743896484375e+01) (6, 2.12263660430908203125e+01) (7, 1.50919542312622070312e+01) (8, 1.89967937469482421875e+01) (9, -3.48840713500976562500e+00) (10, 3.38902168273925781250e+01) (11, 1.51775531768798828125e+01) (12, 1.37979602813720703125e+01) (13, -1.33396959304809570312e+01) (14, 2.59882049560546875000e+01) (15, 3.30314445495605468750e+01) (16, 3.14124240875244140625e+01) (17, 5.52435016632080078125e+00) (18, 1.25414876937866210938e+01) (19, 2.24116306304931640625e+01) (20, -1.50598621368408203125e+00) (21, -5.17804222106933593750e+01) (0, -2.05574817657470703125e+01) (1, -4.21687583923339843750e+01) (2, 9.23736810684204101562e-01) (3, -5.24845542907714843750e+01) (4, -4.70523405075073242188e+00) (5, -3.63954973220825195312e+00) (6, -4.91080284118652343750e+00) (7, 3.60309333801269531250e+01) (8, 4.76023530960083007812e+00) (9, 3.68854904174804687500e+00) (10, -2.40717201232910156250e+01) (11, -3.49378585815429687500e+01) (12, -3.08061809539794921875e+01) (13, 1.85322785377502441406e+00) (14, 1.02663707733154296875e+01) (15, 6.36321496963500976562e+00) (16, 1.96908512115478515625e+01) (17, 4.32810897827148437500e+01) (18, 1.85578536987304687500e+01) (19, 3.48848609924316406250e+01) (20, 2.31674137115478515625e+01) (21, 6.53585386276245117188e+00) (0, -8.59865570068359375000e+00) (1, -6.82211399078369140625e-01) (2, -3.02601695060729980469e+00) (3, -2.15997076034545898438e+00) (4, -2.04418048858642578125e+01) (5, 1.20585250854492187500e+01) (6, -1.01408624649047851562e+01) (7, -8.12070560455322265625e+00) (8, -1.29852142333984375000e+01) (9, 1.41789073944091796875e+01) (10, -2.39963436126708984375e+01) (11, -1.82018833160400390625e+01) (12, -5.88951873779296875000e+00) (13, 1.75182342529296875000e+01) (14, -2.48758869171142578125e+01) (15, -1.78018054962158203125e+01) (16, -2.72184429168701171875e+01) (17, -3.42476558685302734375e+00) (18, -2.52495121955871582031e+00) (19, -2.54264564514160156250e+01) (20, 1.21916599273681640625e+01) (21, 4.70369758605957031250e+01) (0, -1.87699413299560546875e+01) (1, -5.79437332153320312500e+01) (2, -1.89112377166748046875e+01) (3, -9.46169948577880859375e+00) (4, 9.50431919097900390625e+00) (5, -3.28842902183532714844e+00) (6, -1.61359322071075439453e+00) (7, 1.31454677581787109375e+01) (8, -7.71235799789428710938e+00) (9, -2.53638305664062500000e+01) (10, 1.34189331531524658203e+00) (11, 5.33844900131225585938e+00) (12, 4.96090240478515625000e+01) (13, 1.45047016143798828125e+01) (14, -8.42711269855499267578e-01) (15, 5.71090507507324218750e+00) (16, 1.84671096801757812500e+01) (17, -1.64002227783203125000e+01) (18, -3.51984024047851562500e+01) (19, -4.43249435424804687500e+01) (20, 1.67944183349609375000e+01) (21, 4.47514724731445312500e+00) (0, -1.26856737136840820312e+01) (1, -1.28312959671020507812e+01) (2, -4.68396329879760742188e+00) (3, -1.41307039260864257812e+01) (4, 3.62500309944152832031e+00) (5, 5.17411947250366210938e+00) (6, -1.71449584960937500000e+01) (7, -1.80631866455078125000e+01) (8, -1.97863178253173828125e+01) (9, -1.10044689178466796875e+01) (10, -9.23394584655761718750e+00) (11, -5.14210700988769531250e+00) (12, 6.96186733245849609375e+00) (13, 9.53215599060058593750e+00) (14, -1.28794651031494140625e+01) (15, -1.87669868469238281250e+01) (16, -7.52583026885986328125e+00) (17, -1.27235877513885498047e+00) (18, -4.90897560119628906250e+01) (19, 2.15134925842285156250e+01) (20, -6.99736699461936950684e-02) (21, 1.89153461456298828125e+01) (22, 7.83814001083374023438e+00) (23, -9.78356742858886718750e+00) (24, -7.06548309326171875000e+00) (25, 1.17448596954345703125e+01) (26, -1.07437095642089843750e+01) (27, -4.23719787597656250000e+00) (28, 1.18611502647399902344e+00) (29, 9.35329079627990722656e-01) (30, 3.96468186378479003906e+00) (31, 5.23364830017089843750e+00) (32, 1.29031124114990234375e+01) (33, -6.26375484466552734375e+00) (34, -3.01067280769348144531e+00) (35, -8.70796966552734375000e+00) (36, 2.31452369689941406250e+00) (37, 6.11486768722534179688e+00) (38, 3.00809073448181152344e+00) (39, -4.11280345916748046875e+00) (40, 1.35236597061157226562e+00) (41, 6.23644399642944335938e+00) (42, 8.15805435180664062500e+00) (43, -3.33185839653015136719e+00) (44, -6.92683601379394531250e+00) (45, -4.90797710418701171875e+00) (46, 4.38763111829757690430e-01) (47, -5.10034656524658203125e+00) (48, 8.12464332580566406250e+00) (49, 4.32380485534667968750e+00) (50, 1.05438079833984375000e+01) (51, -7.00035762786865234375e+00) (52, 1.74069690704345703125e+00) (53, 3.54455024003982543945e-01) (54, 2.53754496574401855469e+00) (55, -2.93324875831604003906e+00) (56, 6.41606986522674560547e-01) (57, -3.58970165252685546875e+00) (58, -1.09591710567474365234e+00) (59, -1.44535243511199951172e+00) (60, 1.37434873580932617188e+01) (61, -2.53773760795593261719e+00) (62, 8.72788238525390625000e+00) (63, 4.10763740539550781250e+00) (64, -6.10813426971435546875e+00) (65, 4.95609807968139648438e+00) (66, -8.28074836730957031250e+00) (67, -1.64133086800575256348e-01) (68, 7.00982093811035156250e+00) (69, -5.57177448272705078125e+00) (70, 5.03245294094085693359e-01) (71, -6.49756002426147460938e+00) (72, 1.34506225585937500000e+00) (73, 5.43700933456420898438e+00) (74, -5.13960607349872589111e-02) (75, 9.17024612426757812500e+00) (76, 5.31945514678955078125e+00) (77, 1.20454406738281250000e+01) (78, 1.66861224174499511719e+00) (79, -1.03861045837402343750e+01) (80, -1.44762381911277770996e-01) (81, -5.38743925094604492188e+00) (82, -1.19626522064208984375e+01) (22, -1.07572174072265625000e+01) (23, 5.35834491252899169922e-01) (24, -3.95859169960021972656e+00) (25, 8.82091522216796875000e+00) (26, -1.21749658584594726562e+01) (27, -3.18090891838073730469e+00) (28, 4.62666034698486328125e-01) (29, -8.81527328491210937500e+00) (30, 1.55168688297271728516e+00) (31, 5.60777854919433593750e+00) (32, -1.07504882812500000000e+01) (33, 3.88694214820861816406e+00) (34, 5.60980844497680664062e+00) (35, -1.35138559341430664062e+01) (36, 6.01425218582153320312e+00) (37, 6.82056188583374023438e+00) (38, -6.50928115844726562500e+00) (39, 8.80364036560058593750e+00) (40, 6.41312980651855468750e+00) (41, -7.16290616989135742188e+00) (42, 9.57432174682617187500e+00) (43, -4.87229198217391967773e-01) (44, 2.69913148880004882812e+00) (45, -7.15439543128013610840e-02) (46, -1.24258289337158203125e+01) (47, -4.05788093805313110352e-01) (48, -1.31957018375396728516e+00) (49, 1.50288093090057373047e+00) (50, 2.85074973106384277344e+00) (51, 2.39122653007507324219e+00) (52, 1.41358923912048339844e+00) (53, 4.20748805999755859375e+00) (54, 4.35084581375122070312e+00) (55, 1.74542748928070068359e+00) (56, -1.08573780059814453125e+01) (57, -3.32566475868225097656e+00) (58, -1.08152496814727783203e+00) (59, 4.27500677108764648438e+00) (60, 1.02357053756713867188e+01) (61, 4.17789411544799804688e+00) (62, 2.97567057609558105469e+00) (63, -2.47776970267295837402e-01) (64, 9.77713489532470703125e+00) (65, -3.29128193855285644531e+00) (66, -2.00784945487976074219e+00) (67, 6.19609975814819335938e+00) (68, -3.58256888389587402344e+00) (69, 5.59279680252075195312e+00) (70, -1.04793202877044677734e+00) (71, 5.20443677902221679688e+00) (72, -7.23768424987792968750e+00) (73, -5.52986288070678710938e+00) (74, -6.97658681869506835938e+00) (75, 5.98700380325317382812e+00) (76, -3.62350773811340332031e+00) (77, 9.82599353790283203125e+00) (78, 9.05612754821777343750e+00) (79, -7.46819782257080078125e+00) (80, 9.28922593593597412109e-01) (81, -6.28976202011108398438e+00) (82, -1.14608497619628906250e+01) (22, 6.37720632553100585938e+00) (23, -2.04920482635498046875e+00) (24, -6.97668981552124023438e+00) (25, 1.17939701080322265625e+01) (26, -1.32006416320800781250e+01) (27, 2.99796962738037109375e+00) (28, -6.81674361228942871094e-01) (29, 5.11346387863159179688e+00) (30, -7.80175733566284179688e+00) (31, -2.92188644409179687500e-01) (32, -7.17406082153320312500e+00) (33, -9.13431549072265625000e+00) (34, 1.37448266148567199707e-01) (35, -1.00806083679199218750e+01) (36, -8.44264030456542968750e-01) (37, -4.85483980178833007812e+00) (38, 1.03260505199432373047e+00) (39, -8.95084667205810546875e+00) (40, 3.58958125114440917969e-01) (41, -1.41529550552368164062e+01) (42, 6.57689905166625976562e+00) (43, -3.72184634208679199219e+00) (44, -3.93899798393249511719e+00) (45, 1.84831336140632629395e-01) (46, 5.14795732498168945312e+00) (47, -4.11801433563232421875e+00) (48, -1.78823316097259521484e+00) (49, 1.32280111312866210938e+00) (50, 6.48169088363647460938e+00) (51, -5.61909627914428710938e+00) (52, -2.40756511688232421875e-01) (53, 1.07916450500488281250e+00) (54, 1.66289150714874267578e+00) (55, -1.89122259616851806641e+00) (56, 2.44349360466003417969e+00) (57, 8.03221893310546875000e+00) (58, -1.35184812545776367188e+01) (59, 2.14929890632629394531e+00) (60, -8.06677055358886718750e+00) (61, -3.42504620552062988281e+00) (62, 7.30843973159790039062e+00) (63, 4.27870893478393554688e+00) (64, -3.74013447761535644531e+00) (65, 4.81160211563110351562e+00) (66, -4.88630533218383789062e+00) (67, 3.45788741111755371094e+00) (68, 9.89773941040039062500e+00) (69, -6.91223573684692382812e+00) (70, -2.45970273017883300781e+00) (71, -2.98272895812988281250e+00) (72, -6.25390386581420898438e+00) (73, -3.84576678276062011719e-01) (74, 5.16006231307983398438e+00) (75, 3.22837448120117187500e+00) (76, -4.16582822799682617188e-01) (77, 1.49257659912109375000e+01) (78, 6.75970077514648437500e-01) (79, -1.53134822845458984375e+01) (80, 2.34355866909027099609e-01) (81, -7.92427062988281250000e+00) (82, -1.57718563079833984375e+01) (22, 5.81202507019042968750e+00) (23, -1.06104631423950195312e+01) (24, 1.31210699677467346191e-01) (25, 1.30000314712524414062e+01) (26, -1.11805562973022460938e+01) (27, 9.22293245792388916016e-01) (28, 7.24543428421020507812e+00) (29, -1.51035404205322265625e+00) (30, 3.30413722991943359375e+00) (31, -3.86819386482238769531e+00) (32, 1.03729686737060546875e+01) (33, 6.76281642913818359375e+00) (34, 6.96973562240600585938e+00) (35, -1.32415647506713867188e+01) (36, -1.38371884822845458984e+00) (37, 3.18362784385681152344e+00) (38, -7.32540178298950195312e+00) (39, 4.34937429428100585938e+00) (40, 2.23232007026672363281e+00) (41, -1.27585992813110351562e+01) (42, -1.22479772567749023438e+00) (43, -4.42618608474731445312e+00) (44, -2.94563603401184082031e+00) (45, 2.63383060693740844727e-01) (46, 1.62490892410278320312e+00) (47, -1.76046419143676757812e+00) (48, -1.91746503114700317383e-01) (49, -5.85981702804565429688e+00) (50, 8.34261798858642578125e+00) (51, 9.09188175201416015625e+00) (52, 2.87802433967590332031e+00) (53, -2.91301369667053222656e+00) (54, -3.14510732889175415039e-01) (55, -4.70015478134155273438e+00) (56, 6.92684507369995117188e+00) (57, -9.03084850311279296875e+00) (58, -2.17377805709838867188e+00) (59, 3.68474698066711425781e+00) (60, -7.07731008529663085938e+00) (61, -8.51989173889160156250e+00) (62, -1.68785238265991210938e+00) (63, 1.01380224227905273438e+01) (64, -2.68152356147766113281e+00) (65, 7.89554834365844726562e+00) (66, -3.39054274559020996094e+00) (67, 9.62538242340087890625e+00) (68, 6.84189558029174804688e+00) (69, -1.19947757720947265625e+01) (70, -4.60854196548461914062e+00) (71, 8.11092281341552734375e+00) (72, -2.94678235054016113281e+00) (73, 5.32801675796508789062e+00) (74, 2.03904271125793457031e+00) (75, 6.60672569274902343750e+00) (76, -6.39949813485145568848e-02) (77, 1.38160581588745117188e+01) (78, 2.47961068153381347656e+00) (79, -1.25694036483764648438e+01) (80, 4.61875581741333007812e+00) (81, -1.03397264480590820312e+01) (82, -1.69147281646728515625e+01) (22, 5.47155237197875976562e+00) (23, 2.30170273780822753906e+00) (24, 5.83526802062988281250e+00) (25, 1.43580636978149414062e+01) (26, -1.38266897201538085938e+01) (27, 6.65392065048217773438e+00) (28, 1.28002560138702392578e+00) (29, 4.78557443618774414062e+00) (30, 8.91530323028564453125e+00) (31, -6.20270919799804687500e+00) (32, -3.78531187772750854492e-01) (33, -1.97969555854797363281e+00) (34, 1.85720813274383544922e+00) (35, -1.23817472457885742188e+01) (36, -1.88457202911376953125e+00) (37, -2.37376046180725097656e+00) (38, -1.80743181705474853516e+00) (39, 1.01081447601318359375e+01) (40, 4.48407077789306640625e+00) (41, -7.84353876113891601562e+00) (42, 5.00569820404052734375e+00) (43, -1.38595736026763916016e+00) (44, 1.21302795410156250000e+01) (45, -5.80750942230224609375e+00) (46, 4.28447246551513671875e+00) (47, -1.87627077102661132812e+00) (48, -1.36659753322601318359e+00) (49, 2.00625076889991760254e-01) (50, 9.31714153289794921875e+00) (51, 2.45392870903015136719e+00) (52, 5.23976469039916992188e+00) (53, 6.27011394500732421875e+00) (54, 2.21292600035667419434e-01) (55, -6.02499914169311523438e+00) (56, 1.28656828403472900391e+00) (57, -1.39161956310272216797e+00) (58, 9.79152584075927734375e+00) (59, 7.13536119461059570312e+00) (60, -4.85979127883911132812e+00) (61, -4.20144701004028320312e+00) (62, 4.88176107406616210938e+00) (63, 4.10851329565048217773e-01) (64, -6.80886173248291015625e+00) (65, -1.16496670246124267578e+00) (66, -4.26789236068725585938e+00) (67, -9.35660675168037414551e-02) (68, 9.39720034599304199219e-01) (69, -3.12194204330444335938e+00) (70, -9.16129684448242187500e+00) (71, 4.20379161834716796875e+00) (72, 3.52881646156311035156e+00) (73, 2.47326278686523437500e+00) (74, -6.36475563049316406250e+00) (75, 3.37254023551940917969e+00) (76, 5.57252597808837890625e+00) (77, 1.41198301315307617188e+01) (78, -7.41614007949829101562e+00) (79, -1.30246667861938476562e+01) (80, -4.26562595367431640625e+00) (81, -7.26570844650268554688e+00) (82, -1.67627658843994140625e+01) (22, 2.63992214202880859375e+00) (23, -1.16723299026489257812e+00) (24, 3.91142678260803222656e+00) (25, 1.38981037139892578125e+01) (26, -1.28110008239746093750e+01) (27, -3.43255329132080078125e+00) (28, 8.90502071380615234375e+00) (29, 2.50686907768249511719e+00) (30, -8.49697685241699218750e+00) (31, 1.13636646270751953125e+01) (32, 5.18654584884643554688e+00) (33, -1.18805396556854248047e+00) (34, 2.36796021461486816406e+00) (35, -1.28139247894287109375e+01) (36, 7.40832424163818359375e+00) (37, 4.37945795059204101562e+00) (38, 8.30661487579345703125e+00) (39, -1.28362810611724853516e+00) (40, 9.91588771343231201172e-01) (41, -3.54127836227416992188e+00) (42, -3.15780711174011230469e+00) (43, 1.21763670444488525391e+00) (44, -6.80756747722625732422e-01) (45, 2.77233242988586425781e+00) (46, -9.98615074157714843750e+00) (47, 2.85220861434936523438e+00) (48, -1.64153778553009033203e+00) (49, 7.29246711730957031250e+00) (50, 7.21072196960449218750e+00) (51, -6.02704334259033203125e+00) (52, -1.24560356140136718750e+01) (53, 3.25401043891906738281e+00) (54, 8.65695571899414062500e+00) (55, -4.41621017456054687500e+00) (56, -9.38032722473144531250e+00) (57, -1.83413457870483398438e+00) (58, -4.94345378875732421875e+00) (59, -7.57435035705566406250e+00) (60, -3.77252268791198730469e+00) (61, 6.85010957717895507812e+00) (62, -1.28201742172241210938e+01) (63, -2.67520904541015625000e+00) (64, 5.73054122924804687500e+00) (65, -7.67801702022552490234e-01) (66, -8.19942283630371093750e+00) (67, 5.03490495681762695312e+00) (68, -2.03652596473693847656e+00) (69, -7.49908590316772460938e+00) (70, -6.03080451488494873047e-01) (71, -7.82254648208618164062e+00) (72, -5.17435169219970703125e+00) (73, -1.27541124820709228516e+00) (74, -8.46582317352294921875e+00) (75, -8.52077186107635498047e-01) (76, 2.37485790252685546875e+00) (77, 1.12334365844726562500e+01) (78, 2.72501611709594726562e+00) (79, -1.34551429748535156250e+01) (80, 3.56495761871337890625e+00) (81, -6.99995231628417968750e+00) (82, -1.44740161895751953125e+01) (22, 6.21704530715942382812e+00) (23, -2.26431345939636230469e+00) (24, -1.21876132488250732422e+00) (25, 1.45400304794311523438e+01) (26, -1.26149263381958007812e+01) (27, -5.79903364181518554688e+00) (28, 4.45209836959838867188e+00) (29, 5.75924158096313476562e+00) (30, 3.94579863548278808594e+00) (31, 4.64552593231201171875e+00) (32, -4.61539894342422485352e-01) (33, 1.97021770477294921875e+00) (34, -7.94925451278686523438e+00) (35, -1.42360639572143554688e+01) (36, 7.63818645477294921875e+00) (37, 1.94418758153915405273e-01) (38, 2.12186884880065917969e+00) (39, 1.77458333969116210938e+00) (40, 2.02614739537239074707e-01) (41, 1.03038320541381835938e+01) (42, 1.62440335750579833984e+00) (43, -5.16818809509277343750e+00) (44, 4.39293050765991210938e+00) (45, -2.29063200950622558594e+00) (46, -6.08943843841552734375e+00) (47, -4.31449508666992187500e+00) (48, 6.91620397567749023438e+00) (49, 4.81490278244018554688e+00) (50, 7.48392009735107421875e+00) (51, -4.50051879882812500000e+00) (52, -3.32380509376525878906e+00) (53, -1.47392404079437255859e+00) (54, -4.93545383214950561523e-01) (55, 1.61089825630187988281e+00) (56, 8.53066349029541015625e+00) (57, 3.05854201316833496094e+00) (58, 6.34959888458251953125e+00) (59, 3.84999346733093261719e+00) (60, 1.90962922573089599609e+00) (61, -1.03654499053955078125e+01) (62, 1.05085382461547851562e+01) (63, 1.40784654617309570312e+01) (64, 5.37873840332031250000e+00) (65, 3.38959717750549316406e+00) (66, -2.51413750648498535156e+00) (67, -3.84933352470397949219e+00) (68, 2.34714579582214355469e+00) (69, -9.00431251525878906250e+00) (70, 9.44647026062011718750e+00) (71, -8.43175029754638671875e+00) (72, -3.99584054946899414062e-01) (73, 7.26999223232269287109e-01) (74, -1.09252643585205078125e+00) (75, -4.88998126983642578125e+00) (76, -8.89343166351318359375e+00) (77, 1.31762514114379882812e+01) (78, 1.42675614356994628906e+00) (79, -1.22921485900878906250e+01) (80, 4.77139568328857421875e+00) (81, -4.57988786697387695312e+00) (82, -1.44724111557006835938e+01) (22, -6.88587713241577148438e+00) (23, -1.33704328536987304688e+00) (24, -1.18747234344482421875e+01) (25, 1.26271200180053710938e+01) (26, -1.37972459793090820312e+01) (27, 1.88139140605926513672e+00) (28, -1.79386794567108154297e+00) (29, -4.31254911422729492188e+00) (30, -1.36661934852600097656e+00) (31, 4.38497734069824218750e+00) (32, 8.02438926696777343750e+00) (33, 3.75442481040954589844e+00) (34, 2.64528346061706542969e+00) (35, -1.52319231033325195312e+01) (36, -1.06871163845062255859e+00) (37, -2.21418833732604980469e+00) (38, 3.86479353904724121094e+00) (39, -2.15538716316223144531e+00) (40, 1.80463385581970214844e+00) (41, -1.02711591720581054688e+01) (42, 8.59286487102508544922e-01) (43, -8.70380103588104248047e-01) (44, -3.02811980247497558594e+00) (45, 6.86710691452026367188e+00) (46, -8.45662415027618408203e-01) (47, -2.55170559883117675781e+00) (48, -1.30637514591217041016e+00) (49, 6.80930197238922119141e-01) (50, 1.15532655715942382812e+01) (51, -9.99524021148681640625e+00) (52, -4.46190297603607177734e-01) (53, -1.07381868362426757812e+00) (54, 7.94781875610351562500e+00) (55, -2.36816212534904479980e-01) (56, 9.29341411590576171875e+00) (57, 6.83263206481933593750e+00) (58, -4.89792966842651367188e+00) (59, 5.07063293457031250000e+00) (60, 1.65281963348388671875e+00) (61, 2.62849497795104980469e+00) (62, 1.38799381256103515625e+00) (63, -4.70714521408081054688e+00) (64, 3.59593421220779418945e-01) (65, 1.51416957378387451172e+00) (66, -5.29699516296386718750e+00) (67, -4.77080631256103515625e+00) (68, -6.93240785598754882812e+00) (69, 6.82682132720947265625e+00) (70, 4.59563541412353515625e+00) (71, 1.78915858268737792969e+00) (72, -4.59584569931030273438e+00) (73, -5.22270631790161132812e+00) (74, 1.19256334304809570312e+01) (75, 8.90248966217041015625e+00) (76, -1.96917891502380371094e+00) (77, 1.25894937515258789062e+01) (78, 6.10355472564697265625e+00) (79, -1.31387872695922851562e+01) (80, -2.20677390694618225098e-01) (81, -3.63373112678527832031e+00) (82, -1.48938684463500976562e+01) (22, -4.37486314773559570312e+00) (23, -7.56143188476562500000e+00) (24, 5.72731673717498779297e-01) (25, 1.12428131103515625000e+01) (26, -1.59107170104980468750e+01) (27, 6.71432256698608398438e-01) (28, 1.51268768310546875000e+00) (29, -3.86506986618041992188e+00) (30, 4.01465654373168945312e-01) (31, 7.16685676574707031250e+00) (32, -3.88806962966918945312e+00) (33, 6.07036277651786804199e-02) (34, 6.93867397308349609375e+00) (35, -1.38347148895263671875e+01) (36, 5.09934234619140625000e+00) (37, 6.77672195434570312500e+00) (38, -4.90292882919311523438e+00) (39, -9.13623237609863281250e+00) (40, 9.88654494285583496094e-01) (41, -1.04468841552734375000e+01) (42, 1.01617932319641113281e+00) (43, 6.68876266479492187500e+00) (44, -4.88700819015502929688e+00) (45, 1.03396880626678466797e+00) (46, 2.86192131042480468750e+00) (47, 1.77387452125549316406e+00) (48, -1.74666249752044677734e+00) (49, 1.46385955810546875000e+00) (50, 6.97634983062744140625e+00) (51, 4.71444272994995117188e+00) (52, -8.44731235504150390625e+00) (53, -7.23107719421386718750e+00) (54, 2.14759850502014160156e+00) (55, 7.26346969604492187500e-01) (56, -4.01227092742919921875e+00) (57, -6.46379899978637695312e+00) (58, -2.28140234947204589844e+00) (59, 1.03357601165771484375e+00) (60, -4.01746368408203125000e+00) (61, -5.83086395263671875000e+00) (62, -1.49143910408020019531e+00) (63, -2.00800824165344238281e+00) (64, -6.65002250671386718750e+00) (65, -5.17802762985229492188e+00) (66, -3.05781197547912597656e+00) (67, 1.06749753952026367188e+01) (68, -7.12153387069702148438e+00) (69, -7.11598300933837890625e+00) (70, 3.10684776306152343750e+00) (71, -2.43585562705993652344e+00) (72, 6.82218837738037109375e+00) (73, -5.81709718704223632812e+00) (74, 1.37017965316772460938e+00) (75, 5.29438781738281250000e+00) (76, 2.50682282447814941406e+00) (77, 1.51284198760986328125e+01) (78, 6.87698841094970703125e+00) (79, -1.43775444030761718750e+01) (80, -1.34558284282684326172e+00) (81, -7.02328300476074218750e+00) (82, -1.75088462829589843750e+01) (22, 3.95874810218811035156e+00) (23, -6.46912479400634765625e+00) (24, 4.87035155296325683594e-01) (25, 1.48592958450317382812e+01) (26, -1.15551958084106445312e+01) (27, -2.23929375410079956055e-01) (28, -8.30818593502044677734e-01) (29, 1.49583196640014648438e+00) (30, 4.35653114318847656250e+00) (31, -3.26968717575073242188e+00) (32, -2.44779443740844726562e+00) (33, -7.94002437591552734375e+00) (34, -5.16241550445556640625e+00) (35, -1.19144411087036132812e+01) (36, -8.49468326568603515625e+00) (37, -1.44388616085052490234e-01) (38, -4.11799001693725585938e+00) (39, -5.89074134826660156250e+00) (40, 6.18003904819488525391e-01) (41, 8.97968959808349609375e+00) (42, -3.51225161552429199219e+00) (43, -7.15189266204833984375e+00) (44, 1.39161193370819091797e+00) (45, 4.07874011993408203125e+00) (46, -4.30282354354858398438e-01) (47, 7.00899457931518554688e+00) (48, -4.39337825775146484375e+00) (49, 1.63995170593261718750e+00) (50, 8.23381805419921875000e+00) (51, 2.27998757362365722656e+00) (52, 4.71524477005004882812e+00) (53, -1.15576372146606445312e+01) (54, 2.19109749794006347656e+00) (55, -8.79329741001129150391e-01) (56, -2.99277734756469726562e+00) (57, 4.84025001525878906250e+00) (58, -8.23178589344024658203e-01) (59, -7.86991453170776367188e+00) (60, 7.88699245452880859375e+00) (61, 6.39564692974090576172e-01) (62, 1.14109826087951660156e+00) (63, 1.24459047317504882812e+01) (64, 5.13415622711181640625e+00) (65, 2.04167509078979492188e+00) (66, -1.02869760990142822266e+00) (67, 1.91112172603607177734e+00) (68, 6.64638042449951171875e+00) (69, -1.39239692687988281250e+01) (70, -8.29031848907470703125e+00) (71, 7.22404146194458007812e+00) (72, -6.78696918487548828125e+00) (73, -8.43146622180938720703e-01) (74, 7.44352042675018310547e-01) (75, -8.96538066864013671875e+00) (76, 2.40352249145507812500e+00) (77, 1.43931150436401367188e+01) (78, 3.78440594673156738281e+00) (79, -1.39219102859497070312e+01) (80, 9.88662540912628173828e-01) (81, -1.94790017604827880859e+00) (82, -1.57065305709838867188e+01) (22, -4.62557268142700195312e+00) (23, -5.45706129074096679688e+00) (24, -8.54776668548583984375e+00) (25, 7.58739614486694335938e+00) (26, -9.39259338378906250000e+00) (27, 2.89114618301391601562e+00) (28, 3.34835481643676757812e+00) (29, -3.63581466674804687500e+00) (30, -3.66343402862548828125e+00) (31, 6.39366626739501953125e+00) (32, 4.49568605422973632812e+00) (33, 1.27037858963012695312e+00) (34, -8.71723747253417968750e+00) (35, -9.12673950195312500000e+00) (36, 2.78682756423950195312e+00) (37, 3.92471760511398315430e-01) (38, -1.75723588466644287109e+00) (39, -4.46575611829757690430e-01) (40, 3.76158475875854492188e+00) (41, 7.74864625930786132812e+00) (42, 6.09999608993530273438e+00) (43, -2.82613635063171386719e+00) (44, 3.49744498729705810547e-01) (45, -2.84954881668090820312e+00) (46, -4.92239284515380859375e+00) (47, 7.64642536640167236328e-01) (48, 6.81962156295776367188e+00) (49, -1.00204896926879882812e+00) (50, 5.47235155105590820312e+00) (51, -2.32301664352416992188e+00) (52, -2.92396575212478637695e-01) (53, -8.42867910861968994141e-01) (54, 9.88492429256439208984e-01) (55, -2.94475936889648437500e+00) (56, 1.58074283599853515625e+00) (57, -2.88778638839721679688e+00) (58, 4.48316574096679687500e+00) (59, 5.08097934722900390625e+00) (60, -4.43996973335742950439e-02) (61, -1.03873515129089355469e+00) (62, -5.95069789886474609375e+00) (63, 5.92381238937377929688e+00) (64, -3.21703910827636718750e+00) (65, -8.22726726531982421875e+00) (66, -5.45753240585327148438e+00) (67, -5.18560171127319335938e-01) (68, -1.32252178192138671875e+01) (69, -1.16753332316875457764e-01) (70, -8.61636352539062500000e+00) (71, -5.28170156478881835938e+00) (72, -3.93203115463256835938e+00) (73, 3.69260764122009277344e+00) (74, 2.65928363800048828125e+00) (75, -7.20614528656005859375e+00) (76, -3.07799196243286132812e+00) (77, 9.36050891876220703125e+00) (78, 1.37429904937744140625e+00) (79, -9.76590347290039062500e+00) (80, -1.24984467029571533203e+00) (81, -7.54331159591674804688e+00) (82, -1.00677413940429687500e+01) (22, 5.56769323348999023438e+00) (23, -1.02047666907310485840e-01) (24, 2.39418223500251770020e-01) (25, 1.62045726776123046875e+01) (26, -1.59685153961181640625e+01) (27, 5.08156251907348632812e+00) (28, -2.90168970823287963867e-01) (29, 5.52404308319091796875e+00) (30, -1.18775820732116699219e+00) (31, -3.10884070396423339844e+00) (32, 2.37255111336708068848e-01) (33, 9.12431716918945312500e+00) (34, 8.16588401794433593750e+00) (35, -1.65216121673583984375e+01) (36, -3.73310232162475585938e+00) (37, -1.94879424571990966797e+00) (38, -3.62437868118286132812e+00) (39, 2.14472389221191406250e+00) (40, 8.58813405036926269531e-01) (41, -7.01870775222778320312e+00) (42, 1.81054854393005371094e+00) (43, -4.06447124481201171875e+00) (44, -5.35963654518127441406e-01) (45, -6.67916679382324218750e+00) (46, 1.10837879180908203125e+01) (47, 5.10802793502807617188e+00) (48, -5.28956747055053710938e+00) (49, -5.65574944019317626953e-01) (50, 3.92126464843750000000e+00) (51, -2.88336563110351562500e+00) (52, -9.95709514617919921875e+00) (53, -1.17770463228225708008e-01) (54, 4.49341565370559692383e-01) (55, 1.86895573139190673828e+00) (56, 4.08325338363647460938e+00) (57, 1.24639260768890380859e+00) (58, -6.33644294738769531250e+00) (59, -2.97906541824340820312e+00) (60, -1.06442010402679443359e+00) (61, 4.55984979867935180664e-01) (62, 1.32712793350219726562e+00) (63, 8.77260684967041015625e+00) (64, -1.43910610675811767578e+00) (65, -1.07659471035003662109e+00) (66, -5.96443700790405273438e+00) (67, -4.60961389541625976562e+00) (68, 1.98128390312194824219e+00) (69, 2.28975892066955566406e+00) (70, -5.29325199127197265625e+00) (71, 5.37111616134643554688e+00) (72, -3.78453880548477172852e-01) (73, 3.65835905075073242188e+00) (74, 1.02256355285644531250e+01) (75, 4.27775287628173828125e+00) (76, -1.89181315898895263672e+00) (77, 1.54255638122558593750e+01) (78, 5.51511240005493164062e+00) (79, -1.28223228454589843750e+01) (80, -1.17743110656738281250e+01) (81, -1.11533241271972656250e+01) (82, -1.81876029968261718750e+01) (22, 4.03735876083374023438e+00) (23, -1.16229362487792968750e+01) (24, -1.64735393524169921875e+01) (25, 8.56176662445068359375e+00) (26, -8.21227169036865234375e+00) (27, 3.56233048439025878906e+00) (28, -6.63773107528686523438e+00) (29, -9.21107196807861328125e+00) (30, 4.32121801376342773438e+00) (31, -5.20279598236083984375e+00) (32, 9.11350667476654052734e-01) (33, 9.14534282684326171875e+00) (34, -4.10240936279296875000e+00) (35, -9.42033767700195312500e+00) (36, 1.76494169235229492188e+00) (37, -2.50043272972106933594e+00) (38, -5.04583406448364257812e+00) (39, 4.33522605895996093750e+00) (40, 5.10666847229003906250e+00) (41, -7.72687244415283203125e+00) (42, -2.78430938720703125000e+00) (43, -7.07062244415283203125e+00) (44, 4.21515607833862304688e+00) (45, 5.43973016738891601562e+00) (46, -5.36420774459838867188e+00) (47, 3.65209221839904785156e+00) (48, 1.13892755508422851562e+01) (49, -3.27448678016662597656e+00) (50, 3.47481226921081542969e+00) (51, 9.93456268310546875000e+00) (52, 7.89010906219482421875e+00) (53, -5.26202917098999023438e+00) (54, -5.73591470718383789062e-01) (55, -9.44592285156250000000e+00) (56, 1.02536764144897460938e+01) (57, -1.18481674194335937500e+01) (58, 6.01945018768310546875e+00) (59, 2.91916632652282714844e+00) (60, 4.88958120346069335938e+00) (61, -5.09509027004241943359e-01) (62, 2.08512711524963378906e+00) (63, 1.50204658508300781250e+00) (64, -1.58162856101989746094e+00) (65, 4.34444367885589599609e-01) (66, -1.73875427246093750000e+00) (67, -3.39260268211364746094e+00) (68, 5.48363685607910156250e+00) (69, 5.73902845382690429688e+00) (70, -4.59475660324096679688e+00) (71, 3.30743527412414550781e+00) (72, -1.47915470600128173828e+00) (73, -5.66254758834838867188e+00) (74, 9.73431491851806640625e+00) (75, 4.99933099746704101562e+00) (76, 1.86286759376525878906e+00) (77, 7.42486000061035156250e+00) (78, 2.63740181922912597656e+00) (79, -7.86536264419555664062e+00) (80, -6.15500509738922119141e-01) (81, -5.40168762207031250000e+00) (82, -9.02131843566894531250e+00) (22, 6.29431867599487304688e+00) (23, 2.08131551742553710938e+00) (24, -1.13839330673217773438e+01) (25, 1.44665746688842773438e+01) (26, -1.30518598556518554688e+01) (27, 7.63609266281127929688e+00) (28, 2.40036129951477050781e+00) (29, -4.50946664810180664062e+00) (30, -5.71790266036987304688e+00) (31, -6.63757991790771484375e+00) (32, -2.19638872146606445312e+00) (33, -2.01299500465393066406e+00) (34, 4.21832609176635742188e+00) (35, -1.12236242294311523438e+01) (36, -4.90892601013183593750e+00) (37, -6.29477453231811523438e+00) (38, 6.86741471290588378906e-01) (39, 5.36102533340454101562e+00) (40, -1.97144699096679687500e+00) (41, -2.24660205841064453125e+01) (42, 2.80322694778442382812e+00) (43, -2.64164018630981445312e+00) (44, 3.14065551757812500000e+00) (45, 2.08593678474426269531e+00) (46, 1.55417048931121826172e+00) (47, -4.59441393613815307617e-01) (48, 4.97850561141967773438e+00) (49, 6.29379701614379882812e+00) (50, 2.10907363891601562500e+00) (51, -3.15997076034545898438e+00) (52, 3.96436834335327148438e+00) (53, 1.21798563003540039062e+01) (54, 1.41997599601745605469e+00) (55, 5.13493490219116210938e+00) (56, 5.07991504669189453125e+00) (57, 6.04483842849731445312e+00) (58, -3.12260913848876953125e+00) (59, 7.16536760330200195312e+00) (60, 4.48196268081665039062e+00) (61, 3.96773910522460937500e+00) (62, -3.56915044784545898438e+00) (63, 1.09815537929534912109e+00) (64, -8.46964454650878906250e+00) (65, 3.90121293067932128906e+00) (66, -4.21767187118530273438e+00) (67, -5.08700227737426757812e+00) (68, -3.75156879425048828125e+00) (69, 1.00511074066162109375e+01) (70, -5.57558965682983398438e+00) (71, 3.83943343162536621094e+00) (72, 1.24554395675659179688e+01) (73, -6.48811340332031250000e+00) (74, 8.55226898193359375000e+00) (75, 3.02388811111450195312e+00) (76, 2.14362525939941406250e+00) (77, 1.41798124313354492188e+01) (78, -2.71193528175354003906e+00) (79, -1.58758220672607421875e+01) (80, 6.36742591857910156250e+00) (81, -6.66802740097045898438e+00) (82, -1.54032392501831054688e+01) (22, 1.11614389419555664062e+01) (23, -4.45260334014892578125e+00) (24, 1.69386374950408935547e+00) (25, 1.34988813400268554688e+01) (26, -1.42628221511840820312e+01) (27, 8.91367912292480468750e+00) (28, 8.17800331115722656250e+00) (29, 3.21318554878234863281e+00) (30, -7.11278533935546875000e+00) (31, 8.37236118316650390625e+00) (32, 5.08333444595336914062e-01) (33, -9.62624728679656982422e-01) (34, -1.41562576293945312500e+01) (35, -1.38920850753784179688e+01) (36, 4.56952285766601562500e+00) (37, -9.18279838562011718750e+00) (38, 9.52402687072753906250e+00) (39, -4.27507066726684570312e+00) (40, -1.08865537643432617188e+01) (41, -6.29680538177490234375e+00) (42, -2.81483745574951171875e+00) (43, 7.04702675342559814453e-01) (44, -9.84747695922851562500e+00) (45, -1.01173524856567382812e+01) (46, 1.16559100151062011719e+00) (47, 4.95335531234741210938e+00) (48, 2.54752111434936523438e+00) (49, 4.65977764129638671875e+00) (50, 1.03122892379760742188e+01) (51, -6.62532138824462890625e+00) (52, -7.66563796997070312500e+00) (53, -5.82510375976562500000e+00) (54, 3.11046934127807617188e+00) (55, -1.15716910362243652344e+00) (56, 9.83334732055664062500e+00) (57, -2.49753236770629882812e+00) (58, -8.32839870452880859375e+00) (59, -1.62328994274139404297e+00) (60, 5.91641092300415039062e+00) (61, 1.79561221599578857422e+00) (62, -2.88935279846191406250e+00) (63, -1.68070971965789794922e+00) (64, 1.17802047729492187500e+01) (65, -4.31983709335327148438e+00) (66, -5.02854204177856445312e+00) (67, -5.96376514434814453125e+00) (68, -2.21987915039062500000e+00) (69, -2.30298089981079101562e+00) (70, -5.17339515686035156250e+00) (71, -1.52765595912933349609e+00) (72, -1.50352036952972412109e+00) (73, 2.89150905609130859375e+00) (74, 1.03344945907592773438e+01) (75, -1.30089795589447021484e+00) (76, -2.12056890130043029785e-01) (77, 1.36528406143188476562e+01) (78, -3.81204414367675781250e+00) (79, -1.46638250350952148438e+01) (80, -3.15968227386474609375e+00) (81, -3.45193243026733398438e+00) (82, -1.49842786788940429688e+01) (22, -4.32044649124145507812e+00) (23, -2.17206811904907226562e+00) (24, -1.86770772933959960938e+00) (25, 9.75754165649414062500e+00) (26, -9.35458564758300781250e+00) (27, 3.31273865699768066406e+00) (28, -1.47634077072143554688e+00) (29, 3.42074245214462280273e-01) (30, 9.43941879272460937500e+00) (31, -1.11360015869140625000e+01) (32, -6.40226840972900390625e+00) (33, 4.52476453781127929688e+00) (34, -4.27622318267822265625e+00) (35, -6.95688199996948242188e+00) (36, 7.42792606353759765625e+00) (37, 4.31335783004760742188e+00) (38, -3.03819108009338378906e+00) (39, -5.27594518661499023438e+00) (40, 1.09963340759277343750e+01) (41, 6.09144067764282226562e+00) (42, 3.32395339012145996094e+00) (43, -2.76859474182128906250e+00) (44, -1.46141409873962402344e+00) (45, 1.28155541419982910156e+00) (46, -8.73664855957031250000e+00) (47, 6.67669355869293212891e-01) (48, -4.96438121795654296875e+00) (49, 1.01993441581726074219e+00) (50, 2.62316250801086425781e+00) (51, 1.64916813373565673828e+00) (52, -3.81669521331787109375e+00) (53, 3.01001524925231933594e+00) (54, 4.06560087203979492188e+00) (55, -1.88955461978912353516e+00) (56, -1.55280935764312744141e+00) (57, 7.72945213317871093750e+00) (58, 2.95914435386657714844e+00) (59, -1.01793718338012695312e+00) (60, 1.20861780643463134766e+00) (61, -6.27731919288635253906e-01) (62, 7.19410800933837890625e+00) (63, 6.49324178695678710938e+00) (64, 1.04941868782043457031e+00) (65, 4.77522039413452148438e+00) (66, -3.97079634666442871094e+00) (67, 4.08283853530883789062e+00) (68, -1.26308841705322265625e+01) (69, 1.58785772323608398438e+00) (70, -6.86390924453735351562e+00) (71, -1.08313822746276855469e+00) (72, 7.10509109497070312500e+00) (73, -7.80246925354003906250e+00) (74, -2.71898913383483886719e+00) (75, -2.12810754776000976562e+00) (76, -3.81309843063354492188e+00) (77, 9.88532447814941406250e+00) (78, -5.15806674957275390625e+00) (79, -9.70603370666503906250e+00) (80, -8.57848930358886718750e+00) (81, -1.74926071166992187500e+01) (82, -1.07152309417724609375e+01) (22, -8.71323645114898681641e-01) (23, -1.49986171722412109375e+00) (24, -8.08364009857177734375e+00) (25, 9.03071212768554687500e+00) (26, -9.03212261199951171875e+00) (27, 8.07944488525390625000e+00) (28, 8.69299697875976562500e+00) (29, 3.42165619134902954102e-01) (30, -2.35042023658752441406e+00) (31, -3.06312680244445800781e+00) (32, -3.35094666481018066406e+00) (33, -1.00235681533813476562e+01) (34, 2.70900082588195800781e+00) (35, -8.92272758483886718750e+00) (36, -4.40226703882217407227e-01) (37, 3.86487990617752075195e-01) (38, 7.11516857147216796875e-01) (39, 7.65948295593261718750e+00) (40, 2.41856217384338378906e+00) (41, 2.21919298171997070312e+00) (42, 7.19563579559326171875e+00) (43, -8.14433956146240234375e+00) (44, 7.30015134811401367188e+00) (45, 3.96390485763549804688e+00) (46, -3.87236624956130981445e-01) (47, 3.69359850883483886719e+00) (48, 3.35309147834777832031e+00) (49, 1.03076410293579101562e+01) (50, 2.03724193572998046875e+00) (51, -3.41440349817276000977e-01) (52, -4.00354909896850585938e+00) (53, 2.31042519211769104004e-01) (54, 3.24197077751159667969e+00) (55, 2.32071185111999511719e+00) (56, 5.80366230010986328125e+00) (57, 3.18099713325500488281e+00) (58, -5.64518737792968750000e+00) (59, 3.54993343353271484375e+00) (60, -4.58901643753051757812e+00) (61, 5.36778450012207031250e+00) (62, 3.52673220634460449219e+00) (63, 6.08121395111083984375e+00) (64, 7.46102380752563476562e+00) (65, 3.61092925071716308594e+00) (66, -7.33911418914794921875e+00) (67, 4.56325149536132812500e+00) (68, 3.33018279075622558594e+00) (69, -2.64171004295349121094e+00) (70, -2.35396313667297363281e+00) (71, -2.87570166587829589844e+00) (72, -3.25128960609436035156e+00) (73, 3.27417063713073730469e+00) (74, 3.82059168815612792969e+00) (75, 9.19326305389404296875e+00) (76, -1.57372045516967773438e+00) (77, 8.91174983978271484375e+00) (78, 2.38123154640197753906e+00) (79, -8.94503593444824218750e+00) (80, 5.13193988800048828125e+00) (81, -6.57987880706787109375e+00) (82, -9.60642051696777343750e+00) (22, 2.83352255821228027344e+00) (23, -1.88326025009155273438e+00) (24, 4.48819017410278320312e+00) (25, 1.45443468093872070312e+01) (26, -1.32389936447143554688e+01) (27, -3.43244290351867675781e+00) (28, 3.40865778923034667969e+00) (29, -1.10562496185302734375e+01) (30, -1.00597057342529296875e+01) (31, -4.25013065338134765625e+00) (32, 5.63829183578491210938e+00) (33, 5.59521913528442382812e+00) (34, 3.33482831716537475586e-01) (35, -1.25663995742797851562e+01) (36, -1.90775346755981445312e+00) (37, -2.86790156364440917969e+00) (38, -2.05826306343078613281e+00) (39, 5.87659931182861328125e+00) (40, -6.72629117965698242188e+00) (41, 7.98958659172058105469e-01) (42, -3.85870528221130371094e+00) (43, 5.05827569961547851562e+00) (44, -1.07965345382690429688e+01) (45, -1.70667159557342529297e+00) (46, -3.34558415412902832031e+00) (47, -1.06528329849243164062e+01) (48, -6.29367113113403320312e+00) (49, 6.42869472503662109375e+00) (50, 1.40947284698486328125e+01) (51, -3.35057663917541503906e+00) (52, 5.78551816940307617188e+00) (53, 7.35821580886840820312e+00) (54, -4.99400758743286132812e+00) (55, -4.91877031326293945312e+00) (56, -5.93374776840209960938e+00) (57, 3.11846947669982910156e+00) (58, -3.13647675514221191406e+00) (59, 2.45323491096496582031e+00) (60, 6.97260499000549316406e-01) (61, 9.04292774200439453125e+00) (62, -2.17619585990905761719e+00) (63, 7.96160548925399780273e-02) (64, 5.15568590164184570312e+00) (65, 2.35176920890808105469e+00) (66, -8.52568912506103515625e+00) (67, -4.06238698959350585938e+00) (68, -5.07673501968383789062e+00) (69, 5.92834806442260742188e+00) (70, -1.07474994659423828125e+00) (71, 2.70435094833374023438e+00) (72, 3.95620775222778320312e+00) (73, -3.55069947242736816406e+00) (74, -4.45059633255004882812e+00) (75, -8.41061687469482421875e+00) (76, -2.06892776489257812500e+00) (77, 1.48810377120971679688e+01) (78, -1.11782789230346679688e+01) (79, -1.40486288070678710938e+01) (80, 4.80643796920776367188e+00) (81, -6.18645966053009033203e-01) (82, -1.48723917007446289062e+01) (22, 6.50812768936157226562e+00) (23, 4.09891068935394287109e-01) (24, -3.32515150308609008789e-01) (25, 1.16890707015991210938e+01) (26, -1.34796514511108398438e+01) (27, 7.75202703475952148438e+00) (28, 5.53880405426025390625e+00) (29, 9.97311115264892578125e+00) (30, 5.77306890487670898438e+00) (31, -5.44462013244628906250e+00) (32, 1.17439043521881103516e+00) (33, 5.16806173324584960938e+00) (34, -8.10639476776123046875e+00) (35, -1.38762159347534179688e+01) (36, -4.82358789443969726562e+00) (37, 3.82604908943176269531e+00) (38, 4.29343414306640625000e+00) (39, -2.43030428886413574219e+00) (40, -1.73011434078216552734e+00) (41, -8.73124217987060546875e+00) (42, -2.42140197753906250000e+00) (43, -6.41131544113159179688e+00) (44, 1.74123700708150863647e-02) (45, -9.21715068817138671875e+00) (46, 8.35061073303222656250e+00) (47, 3.35509610176086425781e+00) (48, 2.51417469978332519531e+00) (49, -3.02205204963684082031e+00) (50, 7.35802936553955078125e+00) (51, -4.44037771224975585938e+00) (52, -2.71525788307189941406e+00) (53, 6.60995960235595703125e+00) (54, -4.84742432832717895508e-01) (55, 1.73771321773529052734e+00) (56, -1.51506125926971435547e+00) (57, 7.82937717437744140625e+00) (58, -3.82483077049255371094e+00) (59, -2.19659399986267089844e+00) (60, 5.06910133361816406250e+00) (61, 2.32428240776062011719e+00) (62, 3.52664685249328613281e+00) (63, 8.23206996917724609375e+00) (64, 5.05748414993286132812e+00) (65, -2.72677493095397949219e+00) (66, -8.69453430175781250000e+00) (67, 4.90990018844604492188e+00) (68, 9.70564424991607666016e-01) (69, -6.86879587173461914062e+00) (70, -1.73732623457908630371e-01) (71, -9.27356433868408203125e+00) (72, 7.15413045883178710938e+00) (73, -2.75597125291824340820e-01) (74, -3.78711111843585968018e-02) (75, 9.37225246429443359375e+00) (76, -4.16452693939208984375e+00) (77, 1.23725576400756835938e+01) (78, 6.34032344818115234375e+00) (79, -1.31770696640014648438e+01) (80, 6.18695378303527832031e-01) (81, -6.88872528076171875000e+00) (82, -1.38925619125366210938e+01) (22, -2.57780909538269042969e+00) (23, -2.25904798507690429688e+00) (24, -3.30626636743545532227e-01) (25, 9.95220661163330078125e+00) (26, -1.06936769485473632812e+01) (27, 4.50705051422119140625e+00) (28, 2.09990239143371582031e+00) (29, 2.58472800254821777344e+00) (30, 7.73087978363037109375e+00) (31, -3.84620261192321777344e+00) (32, -1.17561650276184082031e+00) (33, -1.18105440139770507812e+01) (34, 1.59187987446784973145e-01) (35, -1.40711526870727539062e+01) (36, 1.13496518135070800781e+00) (37, 1.04615974426269531250e+01) (38, 5.97546768188476562500e+00) (39, 2.33746147155761718750e+00) (40, -1.89755702018737792969e+00) (41, 4.95574092864990234375e+00) (42, 7.54079151153564453125e+00) (43, 1.24792933464050292969e+00) (44, 1.09356327056884765625e+01) (45, -3.49177885055541992188e+00) (46, -1.62953960895538330078e+00) (47, 3.63492584228515625000e+00) (48, -1.95603871345520019531e+00) (49, -4.44777202606201171875e+00) (50, 8.77851772308349609375e+00) (51, 8.17828774452209472656e-01) (52, 3.99219655990600585938e+00) (53, -4.50417995452880859375e+00) (54, -1.22094500064849853516e+00) (55, -7.24574279785156250000e+00) (56, -1.19011640548706054688e+00) (57, 3.12694573402404785156e+00) (58, 9.20456027984619140625e+00) (59, -5.23473262786865234375e+00) (60, 5.43664360046386718750e+00) (61, -7.18783473968505859375e+00) (62, 2.58868527412414550781e+00) (63, 2.00754094123840332031e+00) (64, -3.33231377601623535156e+00) (65, 2.08022093772888183594e+00) (66, -1.92822849750518798828e+00) (67, -1.83864521980285644531e+00) (68, 3.49368953704833984375e+00) (69, -8.55823707580566406250e+00) (70, -1.22751331329345703125e+00) (71, -9.18398320674896240234e-01) (72, 9.38720798492431640625e+00) (73, 4.87188339233398437500e+00) (74, -8.65607357025146484375e+00) (75, -1.33125734329223632812e+01) (76, 3.77405881881713867188e+00) (77, 1.37771100997924804688e+01) (78, -8.73686122894287109375e+00) (79, -1.32912645339965820312e+01) (80, -1.12691926956176757812e+00) (81, -8.50554275512695312500e+00) (82, -1.47952337265014648438e+01) (22, 9.67087364196777343750e+00) (23, -2.34187817573547363281e+00) (24, -1.86557209491729736328e+00) (25, 1.29621181488037109375e+01) (26, -1.28284530639648437500e+01) (27, 4.03945541381835937500e+00) (28, -1.07941709458827972412e-01) (29, -7.58451342582702636719e-01) (30, 3.94100451469421386719e+00) (31, 9.49024963378906250000e+00) (32, 8.62993717193603515625e+00) (33, -5.98283624649047851562e+00) (34, -9.82583427429199218750e+00) (35, -1.25368633270263671875e+01) (36, -2.44258785247802734375e+00) (37, -7.51304674148559570312e+00) (38, 2.08024740219116210938e+00) (39, 1.13407671451568603516e+00) (40, -9.20899286866188049316e-02) (41, -4.61457777023315429688e+00) (42, 9.98262500762939453125e+00) (43, -3.33462953567504882812e+00) (44, -3.43190097808837890625e+00) (45, -8.36728286743164062500e+00) (46, 1.59933686256408691406e+00) (47, -4.33616161346435546875e+00) (48, 7.05391454696655273438e+00) (49, -3.22079986333847045898e-01) (50, 1.04561090469360351562e+01) (51, -6.47933387756347656250e+00) (52, 1.14993214607238769531e+00) (53, 4.96188402175903320312e+00) (54, -9.80374240875244140625e+00) (55, -9.51427173614501953125e+00) (56, 8.85649776458740234375e+00) (57, 4.61991262435913085938e+00) (58, 1.32399759292602539062e+01) (59, 9.49782192707061767578e-01) (60, 1.53728377819061279297e+00) (61, -8.15432739257812500000e+00) (62, -9.28482627868652343750e+00) (63, 2.69476741552352905273e-01) (64, -6.95041227340698242188e+00) (65, -3.98697376251220703125e+00) (66, -4.45950889587402343750e+00) (67, 3.88776212930679321289e-01) (68, -2.28526163101196289062e+00) (69, -2.79283499717712402344e+00) (70, 1.27608776092529296875e+01) (71, -1.49695944786071777344e+00) (72, 5.31962203979492187500e+00) (73, -1.89069464802742004395e-01) (74, 3.89396119117736816406e+00) (75, 4.80456638336181640625e+00) (76, 9.82105255126953125000e+00) (77, 1.18870697021484375000e+01) (78, 1.71548056602478027344e+00) (79, -1.28840370178222656250e+01) (80, -6.45544910430908203125e+00) (81, -6.97118091583251953125e+00) (82, -1.37001495361328125000e+01) (22, 9.82208538055419921875e+00) (23, -3.05059003829956054688e+00) (24, -1.00503432750701904297e+00) (25, 1.51091461181640625000e+01) (26, -1.61577663421630859375e+01) (27, 6.31307840347290039062e+00) (28, 9.46117103099822998047e-01) (29, 9.23701953887939453125e+00) (30, -7.22113561630249023438e+00) (31, -7.04403114318847656250e+00) (32, 1.60854423046112060547e+00) (33, 3.82274723052978515625e+00) (34, -6.81085109710693359375e+00) (35, -1.52316627502441406250e+01) (36, -6.36768865585327148438e+00) (37, -8.82020473480224609375e-01) (38, 2.13512158393859863281e+00) (39, 1.97802364826202392578e+00) (40, 2.31342363357543945312e+00) (41, -1.03628816604614257812e+01) (42, -4.80353641510009765625e+00) (43, 1.36272943019866943359e+00) (44, -4.91655254364013671875e+00) (45, -5.77216386795043945312e+00) (46, 3.61462521553039550781e+00) (47, 4.27398920059204101562e+00) (48, -4.56293487548828125000e+00) (49, 2.95456123352050781250e+00) (50, 3.75760173797607421875e+00) (51, 1.08008098602294921875e+01) (52, -1.04032602310180664062e+01) (53, 4.67268705368041992188e+00) (54, -8.20590019226074218750e+00) (55, 2.35993051528930664062e+00) (56, -1.06277780532836914062e+01) (57, -1.53261089324951171875e+00) (58, -2.30147361755371093750e+00) (59, -6.94478368759155273438e+00) (60, -1.98565375804901123047e+00) (61, -2.21686244010925292969e+00) (62, -8.09551143646240234375e+00) (63, -1.96082675457000732422e+00) (64, 1.65981311798095703125e+01) (65, -5.35498093813657760620e-03) (66, -4.77329826354980468750e+00) (67, 3.83695816993713378906e+00) (68, -9.69049990177154541016e-01) (69, -5.24401521682739257812e+00) (70, -4.49328947067260742188e+00) (71, 1.36750316619873046875e+00) (72, 9.17563533782958984375e+00) (73, 1.28459911346435546875e+01) (74, -1.95214533805847167969e+00) (75, 6.81286907196044921875e+00) (76, 7.52209520339965820312e+00) (77, 1.34417829513549804688e+01) (78, -1.12009010314941406250e+01) (79, -1.60192470550537109375e+01) (80, -1.70403838157653808594e+00) (81, -5.11634445190429687500e+00) (82, -1.72777214050292968750e+01) (22, -6.26456499099731445312e-01) (23, -1.17014923095703125000e+01) (24, 8.06141853332519531250e+00) (25, 1.13334445953369140625e+01) (26, -1.12387542724609375000e+01) (27, 5.99757862091064453125e+00) (28, 4.82269334793090820312e+00) (29, -3.64899492263793945312e+00) (30, -3.26828956604003906250e+00) (31, -2.14612722396850585938e+00) (32, -5.48669576644897460938e+00) (33, -2.62228679656982421875e+00) (34, -5.72323083877563476562e+00) (35, -9.71272277832031250000e+00) (36, 9.61226177215576171875e+00) (37, -9.10091209411621093750e+00) (38, -3.40423536300659179688e+00) (39, 2.44728326797485351562e+00) (40, 1.24566292762756347656e+00) (41, -6.75190019607543945312e+00) (42, -1.87381327152252197266e+00) (43, 2.55682611465454101562e+00) (44, 1.40778999328613281250e+01) (45, -5.37691068649291992188e+00) (46, -1.41430158615112304688e+01) (47, 7.57156229019165039062e+00) (48, -1.74413895606994628906e+00) (49, -5.72043943405151367188e+00) (50, 5.02569532394409179688e+00) (51, 5.49358510971069335938e+00) (52, -3.91401100158691406250e+00) (53, -5.12205028533935546875e+00) (54, -4.00869894027709960938e+00) (55, -4.96394634246826171875e+00) (56, -1.33008079528808593750e+01) (57, -4.98876380920410156250e+00) (58, 6.17407751083374023438e+00) (59, 1.62175917625427246094e+00) (60, 2.74157714843750000000e+00) (61, 4.21556806564331054688e+00) (62, -6.75381994247436523438e+00) (63, -1.71989762783050537109e+00) (64, 5.02061128616333007812e+00) (65, -6.66663312911987304688e+00) (66, -2.05481123924255371094e+00) (67, -5.69717025756835937500e+00) (68, -7.79179513454437255859e-01) (69, 1.60964205861091613770e-01) (70, -5.45979070663452148438e+00) (71, -9.23220396041870117188e-01) (72, -2.29486036300659179688e+00) (73, -7.98365545272827148438e+00) (74, -7.23813915252685546875e+00) (75, 4.97922706604003906250e+00) (76, 4.73453044891357421875e+00) (77, 1.14737548828125000000e+01) (78, -4.72354412078857421875e+00) (79, -9.64542388916015625000e+00) (80, -3.15440034866333007812e+00) (81, -1.12712507247924804688e+01) (82, -1.40778617858886718750e+01) (22, -9.86037063598632812500e+00) (23, -1.52372622489929199219e+00) (24, -8.25321674346923828125e+00) (25, 1.21639575958251953125e+01) (26, -1.17909259796142578125e+01) (27, -7.45448255538940429688e+00) (28, 2.82931494712829589844e+00) (29, -8.58343601226806640625e+00) (30, -6.46078705787658691406e-01) (31, -4.55721318721771240234e-01) (32, -2.72816705703735351562e+00) (33, -7.95149087905883789062e+00) (34, 2.76592540740966796875e+00) (35, -1.07399291992187500000e+01) (36, 1.94386577606201171875e+00) (37, 1.61909118294715881348e-01) (38, 4.28494215011596679688e+00) (39, -2.55512118339538574219e+00) (40, 5.65383911132812500000e+00) (41, 1.45703544616699218750e+01) (42, 1.30827178955078125000e+01) (43, 6.66031956672668457031e-01) (44, 5.87675809860229492188e+00) (45, 5.88759946823120117188e+00) (46, -6.99444437026977539062e+00) (47, -2.05796051025390625000e+00) (48, 5.58566713333129882812e+00) (49, -2.57554745674133300781e+00) (50, 7.76900959014892578125e+00) (51, -1.42402434349060058594e+00) (52, -1.62220135331153869629e-01) (53, 4.53441664576530456543e-02) (54, -3.47828578948974609375e+00) (55, -2.32704132795333862305e-01) (56, 9.91169738769531250000e+00) (57, 6.98107099533081054688e+00) (58, 7.28411769866943359375e+00) (59, -4.85963344573974609375e+00) (60, -1.52650773525238037109e-01) (61, 6.92438077926635742188e+00) (62, -1.18744974136352539062e+01) (63, -2.05805182456970214844e+00) (64, -3.33432459831237792969e+00) (65, 9.43680405616760253906e-01) (66, -6.01190614700317382812e+00) (67, -7.92235016822814941406e-01) (68, 1.92452478408813476562e+00) (69, 1.08081426620483398438e+01) (70, 2.39397478103637695312e+00) (71, -3.79476308822631835938e+00) (72, 4.58097267150878906250e+00) (73, 5.23219823837280273438e+00) (74, 2.21562194824218750000e+00) (75, -2.29351973533630371094e+00) (76, -3.39104533195495605469e-01) (77, 1.41482238769531250000e+01) (78, -1.66993737220764160156e+00) (79, -1.27822399139404296875e+01) (80, 1.71276772022247314453e+00) (81, -9.53771591186523437500e+00) (82, -1.51396694183349609375e+01) (22, 4.81752872467041015625e+00) (23, -5.29973173141479492188e+00) (24, 7.64065551757812500000e+00) (25, 1.02812023162841796875e+01) (26, -9.88738441467285156250e+00) (27, -3.79840278625488281250e+00) (28, -3.45072865486145019531e+00) (29, 4.79551935195922851562e+00) (30, -6.18135333061218261719e-01) (31, -1.56177258491516113281e+00) (32, -3.65375351905822753906e+00) (33, -1.19169306755065917969e+00) (34, -8.69916725158691406250e+00) (35, -7.00163698196411132812e+00) (36, 3.69479274749755859375e+00) (37, -3.88398575782775878906e+00) (38, -3.12086415290832519531e+00) (39, 1.67235279083251953125e+00) (40, 1.99478006362915039062e+00) (41, 5.38157701492309570312e+00) (42, 1.58723711967468261719e+00) (43, -2.79169726371765136719e+00) (44, -4.75086832046508789062e+00) (45, -8.35384368896484375000e-01) (46, -6.99545621871948242188e+00) (47, 2.57023167610168457031e+00) (48, -4.99604761600494384766e-01) (49, 1.09277677536010742188e+00) (50, 1.21058011054992675781e+00) (51, -1.09227550029754638672e+00) (52, -5.22588920593261718750e+00) (53, 9.54920578002929687500e+00) (54, -1.94818758964538574219e+00) (55, -8.66989231109619140625e+00) (56, -8.46516799926757812500e+00) (57, 2.26369285583496093750e+00) (58, 6.98113965988159179688e+00) (59, -5.67813491821289062500e+00) (60, 2.65153145790100097656e+00) (61, -6.00748682022094726562e+00) (62, -1.09529638290405273438e+01) (63, -1.70232164859771728516e+00) (64, -9.48695659637451171875e+00) (65, -1.59209060668945312500e+00) (66, -4.37170410156250000000e+00) (67, 2.47424864768981933594e+00) (68, -7.31843757629394531250e+00) (69, 