FANN_FLO_2.1
num_layers=3
learning_rate=0.700000
connection_rate=1.000000
network_type=0
learning_momentum=0.400000
training_algorithm=0
train_error_function=1
train_stop_function=0
cascade_output_change_fraction=0.010000
quickprop_decay=-0.000100
quickprop_mu=1.750000
rprop_increase_factor=1.200000
rprop_decrease_factor=0.500000
rprop_delta_min=0.000000
rprop_delta_max=50.000000
rprop_delta_zero=0.100000
cascade_output_stagnation_epochs=12
cascade_candidate_change_fraction=0.010000
cascade_candidate_stagnation_epochs=12
cascade_max_out_epochs=150
cascade_min_out_epochs=50
cascade_max_cand_epochs=150
cascade_min_cand_epochs=50
cascade_num_candidate_groups=2
bit_fail_limit=3.49999994039535522461e-01
cascade_candidate_limit=1.00000000000000000000e+03
cascade_weight_multiplier=4.00000005960464477539e-01
cascade_activation_functions_count=10
cascade_activation_functions=3 5 7 8 10 11 14 15 16 17 
cascade_activation_steepnesses_count=4
cascade_activation_steepnesses=2.50000000000000000000e-01 5.00000000000000000000e-01 7.50000000000000000000e-01 1.00000000000000000000e+00 
layer_sizes=22 61 41 
scale_included=0
neurons (num_inputs, activation_function, activation_steepness)=(0, 0, 0.00000000000000000000e+00) (0, 0, 0.00000000000000000000e+00) (0, 0, 0.00000000000000000000e+00) (0, 0, 0.00000000000000000000e+00) (0, 0, 0.00000000000000000000e+00) (0, 0, 0.00000000000000000000e+00) (0, 0, 0.00000000000000000000e+00) (0, 0, 0.00000000000000000000e+00) (0, 0, 0.00000000000000000000e+00) (0, 0, 0.00000000000000000000e+00) (0, 0, 0.00000000000000000000e+00) (0, 0, 0.00000000000000000000e+00) (0, 0, 0.00000000000000000000e+00) (0, 0, 0.00000000000000000000e+00) (0, 0, 0.00000000000000000000e+00) (0, 0, 0.00000000000000000000e+00) (0, 0, 0.00000000000000000000e+00) (0, 0, 0.00000000000000000000e+00) (0, 0, 0.00000000000000000000e+00) (0, 0, 0.00000000000000000000e+00) (0, 0, 0.00000000000000000000e+00) (0, 0, 0.00000000000000000000e+00) (22, 5, 1.00000000000000000000e+00) (22, 5, 1.00000000000000000000e+00) (22, 5, 1.00000000000000000000e+00) (22, 5, 1.00000000000000000000e+00) (22, 5, 1.00000000000000000000e+00) (22, 5, 1.00000000000000000000e+00) (22, 5, 1.00000000000000000000e+00) (22, 5, 1.00000000000000000000e+00) (22, 5, 1.00000000000000000000e+00) (22, 5, 1.00000000000000000000e+00) (22, 5, 1.00000000000000000000e+00) (22, 5, 1.00000000000000000000e+00) (22, 5, 1.00000000000000000000e+00) (22, 5, 1.00000000000000000000e+00) (22, 5, 1.00000000000000000000e+00) (22, 5, 1.00000000000000000000e+00) (22, 5, 1.00000000000000000000e+00) (22, 5, 1.00000000000000000000e+00) (22, 5, 1.00000000000000000000e+00) (22, 5, 1.00000000000000000000e+00) (22, 5, 1.00000000000000000000e+00) (22, 5, 1.00000000000000000000e+00) (22, 5, 1.00000000000000000000e+00) (22, 5, 1.00000000000000000000e+00) (22, 5, 1.00000000000000000000e+00) (22, 5, 1.00000000000000000000e+00) (22, 5, 1.00000000000000000000e+00) (22, 5, 1.00000000000000000000e+00) (22, 5, 1.00000000000000000000e+00) (22, 5, 1.00000000000000000000e+00) (22, 5, 1.00000000000000000000e+00) (22, 5, 1.00000000000000000000e+00) (22, 5, 1.00000000000000000000e+00) (22, 5, 1.00000000000000000000e+00) (22, 5, 1.00000000000000000000e+00) (22, 5, 1.00000000000000000000e+00) (22, 5, 1.00000000000000000000e+00) (22, 5, 1.00000000000000000000e+00) (22, 5, 1.00000000000000000000e+00) (22, 5, 1.00000000000000000000e+00) (22, 5, 1.00000000000000000000e+00) (22, 5, 1.00000000000000000000e+00) (22, 5, 1.00000000000000000000e+00) (22, 5, 1.00000000000000000000e+00) (22, 5, 1.00000000000000000000e+00) (22, 5, 1.00000000000000000000e+00) (22, 5, 1.00000000000000000000e+00) (22, 5, 1.00000000000000000000e+00) (22, 5, 1.00000000000000000000e+00) (22, 5, 1.00000000000000000000e+00) (22, 5, 1.00000000000000000000e+00) (22, 5, 1.00000000000000000000e+00) (22, 5, 1.00000000000000000000e+00) (22, 5, 1.00000000000000000000e+00) (22, 5, 1.00000000000000000000e+00) (22, 5, 1.00000000000000000000e+00) (22, 5, 1.00000000000000000000e+00) (22, 5, 1.00000000000000000000e+00) (22, 5, 1.00000000000000000000e+00) (22, 5, 1.00000000000000000000e+00) (0, 5, 1.00000000000000000000e+00) (61, 5, 1.00000000000000000000e+00) (61, 5, 1.00000000000000000000e+00) (61, 5, 1.00000000000000000000e+00) (61, 5, 1.00000000000000000000e+00) (61, 5, 1.00000000000000000000e+00) (61, 5, 1.00000000000000000000e+00) (61, 5, 1.00000000000000000000e+00) (61, 5, 1.00000000000000000000e+00) (61, 5, 1.00000000000000000000e+00) (61, 5, 1.00000000000000000000e+00) (61, 5, 1.00000000000000000000e+00) (61, 5, 1.00000000000000000000e+00) (61, 5, 1.00000000000000000000e+00) (61, 5, 1.00000000000000000000e+00) (61, 5, 1.00000000000000000000e+00) (61, 5, 1.00000000000000000000e+00) (61, 5, 1.00000000000000000000e+00) (61, 5, 1.00000000000000000000e+00) (61, 5, 1.00000000000000000000e+00) (61, 5, 1.00000000000000000000e+00) (61, 5, 1.00000000000000000000e+00) (61, 5, 1.00000000000000000000e+00) (61, 5, 1.00000000000000000000e+00) (61, 5, 1.00000000000000000000e+00) (61, 5, 1.00000000000000000000e+00) (61, 5, 1.00000000000000000000e+00) (61, 5, 1.00000000000000000000e+00) (61, 5, 1.00000000000000000000e+00) (61, 5, 1.00000000000000000000e+00) (61, 5, 1.00000000000000000000e+00) (61, 5, 1.00000000000000000000e+00) (61, 5, 1.00000000000000000000e+00) (61, 5, 1.00000000000000000000e+00) (61, 5, 1.00000000000000000000e+00) (61, 5, 1.00000000000000000000e+00) (61, 5, 1.00000000000000000000e+00) (61, 5, 1.00000000000000000000e+00) (61, 5, 1.00000000000000000000e+00) (61, 5, 1.00000000000000000000e+00) (61, 5, 1.00000000000000000000e+00) (0, 5, 1.00000000000000000000e+00) 
connections (connected_to_neuron, weight)=(0, 1.22685638427734375000e+02) (1, 4.97126426696777343750e+01) (2, -6.69950790405273437500e+01) (3, 6.32679557800292968750e+01) (4, -9.69169330596923828125e+00) (5, 1.03156309127807617188e+01) (6, -3.28749275207519531250e+01) (7, -2.86084365844726562500e+01) (8, -3.73405838012695312500e+01) (9, 6.46261787414550781250e+00) (10, -1.15859458923339843750e+02) (11, -9.34681396484375000000e+01) (12, 1.11329872131347656250e+02) (13, 6.86124267578125000000e+01) (14, 9.99546279907226562500e+01) (15, 3.01130580902099609375e+01) (16, -3.88416557312011718750e+01) (17, 4.87105407714843750000e+01) (18, 3.59227104187011718750e+01) (19, -1.02677230834960937500e+02) (20, -3.25119132995605468750e+01) (21, -1.73828010559082031250e+01) (0, 3.97821807861328125000e+01) (1, 5.57757682800292968750e+01) (2, 6.25591659545898437500e+01) (3, 2.66963405609130859375e+01) (4, -4.77294349670410156250e+01) (5, 7.41494293212890625000e+01) (6, 2.65938549041748046875e+01) (7, 1.61993694305419921875e+00) (8, -9.59991073608398437500e+00) (9, -1.07678680419921875000e+01) (10, 1.31868648529052734375e+01) (11, 3.20452156066894531250e+01) (12, -2.65079689025878906250e+00) (13, -1.43172206878662109375e+01) (14, -5.91297760009765625000e+01) (15, -3.82614364624023437500e+01) (16, 4.04833030700683593750e+00) (17, -5.07827377319335937500e+01) (18, -1.94396926879882812500e+02) (19, 1.42608861923217773438e+01) (20, 5.56640205383300781250e+01) (21, 3.98829722404479980469e+00) (0, 2.69359321594238281250e+01) (1, 7.69687500000000000000e+01) (2, 2.63707885742187500000e+01) (3, -3.96055817604064941406e+00) (4, 8.90000457763671875000e+01) (5, -4.23179321289062500000e+01) (6, 5.89876937866210937500e+01) (7, 7.45031738281250000000e+01) (8, 3.24312171936035156250e+01) (9, 2.12716140747070312500e+01) (10, 2.02604598999023437500e+01) (11, 4.34519538879394531250e+01) (12, -1.49884052276611328125e+01) (13, -1.17699851989746093750e+02) (14, 1.07469345092773437500e+02) (15, 6.76748123168945312500e+01) (16, 4.79168891906738281250e+01) (17, 1.15415664672851562500e+02) (18, 1.63118610382080078125e+01) (19, 3.02930870056152343750e+01) (20, 2.76488857269287109375e+01) (21, -2.42688873291015625000e+02) (0, -5.72589159011840820312e+00) (1, -2.31146373748779296875e+01) (2, -3.81351089477539062500e+01) (3, -3.52115554809570312500e+01) (4, -6.23914642333984375000e+01) (5, 1.56455993652343750000e+01) (6, -7.04103698730468750000e+01) (7, -1.75429363250732421875e+01) (8, 2.42900676727294921875e+01) (9, 3.44987940788269042969e+00) (10, -2.47593746185302734375e+01) (11, -1.35028305053710937500e+01) (12, 2.21350116729736328125e+01) (13, 6.84195404052734375000e+01) (14, -9.98841476440429687500e+01) (15, -1.27679324150085449219e+00) (16, -7.02458419799804687500e+01) (17, -6.70842514038085937500e+01) (18, -2.61227207183837890625e+01) (19, -1.87340221405029296875e+01) (20, 2.76938838958740234375e+01) (21, 1.31321365356445312500e+02) (0, -1.70089969635009765625e+01) (1, -9.60132904052734375000e+01) (2, -1.69112701416015625000e+01) (3, -7.36747589111328125000e+01) (4, -9.98086395263671875000e+01) (5, 1.80584907531738281250e+01) (6, -8.48746795654296875000e+01) (7, -5.07013244628906250000e+01) (8, -1.18547410964965820312e+01) (9, -5.65094299316406250000e+01) (10, -5.57436904907226562500e+01) (11, -6.80961685180664062500e+01) (12, -2.21727962493896484375e+01) (13, 8.88198928833007812500e+01) (14, -7.36832122802734375000e+01) (15, -1.01675369262695312500e+02) (16, -1.02175498962402343750e+02) (17, -1.35272338867187500000e+02) (18, -5.66874465942382812500e+01) (19, -4.53132171630859375000e+01) (20, 3.39499053955078125000e+01) (21, 2.85758026123046875000e+02) (0, 6.86462326049804687500e+01) (1, 1.36315414428710937500e+02) (2, 1.51358308792114257812e+01) (3, 9.58354034423828125000e+01) (4, -4.14804029464721679688e+00) (5, -2.10828514099121093750e+01) (6, 6.46058502197265625000e+01) (7, -3.06577301025390625000e+01) (8, -6.40700674057006835938e+00) (9, -5.02176933288574218750e+01) (10, 1.19639501571655273438e+01) (11, 9.97011661529541015625e+00) (12, -5.14228935241699218750e+01) (13, 4.23359947204589843750e+01) (14, 7.97613754272460937500e+01) (15, -7.12871780395507812500e+01) (16, -5.41247596740722656250e+01) (17, 2.99675292968750000000e+01) (18, 6.80354614257812500000e+01) (19, 4.16547660827636718750e+01) (20, -3.79121818542480468750e+01) (21, 7.74691629409790039062e+00) (0, 1.56507225036621093750e+01) (1, 1.11991149902343750000e+02) (2, 3.07667388916015625000e+01) (3, 3.79256172180175781250e+01) (4, 1.31925964355468750000e+02) (5, -2.35518264770507812500e+01) (6, 5.70162849426269531250e+01) (7, 7.38361663818359375000e+01) (8, -8.66033172607421875000e+00) (9, 2.52350730895996093750e+01) (10, 2.48538932800292968750e+01) (11, 3.54909515380859375000e+01) (12, 2.43676204681396484375e+01) (13, -1.40747055053710937500e+02) (14, 1.18435050964355468750e+02) (15, 8.94010772705078125000e+01) (16, 9.45970535278320312500e+01) (17, 1.69132369995117187500e+02) (18, 3.24833984375000000000e+01) (19, 7.94534835815429687500e+01) (20, -1.50040636062622070312e+01) (21, -2.79188018798828125000e+02) (0, -9.41416778564453125000e+01) (1, 4.04611053466796875000e+01) (2, -7.70036926269531250000e+01) (3, 4.24415473937988281250e+01) (4, 6.63529129028320312500e+01) (5, -5.33214988708496093750e+01) (6, -7.00983428955078125000e+01) (7, 1.54893589019775390625e+01) (8, -2.99693155288696289062e+00) (9, 2.43321967124938964844e+00) (10, 5.04807548522949218750e+01) (11, 4.90748291015625000000e+01) (12, 2.80121421813964843750e+01) (13, 6.63590621948242187500e+01) (14, 3.60420646667480468750e+01) (15, -2.44920196533203125000e+01) (16, -5.31350135803222656250e+01) (17, -2.09001502990722656250e+01) (18, 7.67237186431884765625e+00) (19, 6.30077209472656250000e+01) (20, -3.90462446212768554688e+00) (21, -4.06406173706054687500e+01) (0, 3.28708648681640625000e+01) (1, -4.42172737121582031250e+01) (2, 9.82857322692871093750e+00) (3, 2.23311920166015625000e+01) (4, -2.91633853912353515625e+01) (5, -4.14696693420410156250e+01) (6, 1.62607848644256591797e+00) (7, 9.06339454650878906250e+00) (8, 2.90338134765625000000e+01) (9, 3.30168342590332031250e+01) (10, -1.26082458496093750000e+01) (11, -2.10970191955566406250e+01) (12, -6.11285514831542968750e+01) (13, -5.77245635986328125000e+01) (14, -5.95694808959960937500e+01) (15, 4.42218399047851562500e+01) (16, 4.93634033203125000000e+01) (17, 1.86620025634765625000e+01) (18, 2.38996448516845703125e+01) (19, 8.25149993896484375000e+01) (20, -5.13478317260742187500e+01) (21, -3.40830841064453125000e+01) (0, -1.05547615051269531250e+02) (1, -1.19995704650878906250e+02) (2, -1.18444280624389648438e+01) (3, -2.70535888671875000000e+01) (4, -4.61446342468261718750e+01) (5, -1.14093732833862304688e+01) (6, -5.39805526733398437500e+01) (7, 3.49269447326660156250e+01) (8, 2.82190895080566406250e+01) (9, 3.73789710998535156250e+01) (10, 4.51105651855468750000e+01) (11, 1.05161533355712890625e+01) (12, -7.54909210205078125000e+01) (13, -7.51516113281250000000e+01) (14, -2.74052886962890625000e+01) (15, -4.40091162919998168945e-01) (16, -4.31043243408203125000e+01) (17, 1.54631233215332031250e+01) (18, 3.32325053215026855469e+00) (19, 2.73357925415039062500e+01) (20, 9.60229933261871337891e-01) (21, -2.02438201904296875000e+01) (0, 1.85669422149658203125e+01) (1, -4.21065330505371093750e+01) (2, -5.65193481445312500000e+01) (3, -4.25550804138183593750e+01) (4, -1.42431507110595703125e+01) (5, -4.86999969482421875000e+01) (6, -4.05622482299804687500e+01) (7, 6.61766862869262695312e+00) (8, 2.20788650512695312500e+01) (9, 6.55541076660156250000e+01) (10, 1.88511505126953125000e+01) (11, 2.40666465759277343750e+01) (12, -3.15269470214843750000e+01) (13, -5.92486076354980468750e+01) (14, 2.63361263275146484375e+00) (15, 2.58181381225585937500e+01) (16, 1.35312259197235107422e-01) (17, 1.53083358764648437500e+02) (18, -1.39018964767456054688e+01) (19, 1.59719200134277343750e+01) (20, 2.17908325195312500000e+01) (21, -3.50582580566406250000e+01) (0, 4.23073148727416992188e+00) (1, 1.53616704940795898438e+01) (2, 1.67042274475097656250e+01) (3, 2.48006191253662109375e+01) (4, -1.95653533935546875000e+01) (5, 4.88222045898437500000e+01) (6, 4.93402147293090820312e+00) (7, 7.40639648437500000000e+01) (8, 3.39426574707031250000e+01) (9, -1.37787231445312500000e+02) (10, -4.34770545959472656250e+01) (11, -5.46265335083007812500e+01) (12, -1.61622214317321777344e+00) (13, 1.36924581527709960938e+01) (14, 1.17740659713745117188e+01) (15, 2.39998321533203125000e+01) (16, 1.29094161987304687500e+01) (17, -8.33167076110839843750e+00) (18, -3.02794575691223144531e+00) (19, -2.08502731323242187500e+01) (20, 1.36481809616088867188e+01) (21, 1.62010841369628906250e+01) (0, -2.48342819213867187500e+01) (1, 5.12801818847656250000e+01) (2, 5.23334197998046875000e+01) (3, -1.93251914978027343750e+01) (4, -5.09681243896484375000e+01) (5, 7.43506774902343750000e+01) (6, 1.92252464294433593750e+01) (7, 1.75745277404785156250e+01) (8, -7.23468704223632812500e+01) (9, -1.05482025146484375000e+02) (10, -9.93117294311523437500e+01) (11, -8.42063293457031250000e+01) (12, 7.29924926757812500000e+01) (13, 1.21435607910156250000e+02) (14, 8.92149658203125000000e+01) (15, 7.26760053634643554688e+00) (16, 7.18339309692382812500e+01) (17, -7.96206970214843750000e+01) (18, -4.19956779479980468750e+01) (19, 4.52528762817382812500e+01) (20, 7.78813323974609375000e+01) (21, 7.86100339889526367188e+00) (0, -4.55337905883789062500e+01) (1, 1.89157218933105468750e+01) (2, -1.93997650146484375000e+01) (3, -3.64842300415039062500e+01) (4, 4.11296081542968750000e+01) (5, -3.14349727630615234375e+01) (6, -2.64759998321533203125e+01) (7, -9.57591533660888671875e+00) (8, -9.27741928100585937500e+01) (9, -9.15896072387695312500e+01) (10, 1.63499298095703125000e+01) (11, 3.49886436462402343750e+01) (12, 5.55634422302246093750e+01) (13, -1.09352385997772216797e+00) (14, -1.76341953277587890625e+01) (15, 8.90040054321289062500e+01) (16, 8.96061019897460937500e+01) (17, 8.97163314819335937500e+01) (18, 5.51199111938476562500e+01) (19, 3.05620117187500000000e+01) (20, 7.49303131103515625000e+01) (21, 1.53959741592407226562e+01) (0, -6.41934280395507812500e+01) (1, 3.20203819274902343750e+01) (2, -4.57464179992675781250e+01) (3, 3.15110225677490234375e+01) (4, -1.39279083251953125000e+02) (5, -1.35876541137695312500e+02) (6, -1.74840759277343750000e+02) (7, 4.24869728088378906250e+01) (8, -5.57768154144287109375e+00) (9, -6.56074752807617187500e+01) (10, 5.55091171264648437500e+01) (11, 5.79900627136230468750e+01) (12, 1.11520530700683593750e+02) (13, 9.34272918701171875000e+01) (14, -2.00391521453857421875e+01) (15, -4.73506879806518554688e+00) (16, -3.38235282897949218750e+01) (17, 4.30461196899414062500e+01) (18, 5.71550827026367187500e+01) (19, 3.29864959716796875000e+01) (20, 7.32834386825561523438e+00) (21, 1.57112579345703125000e+01) (0, -2.86116528511047363281e+00) (1, 1.04131546020507812500e+02) (2, -6.82454156875610351562e+00) (3, 1.35420408248901367188e+01) (4, 8.60148391723632812500e+01) (5, 3.10252742767333984375e+01) (6, 6.50083770751953125000e+01) (7, 7.33854904174804687500e+01) (8, 1.92107295989990234375e+01) (9, -5.67347564697265625000e+01) (10, -2.62365169525146484375e+01) (11, -2.37510452270507812500e+01) (12, 7.02375793457031250000e+01) (13, 9.14528656005859375000e+01) (14, -5.03574676513671875000e+01) (15, -6.43030548095703125000e+01) (16, -4.76600570678710937500e+01) (17, 3.03199958801269531250e+01) (18, 5.37210655212402343750e+01) (19, -1.12463912963867187500e+01) (20, 1.33654537200927734375e+01) (21, 5.50820846557617187500e+01) (0, -1.76338634490966796875e+01) (1, -6.61057662963867187500e+01) (2, -7.00667667388916015625e+00) (3, -7.35516071319580078125e+00) (4, -5.45521812438964843750e+01) (5, 6.64327001571655273438e+00) (6, -4.47639160156250000000e+01) (7, -2.46183147430419921875e+01) (8, -1.02166490554809570312e+01) (9, 2.26822261810302734375e+01) (10, -1.50652132034301757812e+01) (11, -1.83756809234619140625e+01) (12, -1.50675563812255859375e+01) (13, 2.22444210052490234375e+01) (14, -5.49410247802734375000e+01) (15, -3.65347480773925781250e+01) (16, -2.66317768096923828125e+01) (17, -3.99678726196289062500e+01) (18, 1.36043062210083007812e+01) (19, -1.62800312042236328125e+01) (20, 4.27771425247192382812e+00) (21, 1.04787918090820312500e+02) (0, 1.57457752227783203125e+01) (1, -2.24589729309082031250e+00) (2, -6.66921310424804687500e+01) (3, 7.60218353271484375000e+01) (4, 2.28550308227539062500e+02) (5, 2.50636138916015625000e+01) (6, -1.11033277511596679688e+01) (7, 3.99815902709960937500e+01) (8, -3.96780929565429687500e+01) (9, -2.48423175811767578125e+01) (10, 6.27877502441406250000e+01) (11, 6.85871963500976562500e+01) (12, 3.12466278076171875000e+01) (13, 2.93491611480712890625e+01) (14, -6.36128997802734375000e+01) (15, 2.07735919952392578125e+01) (16, -2.15558986663818359375e+01) (17, 6.61036148071289062500e+01) (18, 1.48360748291015625000e+02) (19, 1.36296173095703125000e+02) (20, -3.08595085144042968750e+01) (21, -2.18433399200439453125e+01) (0, -1.93341541290283203125e+01) (1, 2.42153816223144531250e+01) (2, 1.22365493774414062500e+01) (3, -9.02115726470947265625e+00) (4, 3.39702606201171875000e+01) (5, -2.91932888031005859375e+01) (6, 1.53555374145507812500e+01) (7, 5.14192161560058593750e+01) (8, 5.24272346496582031250e+01) (9, 5.24367485046386718750e+01) (10, -3.90798683166503906250e+01) (11, -1.88612766265869140625e+01) (12, -7.40714907646179199219e-01) (13, 2.32814028859138488770e-01) (14, 4.02290802001953125000e+01) (15, -3.92265510559082031250e+01) (16, -1.78223857879638671875e+01) (17, 3.38965835571289062500e+01) (18, 1.03595399856567382812e+01) (19, -5.15037345886230468750e+01) (20, -3.15747089385986328125e+01) (21, 1.00463428497314453125e+01) (0, 7.28157806396484375000e+01) (1, -2.68847846984863281250e+00) (2, 1.59860935211181640625e+01) (3, -5.03146123886108398438e+00) (4, 2.75019454956054687500e+01) (5, -4.43299522399902343750e+01) (6, -3.57029342651367187500e+01) (7, -4.26675910949707031250e+01) (8, -1.34407749176025390625e+01) (9, -3.20496845245361328125e+00) (10, 2.22385807037353515625e+01) (11, 3.62110176086425781250e+01) (12, 1.68107261657714843750e+01) (13, -1.63503112792968750000e+01) (14, 1.37547254562377929688e+01) (15, 2.84482479095458984375e+01) (16, 1.60496292114257812500e+01) (17, 6.31535415649414062500e+01) (18, -1.50884399414062500000e+01) (19, -2.21684570312500000000e+01) (20, 3.94987058639526367188e+00) (21, -2.39357738494873046875e+01) (0, 1.81402885913848876953e+00) (1, 1.98139591217041015625e+01) (2, 6.98539733886718750000e+01) (3, 6.10819931030273437500e+01) (4, -1.37900604248046875000e+02) (5, 1.04228591918945312500e+02) (6, 5.99275817871093750000e+01) (7, 1.99248657226562500000e+01) (8, 1.32201919555664062500e+01) (9, -1.29082794189453125000e+01) (10, -5.24367408752441406250e+01) (11, -6.92908020019531250000e+01) (12, -3.16792316436767578125e+01) (13, -5.69110145568847656250e+01) (14, -2.83164920806884765625e+01) (15, -1.69526596069335937500e+01) (16, 8.20943298339843750000e+01) (17, 2.54337139129638671875e+01) (18, 4.12582206726074218750e+01) (19, -4.64371490478515625000e+01) (20, 2.03331398963928222656e+00) (21, 4.16575317382812500000e+01) (0, -1.77143135070800781250e+01) (1, -6.71277236938476562500e+01) (2, 6.91727936267852783203e-01) (3, -1.36718292236328125000e+01) (4, 1.78728656768798828125e+01) (5, 1.13258161544799804688e+01) (6, 2.61840591430664062500e+01) (7, 7.46909790039062500000e+01) (8, 9.73174743652343750000e+01) (9, 3.90421333312988281250e+01) (10, -5.38870735168457031250e+01) (11, -4.57196655273437500000e+01) (12, -5.64289321899414062500e+01) (13, -7.92646331787109375000e+01) (14, 5.69919538497924804688e+00) (15, 3.78678550720214843750e+01) (16, 4.93633728027343750000e+01) (17, -3.41674971580505371094e+00) (18, -3.64100151062011718750e+01) (19, 2.45594673156738281250e+01) (20, 9.10997295379638671875e+00) (21, -2.38429889678955078125e+01) (0, -4.82422218322753906250e+01) (1, -1.28433364868164062500e+02) (2, -1.11518356323242187500e+02) (3, -1.20630813598632812500e+02) (4, 5.04120635986328125000e+01) (5, -1.87765617370605468750e+01) (6, -9.15969085693359375000e+00) (7, -1.76773757934570312500e+01) (8, 3.58622398376464843750e+01) (9, 8.13686981201171875000e+01) (10, -2.02030334472656250000e+01) (11, -3.83039207458496093750e+01) (12, 3.00737533569335937500e+01) (13, 1.12774324417114257812e+01) (14, 2.62447052001953125000e+01) (15, 8.44577789306640625000e+00) (16, -3.62775764465332031250e+01) (17, -4.44877891540527343750e+01) (18, -7.21046066284179687500e+01) (19, 6.34098243713378906250e+01) (20, -1.55075693130493164062e+01) (21, -1.00886907577514648438e+01) (0, 5.21987190246582031250e+01) (1, 2.99558887481689453125e+01) (2, 6.27412176132202148438e+00) (3, 4.33567810058593750000e+01) (4, 8.26924896240234375000e+01) (5, -5.90735435485839843750e+01) (6, 3.68763847351074218750e+01) (7, 3.42610120773315429688e+00) (8, 4.15184288024902343750e+01) (9, 4.51032066345214843750e+01) (10, 3.15074596405029296875e+01) (11, 2.66184635162353515625e+01) (12, -5.90720672607421875000e+01) (13, -4.00189476013183593750e+01) (14, 4.31873130798339843750e+01) (15, -5.19230537414550781250e+01) (16, -6.47012863159179687500e+01) (17, -2.02656917572021484375e+01) (18, 1.93381328582763671875e+01) (19, -4.96543769836425781250e+01) (20, -2.26462249755859375000e+01) (21, -2.26769428253173828125e+01) (0, 3.40157432556152343750e+01) (1, 1.76843471527099609375e+01) (2, 1.13102312088012695312e+01) (3, 3.71831092834472656250e+01) (4, -2.88501815795898437500e+01) (5, 8.62735900878906250000e+01) (6, -6.62477264404296875000e+01) (7, -3.95407943725585937500e+01) (8, -1.82525444030761718750e+01) (9, -4.48857345581054687500e+01) (10, -1.27131242752075195312e+01) (11, -3.04311676025390625000e+01) (12, 1.00793479919433593750e+02) (13, 5.39166831970214843750e+01) (14, 3.52672462463378906250e+01) (15, 8.21828765869140625000e+01) (16, 1.51314575195312500000e+02) (17, 2.07966632843017578125e+01) (18, 7.74603414535522460938e+00) (19, -3.44211959838867187500e+01) (20, -1.82975330352783203125e+01) (21, 2.94917583465576171875e+01) (0, 2.20036071777343750000e+02) (1, 9.25761184692382812500e+01) (2, 1.42702606201171875000e+02) (3, -9.35205917358398437500e+01) (4, 1.21469924926757812500e+02) (5, 9.51126337051391601562e-01) (6, 2.24020843505859375000e+01) (7, 3.21578826904296875000e+01) (8, -1.78977012634277343750e+01) (9, -5.85234184265136718750e+01) (10, -6.95617218017578125000e+01) (11, -1.88676567077636718750e+01) (12, 1.29857360839843750000e+02) (13, 1.35245513916015625000e+02) (14, 1.29188184738159179688e+01) (15, 7.62011909484863281250e+00) (16, 7.42100000381469726562e-01) (17, 1.19438941955566406250e+02) (18, 2.51041164398193359375e+01) (19, 5.94531822204589843750e+01) (20, -8.50026071071624755859e-01) (21, 2.09927368164062500000e+01) (0, 5.81630249023437500000e+01) (1, 7.82639598846435546875e+00) (2, 4.47166099548339843750e+01) (3, -4.56258659362792968750e+01) (4, 4.46976242065429687500e+01) (5, 4.16592979431152343750e+00) (6, 1.42256784439086914062e+01) (7, 1.42290592193603515625e+01) (8, -4.29559669494628906250e+01) (9, -2.61690330505371093750e+01) (10, -4.05463600158691406250e+00) (11, 2.47277832031250000000e+01) (12, 4.47681121826171875000e+01) (13, 3.54354743957519531250e+01) (14, -6.88471832275390625000e+01) (15, -4.32528343200683593750e+01) (16, -9.63991928100585937500e+00) (17, -4.89438018798828125000e+01) (18, 4.98294715881347656250e+01) (19, -1.58300428390502929688e+01) (20, 1.24936542510986328125e+01) (21, 9.35213279724121093750e+00) (0, -3.93279433250427246094e+00) (1, -6.69492721557617187500e+01) (2, -4.00196762084960937500e+01) (3, -1.78963527679443359375e+01) (4, -1.02255065917968750000e+02) (5, -8.84839534759521484375e+00) (6, -6.19036750793457031250e+01) (7, -4.51412620544433593750e+01) (8, 1.79447422027587890625e+01) (9, -1.73733119964599609375e+01) (10, 5.90949392318725585938e+00) (11, -3.39378776550292968750e+01) (12, 3.36797370910644531250e+01) (13, 7.63116607666015625000e+01) (14, -9.36315841674804687500e+01) (15, -1.62517509460449218750e+01) (16, -5.19483375549316406250e+01) (17, -1.18825393676757812500e+02) (18, -8.14054412841796875000e+01) (19, -4.45506706237792968750e+01) (20, 2.71172161102294921875e+01) (21, 1.93273574829101562500e+02) (0, -1.90192260742187500000e+02) (1, -2.02083950042724609375e+01) (2, 8.08773727416992187500e+01) (3, -1.50551118850708007812e+01) (4, -2.38591728210449218750e+01) (5, 3.28466682434082031250e+01) (6, 1.53054399490356445312e+01) (7, -7.36093902587890625000e+01) (8, -1.06469831466674804688e+01) (9, 8.10991287231445312500e+01) (10, -3.40998611450195312500e+01) (11, -4.82295875549316406250e+01) (12, -4.37216529846191406250e+01) (13, 5.41387329101562500000e+01) (14, 7.97767686843872070312e+00) (15, 1.09009384155273437500e+02) (16, 4.39941253662109375000e+01) (17, -2.06026115417480468750e+01) (18, 6.65242385864257812500e+01) (19, -6.38991127014160156250e+01) (20, 2.52400341033935546875e+01) (21, 2.83849954605102539062e+00) (0, -2.92883872985839843750e+01) (1, -3.74677925109863281250e+01) (2, -6.20046920776367187500e+01) (3, -4.54692039489746093750e+01) (4, -7.31797409057617187500e+01) (5, 7.65887403488159179688e+00) (6, -7.91562604904174804688e+00) (7, -5.08752861022949218750e+01) (8, 9.96241474151611328125e+00) (9, 6.60955505371093750000e+01) (10, -2.99210472106933593750e+01) (11, -1.05975856781005859375e+01) (12, 5.14111480712890625000e+01) (13, 3.21418914794921875000e+01) (14, -2.04108180999755859375e+01) (15, 5.61536741256713867188e+00) (16, -6.34823226928710937500e+01) (17, -1.11652984619140625000e+01) (18, 3.17889251708984375000e+01) (19, -4.30787620544433593750e+01) (20, -8.49394836425781250000e+01) (21, -3.20315475463867187500e+01) (0, -7.67451324462890625000e+01) (1, 1.30652689933776855469e+00) (2, 3.49728622436523437500e+01) (3, -1.61348552703857421875e+01) (4, -1.35208694458007812500e+02) (5, 2.73309860229492187500e+01) (6, -4.22522125244140625000e+01) (7, 1.45223144531250000000e+02) (8, 1.63190063476562500000e+02) (9, 1.12185684204101562500e+02) (10, -4.41034240722656250000e+01) (11, -4.55165176391601562500e+01) (12, -1.96654567718505859375e+01) (13, 1.55295333862304687500e+01) (14, -1.73982944488525390625e+01) (15, -7.08901519775390625000e+01) (16, 1.15062665939331054688e+01) (17, -3.54465217590332031250e+01) (18, -1.73242980957031250000e+02) (19, 4.35404968261718750000e+01) (20, -2.16944522857666015625e+01) (21, 2.96136322021484375000e+01) (0, 1.09690828323364257812e+01) (1, -2.96003437042236328125e+00) (2, -3.46359901428222656250e+01) (3, 2.67184085845947265625e+01) (4, -4.07625961303710937500e+01) (5, 6.49521026611328125000e+01) (6, 1.92195987701416015625e+01) (7, -6.75048217773437500000e+01) (8, -1.47120010375976562500e+02) (9, -7.09011001586914062500e+01) (10, 3.10928249359130859375e+01) (11, 4.66315345764160156250e+01) (12, 2.42933044433593750000e+01) (13, 8.34818649291992187500e+01) (14, 9.53196258544921875000e+01) (15, -5.32418394088745117188e+00) (16, 2.91130280494689941406e+00) (17, -1.76636871337890625000e+02) (18, -1.35280410766601562500e+02) (19, 4.54169883728027343750e+01) (20, 1.12750005722045898438e+01) (21, -1.59907464981079101562e+01) (0, -2.56762123107910156250e+01) (1, -2.42330951690673828125e+01) (2, 1.61504065990447998047e+00) (3, 2.30074930191040039062e+00) (4, -3.58910408020019531250e+01) (5, 9.35366516113281250000e+01) (6, 7.32973251342773437500e+01) (7, -3.18722915649414062500e+01) (8, 4.11791534423828125000e+01) (9, 4.20847854614257812500e+01) (10, -2.37034111022949218750e+01) (11, -3.48743591308593750000e+01) (12, 1.70856380462646484375e+01) (13, 1.01208944320678710938e+01) (14, 1.71450901031494140625e+01) (15, -6.07613334655761718750e+01) (16, -7.24832992553710937500e+01) (17, -4.75884284973144531250e+01) (18, -2.31362304687500000000e+01) (19, 1.19646369934082031250e+02) (20, 4.28955993652343750000e+01) (21, 3.55750131607055664062e+00) (0, -5.88842201232910156250e+00) (1, -9.30720043182373046875e+00) (2, -4.20453453063964843750e+01) (3, 2.71083354949951171875e+01) (4, -7.92056274414062500000e+01) (5, -2.55953964233398437500e+02) (6, -2.31227478027343750000e+02) (7, 7.89505920410156250000e+01) (8, 4.04674339294433593750e+01) (9, -3.01970252990722656250e+01) (10, 1.17377525329589843750e+02) (11, 1.11950813293457031250e+02) (12, -5.95133256912231445312e+00) (13, -6.50377225875854492188e+00) (14, 2.67896614074707031250e+01) (15, -4.88786840438842773438e+00) (16, -1.03065490722656250000e+02) (17, -9.30566406250000000000e+00) (18, -7.43756484985351562500e+01) (19, -8.57871170043945312500e+01) (20, -2.69798984527587890625e+01) (21, -7.04314651489257812500e+01) (0, 7.83452463150024414062e+00) (1, 1.44475202560424804688e+01) (2, 4.51806106567382812500e+01) (3, 2.03600168228149414062e+00) (4, -6.05972976684570312500e+01) (5, -2.96036720275878906250e+01) (6, -2.06247291564941406250e+01) (7, -2.39086132049560546875e+01) (8, 3.64593887329101562500e+01) (9, 6.20555114746093750000e+01) (10, -3.51933441162109375000e+01) (11, -5.94894447326660156250e+01) (12, -1.69008560180664062500e+02) (13, -1.01982101440429687500e+02) (14, 2.17801094055175781250e+01) (15, 2.07516193389892578125e+01) (16, 4.33456916809082031250e+01) (17, -1.19645099639892578125e+01) (18, 7.17720794677734375000e+01) (19, -3.20382118225097656250e+01) (20, 4.64174880981445312500e+01) (21, -6.21196136474609375000e+01) (0, 1.85012702941894531250e+01) (1, -1.25414871215820312500e+02) (2, -1.90761077880859375000e+02) (3, 5.07338225841522216797e-01) (4, -9.45881423950195312500e+01) (5, -1.84905803203582763672e+00) (6, 1.86106758117675781250e+01) (7, -9.00199487805366516113e-02) (8, 4.44143829345703125000e+01) (9, 2.81529369354248046875e+01) (10, 1.21000423431396484375e+01) (11, -1.40803766250610351562e+00) (12, 2.64424972534179687500e+01) (13, -1.84754447937011718750e+01) (14, -1.45198402404785156250e+01) (15, 4.21068572998046875000e+01) (16, -1.50369148254394531250e+01) (17, -5.73089103698730468750e+01) (18, -6.28564977645874023438e+00) (19, -9.17670440673828125000e+01) (20, -2.49126274138689041138e-02) (21, 1.20273504257202148438e+01) (0, -1.35083818435668945312e+01) (1, -1.87174415588378906250e+01) (2, -3.00976867675781250000e+01) (3, -5.48829555511474609375e+00) (4, -1.59860858917236328125e+01) (5, -5.46367912292480468750e+01) (6, -3.96868705749511718750e+01) (7, 4.70081424713134765625e+00) (8, -1.09614019393920898438e+01) (9, 4.60919609069824218750e+01) (10, 5.46923141479492187500e+01) (11, 2.33488616943359375000e+01) (12, -2.00107746124267578125e+01) (13, -2.13536911010742187500e+01) (14, -2.66340713500976562500e+01) (15, -5.56186027526855468750e+01) (16, -5.64524459838867187500e+01) (17, 4.28857135772705078125e+00) (18, 2.18509445190429687500e+01) (19, -8.60168647766113281250e+00) (20, 6.79277515411376953125e+00) (21, -1.79142367839813232422e+00) (0, -6.38160820007324218750e+01) (1, 5.37136917114257812500e+01) (2, 4.48716545104980468750e+01) (3, 1.92013339996337890625e+01) (4, -2.92700996398925781250e+01) (5, 8.65609359741210937500e+01) (6, 2.69118804931640625000e+01) (7, 3.98115119934082031250e+01) (8, -7.31126642227172851562e+00) (9, -5.23552665710449218750e+01) (10, -6.13172111511230468750e+01) (11, -4.60040855407714843750e+01) (12, 5.08417015075683593750e+01) (13, -1.79657382965087890625e+01) (14, -1.01139915466308593750e+02) (15, 8.31973552703857421875e+00) (16, 3.80540885925292968750e+01) (17, -2.75277175903320312500e+01) (18, 3.24052000045776367188e+00) (19, -5.85729522705078125000e+01) (20, 2.22849216461181640625e+01) (21, 2.60821208953857421875e+01) (0, 3.60881805419921875000e+01) (1, -9.55053405761718750000e+01) (2, -2.55150012969970703125e+01) (3, -3.93839759826660156250e+01) (4, -7.24757337570190429688e+00) (5, 2.33978157043457031250e+01) (6, 5.66614570617675781250e+01) (7, 3.41623725891113281250e+01) (8, -2.03008708953857421875e+01) (9, -5.38518676757812500000e+01) (10, 6.65396347045898437500e+01) (11, 6.78140945434570312500e+01) (12, -1.85550479888916015625e+01) (13, -2.98898563385009765625e+01) (14, -7.13067054748535156250e-01) (15, -1.57338247299194335938e+01) (16, 5.31665916442871093750e+01) (17, -8.88004074096679687500e+01) (18, -3.20286529541015625000e+02) (19, 4.05716743469238281250e+01) (20, 2.80796566009521484375e+01) (21, -1.24516963958740234375e+01) (0, 6.21934623718261718750e+01) (1, 7.74034309387207031250e+00) (2, 6.37936820983886718750e+01) (3, 1.19804477691650390625e+01) (4, 8.17139816284179687500e+00) (5, 7.98306274414062500000e+01) (6, 9.65346984863281250000e+01) (7, -4.52839202880859375000e+01) (8, -5.50147819519042968750e+00) (9, 2.02574710845947265625e+01) (10, -4.67212905883789062500e+01) (11, -5.91382904052734375000e+01) (12, -9.47664833068847656250e+00) (13, -5.11849555969238281250e+01) (14, -1.96263599395751953125e+00) (15, 2.45259113311767578125e+01) (16, -4.71175537109375000000e+01) (17, -5.31981086730957031250e+01) (18, -1.16316795349121093750e+01) (19, -4.33356971740722656250e+01) (20, -3.73990058898925781250e+01) (21, 2.71117153167724609375e+01) (0, -7.02130556106567382812e+00) (1, 1.75566692352294921875e+01) (2, 8.01203842163085937500e+01) (3, -2.45649909973144531250e+00) (4, -6.97975616455078125000e+01) (5, -5.23411512374877929688e+00) (6, -3.81979637145996093750e+01) (7, -2.33278870582580566406e+00) (8, 3.13434448242187500000e+01) (9, 6.08876113891601562500e+01) (10, -4.17863502502441406250e+01) (11, -4.67862319946289062500e+01) (12, 1.08610124588012695312e+01) (13, 2.06803207397460937500e+01) (14, 1.32767553329467773438e+01) (15, -8.28274154663085937500e+00) (16, -5.42992830276489257812e+00) (17, -3.81561088562011718750e+01) (18, -2.76035861968994140625e+01) (19, -6.87690582275390625000e+01) (20, 1.18969717025756835938e+01) (21, -7.82862234115600585938e+00) (0, -6.57759094238281250000e+01) (1, 1.27410831451416015625e+01) (2, 6.63122329711914062500e+01) (3, -1.12989471435546875000e+02) (4, -1.18662843704223632812e+01) (5, -6.67979888916015625000e+01) (6, 2.64387550354003906250e+01) (7, 2.52876586914062500000e+01) (8, 1.25440425872802734375e+01) (9, 5.89560279846191406250e+01) (10, -9.35629653930664062500e+00) (11, -9.89323520660400390625e+00) (12, 9.04961109161376953125e+00) (13, 5.70805892944335937500e+01) (14, 1.72647895812988281250e+01) (15, -3.41019172668457031250e+01) (16, -1.20078945159912109375e+01) (17, 1.10811241149902343750e+02) (18, 6.21959724426269531250e+01) (19, 5.47288942337036132812e+00) (20, 4.18240394592285156250e+01) (21, 5.40264463424682617188e+00) (0, 4.00671157836914062500e+01) (1, 7.13663864135742187500e+01) (2, 2.59388275146484375000e+01) (3, 3.61076316833496093750e+01) (4, 2.52738533020019531250e+01) (5, -7.60604476928710937500e+01) (6, -3.53961143493652343750e+01) (7, 2.75866355895996093750e+01) (8, -5.26669311523437500000e+01) (9, -6.24769363403320312500e+01) (10, -3.21821784973144531250e+01) (11, 2.00513434410095214844e+00) (12, 2.76524791717529296875e+01) (13, 3.91373672485351562500e+01) (14, 7.91018295288085937500e+01) (15, 1.19701299667358398438e+01) (16, -1.28530263900756835938e+00) (17, 4.97550544738769531250e+01) (18, 1.04889457702636718750e+02) (19, -1.36687332153320312500e+02) (20, 3.23077621459960937500e+01) (21, 9.59443187713623046875e+00) (0, -6.34389114379882812500e+01) (1, -1.00377471923828125000e+02) (2, -5.49014434814453125000e+01) (3, -6.63288650512695312500e+01) (4, -3.48252944946289062500e+01) (5, 1.46509990692138671875e+01) (6, 9.01836967468261718750e+00) (7, 3.92293777465820312500e+01) (8, -1.31802780151367187500e+02) (9, -7.45096969604492187500e+01) (10, 7.80560302734375000000e+01) (11, 1.01704139709472656250e+02) (12, 4.32539796829223632812e+00) (13, 1.73851287364959716797e+00) (14, 3.65779914855957031250e+01) (15, -1.12903566360473632812e+01) (16, 1.15012655258178710938e+01) (17, 2.93146324157714843750e+01) (18, -8.19256401062011718750e+00) (19, 3.04465637207031250000e+01) (20, -1.34905166625976562500e+01) (21, -4.06709022521972656250e+01) (0, 2.36645450592041015625e+01) (1, 4.66289291381835937500e+01) (2, 1.31478500366210937500e+02) (3, -2.71880416870117187500e+01) (4, -2.81895408630371093750e+01) (5, 4.61553115844726562500e+01) (6, 6.84276504516601562500e+01) (7, 3.49415512084960937500e+01) (8, -3.63267898559570312500e+01) (9, -6.69523773193359375000e+01) (10, -5.12851257324218750000e+01) (11, 5.82570505142211914062e+00) (12, 4.29794578552246093750e+01) (13, 1.18971672058105468750e+01) (14, -2.15936088562011718750e+01) (15, -2.05868892669677734375e+01) (16, -9.75293350219726562500e+00) (17, 2.43830394744873046875e+01) (18, -5.68857154846191406250e+01) (19, -1.10646352767944335938e+01) (20, -3.73902410268783569336e-01) (21, 5.02663650512695312500e+01) (0, 1.14754018783569335938e+01) (1, -1.87555145263671875000e+02) (2, -7.35926361083984375000e+01) (3, -1.27662878036499023438e+01) (4, -4.54445648193359375000e+01) (5, 4.07832374572753906250e+01) (6, 2.07997837066650390625e+01) (7, 1.42071619033813476562e+01) (8, 3.24524803161621093750e+01) (9, 3.61842155456542968750e+01) (10, 1.14160203933715820312e+01) (11, 7.80372953414916992188e+00) (12, 6.91366500854492187500e+01) (13, 3.23422927856445312500e+01) (14, 4.06866722106933593750e+01) (15, -1.49843582153320312500e+02) (16, -1.23627586364746093750e+02) (17, -3.80351715087890625000e+01) (18, 2.86935749053955078125e+01) (19, -8.35228424072265625000e+01) (20, 7.34916496276855468750e+00) (21, 6.05499000549316406250e+01) (0, -2.00420627593994140625e+01) (1, 7.80970687866210937500e+01) (2, -2.84168738871812820435e-02) (3, 6.26630210876464843750e+01) (4, 8.16435852050781250000e+01) (5, 5.13106918334960937500e+01) (6, 1.78348579406738281250e+01) (7, 7.45783843994140625000e+01) (8, 3.36190414428710937500e+01) (9, -7.56597976684570312500e+01) (10, -7.64024276733398437500e+01) (11, -7.85249481201171875000e+01) (12, 1.64599761962890625000e+01) (13, -1.16403751373291015625e+01) (14, -3.64987945556640625000e+01) (15, 4.02514495849609375000e+01) (16, 8.18633804321289062500e+01) (17, -9.06830902099609375000e+01) (18, 1.63604106903076171875e+01) (19, 3.57533645629882812500e+01) (20, -5.79034662246704101562e+00) (21, -2.99174952507019042969e+00) (0, -1.07829484939575195312e+01) (1, -9.56943511962890625000e+01) (2, 1.86500434875488281250e+01) (3, -7.58276596069335937500e+01) (4, -6.14608688354492187500e+01) (5, 3.58519515991210937500e+01) (6, 6.28023109436035156250e+01) (7, 1.05051450729370117188e+01) (8, 4.17979240417480468750e-01) (9, 1.30586309432983398438e+01) (10, -2.04143371582031250000e+01) (11, 1.73347740173339843750e+01) (12, -1.64162635803222656250e+01) (13, -7.38277740478515625000e+01) (14, -1.49566154479980468750e+01) (15, -3.25058250427246093750e+01) (16, 3.32502794265747070312e+00) (17, 1.28006143569946289062e+01) (18, -4.35146951675415039062e+00) (19, -2.35596942901611328125e+01) (20, -9.69670181274414062500e+01) (21, 2.06303176879882812500e+01) (0, -8.99227809906005859375e+00) (1, -7.98508987426757812500e+01) (2, -6.90854644775390625000e+00) (3, -1.93273124694824218750e+01) (4, -2.69177532196044921875e+01) (5, 1.08143013000488281250e+02) (6, 8.30025939941406250000e+01) (7, 4.41634597778320312500e+01) (8, -9.36204910278320312500e+00) (9, 3.71574401855468750000e+01) (10, 1.23816299438476562500e+01) (11, -2.51820507049560546875e+01) (12, -2.53180255889892578125e+01) (13, -2.98395466804504394531e+00) (14, -7.04830169677734375000e+01) (15, -2.61189937591552734375e+01) (16, 1.03327407836914062500e+01) (17, 4.50448455810546875000e+01) (18, -1.28005264282226562500e+02) (19, 6.13673248291015625000e+01) (20, 9.12189407348632812500e+01) (21, -1.70172004699707031250e+01) (0, -7.11242980957031250000e+01) (1, -7.63786544799804687500e+01) (2, 7.85039291381835937500e+01) (3, -8.13457183837890625000e+01) (4, -1.75556221008300781250e+01) (5, 7.75405807495117187500e+01) (6, 7.02372055053710937500e+01) (7, -4.61280326843261718750e+01) (8, -9.18384094238281250000e+01) (9, -7.90233383178710937500e+01) (10, -9.45686798095703125000e+01) (11, -1.07835342407226562500e+02) (12, 1.38721328735351562500e+02) (13, 1.93462661743164062500e+02) (14, 8.50673446655273437500e+01) (15, 1.52818307876586914062e+01) (16, 2.28854217529296875000e+01) (17, -6.87728652954101562500e+01) (18, 4.71942520141601562500e+01) (19, -2.10698223114013671875e+01) (20, -5.29056625366210937500e+01) (21, 7.29897766113281250000e+01) (0, 5.17030811309814453125e+00) (1, 2.53419857025146484375e+01) (2, 2.17971496582031250000e+01) (3, -4.68027544021606445312e+00) (4, 1.92706298828125000000e+01) (5, -1.84498953819274902344e+00) (6, 5.30981292724609375000e+01) (7, 1.26231117248535156250e+02) (8, 3.59403419494628906250e+01) (9, -1.47767623901367187500e+02) (10, -5.29198265075683593750e+01) (11, 4.69277038574218750000e+01) (12, -4.40794563293457031250e+01) (13, 3.00521984100341796875e+01) (14, 2.50081634521484375000e+01) (15, -7.73997497558593750000e+00) (16, -2.65882244110107421875e+01) (17, -1.26244224548339843750e+02) (18, 1.28034725785255432129e-01) (19, 8.65463638305664062500e+00) (20, -4.53307509422302246094e-01) (21, 3.59264016151428222656e+00) (0, 8.20219898223876953125e+00) (1, 1.36319213867187500000e+02) (2, 1.95276046752929687500e+02) (3, -7.53900146484375000000e+01) (4, -7.56672592163085937500e+01) (5, 1.81995697021484375000e+01) (6, -7.71354293823242187500e+01) (7, 3.80996360778808593750e+01) (8, 7.53656463623046875000e+01) (9, 3.73034362792968750000e+01) (10, -4.51378593444824218750e+01) (11, -3.13042564392089843750e+01) (12, -7.19838943481445312500e+01) (13, -1.11558113098144531250e+02) (14, 3.57750015258789062500e+01) (15, -1.78437213897705078125e+01) (16, -1.23918237686157226562e+01) (17, 3.84006381034851074219e+00) (18, 1.75015735626220703125e+01) (19, 9.19335098266601562500e+01) (20, -6.37722854614257812500e+01) (21, -4.12233352661132812500e+01) (0, -1.12405710220336914062e+01) (1, -1.61265975952148437500e+02) (2, 1.70517745971679687500e+02) (3, 3.04031887054443359375e+01) (4, -8.79218769073486328125e+00) (5, 7.38194656372070312500e+01) (6, 4.23504142761230468750e+01) (7, -4.27030906677246093750e+01) (8, -4.69177780151367187500e+01) (9, 3.65886497497558593750e+01) (10, -2.51344108581542968750e+01) (11, -1.11325960159301757812e+01) (12, -2.14121608734130859375e+01) (13, 6.35846557617187500000e+01) (14, 3.79624824523925781250e+01) (15, -5.00619926452636718750e+01) (16, -7.02036972045898437500e+01) (17, -2.32635612487792968750e+01) (18, 1.76181659698486328125e+01) (19, -5.37347145080566406250e+01) (20, 1.60829830169677734375e+01) (21, -1.48540010452270507812e+01) (0, -2.47511692047119140625e+01) (1, -9.44443359375000000000e+01) (2, -7.29863071441650390625e+00) (3, 1.30871372222900390625e+01) (4, -9.42186203002929687500e+01) (5, -1.52952709197998046875e+01) (6, -7.66650543212890625000e+01) (7, -6.21346359252929687500e+01) (8, 4.46077919006347656250e+01) (9, -6.54947757720947265625e+00) (10, -1.96652793884277343750e+01) (11, -3.83384742736816406250e+01) (12, -6.16326808929443359375e+00) (13, 1.25932273864746093750e+02) (14, -7.83538589477539062500e+01) (15, -4.70395050048828125000e+01) (16, -6.95038909912109375000e+01) (17, -1.41327087402343750000e+02) (18, -8.15370368957519531250e+00) (19, -2.89770450592041015625e+01) (20, -8.03708457946777343750e+00) (21, 2.49606765747070312500e+02) (0, -1.23478631973266601562e+01) (1, -8.12334823608398437500e+01) (2, -6.86575393676757812500e+01) (3, -3.92449607849121093750e+01) (4, 5.53979110717773437500e+01) (5, -5.68092842102050781250e+01) (6, 1.68560638427734375000e+01) (7, -8.03424060344696044922e-01) (8, -4.02983245849609375000e+01) (9, -3.25278854370117187500e+01) (10, 9.22267246246337890625e+00) (11, 5.55502748489379882812e+00) (12, -5.59361000061035156250e+01) (13, -6.37449874877929687500e+01) (14, 3.64450931549072265625e+00) (15, 4.86100082397460937500e+01) (16, 1.27558088302612304688e+01) (17, 6.09830322265625000000e+01) (18, 7.26854629516601562500e+01) (19, 2.02022533416748046875e+01) (20, 1.96842803955078125000e+01) (21, -3.47744903564453125000e+01) (0, -4.57965910434722900391e-01) (1, -4.01943397521972656250e+01) (2, -3.06484012603759765625e+01) (3, -3.36054420471191406250e+01) (4, -3.54617652893066406250e+01) (5, -3.26190071105957031250e+01) (6, -6.12344474792480468750e+01) (7, -5.36154899597167968750e+01) (8, -1.26428298950195312500e+02) (9, 8.63613224029541015625e+00) (10, 9.44627532958984375000e+01) (11, 8.66021728515625000000e+01) (12, 8.20664749145507812500e+01) (13, 8.83688583374023437500e+01) (14, -1.99095954895019531250e+01) (15, -5.01403160095214843750e+01) (16, -1.52098035812377929688e+01) (17, 5.89752235412597656250e+01) (18, 1.01805782318115234375e+00) (19, 4.51238975524902343750e+01) (20, 1.05845069885253906250e+01) (21, 7.50041294097900390625e+00) (0, 3.94629502296447753906e+00) (1, 1.19015296936035156250e+02) (2, 1.11241020202636718750e+02) (3, 3.97520141601562500000e+01) (4, -1.55885648727416992188e+01) (5, 2.50858764648437500000e+01) (6, 3.69831771850585937500e+01) (7, 6.84364929199218750000e+01) (8, 4.97629203796386718750e+01) (9, -8.61680221557617187500e+00) (10, -3.82020072937011718750e+01) (11, -3.60057716369628906250e+01) (12, 8.30537033081054687500e+01) (13, -2.15158557891845703125e+01) (14, -2.30991973876953125000e+01) (15, -7.90092468261718750000e+01) (16, -6.53931274414062500000e+01) (17, 1.45215072631835937500e+01) (18, 9.76788787841796875000e+01) (19, -1.46794372558593750000e+02) (20, -1.43570423126220703125e+01) (21, 2.14283218383789062500e+01) (0, -9.20310020446777343750e+00) (1, -4.42907829284667968750e+01) (2, -8.36765136718750000000e+01) (3, 6.79048080444335937500e+01) (4, -1.89640636444091796875e+01) (5, 3.80849151611328125000e+01) (6, 1.55674161911010742188e+01) (7, 5.74202585220336914062e+00) (8, 4.58134460449218750000e+01) (9, 2.71075725555419921875e+01) (10, -1.53980522155761718750e+01) (11, -2.04936656951904296875e+01) (12, 3.26880860328674316406e+00) (13, -4.82096052169799804688e+00) (14, 5.27023353576660156250e+01) (15, -6.36730575561523437500e+01) (16, -3.89229888916015625000e+01) (17, -1.57504835128784179688e+01) (18, -2.01662693023681640625e+01) (19, 2.48447251319885253906e+00) (20, 4.61180992126464843750e+01) (21, 2.67107796669006347656e+00) (0, -7.63433990478515625000e+01) (1, 5.90513086318969726562e+00) (2, 5.18008460998535156250e+01) (3, 1.70604057312011718750e+01) (4, 3.67788429260253906250e+01) (5, -6.64032516479492187500e+01) (6, -3.33438034057617187500e+01) (7, -7.78557128906250000000e+01) (8, 1.29050815105438232422e+00) (9, 8.28147430419921875000e+01) (10, 3.66452484130859375000e+01) (11, 3.98369560241699218750e+01) (12, 2.39095020294189453125e+01) (13, -9.17904758453369140625e+00) (14, -1.06051797866821289062e+01) (15, -6.16218423843383789062e+00) (16, 1.37742586135864257812e+01) (17, 6.56155395507812500000e+01) (18, -4.53795356750488281250e+01) (19, 3.18348522186279296875e+01) (20, 8.63465576171875000000e+01) (21, -4.82305412292480468750e+01) (0, 3.91612434387207031250e+01) (1, -4.13091278076171875000e+01) (2, -1.32609863281250000000e+02) (3, -6.90993423461914062500e+01) (4, 1.96206863403320312500e+02) (5, -2.01302027702331542969e+00) (6, 1.98320636749267578125e+01) (7, -3.61900329589843750000e+01) (8, 7.96358633041381835938e+00) (9, 4.40750732421875000000e+01) (10, -2.71366348266601562500e+01) (11, 2.79139661788940429688e+00) (12, -4.33378601074218750000e+01) (13, -5.09401512145996093750e+01) (14, 1.37466478347778320312e+01) (15, 3.15846710205078125000e+01) (16, 5.03915100097656250000e+01) (17, 3.75752677917480468750e+01) (18, 7.45660543441772460938e+00) (19, 2.87067451477050781250e+01) (20, -6.15414924621582031250e+01) (21, 2.60073585510253906250e+01) (22, -6.40957641601562500000e+00) (23, -3.90175533294677734375e+00) (24, 2.50088195800781250000e+01) (25, -2.01981964111328125000e+01) (26, -3.05049514770507812500e+01) (27, 1.49901735782623291016e+00) (28, 3.15118999481201171875e+01) (29, -5.14975249767303466797e-01) (30, 1.53885974884033203125e+01) (31, 1.13432760238647460938e+01) (32, 6.81342315673828125000e+00) (33, -3.27865362167358398438e+00) (34, 1.21956431865692138672e+00) (35, -5.82724094390869140625e-01) (36, -1.30669307708740234375e+01) (37, -4.76910400390625000000e+00) (38, -1.85662269592285156250e+01) (39, 1.57845935821533203125e+01) (40, -1.76819431781768798828e+00) (41, -4.29946327209472656250e+00) (42, 6.00104272365570068359e-01) (43, 8.59676170349121093750e+00) (44, 5.49838113784790039062e+00) (45, -1.25422835350036621094e+00) (46, 2.46844744682312011719e+00) (47, -1.08655633926391601562e+01) (48, -1.07202472686767578125e+01) (49, -2.88277854919433593750e+01) (50, -9.73396587371826171875e+00) (51, 1.60375893115997314453e+00) (52, -3.62421393394470214844e+00) (53, 8.21377336978912353516e-01) (54, 2.32183456420898437500e+01) (55, -2.99729652404785156250e+01) (56, -8.49578666687011718750e+00) (57, 1.04199228286743164062e+01) (58, -2.49405932426452636719e+00) (59, -1.07773132324218750000e+01) (60, 1.47705936431884765625e+01) (61, 8.25220763683319091797e-01) (62, -5.39752435684204101562e+00) (63, -2.25827550888061523438e+00) (64, -2.73858871459960937500e+01) (65, 6.20205545425415039062e+00) (66, -3.75959205627441406250e+00) (67, 1.53966102600097656250e+01) (68, 1.60903692245483398438e+00) (69, 1.56580257415771484375e+01) (70, 2.19289088249206542969e+00) (71, 5.30188274383544921875e+00) (72, -7.25432157516479492188e+00) (73, -1.48552119731903076172e+00) (74, -2.38487648963928222656e+00) (75, -2.98215103149414062500e+01) (76, -9.84969711303710937500e+00) (77, -1.17277610301971435547e+00) (78, -8.47452259063720703125e+00) (79, 5.38953542709350585938e+00) (80, 7.84579098224639892578e-01) (81, 8.21081829071044921875e+00) (82, -3.21488838195800781250e+01) (22, -2.73394513130187988281e+00) (23, -1.80815792083740234375e+01) (24, 2.73773746490478515625e+01) (25, -2.39357357025146484375e+01) (26, -2.78787860870361328125e+01) (27, -1.93896102905273437500e+01) (28, 2.96160831451416015625e+01) (29, -1.64783525466918945312e+00) (30, -1.54758625030517578125e+01) (31, -6.51207351684570312500e+00) (32, -1.38698348999023437500e+01) (33, -5.36224699020385742188e+00) (34, -1.03525028228759765625e+01) (35, 3.73186802864074707031e+00) (36, 1.44227294921875000000e+01) (37, 1.52737283706665039062e+01) (38, -9.11847305297851562500e+00) (39, -1.15771675109863281250e+01) (40, 1.23166370391845703125e+01) (41, 5.90758514404296875000e+00) (42, -1.32741107940673828125e+01) (43, -1.20822429656982421875e+01) (44, -1.13873064517974853516e+00) (45, 4.78965425491333007812e+00) (46, 3.69723820686340332031e+00) (47, 1.30273532867431640625e+01) (48, 1.12349853515625000000e+01) (49, -2.83802928924560546875e+01) (50, 1.95063381195068359375e+01) (51, 2.87087225914001464844e+00) (52, -1.49421548843383789062e+01) (53, -1.10038814544677734375e+01) (54, 1.18981857299804687500e+01) (55, -3.25311470031738281250e+01) (56, -8.90560913085937500000e+00) (57, -7.35724592208862304688e+00) (58, -5.60563385486602783203e-01) (59, -5.73094415664672851562e+00) (60, -2.37431316375732421875e+01) (61, -7.46804904937744140625e+00) (62, 6.74481093883514404297e-01) (63, 7.52569818496704101562e+00) (64, 2.09155006408691406250e+01) (65, 9.21511936187744140625e+00) (66, 9.00116741657257080078e-01) (67, 9.24787235260009765625e+00) (68, -7.54113626480102539062e+00) (69, -6.97012484073638916016e-01) (70, -7.67814016342163085938e+00) (71, 2.37418079376220703125e+01) (72, -4.49618816375732421875e+00) (73, -1.15372209548950195312e+01) (74, 2.49760532379150390625e+01) (75, -3.11978588104248046875e+01) (76, 1.56731009483337402344e+00) (77, 6.89995288848876953125e+00) (78, 1.03948040008544921875e+01) (79, -1.00444889068603515625e+01) (80, 1.01752405166625976562e+01) (81, -3.38218808174133300781e+00) (82, -3.36417846679687500000e+01) (22, 1.93675005435943603516e+00) (23, -9.59782838821411132812e-01) (24, 2.68793525695800781250e+01) (25, -1.42885427474975585938e+01) (26, -3.78460273742675781250e+01) (27, -1.98690719604492187500e+01) (28, 3.88052215576171875000e+01) (29, 1.77383747100830078125e+01) (30, 1.17519102096557617188e+01) (31, 7.11246061325073242188e+00) (32, 5.80110168457031250000e+00) (33, -8.57402896881103515625e+00) (34, -5.13259315490722656250e+00) (35, 5.66956520080566406250e+00) (36, -5.26631474494934082031e-01) (37, -1.18196592330932617188e+01) (38, -1.19632272720336914062e+01) (39, 1.77609519958496093750e+01) (40, -1.24709711074829101562e+01) (41, 4.07165670394897460938e+00) (42, -5.42913722991943359375e+00) (43, 8.14587414264678955078e-01) (44, 1.13785009384155273438e+01) (45, -1.68268501758575439453e+00) (46, -9.36575412750244140625e+00) (47, -1.17058801651000976562e+01) (48, -4.04797697067260742188e+00) (49, -3.03015136718750000000e+01) (50, -1.18191518783569335938e+01) (51, -7.60866582393646240234e-01) (52, -5.21825361251831054688e+00) (53, 1.17086057662963867188e+01) (54, -5.89633083343505859375e+00) (55, 1.87562370300292968750e+01) (56, 7.55197227001190185547e-01) (57, 1.26747026443481445312e+01) (58, 5.33411550521850585938e+00) (59, -1.07022085189819335938e+01) (60, 1.81771051883697509766e+00) (61, -9.25435543060302734375e+00) (62, -3.23028469085693359375e+00) (63, -1.69962084293365478516e+00) (64, -6.80470132827758789062e+00) (65, 1.79381008148193359375e+01) (66, -4.72377634048461914062e+00) (67, -2.76980066299438476562e+00) (68, -6.65689039230346679688e+00) (69, -1.15027129650115966797e+00) (70, 1.69813690185546875000e+01) (71, -1.30291566848754882812e+01) (72, -1.97463836669921875000e+01) (73, -1.01631650924682617188e+01) (74, -5.62461757659912109375e+00) (75, -3.67095832824707031250e+01) (76, -3.47438383102416992188e+00) (77, 5.22459316253662109375e+00) (78, -5.29504776000976562500e+00) (79, 6.01349401473999023438e+00) (80, 1.02837095260620117188e+01) (81, 2.60194659233093261719e-01) (82, -4.27775421142578125000e+01) (22, -8.98496723175048828125e+00) (23, -1.73587429523468017578e+00) (24, 2.88901271820068359375e+01) (25, -9.95831775665283203125e+00) (26, -2.46341571807861328125e+01) (27, -9.11758899688720703125e+00) (28, 2.35697689056396484375e+01) (29, 5.55379009246826171875e+00) (30, -6.93275690078735351562e+00) (31, 3.93543314933776855469e+00) (32, 9.85807704925537109375e+00) (33, 9.35005283355712890625e+00) (34, 3.93085628747940063477e-01) (35, -1.83422815799713134766e+00) (36, 4.50743770599365234375e+00) (37, 5.74042034149169921875e+00) (38, -1.79915485382080078125e+01) (39, -4.23617392778396606445e-01) (40, 8.61213970184326171875e+00) (41, -3.60853910446166992188e+00) (42, -7.33446121215820312500e+00) (43, 1.72986965179443359375e+01) (44, 1.19020090103149414062e+01) (45, 4.23775005340576171875e+00) (46, 5.62661111354827880859e-01) (47, -2.51571774482727050781e+00) (48, -1.03603963851928710938e+01) (49, -2.18534069061279296875e+01) (50, -3.43966960906982421875e+00) (51, -4.56423282623291015625e+00) (52, 2.31079139709472656250e+01) (53, -2.03245830535888671875e+01) (54, -5.48269462585449218750e+00) (55, 7.15335273742675781250e+00) (56, 4.41033267974853515625e+00) (57, 1.09388055801391601562e+01) (58, 6.81924402713775634766e-01) (59, -5.43791532516479492188e+00) (60, 5.12522172927856445312e+00) (61, -1.09492406845092773438e+01) (62, 2.67143219709396362305e-01) (63, 4.12899541854858398438e+00) (64, -6.12636566162109375000e+00) (65, -1.37846097946166992188e+01) (66, -9.20049953460693359375e+00) (67, 1.54910707473754882812e+01) (68, 9.31564426422119140625e+00) (69, 6.18002986907958984375e+00) (70, 1.40336427688598632812e+01) (71, -5.80015850067138671875e+00) (72, 1.25355892181396484375e+01) (73, -9.31889629364013671875e+00) (74, -1.34254064559936523438e+01) (75, -2.67703495025634765625e+01) (76, 1.64775282144546508789e-01) (77, -1.48809194564819335938e+01) (78, -7.22115135192871093750e+00) (79, -1.12245512008666992188e+00) (80, -9.65630626678466796875e+00) (81, 1.85029816627502441406e+00) (82, -2.80177898406982421875e+01) (22, 4.67623174190521240234e-02) (23, 1.18072509765625000000e+01) (24, 3.25369644165039062500e+01) (25, -1.80765838623046875000e+01) (26, -3.19438838958740234375e+01) (27, 2.50399951934814453125e+01) (28, 3.84184150695800781250e+01) (29, 1.95369958877563476562e+00) (30, -1.31383156776428222656e+00) (31, -4.30680561065673828125e+00) (32, 1.75746784210205078125e+01) (33, -1.13023388385772705078e+00) (34, -6.54701280593872070312e+00) (35, 3.12333226203918457031e+00) (36, -5.98837566375732421875e+00) (37, 1.00504934787750244141e+00) (38, 2.72672605514526367188e+00) (39, -6.36634945869445800781e-01) (40, 6.46291685104370117188e+00) (41, 6.43819856643676757812e+00) (42, -9.40367507934570312500e+00) (43, 5.04211854934692382812e+00) (44, -1.12100906372070312500e+01) (45, 6.11105394363403320312e+00) (46, 4.67516946792602539062e+00) (47, -1.45829744338989257812e+01) (48, 8.13095760345458984375e+00) (49, -2.59573936462402343750e+01) (50, 2.51205682754516601562e+00) (51, -1.87089824676513671875e+01) (52, 2.16062736511230468750e+00) (53, -5.06260693073272705078e-02) (54, -6.08845520019531250000e+00) (55, 1.25936660766601562500e+01) (56, 8.18670272827148437500e+00) (57, -1.46635723114013671875e+01) (58, -1.20261478424072265625e+00) (59, -7.16048145294189453125e+00) (60, -1.65226612091064453125e+01) (61, -3.53550410270690917969e+00) (62, -2.74472332000732421875e+00) (63, -1.75056209564208984375e+01) (64, -6.19065904617309570312e+00) (65, -1.75324974060058593750e+01) (66, -5.14960885047912597656e-01) (67, -1.29832382202148437500e+01) (68, 5.71262264251708984375e+00) (69, -1.71733653545379638672e+00) (70, -7.58350181579589843750e+00) (71, -4.07586431503295898438e+00) (72, -1.61482505798339843750e+01) (73, -7.66092348098754882812e+00) (74, -2.55799064636230468750e+01) (75, -3.08420505523681640625e+01) (76, 2.02405986785888671875e+01) (77, 5.08679246902465820312e+00) (78, -4.24111557006835937500e+00) (79, 4.02581357955932617188e+00) (80, 1.54735221862792968750e+01) (81, 1.75143699645996093750e+01) (82, -4.19193840026855468750e+01) (22, 3.31221079826354980469e+00) (23, 2.62079930305480957031e+00) (24, 2.31218433380126953125e+01) (25, -1.60220718383789062500e+01) (26, -2.36642971038818359375e+01) (27, -1.70037174224853515625e+00) (28, 2.28336467742919921875e+01) (29, -7.10460245609283447266e-01) (30, -1.97027912139892578125e+01) (31, -3.52198570966720581055e-01) (32, 3.40770870447158813477e-01) (33, -1.75903940200805664062e+00) (34, 1.35766477584838867188e+01) (35, -8.26410353183746337891e-01) (36, -1.74270267486572265625e+01) (37, -2.70832085609436035156e+00) (38, -1.53208179473876953125e+01) (39, -2.14298057556152343750e+01) (40, 5.44345617294311523438e+00) (41, 5.06794881820678710938e+00) (42, -9.32500648498535156250e+00) (43, 2.64400553703308105469e+00) (44, 9.79822063446044921875e+00) (45, -4.19590383768081665039e-01) (46, -8.44191837310791015625e+00) (47, 1.24634790420532226562e+01) (48, -1.42573118209838867188e+01) (49, -2.02197093963623046875e+01) (50, 9.38140201568603515625e+00) (51, -1.07456722259521484375e+01) (52, 4.25395631790161132812e+00) (53, 2.13332710266113281250e+01) (54, -3.61601853370666503906e+00) (55, 2.34198784828186035156e+00) (56, -3.22997307777404785156e+00) (57, -6.25785636901855468750e+00) (58, -6.20799446105957031250e+00) (59, -7.65790939331054687500e+00) (60, 1.32446699142456054688e+01) (61, 1.44872236251831054688e+00) (62, -2.54855442047119140625e+00) (63, 1.78310832977294921875e+01) (64, 1.58443288803100585938e+01) (65, 7.88558483123779296875e+00) (66, 6.53020095825195312500e+00) (67, 7.88626003265380859375e+00) (68, -1.49428415298461914062e+01) (69, 5.29162073135375976562e+00) (70, -4.54262161254882812500e+00) (71, 5.72702980041503906250e+00) (72, 1.00306510925292968750e+01) (73, 1.25696821212768554688e+01) (74, 1.31937437057495117188e+01) (75, -2.16965618133544921875e+01) (76, -7.44129753112792968750e+00) (77, -2.39230322837829589844e+00) (78, -7.65265655517578125000e+00) (79, -2.70086884498596191406e+00) (80, -5.92647981643676757812e+00) (81, 1.35655474662780761719e+00) (82, -2.44015102386474609375e+01) (22, -2.88046574592590332031e+00) (23, -2.72899365425109863281e+00) (24, 2.25109996795654296875e+01) (25, -1.24345331192016601562e+01) (26, -2.04118328094482421875e+01) (27, 4.88874405622482299805e-01) (28, 2.21064510345458984375e+01) (29, 2.06301078200340270996e-01) (30, -3.16621685028076171875e+00) (31, 4.02051401138305664062e+00) (32, -1.01869974136352539062e+01) (33, 2.18279719352722167969e+00) (34, 4.23677015304565429688e+00) (35, -2.20439219474792480469e+00) (36, -1.05161275863647460938e+01) (37, 5.47670698165893554688e+00) (38, -1.33322582244873046875e+01) (39, 2.68747687339782714844e+00) (40, -2.54781693220138549805e-01) (41, 6.69179856777191162109e-01) (42, 5.44820964336395263672e-01) (43, -3.67022842168807983398e-01) (44, 4.19922208786010742188e+00) (45, 2.58203387260437011719e+00) (46, 1.00981974601745605469e+00) (47, -7.11531925201416015625e+00) (48, 4.72110986709594726562e+00) (49, -2.08570423126220703125e+01) (50, -1.00690793991088867188e+00) (51, 5.60807704925537109375e+00) (52, -1.27585053443908691406e+00) (53, -1.39915847778320312500e+00) (54, 1.47426366806030273438e+01) (55, -1.10199460983276367188e+01) (56, 1.75388789176940917969e+00) (57, 9.60790538787841796875e+00) (58, 1.45722484588623046875e+00) (59, 6.30522441864013671875e+00) (60, -1.76450366973876953125e+01) (61, 8.35387229919433593750e+00) (62, -3.55245351791381835938e-01) (63, -9.17154133319854736328e-01) (64, -8.94722080230712890625e+00) (65, -3.17709612846374511719e+00) (66, -5.40922498703002929688e+00) (67, 9.62297248840332031250e+00) (68, -9.39133048057556152344e-01) (69, 5.09508371353149414062e+00) (70, 1.77061023712158203125e+01) (71, 5.72195291519165039062e+00) (72, 7.45179176330566406250e+00) (73, -1.05836858749389648438e+01) (74, 1.35382022857666015625e+01) (75, -2.36190128326416015625e+01) (76, -8.18079757690429687500e+00) (77, -8.54412841796875000000e+00) (78, -3.97650122642517089844e+00) (79, 6.58270406723022460938e+00) (80, -5.56053161621093750000e+00) (81, -1.51465401053428649902e-01) (82, -2.34964008331298828125e+01) (22, 7.64759838581085205078e-01) (23, -1.80905628204345703125e+00) (24, 2.88951988220214843750e+01) (25, -1.70145626068115234375e+01) (26, -3.17508316040039062500e+01) (27, 6.85565567016601562500e+00) (28, 3.27201995849609375000e+01) (29, 7.79113960266113281250e+00) (30, 2.32501053810119628906e+00) (31, 6.23237323760986328125e+00) (32, -3.12806010246276855469e+00) (33, -2.63442277908325195312e+00) (34, 9.26862621307373046875e+00) (35, 1.60278069972991943359e+00) (36, 2.59401378631591796875e+01) (37, 6.82433032989501953125e+00) (38, -2.43610644340515136719e+00) (39, 2.79744853973388671875e+01) (40, -6.58204460144042968750e+00) (41, 1.03538951873779296875e+01) (42, -4.95580339431762695312e+00) (43, 1.53790199756622314453e+00) (44, 1.72907304763793945312e+00) (45, -3.87449479103088378906e+00) (46, -7.23892259597778320312e+00) (47, 7.37311649322509765625e+00) (48, -3.43697637319564819336e-01) (49, -2.16424121856689453125e+01) (50, -1.70647788047790527344e+00) (51, -6.85610961914062500000e+00) (52, 2.23262238502502441406e+00) (53, 7.97984647750854492188e+00) (54, 5.34255087375640869141e-01) (55, 2.04391708374023437500e+01) (56, -1.13722515106201171875e+01) (57, -1.25528001785278320312e+01) (58, 2.22484350204467773438e+00) (59, -1.69422483444213867188e+00) (60, -1.81412220001220703125e+00) (61, -5.02268171310424804688e+00) (62, -8.26205158233642578125e+00) (63, 1.68442714214324951172e+00) (64, -2.65270709991455078125e+00) (65, 7.94599294662475585938e+00) (66, 4.22808587551116943359e-01) (67, 1.82385921478271484375e+00) (68, -8.05487918853759765625e+00) (69, -6.26855564117431640625e+00) (70, 7.77191591262817382812e+00) (71, 1.42956800460815429688e+01) (72, -4.14622068405151367188e+00) (73, 4.72951793670654296875e+00) (74, 3.88944778442382812500e+01) (75, -2.83254795074462890625e+01) (76, 2.01722264289855957031e+00) (77, 9.47049617767333984375e+00) (78, -4.54331684112548828125e+00) (79, -1.66105008125305175781e+00) (80, 1.98193244934082031250e+01) (81, 5.62246501445770263672e-01) (82, -3.64359855651855468750e+01) (22, 8.86958885192871093750e+00) (23, -4.01520681381225585938e+00) (24, 3.79229316711425781250e+01) (25, -1.10244359970092773438e+01) (26, -3.44821929931640625000e+01) (27, -1.02235031127929687500e+01) (28, 4.04804039001464843750e+01) (29, -1.73094463348388671875e+01) (30, 7.40677595138549804688e+00) (31, 1.20144329071044921875e+01) (32, 1.25663208961486816406e+00) (33, -2.05000549554824829102e-01) (34, -1.18337755203247070312e+01) (35, 5.62038362026214599609e-01) (36, -2.39848537445068359375e+01) (37, -7.24712800979614257812e+00) (38, -1.51612081527709960938e+01) (39, -1.18583974838256835938e+01) (40, 9.29086875915527343750e+00) (41, 2.51476335525512695312e+00) (42, -1.59161317348480224609e+00) (43, 1.08283929824829101562e+01) (44, 2.40731477737426757812e+00) (45, 9.94615745544433593750e+00) (46, -1.30155801773071289062e+01) (47, 1.55834398269653320312e+01) (48, 7.85073423385620117188e+00) (49, -3.03651599884033203125e+01) (50, 1.15820274353027343750e+01) (51, 4.96705341339111328125e+00) (52, -1.45352802276611328125e+01) (53, -1.37922086715698242188e+01) (54, -5.67336940765380859375e+00) (55, 1.84175319671630859375e+01) (56, 1.31683197021484375000e+01) (57, -7.62653970718383789062e+00) (58, 1.04699134826660156250e+01) (59, -8.19082832336425781250e+00) (60, -1.42733745574951171875e+01) (61, 9.82282066345214843750e+00) (62, 1.31773557662963867188e+01) (63, 5.35398292541503906250e+00) (64, 2.53399610519409179688e+00) (65, -4.18534088134765625000e+00) (66, -5.12456226348876953125e+00) (67, 3.78538608551025390625e+00) (68, -1.29411611557006835938e+01) (69, -1.02642536163330078125e+01) (70, 7.97369424253702163696e-03) (71, -5.76396417617797851562e+00) (72, -1.84497070312500000000e+01) (73, -2.01978182792663574219e+00) (74, 1.77668972015380859375e+01) (75, -3.71327018737792968750e+01) (76, 5.98825454711914062500e+00) (77, -1.69539966583251953125e+01) (78, 1.04374990463256835938e+01) (79, -6.77488517761230468750e+00) (80, 5.32318305969238281250e+00) (81, -1.47013914585113525391e+00) (82, -4.31451835632324218750e+01) (22, -4.20440578460693359375e+00) (23, -9.96080780029296875000e+00) (24, 2.78719310760498046875e+01) (25, -1.16052627563476562500e+01) (26, -2.42217960357666015625e+01) (27, -9.94416904449462890625e+00) (28, 2.58943767547607421875e+01) (29, -1.66245031356811523438e+00) (30, 7.56634902954101562500e+00) (31, 3.84509944915771484375e+00) (32, -1.31624279022216796875e+01) (33, 8.19116353988647460938e-01) (34, -3.71001696586608886719e+00) (35, -3.73400998115539550781e+00) (36, 8.25106430053710937500e+00) (37, -7.14809560775756835938e+00) (38, -1.77365016937255859375e+01) (39, -1.93438777923583984375e+01) (40, -7.48448252677917480469e-01) (41, -8.88046646118164062500e+00) (42, 7.05580949783325195312e+00) (43, -5.06993722915649414062e+00) (44, 1.63555908203125000000e+00) (45, -1.40769433975219726562e+00) (46, -6.47951412200927734375e+00) (47, -1.97856559753417968750e+01) (48, -2.88480567932128906250e+00) (49, -2.33673076629638671875e+01) (50, 3.52281999588012695312e+00) (51, 5.82447052001953125000e+00) (52, 1.21578521728515625000e+01) (53, 1.44596457481384277344e+00) (54, 9.55138587951660156250e+00) (55, 1.83391022682189941406e+00) (56, 1.07654628753662109375e+01) (57, 1.43705773353576660156e+00) (58, 4.56257247924804687500e+00) (59, 4.27545881271362304688e+00) (60, -1.56034736633300781250e+01) (61, -7.06137514114379882812e+00) (62, 2.35423564910888671875e+00) (63, -5.21238899230957031250e+00) (64, -7.10742044448852539062e+00) (65, 1.09576463699340820312e+01) (66, -1.37641916275024414062e+01) (67, 1.21042766571044921875e+01) (68, -8.51615047454833984375e+00) (69, 7.35635328292846679688e+00) (70, -1.04990541934967041016e+00) (71, -5.58964014053344726562e+00) (72, 5.30223989486694335938e+00) (73, -6.12685298919677734375e+00) (74, 6.67746734619140625000e+00) (75, -2.39027957916259765625e+01) (76, 6.70024919509887695312e+00) (77, -3.19481182098388671875e+00) (78, -1.37996473312377929688e+01) (79, 6.82796669006347656250e+00) (80, -2.92077016830444335938e+00) (81, -1.89113712310791015625e+01) (82, -3.00951099395751953125e+01) (22, 6.92504048347473144531e-01) (23, 8.30723190307617187500e+00) (24, 1.77338886260986328125e+01) (25, -1.31413822174072265625e+01) (26, -1.86529827117919921875e+01) (27, 2.74839353561401367188e+00) (28, 1.94484920501708984375e+01) (29, 2.92948222160339355469e+00) (30, -2.15459585189819335938e+00) (31, -5.27155828475952148438e+00) (32, -3.83588480949401855469e+00) (33, 7.14004278182983398438e-01) (34, 5.98381328582763671875e+00) (35, -7.32792234420776367188e+00) (36, -1.69552154541015625000e+01) (37, 5.84161376953125000000e+00) (38, -8.15229701995849609375e+00) (39, 6.02944326400756835938e+00) (40, 1.98265671730041503906e+00) (41, -3.72177195549011230469e+00) (42, 2.73860168457031250000e+00) (43, -1.78646731376647949219e+00) (44, -5.04112911224365234375e+00) (45, -2.09716653823852539062e+00) (46, 1.78554463386535644531e+00) (47, 5.53119325637817382812e+00) (48, 4.16825008392333984375e+00) (49, -1.45117473602294921875e+01) (50, 1.13259735107421875000e+01) (51, -5.35563755035400390625e+00) (52, -4.47937059402465820312e+00) (53, 1.63888192176818847656e+00) (54, 8.48429679870605468750e+00) (55, -1.38558597564697265625e+01) (56, -9.71705436706542968750e+00) (57, -7.05903053283691406250e+00) (58, -1.12583565711975097656e+00) (59, -1.39119386672973632812e+00) (60, 5.60586118698120117188e+00) (61, 5.79691648483276367188e+00) (62, -3.02067589759826660156e+00) (63, 1.51664566993713378906e+00) (64, -9.82783317565917968750e+00) (65, 2.73697185516357421875e+00) (66, 5.45802307128906250000e+00) (67, -1.21962428092956542969e+00) (68, -5.38003969192504882812e+00) (69, 6.36124944686889648438e+00) (70, 4.84487724304199218750e+00) (71, 1.53778667449951171875e+01) (72, 2.95830774307250976562e+00) (73, -2.84298133850097656250e+00) (74, 1.62942924499511718750e+01) (75, -1.92783908843994140625e+01) (76, -7.70736455917358398438e+00) (77, 2.65656858682632446289e-01) (78, -1.04165983200073242188e+00) (79, 1.00907611846923828125e+00) (80, 9.83045816421508789062e-01) (81, 4.67327070236206054688e+00) (82, -2.01213665008544921875e+01) (22, -2.18369746208190917969e+00) (23, -6.61412954330444335938e+00) (24, 3.22882881164550781250e+01) (25, -2.07616748809814453125e+01) (26, -3.94735298156738281250e+01) (27, 6.94863462448120117188e+00) (28, 4.52086448669433593750e+01) (29, -4.27694225311279296875e+00) (30, 6.10296821594238281250e+00) (31, 1.29602584838867187500e+01) (32, 7.35501813888549804688e+00) (33, -8.72693920135498046875e+00) (34, -7.73687314987182617188e+00) (35, -3.39246201515197753906e+00) (36, -5.78993415832519531250e+00) (37, -1.26331357955932617188e+01) (38, 3.99026775360107421875e+00) (39, 2.49552803039550781250e+01) (40, -2.90777039527893066406e+00) (41, 1.69180297851562500000e+00) (42, 1.53566293716430664062e+01) (43, 3.09324669837951660156e+00) (44, 1.79714412689208984375e+01) (45, -9.65087985992431640625e+00) (46, -1.19598989486694335938e+01) (47, -2.81446194648742675781e+00) (48, -2.06883068084716796875e+01) (49, -3.43268699645996093750e+01) (50, 5.46074390411376953125e-01) (51, 8.71585655212402343750e+00) (52, -1.01750364303588867188e+01) (53, -1.37327117919921875000e+01) (54, -1.28508081436157226562e+01) (55, 1.45455265045166015625e+01) (56, 1.69084606170654296875e+01) (57, -3.88004341125488281250e+01) (58, 8.98889350891113281250e+00) (59, -9.86093235015869140625e+00) (60, 1.48522930145263671875e+01) (61, -3.95233082771301269531e+00) (62, -5.05616855621337890625e+00) (63, 6.52919673919677734375e+00) (64, -1.48048553466796875000e+01) (65, 2.43305850028991699219e+00) (66, -8.08018088340759277344e-01) (67, -3.51593246459960937500e+01) (68, -1.07356524467468261719e+00) (69, 5.37949562072753906250e+00) (70, -1.30454387664794921875e+01) (71, -4.74636268615722656250e+00) (72, -1.44614143371582031250e+01) (73, 3.14974937438964843750e+01) (74, 4.03246116638183593750e+01) (75, -3.92633094787597656250e+01) (76, 6.80737066268920898438e+00) (77, -6.88891744613647460938e+00) (78, -9.16938877105712890625e+00) (79, 1.98066580295562744141e+00) (80, -1.41055673360824584961e-01) (81, 1.01840114593505859375e+01) (82, -5.19491081237792968750e+01) (22, 4.71209239959716796875e+00) (23, 7.09743440151214599609e-01) (24, 1.92954177856445312500e+01) (25, -1.40180311203002929688e+01) (26, -2.07475757598876953125e+01) (27, -6.15899705886840820312e+00) (28, 2.05206127166748046875e+01) (29, -2.86442458629608154297e-01) (30, -2.12425160408020019531e+00) (31, -5.26539278030395507812e+00) (32, 7.93344068527221679688e+00) (33, -6.20844662189483642578e-01) (34, -1.06750278472900390625e+01) (35, -1.23085680007934570312e+01) (36, 2.13766074180603027344e+00) (37, 9.07573795318603515625e+00) (38, -6.72743368148803710938e+00) (39, 1.43361215591430664062e+01) (40, 1.31980342864990234375e+01) (41, 2.93902844190597534180e-01) (42, -9.59209024906158447266e-01) (43, 4.45812511444091796875e+00) (44, -1.93508517742156982422e+00) (45, -1.02198495864868164062e+01) (46, -4.05617284774780273438e+00) (47, 1.51151475906372070312e+01) (48, -5.68640851974487304688e+00) (49, -1.86483173370361328125e+01) (50, 5.00529432296752929688e+00) (51, 2.88817310333251953125e+00) (52, 2.25338058471679687500e+01) (53, -1.27232093811035156250e+01) (54, 1.39546699523925781250e+01) (55, -7.48107290267944335938e+00) (56, -7.27366638183593750000e+00) (57, -6.45505762100219726562e+00) (58, 7.36999571323394775391e-01) (59, -1.21468961238861083984e+00) (60, -9.31413173675537109375e+00) (61, -1.73237577080726623535e-01) (62, 1.38725385665893554688e+01) (63, 1.72507915496826171875e+01) (64, -1.44395513534545898438e+01) (65, -1.39352159500122070312e+01) (66, -3.08142066001892089844e+00) (67, -3.95772671699523925781e+00) (68, -2.05417895317077636719e+00) (69, -1.00507116317749023438e+01) (70, 6.61410093307495117188e+00) (71, -2.58772182464599609375e+00) (72, -6.85294294357299804688e+00) (73, 1.56371688842773437500e+00) (74, -2.14117884635925292969e+00) (75, -1.39771900177001953125e+01) (76, -1.17952566146850585938e+01) (77, 5.31123781204223632812e+00) (78, 8.73769819736480712891e-02) (79, 3.61346077919006347656e+00) (80, 3.76908469200134277344e+00) (81, 1.57732188701629638672e+00) (82, -2.23315410614013671875e+01) (22, 1.97377815246582031250e+01) (23, 2.85166287422180175781e+00) (24, 2.48109378814697265625e+01) (25, -1.87532978057861328125e+01) (26, -2.65927600860595703125e+01) (27, -6.23799562454223632812e+00) (28, 3.11840209960937500000e+01) (29, 8.03463840484619140625e+00) (30, -3.40402197837829589844e+00) (31, -6.45008754730224609375e+00) (32, -4.06186008453369140625e+00) (33, -4.12097024917602539062e+00) (34, 5.45257329940795898438e+00) (35, 1.90674152374267578125e+01) (36, 1.62299900054931640625e+01) (37, 3.20635867118835449219e+00) (38, -7.74174308776855468750e+00) (39, 3.63437118530273437500e+01) (40, -5.64455270767211914062e+00) (41, 7.39036273956298828125e+00) (42, -8.78145790100097656250e+00) (43, -7.62278270721435546875e+00) (44, 1.82454538345336914062e+00) (45, -2.37222409248352050781e+00) (46, 6.27501726150512695312e+00) (47, 2.59154796600341796875e+01) (48, 1.47933328151702880859e+00) (49, -2.27471408843994140625e+01) (50, -1.03793258666992187500e+01) (51, 4.79532420635223388672e-01) (52, -1.64788875579833984375e+01) (53, -3.03911775350570678711e-01) (54, -1.03137931823730468750e+01) (55, 9.35957622528076171875e+00) (56, -1.07346057891845703125e+01) (57, -8.89694404602050781250e+00) (58, -5.19435644149780273438e+00) (59, -9.64923799037933349609e-01) (60, -2.80300259590148925781e+00) (61, 6.67609035968780517578e-01) (62, -8.09445476531982421875e+00) (63, -9.96495306491851806641e-01) (64, 4.07318592071533203125e+00) (65, 1.22596149444580078125e+01) (66, -2.40297436714172363281e+00) (67, -8.32457542419433593750e+00) (68, 1.23290157318115234375e+01) (69, 4.19155597686767578125e-01) (70, -3.63564372062683105469e+00) (71, 1.10373058319091796875e+01) (72, -1.04048180580139160156e+00) (73, -3.57288622856140136719e+00) (74, -1.29178199768066406250e+01) (75, -2.63483905792236328125e+01) (76, 9.22763442993164062500e+00) (77, 8.97995758056640625000e+00) (78, 4.78003248572349548340e-02) (79, 5.70486211776733398438e+00) (80, -5.75722646713256835938e+00) (81, 2.31183552742004394531e+00) (82, -3.19234256744384765625e+01) (22, -1.10210895538330078125e+01) (23, 1.24338016510009765625e+01) (24, 2.71764240264892578125e+01) (25, -8.77761840820312500000e+00) (26, -2.57013835906982421875e+01) (27, -5.62721157073974609375e+00) (28, 2.28510951995849609375e+01) (29, -3.83228158950805664062e+00) (30, 3.82548642158508300781e+00) (31, 5.60306072235107421875e+00) (32, -1.93296871185302734375e+01) (33, -3.47559237480163574219e+00) (34, 8.89770805835723876953e-01) (35, -4.48752212524414062500e+00) (36, -1.78409290313720703125e+01) (37, -1.09493246078491210938e+01) (38, -1.32664279937744140625e+01) (39, -8.32211303710937500000e+00) (40, -9.25123214721679687500e+00) (41, -4.04782295227050781250e+00) (42, -1.75162208080291748047e+00) (43, 7.89049386978149414062e+00) (44, -2.15429759025573730469e+00) (45, 5.48436832427978515625e+00) (46, -8.92105865478515625000e+00) (47, -6.84211015701293945312e+00) (48, 6.64919281005859375000e+00) (49, -1.88452472686767578125e+01) (50, 9.97649002075195312500e+00) (51, -7.78615283966064453125e+00) (52, 4.89017486572265625000e+00) (53, 1.22844028472900390625e+01) (54, 7.41092109680175781250e+00) (55, 7.44390439987182617188e+00) (56, 8.52598953247070312500e+00) (57, -1.22191560268402099609e+00) (58, -3.53810143470764160156e+00) (59, 3.32000136375427246094e+00) (60, 1.21009273529052734375e+01) (61, 6.05530261993408203125e+00) (62, 1.15565383434295654297e+00) (63, -7.19589710235595703125e+00) (64, -1.12325763702392578125e+01) (65, -6.03738784790039062500e+00) (66, 1.56254994869232177734e+00) (67, -5.99749755859375000000e+00) (68, 5.57598686218261718750e+00) (69, 7.98016214370727539062e+00) (70, 7.49143409729003906250e+00) (71, -5.01555490493774414062e+00) (72, 1.19328308105468750000e+01) (73, -1.27278888225555419922e+00) (74, 8.09790420532226562500e+00) (75, -2.35678958892822265625e+01) (76, -1.19129848480224609375e+00) (77, -5.03596019744873046875e+00) (78, -1.65710166096687316895e-01) (79, -1.08415393829345703125e+01) (80, 5.90094327926635742188e+00) (81, -7.97867345809936523438e+00) (82, -3.12549915313720703125e+01) (22, 5.74365043640136718750e+00) (23, -1.90002746582031250000e+01) (24, 2.56383247375488281250e+01) (25, -2.50982360839843750000e+01) (26, -3.14386425018310546875e+01) (27, 2.60842800140380859375e+01) (28, 2.71217269897460937500e+01) (29, 3.64046978950500488281e+00) (30, 4.39455956220626831055e-01) (31, 8.17854118347167968750e+00) (32, -3.93846869468688964844e+00) (33, 4.00538370013236999512e-02) (34, 1.29704389572143554688e+01) (35, -7.22955751419067382812e+00) (36, 2.50109881162643432617e-01) (37, -3.58093690872192382812e+00) (38, -1.26041927337646484375e+01) (39, 1.69862480163574218750e+01) (40, 1.22735300064086914062e+01) (41, -9.33041667938232421875e+00) (42, -2.39664983749389648438e+00) (43, -3.83053278923034667969e+00) (44, -1.34734802246093750000e+01) (45, 3.10172748565673828125e+00) (46, -4.65007829666137695312e+00) (47, -2.89897203445434570312e+00) (48, 5.02475261688232421875e+00) (49, -2.56973228454589843750e+01) (50, 1.41901731491088867188e+01) (51, -3.39849501848220825195e-01) (52, -1.57469778060913085938e+01) (53, 4.05252122879028320312e+00) (54, -4.54988431930541992188e+00) (55, -2.25902318954467773438e+00) (56, 7.95971870422363281250e+00) (57, -3.76549267768859863281e+00) (58, -3.81100559234619140625e+00) (59, -3.02360510826110839844e+00) (60, -2.53500614166259765625e+01) (61, -2.82785034179687500000e+00) (62, 6.10444688796997070312e+00) (63, -5.33915460109710693359e-01) (64, 5.15695428848266601562e+00) (65, -3.69355416297912597656e+00) (66, -3.35539579391479492188e+00) (67, 1.09353148937225341797e+00) (68, 5.75760078430175781250e+00) (69, -5.93149948120117187500e+00) (70, -1.20759391784667968750e+01) (71, 2.15890064239501953125e+01) (72, 1.66880207061767578125e+01) (73, 1.60854959487915039062e+00) (74, 1.36563053131103515625e+01) (75, -2.29525680541992187500e+01) (76, 7.34441852569580078125e+00) (77, -5.83337545394897460938e+00) (78, -4.94775962829589843750e+00) (79, -2.63006877899169921875e+00) (80, -3.35483759641647338867e-01) (81, -3.79970002174377441406e+00) (82, -2.97406501770019531250e+01) (22, 7.04417133331298828125e+00) (23, -2.75000989437103271484e-01) (24, 1.66024303436279296875e+01) (25, -1.79275112152099609375e+01) (26, -1.76376438140869140625e+01) (27, 4.82321834564208984375e+00) (28, 1.70249481201171875000e+01) (29, -5.83934545516967773438e+00) (30, 4.32382488250732421875e+00) (31, -3.58713530004024505615e-02) (32, 3.18669080734252929688e+00) (33, 1.01070785522460937500e+00) (34, 3.10362529754638671875e+00) (35, -3.48056745529174804688e+00) (36, 5.98878479003906250000e+00) (37, -3.91272258758544921875e+00) (38, -1.45058259963989257812e+01) (39, -1.41074571609497070312e+01) (40, -2.22433447837829589844e+00) (41, 8.88539695739746093750e+00) (42, -6.03734397888183593750e+00) (43, -6.01803922653198242188e+00) (44, 1.02763185501098632812e+01) (45, -5.47682476043701171875e+00) (46, -1.01953387260437011719e+00) (47, 7.75464487075805664062e+00) (48, -5.93826532363891601562e+00) (49, -1.35778703689575195312e+01) (50, -5.16260719299316406250e+00) (51, 1.11164474487304687500e+00) (52, 1.41094017028808593750e+00) (53, 1.12974634170532226562e+01) (54, 3.33937335014343261719e+00) (55, 6.45016717910766601562e+00) (56, -6.61982417106628417969e-01) (57, 4.92156791687011718750e+00) (58, 6.34656524658203125000e+00) (59, -1.51783075332641601562e+01) (60, -1.28315997123718261719e+00) (61, -5.60049009323120117188e+00) (62, -6.86288833618164062500e+00) (63, -5.46486079692840576172e-01) (64, -1.36424314975738525391e+00) (65, 3.67180109024047851562e+00) (66, -8.87872314453125000000e+00) (67, 9.98097324371337890625e+00) (68, -6.02839279174804687500e+00) (69, -6.05669546127319335938e+00) (70, 1.15785968303680419922e+00) (71, 2.96003532409667968750e+00) (72, -1.43250691890716552734e+00) (73, -6.64756727218627929688e+00) (74, -2.35851955413818359375e+00) (75, -1.37804479598999023438e+01) (76, -2.07152199745178222656e+00) (77, 7.77682161331176757812e+00) (78, 4.49960112571716308594e-01) (79, 6.12965631484985351562e+00) (80, -8.02449131011962890625e+00) (81, 2.50300717353820800781e+00) (82, -2.07190074920654296875e+01) (22, 1.14996242523193359375e+01) (23, 1.35747509002685546875e+01) (24, 2.95136814117431640625e+01) (25, -2.37634372711181640625e+01) (26, -2.86079845428466796875e+01) (27, -4.69621229171752929688e+00) (28, 3.34461555480957031250e+01) (29, 1.31041514873504638672e+00) (30, -1.30490958690643310547e+00) (31, -6.34566831588745117188e+00) (32, -7.93961524963378906250e+00) (33, 7.39771318435668945312e+00) (34, 1.76734104156494140625e+01) (35, -8.02434635162353515625e+00) (36, 1.78369541168212890625e+01) (37, 1.24245357513427734375e+01) (38, -2.04375667572021484375e+01) (39, -2.20140933990478515625e+01) (40, 2.34462571144104003906e+00) (41, -3.06761121749877929688e+00) (42, -6.32267045974731445312e+00) (43, -1.04092140197753906250e+01) (44, -7.66460943222045898438e+00) (45, -6.39877557754516601562e+00) (46, 2.71640300750732421875e+00) (47, 1.44004697799682617188e+01) (48, 1.71100559234619140625e+01) (49, -2.78592891693115234375e+01) (50, -4.97944402694702148438e+00) (51, 4.83811902999877929688e+00) (52, -6.29365491867065429688e+00) (53, 1.59764385223388671875e+01) (54, -6.14666044712066650391e-01) (55, 4.86916780471801757812e+00) (56, -1.06047601699829101562e+01) (57, -1.57268924713134765625e+01) (58, -7.45980978012084960938e+00) (59, 7.13598966598510742188e+00) (60, 8.66427326202392578125e+00) (61, -1.46790647506713867188e+00) (62, 5.43604803085327148438e+00) (63, -8.30201721191406250000e+00) (64, 3.66968870162963867188e+00) (65, -1.90946140289306640625e+01) (66, 1.03493766784667968750e+01) (67, 7.55320370197296142578e-01) (68, 1.34972782135009765625e+01) (69, -3.40030622482299804688e+00) (70, -3.08237838745117187500e+00) (71, 3.33334503173828125000e+01) (72, 2.09198513031005859375e+01) (73, -1.21672573089599609375e+01) (74, 3.24823826551437377930e-01) (75, -3.33621292114257812500e+01) (76, -1.68027038574218750000e+01) (77, -2.69313883781433105469e+00) (78, 9.52388095855712890625e+00) (79, 6.39148473739624023438e+00) (80, -5.21545648574829101562e+00) (81, -9.42480182647705078125e+00) (82, -3.57891921997070312500e+01) (22, -1.38529407978057861328e+00) (23, -1.23404121398925781250e+01) (24, 2.16918048858642578125e+01) (25, -1.83134021759033203125e+01) (26, -2.17089500427246093750e+01) (27, -1.29284057617187500000e+01) (28, 2.81473751068115234375e+01) (29, -8.34298992156982421875e+00) (30, 9.95328807830810546875e+00) (31, 5.96664857864379882812e+00) (32, -3.83678108453750610352e-01) (33, -1.03181517124176025391e+00) (34, -1.88673055171966552734e+00) (35, 1.24917669296264648438e+01) (36, -2.35825943946838378906e+00) (37, -9.18890190124511718750e+00) (38, -9.07847404479980468750e+00) (39, 7.44192457199096679688e+00) (40, -9.64842319488525390625e+00) (41, 7.16775238513946533203e-01) (42, -3.17689394950866699219e+00) (43, 1.67121486663818359375e+01) (44, 3.38345932960510253906e+00) (45, -8.00296878814697265625e+00) (46, 5.54767084121704101562e+00) (47, -3.14855277538299560547e-02) (48, -4.39835786819458007812e+00) (49, -2.34425182342529296875e+01) (50, 1.08466939926147460938e+01) (51, -2.13142466545104980469e+00) (52, -6.25842809677124023438e+00) (53, -5.17141389846801757812e+00) (54, -1.67684268951416015625e+01) (55, -1.61963729858398437500e+01) (56, 3.22819709777832031250e+00) (57, 1.43880395889282226562e+01) (58, -1.05689496994018554688e+01) (59, -2.30597227811813354492e-01) (60, -1.46784572601318359375e+01) (61, -1.34830248355865478516e+00) (62, -1.04234695434570312500e+01) (63, 3.73371005058288574219e+00) (64, -3.39175391197204589844e+00) (65, -1.25253212451934814453e+00) (66, -1.41355419158935546875e+01) (67, -1.41000881195068359375e+01) (68, 4.47282701730728149414e-01) (69, 5.87158346176147460938e+00) (70, -8.52025890350341796875e+00) (71, 5.45989573001861572266e-01) (72, 1.56082308292388916016e+00) (73, -1.26069908142089843750e+01) (74, -1.51478939056396484375e+01) (75, -2.32534275054931640625e+01) (76, -1.34586584568023681641e+00) (77, -1.21062822341918945312e+01) (78, -3.62096786499023437500e+00) (79, -3.90168452262878417969e+00) (80, 3.67430472373962402344e+00) (81, 1.05167503356933593750e+01) (82, -2.89027309417724609375e+01) (22, 6.81001377105712890625e+00) (23, 9.85008335113525390625e+00) (24, 3.02172851562500000000e+01) (25, -2.60589103698730468750e+01) (26, -3.41563301086425781250e+01) (27, 1.55877447128295898438e+01) (28, 3.51161117553710937500e+01) (29, 2.13871374726295471191e-01) (30, -4.99551820755004882812e+00) (31, 2.37671494483947753906e+00) (32, -2.65460467338562011719e+00) (33, 1.08897199630737304688e+01) (34, 1.35068159103393554688e+01) (35, -3.73448491096496582031e+00) (36, -2.78478169441223144531e+00) (37, -8.31563568115234375000e+00) (38, -1.11157140731811523438e+01) (39, -1.09884271621704101562e+01) (40, 5.56397581100463867188e+00) (41, -1.36549024581909179688e+01) (42, 1.83098487854003906250e+01) (43, -4.85786724090576171875e+00) (44, -1.62158031463623046875e+01) (45, 2.78486037254333496094e+00) (46, 1.11974353790283203125e+01) (47, -1.54694452285766601562e+01) (48, -8.72655582427978515625e+00) (49, -3.08077716827392578125e+01) (50, 1.68771419525146484375e+01) (51, 1.27278614044189453125e+01) (52, 7.56445407867431640625e+00) (53, 1.09017162322998046875e+01) (54, 1.16160717010498046875e+01) (55, -7.63994216918945312500e+00) (56, 7.90639352798461914062e+00) (57, 6.08428192138671875000e+00) (58, -2.24401712417602539062e+00) (59, 5.03376436233520507812e+00) (60, -3.85203146934509277344e+00) (61, 6.43548154830932617188e+00) (62, -1.48132336139678955078e+00) (63, -2.64809775352478027344e+00) (64, 2.34157657623291015625e+00) (65, -1.64042627811431884766e+00) (66, 1.73644447326660156250e+00) (67, 5.43567657470703125000e+00) (68, 2.10084214806556701660e-01) (69, -9.71855342388153076172e-01) (70, 1.98331165313720703125e+01) (71, -2.20966567993164062500e+01) (72, -1.13028707504272460938e+01) (73, -3.21117806434631347656e+00) (74, -1.28329315185546875000e+01) (75, -3.48150177001953125000e+01) (76, -9.32098674774169921875e+00) (77, -9.00848865509033203125e+00) (78, 1.93820972442626953125e+01) (79, 4.62955474853515625000e+00) (80, -1.23694744110107421875e+01) (81, -2.71950798034667968750e+01) (82, -3.57047157287597656250e+01) (22, -4.10447406768798828125e+00) (23, 2.63474416732788085938e+00) (24, 2.82863044738769531250e+01) (25, -1.42127647399902343750e+01) (26, -2.60090827941894531250e+01) (27, 3.89397120475769042969e+00) (28, 2.81483688354492187500e+01) (29, 5.01420450210571289062e+00) (30, -3.49845266342163085938e+00) (31, -5.87075996398925781250e+00) (32, 3.37213009595870971680e-01) (33, -4.45974826812744140625e+00) (34, -2.21196746826171875000e+00) (35, 7.33512258529663085938e+00) (36, -2.21392669677734375000e+01) (37, 9.32364273071289062500e+00) (38, -9.56263065338134765625e+00) (39, 1.62096633911132812500e+01) (40, 2.44392919540405273438e+00) (41, -2.33791613578796386719e+00) (42, 6.16630315780639648438e+00) (43, 2.06646347045898437500e+00) (44, -1.19826233386993408203e+00) (45, -5.15778970718383789062e+00) (46, 7.03349781036376953125e+00) (47, 1.12478523254394531250e+01) (48, -8.86320304870605468750e+00) (49, -2.07608985900878906250e+01) (50, -1.15452203750610351562e+01) (51, -4.76670598983764648438e+00) (52, -1.80914774537086486816e-01) (53, 2.17592656612396240234e-01) (54, 1.62909812927246093750e+01) (55, -2.08565483093261718750e+01) (56, -4.96641206741333007812e+00) (57, -8.59435939788818359375e+00) (58, -6.80672454833984375000e+00) (59, -4.71050113439559936523e-01) (60, 7.37736988067626953125e+00) (61, 2.57518005371093750000e+00) (62, -2.74867844581604003906e+00) (63, 2.71732163429260253906e+00) (64, -1.28625707626342773438e+01) (65, 1.73109257221221923828e+00) (66, -1.49139618873596191406e+00) (67, -2.02406311035156250000e+01) (68, 6.72723531723022460938e+00) (69, -6.58053970336914062500e+00) (70, 1.58813953399658203125e+01) (71, -8.22939682006835937500e+00) (72, 3.62309552729129791260e-02) (73, 9.70488929748535156250e+00) (74, -1.60661525726318359375e+01) (75, -2.89662284851074218750e+01) (76, 1.02407383918762207031e+00) (77, -4.28613573312759399414e-01) (78, -3.32985019683837890625e+00) (79, -5.64952790737152099609e-01) (80, -6.62842607498168945312e+00) (81, 1.33596296310424804688e+01) (82, -3.14520339965820312500e+01) (22, -1.51595962047576904297e+00) (23, 3.65564751625061035156e+00) (24, 2.51981811523437500000e+01) (25, -1.50320596694946289062e+01) (26, -2.75527992248535156250e+01) (27, 1.52708137035369873047e+00) (28, 2.47332000732421875000e+01) (29, 5.32048082351684570312e+00) (30, -7.55724382400512695312e+00) (31, -4.03596544265747070312e+00) (32, -1.17110691070556640625e+01) (33, 1.68375861644744873047e+00) (34, -8.53784751892089843750e+00) (35, -2.66451621055603027344e+00) (36, -9.32299518585205078125e+00) (37, -5.53593730926513671875e+00) (38, -1.58989839553833007812e+01) (39, -1.32284059524536132812e+01) (40, 4.78257656097412109375e+00) (41, -9.61732089519500732422e-01) (42, -3.12960076332092285156e+00) (43, 5.57696633040904998779e-02) (44, -7.01419949531555175781e-01) (45, 9.34264278411865234375e+00) (46, -6.22406196594238281250e+00) (47, -7.86793231964111328125e+00) (48, 2.19157814979553222656e+00) (49, -2.01882667541503906250e+01) (50, -1.00085296630859375000e+01) (51, -1.12454855442047119141e+00) (52, 1.34503638744354248047e+00) (53, 1.70561828613281250000e+01) (54, -1.27066020965576171875e+01) (55, 1.07743835449218750000e+01) (56, 1.67618293762207031250e+01) (57, 8.97321987152099609375e+00) (58, -4.52402067184448242188e+00) (59, 2.23611068725585937500e+00) (60, 9.99211025238037109375e+00) (61, 6.39216041564941406250e+00) (62, 6.65841293334960937500e+00) (63, -5.78838205337524414062e+00) (64, 2.56514334678649902344e+00) (65, -6.09911012649536132812e+00) (66, -5.19404935836791992188e+00) (67, -3.49737811088562011719e+00) (68, 1.23269577026367187500e+01) (69, -2.36224198341369628906e+00) (70, -1.22028875350952148438e+01) (71, -1.58480510711669921875e+01) (72, 1.25525932312011718750e+01) (73, 7.61357212066650390625e+00) (74, -1.66311378479003906250e+01) (75, -2.81500816345214843750e+01) (76, 2.59466433525085449219e+00) (77, -1.47752075195312500000e+01) (78, 2.35358142852783203125e+00) (79, -9.57023501396179199219e-01) (80, -1.21466112136840820312e+01) (81, 7.87516880035400390625e+00) (82, -3.02960433959960937500e+01) (22, 2.03565382957458496094e+00) (23, 4.27977418899536132812e+00) (24, 2.00732574462890625000e+01) (25, -1.92928504943847656250e+01) (26, -2.24911117553710937500e+01) (27, -3.97274589538574218750e+00) (28, 2.06800498962402343750e+01) (29, 6.65871667861938476562e+00) (30, -8.61264801025390625000e+00) (31, -5.61322355270385742188e+00) (32, -7.45701599121093750000e+00) (33, -1.67506523132324218750e+01) (34, -1.65883598327636718750e+01) (35, -7.57201766967773437500e+00) (36, -1.70835793018341064453e+00) (37, 2.05452656745910644531e+00) (38, -1.30138492584228515625e+01) (39, 1.57860589027404785156e+00) (40, -7.37828016281127929688e-01) (41, -6.27552366256713867188e+00) (42, -6.98413228988647460938e+00) (43, -3.73026698827743530273e-01) (44, 2.02331876754760742188e+00) (45, 3.34945392608642578125e+00) (46, -6.42924642562866210938e+00) (47, -1.62520809173583984375e+01) (48, 7.33534526824951171875e+00) (49, -1.75817832946777343750e+01) (50, 7.12475395202636718750e+00) (51, -1.49677610397338867188e+00) (52, 1.18568286895751953125e+01) (53, 8.75949287414550781250e+00) (54, -4.94207525253295898438e+00) (55, 5.59006452560424804688e-01) (56, -2.32552003860473632812e+00) (57, 1.76246416568756103516e+00) (58, 7.06264829635620117188e+00) (59, 1.62852215766906738281e+00) (60, -4.58364391326904296875e+00) (61, 1.32500433921813964844e+00) (62, 4.69424200057983398438e+00) (63, 8.04644775390625000000e+00) (64, -4.98497009277343750000e+00) (65, -3.47217226028442382812e+00) (66, -9.05119132995605468750e+00) (67, 8.01995849609375000000e+00) (68, -5.64893007278442382812e+00) (69, -1.02996845245361328125e+01) (70, -8.96639633178710937500e+00) (71, -2.83461117744445800781e+00) (72, -2.18224697113037109375e+01) (73, -2.05154681205749511719e+00) (74, -1.25135669708251953125e+01) (75, -2.09088973999023437500e+01) (76, -1.42216663360595703125e+01) (77, 1.15978670120239257812e+01) (78, 4.40237188339233398438e+00) (79, 4.76651144027709960938e+00) (80, 6.00344991683959960938e+00) (81, -5.14388656616210937500e+00) (82, -2.14553298950195312500e+01) (22, 4.04890108108520507812e+00) (23, 6.03277444839477539062e-01) (24, 2.24627056121826171875e+01) (25, -1.58777885437011718750e+01) (26, -2.44790744781494140625e+01) (27, 4.73585605621337890625e+00) (28, 2.48499126434326171875e+01) (29, 6.37510776519775390625e+00) (30, -1.22192692756652832031e+00) (31, -8.23512840270996093750e+00) (32, -5.12461566925048828125e+00) (33, -3.30267047882080078125e+00) (34, 4.17951285839080810547e-01) (35, 1.94647955894470214844e+00) (36, 1.38623256683349609375e+01) (37, 1.03738260269165039062e+01) (38, -1.94675846099853515625e+01) (39, -1.51706666946411132812e+01) (40, -4.37511253356933593750e+00) (41, -1.77254092693328857422e+00) (42, 1.37602882385253906250e+01) (43, -3.94147896766662597656e+00) (44, 3.93732285499572753906e+00) (45, -4.88871097564697265625e+00) (46, 1.53777062892913818359e-01) (47, 2.58426737785339355469e+00) (48, -8.28436660766601562500e+00) (49, -1.97078704833984375000e+01) (50, 3.32721018791198730469e+00) (51, 3.22123479843139648438e+00) (52, 9.95709514617919921875e+00) (53, 4.70101356506347656250e+00) (54, 3.23110532760620117188e+00) (55, -2.28909530639648437500e+01) (56, -1.31632337570190429688e+01) (57, -8.67175388336181640625e+00) (58, -6.62083530426025390625e+00) (59, -1.20044994354248046875e+00) (60, 1.19456899166107177734e+00) (61, 3.51265549659729003906e+00) (62, -3.68845653533935546875e+00) (63, 1.34394388198852539062e+01) (64, -1.42152299880981445312e+01) (65, 9.99786257743835449219e-01) (66, 5.18270015716552734375e+00) (67, -7.67919778823852539062e-01) (68, -5.87363958358764648438e+00) (69, -5.95416927337646484375e+00) (70, 8.42126750946044921875e+00) (71, 1.57302656173706054688e+01) (72, 1.18199527263641357422e+00) (73, -2.27482449263334274292e-02) (74, -2.97396802902221679688e+00) (75, -1.75853195190429687500e+01) (76, 4.75676476955413818359e-01) (77, 7.27106571197509765625e+00) (78, 1.00118088722229003906e+00) (79, -1.96812558174133300781e+00) (80, -1.17367591857910156250e+01) (81, -6.20327663421630859375e+00) (82, -2.51729412078857421875e+01) (22, -3.33749890327453613281e+00) (23, -3.88079166412353515625e+00) (24, 2.14120483398437500000e+01) (25, -1.45759716033935546875e+01) (26, -2.23208694458007812500e+01) (27, 1.20119619369506835938e+01) (28, 2.23287010192871093750e+01) (29, -1.40916948318481445312e+01) (30, -1.65530319213867187500e+01) (31, -5.79470157623291015625e+00) (32, -1.11223554611206054688e+00) (33, -3.30765891075134277344e+00) (34, 1.07318669557571411133e-01) (35, 7.89927816390991210938e+00) (36, -1.64218406677246093750e+01) (37, 2.02180023193359375000e+01) (38, -5.99767780303955078125e+00) (39, 6.44946861267089843750e+00) (40, 9.55194890499114990234e-01) (41, -3.42889815568923950195e-01) (42, 3.82978081703186035156e+00) (43, -6.78885269165039062500e+00) (44, 3.72378993034362792969e+00) (45, 2.54438996315002441406e+00) (46, -6.19359779357910156250e+00) (47, -3.21374964714050292969e+00) (48, 1.78977394104003906250e+00) (49, -2.43319778442382812500e+01) (50, -5.71312904357910156250e-01) (51, -3.27285122871398925781e+00) (52, -1.48563451766967773438e+01) (53, -8.72990608215332031250e+00) (54, -3.72365641593933105469e+00) (55, -2.56440162658691406250e+01) (56, -6.61246404051780700684e-02) (57, -1.08794822692871093750e+01) (58, -7.85553884506225585938e+00) (59, 3.23027348518371582031e+00) (60, -2.69069552421569824219e+00) (61, 5.47486209869384765625e+00) (62, -4.64596700668334960938e+00) (63, 2.40268063545227050781e+00) (64, 6.05593729019165039062e+00) (65, -5.94269943237304687500e+00) (66, 1.10473245382308959961e-01) (67, -5.71340084075927734375e+00) (68, -4.48769569396972656250e-01) (69, 