FANN_FLO_2.1
num_layers=3
learning_rate=0.700000
connection_rate=1.000000
network_type=0
learning_momentum=0.400000
training_algorithm=0
train_error_function=1
train_stop_function=0
cascade_output_change_fraction=0.010000
quickprop_decay=-0.000100
quickprop_mu=1.750000
rprop_increase_factor=1.200000
rprop_decrease_factor=0.500000
rprop_delta_min=0.000000
rprop_delta_max=50.000000
rprop_delta_zero=0.100000
cascade_output_stagnation_epochs=12
cascade_candidate_change_fraction=0.010000
cascade_candidate_stagnation_epochs=12
cascade_max_out_epochs=150
cascade_min_out_epochs=50
cascade_max_cand_epochs=150
cascade_min_cand_epochs=50
cascade_num_candidate_groups=2
bit_fail_limit=3.49999994039535522461e-01
cascade_candidate_limit=1.00000000000000000000e+03
cascade_weight_multiplier=4.00000005960464477539e-01
cascade_activation_functions_count=10
cascade_activation_functions=3 5 7 8 10 11 14 15 16 17 
cascade_activation_steepnesses_count=4
cascade_activation_steepnesses=2.50000000000000000000e-01 5.00000000000000000000e-01 7.50000000000000000000e-01 1.00000000000000000000e+00 
layer_sizes=22 61 41 
scale_included=0
neurons (num_inputs, activation_function, activation_steepness)=(0, 0, 0.00000000000000000000e+00) (0, 0, 0.00000000000000000000e+00) (0, 0, 0.00000000000000000000e+00) (0, 0, 0.00000000000000000000e+00) (0, 0, 0.00000000000000000000e+00) (0, 0, 0.00000000000000000000e+00) (0, 0, 0.00000000000000000000e+00) (0, 0, 0.00000000000000000000e+00) (0, 0, 0.00000000000000000000e+00) (0, 0, 0.00000000000000000000e+00) (0, 0, 0.00000000000000000000e+00) (0, 0, 0.00000000000000000000e+00) (0, 0, 0.00000000000000000000e+00) (0, 0, 0.00000000000000000000e+00) (0, 0, 0.00000000000000000000e+00) (0, 0, 0.00000000000000000000e+00) (0, 0, 0.00000000000000000000e+00) (0, 0, 0.00000000000000000000e+00) (0, 0, 0.00000000000000000000e+00) (0, 0, 0.00000000000000000000e+00) (0, 0, 0.00000000000000000000e+00) (0, 0, 0.00000000000000000000e+00) (22, 5, 1.00000000000000000000e+00) (22, 5, 1.00000000000000000000e+00) (22, 5, 1.00000000000000000000e+00) (22, 5, 1.00000000000000000000e+00) (22, 5, 1.00000000000000000000e+00) (22, 5, 1.00000000000000000000e+00) (22, 5, 1.00000000000000000000e+00) (22, 5, 1.00000000000000000000e+00) (22, 5, 1.00000000000000000000e+00) (22, 5, 1.00000000000000000000e+00) (22, 5, 1.00000000000000000000e+00) (22, 5, 1.00000000000000000000e+00) (22, 5, 1.00000000000000000000e+00) (22, 5, 1.00000000000000000000e+00) (22, 5, 1.00000000000000000000e+00) (22, 5, 1.00000000000000000000e+00) (22, 5, 1.00000000000000000000e+00) (22, 5, 1.00000000000000000000e+00) (22, 5, 1.00000000000000000000e+00) (22, 5, 1.00000000000000000000e+00) (22, 5, 1.00000000000000000000e+00) (22, 5, 1.00000000000000000000e+00) (22, 5, 1.00000000000000000000e+00) (22, 5, 1.00000000000000000000e+00) (22, 5, 1.00000000000000000000e+00) (22, 5, 1.00000000000000000000e+00) (22, 5, 1.00000000000000000000e+00) (22, 5, 1.00000000000000000000e+00) (22, 5, 1.00000000000000000000e+00) (22, 5, 1.00000000000000000000e+00) (22, 5, 1.00000000000000000000e+00) (22, 5, 1.00000000000000000000e+00) (22, 5, 1.00000000000000000000e+00) (22, 5, 1.00000000000000000000e+00) (22, 5, 1.00000000000000000000e+00) (22, 5, 1.00000000000000000000e+00) (22, 5, 1.00000000000000000000e+00) (22, 5, 1.00000000000000000000e+00) (22, 5, 1.00000000000000000000e+00) (22, 5, 1.00000000000000000000e+00) (22, 5, 1.00000000000000000000e+00) (22, 5, 1.00000000000000000000e+00) (22, 5, 1.00000000000000000000e+00) (22, 5, 1.00000000000000000000e+00) (22, 5, 1.00000000000000000000e+00) (22, 5, 1.00000000000000000000e+00) (22, 5, 1.00000000000000000000e+00) (22, 5, 1.00000000000000000000e+00) (22, 5, 1.00000000000000000000e+00) (22, 5, 1.00000000000000000000e+00) (22, 5, 1.00000000000000000000e+00) (22, 5, 1.00000000000000000000e+00) (22, 5, 1.00000000000000000000e+00) (22, 5, 1.00000000000000000000e+00) (22, 5, 1.00000000000000000000e+00) (22, 5, 1.00000000000000000000e+00) (22, 5, 1.00000000000000000000e+00) (22, 5, 1.00000000000000000000e+00) (22, 5, 1.00000000000000000000e+00) (22, 5, 1.00000000000000000000e+00) (0, 5, 1.00000000000000000000e+00) (61, 5, 1.00000000000000000000e+00) (61, 5, 1.00000000000000000000e+00) (61, 5, 1.00000000000000000000e+00) (61, 5, 1.00000000000000000000e+00) (61, 5, 1.00000000000000000000e+00) (61, 5, 1.00000000000000000000e+00) (61, 5, 1.00000000000000000000e+00) (61, 5, 1.00000000000000000000e+00) (61, 5, 1.00000000000000000000e+00) (61, 5, 1.00000000000000000000e+00) (61, 5, 1.00000000000000000000e+00) (61, 5, 1.00000000000000000000e+00) (61, 5, 1.00000000000000000000e+00) (61, 5, 1.00000000000000000000e+00) (61, 5, 1.00000000000000000000e+00) (61, 5, 1.00000000000000000000e+00) (61, 5, 1.00000000000000000000e+00) (61, 5, 1.00000000000000000000e+00) (61, 5, 1.00000000000000000000e+00) (61, 5, 1.00000000000000000000e+00) (61, 5, 1.00000000000000000000e+00) (61, 5, 1.00000000000000000000e+00) (61, 5, 1.00000000000000000000e+00) (61, 5, 1.00000000000000000000e+00) (61, 5, 1.00000000000000000000e+00) (61, 5, 1.00000000000000000000e+00) (61, 5, 1.00000000000000000000e+00) (61, 5, 1.00000000000000000000e+00) (61, 5, 1.00000000000000000000e+00) (61, 5, 1.00000000000000000000e+00) (61, 5, 1.00000000000000000000e+00) (61, 5, 1.00000000000000000000e+00) (61, 5, 1.00000000000000000000e+00) (61, 5, 1.00000000000000000000e+00) (61, 5, 1.00000000000000000000e+00) (61, 5, 1.00000000000000000000e+00) (61, 5, 1.00000000000000000000e+00) (61, 5, 1.00000000000000000000e+00) (61, 5, 1.00000000000000000000e+00) (61, 5, 1.00000000000000000000e+00) (0, 5, 1.00000000000000000000e+00) 
connections (connected_to_neuron, weight)=(0, 1.61583805084228515625e+01) (1, 7.61036038398742675781e-01) (2, 1.84291687011718750000e+01) (3, -3.10925340652465820312e+00) (4, -3.80774536132812500000e+01) (5, -4.97058486938476562500e+01) (6, -5.57524566650390625000e+01) (7, -1.79769725799560546875e+01) (8, -6.57643890380859375000e+01) (9, -2.36556396484375000000e+01) (10, 1.44443435668945312500e+01) (11, -8.00009822845458984375e+00) (12, 5.59870033264160156250e+01) (13, 3.92929763793945312500e+01) (14, 1.68760986328125000000e+01) (15, 2.77600536346435546875e+01) (16, 3.73591156005859375000e+01) (17, -6.72384309768676757812e+00) (18, -1.84252223968505859375e+01) (19, 1.51064186096191406250e+01) (20, -7.82785117626190185547e-02) (21, -5.21587657928466796875e+00) (0, 2.22816228866577148438e+00) (1, -3.60642585754394531250e+01) (2, -2.00325698852539062500e+01) (3, -5.18349361419677734375e+00) (4, 1.76210098266601562500e+01) (5, -2.38162498474121093750e+01) (6, -1.14787359237670898438e+01) (7, -1.31176958084106445312e+01) (8, -2.33136863708496093750e+01) (9, -2.46990680694580078125e+01) (10, 2.49120593070983886719e+00) (11, -9.56667232513427734375e+00) (12, -2.46802368164062500000e+01) (13, -2.57520503997802734375e+01) (14, 2.58556919097900390625e+01) (15, 7.16003494262695312500e+01) (16, 7.52868270874023437500e+01) (17, -2.14290046691894531250e+01) (18, 7.13979661464691162109e-01) (19, 1.09844598770141601562e+01) (20, -2.48856792449951171875e+01) (21, -1.60544147491455078125e+01) (0, -2.87034654617309570312e+00) (1, -5.19502906799316406250e+01) (2, -6.67002334594726562500e+01) (3, -1.66325664520263671875e+01) (4, -2.40183830261230468750e+01) (5, 1.51080198287963867188e+01) (6, -2.27545814514160156250e+01) (7, 1.43154363632202148438e+01) (8, 3.22693443298339843750e+01) (9, 2.87250423431396484375e+01) (10, 3.46540603637695312500e+01) (11, 3.13571224212646484375e+01) (12, 7.51786804199218750000e+01) (13, -1.01251058578491210938e+01) (14, -1.11895790100097656250e+01) (15, 2.43699874877929687500e+01) (16, 1.57865600585937500000e+01) (17, 3.00530700683593750000e+01) (18, -1.23680831909179687500e+02) (19, 3.44263420104980468750e+01) (20, -2.79903106689453125000e+01) (21, -1.82535591125488281250e+01) (0, -3.06100692749023437500e+01) (1, 2.89316425323486328125e+01) (2, 1.70637245178222656250e+01) (3, -1.59487266540527343750e+01) (4, -4.72973823547363281250e+01) (5, 2.51778030395507812500e+01) (6, 9.82582092285156250000e+00) (7, -1.61094245910644531250e+01) (8, -5.13569602966308593750e+01) (9, -4.49316596984863281250e+01) (10, -1.41431226730346679688e+01) (11, -3.12109947204589843750e+01) (12, -1.86094551086425781250e+01) (13, -1.40695886611938476562e+01) (14, -7.08297443389892578125e+00) (15, -1.11111803054809570312e+01) (16, -3.74973714351654052734e-01) (17, -3.90817260742187500000e+01) (18, -2.99571514129638671875e+01) (19, 1.03478040695190429688e+01) (20, 3.46699295043945312500e+01) (21, 9.05045795440673828125e+00) (0, 2.01324405670166015625e+01) (1, 3.51500511169433593750e+01) (2, 3.37569122314453125000e+01) (3, -6.20822906494140625000e+00) (4, -5.68557071685791015625e+00) (5, -1.03443250656127929688e+01) (6, -8.18894958496093750000e+00) (7, -3.24248199462890625000e+01) (8, 2.94860780239105224609e-01) (9, 2.06160449981689453125e+01) (10, 1.50796976089477539062e+01) (11, 3.66191749572753906250e+01) (12, -4.71771545410156250000e+01) (13, -5.08474922180175781250e+01) (14, -1.19500780105590820312e+00) (15, 1.49391059875488281250e+01) (16, 2.92595272064208984375e+01) (17, 6.27683944702148437500e+01) (18, -3.03975067138671875000e+01) (19, -3.23694534301757812500e+01) (20, -1.08990087509155273438e+01) (21, -1.59313430786132812500e+01) (0, 2.53103904724121093750e+01) (1, -1.87794475555419921875e+01) (2, 3.00872631072998046875e+01) (3, -1.14381828308105468750e+01) (4, 7.41198599338531494141e-01) (5, -1.17705240249633789062e+01) (6, 1.14732856750488281250e+01) (7, 2.54107265472412109375e+01) (8, 3.13600826263427734375e+01) (9, 2.76673355102539062500e+01) (10, 4.22874946594238281250e+01) (11, 2.07202701568603515625e+01) (12, 2.55812854766845703125e+01) (13, -1.34952468872070312500e+01) (14, 1.98187580108642578125e+01) (15, 3.51040649414062500000e+01) (16, 4.62164649963378906250e+01) (17, -1.46366462707519531250e+01) (18, 2.46502246856689453125e+01) (19, 1.98134078979492187500e+01) (20, 8.28133773803710937500e+00) (21, -8.03850708007812500000e+01) (0, -2.31459865570068359375e+01) (1, -1.01920722961425781250e+02) (2, 2.53989338874816894531e+00) (3, -3.51050639152526855469e+00) (4, -3.41349792480468750000e+01) (5, -5.56501197814941406250e+00) (6, -2.45858364105224609375e+01) (7, -1.49380855560302734375e+01) (8, 1.19646701812744140625e+01) (9, 1.20141954421997070312e+01) (10, -6.04873609542846679688e+00) (11, 7.45023488998413085938e-02) (12, 1.68392257690429687500e+01) (13, 1.53748779296875000000e+01) (14, 3.26848268508911132812e+00) (15, -1.60997905731201171875e+01) (16, -7.66636228561401367188e+00) (17, 2.30685653686523437500e+01) (18, 1.76013445854187011719e+00) (19, -9.13091674447059631348e-02) (20, -1.07638943195343017578e+00) (21, -2.86465811729431152344e+00) (0, -3.53821716308593750000e+01) (1, 2.11870708465576171875e+01) (2, 2.36225509643554687500e+01) (3, 9.53613758087158203125e+00) (4, -9.39485397338867187500e+01) (5, -3.26029539108276367188e+00) (6, -4.46836233139038085938e+00) (7, 8.97066211700439453125e+00) (8, -1.15606117248535156250e+01) (9, 1.47325239181518554688e+01) (10, 4.64435729980468750000e+01) (11, 2.83166618347167968750e+01) (12, 3.32128810882568359375e+00) (13, 7.58251047134399414062e+00) (14, 1.33810114860534667969e+00) (15, -2.41446151733398437500e+01) (16, -5.22687911987304687500e+01) (17, -1.82670383453369140625e+01) (18, -9.91725683212280273438e-01) (19, 2.26536178588867187500e+01) (20, 6.66947984695434570312e+00) (21, -1.63461327552795410156e-01) (0, -1.63677349090576171875e+01) (1, -3.95261120796203613281e+00) (2, 9.00834083557128906250e+00) (3, -5.86640930175781250000e+01) (4, 3.23003082275390625000e+01) (5, -4.69615058898925781250e+01) (6, -3.62839355468750000000e+01) (7, 8.18795871734619140625e+00) (8, 2.50760574340820312500e+01) (9, 1.15093555450439453125e+01) (10, 2.03237509727478027344e+00) (11, 5.59849214553833007812e+00) (12, 8.03446292877197265625e+00) (13, 7.13528919219970703125e+00) (14, 6.87236309051513671875e+00) (15, 9.56926536560058593750e+00) (16, 1.76857089996337890625e+01) (17, -1.74001541137695312500e+01) (18, 9.05013847351074218750e+00) (19, 1.66803283691406250000e+01) (20, 6.41751718521118164062e+00) (21, -8.23894619941711425781e-01) (0, 1.06738948822021484375e+01) (1, -1.64516105651855468750e+01) (2, 5.04562902450561523438e+00) (3, -2.57147254943847656250e+01) (4, -5.10120277404785156250e+01) (5, -2.87833080291748046875e+01) (6, 1.24456043243408203125e+01) (7, 4.78473281860351562500e+00) (8, 2.37473926544189453125e+01) (9, 1.31182880401611328125e+01) (10, 2.01554083824157714844e+00) (11, -2.51892738342285156250e+01) (12, -2.79802093505859375000e+01) (13, -8.96777915954589843750e+00) (14, 8.95984077453613281250e+00) (15, -6.20460557937622070312e+00) (16, -2.01460723876953125000e+01) (17, 2.07313270568847656250e+01) (18, 3.67628812789916992188e+00) (19, 3.64967041015625000000e+01) (20, -5.09107875823974609375e+00) (21, 6.59062623977661132812e-01) (0, 2.77600402832031250000e+01) (1, -4.25575685501098632812e+00) (2, -5.03577828407287597656e-01) (3, 4.74082279205322265625e+00) (4, 4.13817329406738281250e+01) (5, -2.72070293426513671875e+01) (6, -1.09001331329345703125e+01) (7, 3.97387123107910156250e+01) (8, -3.45767879486083984375e+00) (9, 3.17663025856018066406e+00) (10, 1.56364974975585937500e+01) (11, 1.41098680496215820312e+01) (12, -1.77237243652343750000e+01) (13, 5.99946928024291992188e+00) (14, 1.60061531066894531250e+01) (15, 1.46191053390502929688e+01) (16, -2.75587272644042968750e+01) (17, 9.32388496398925781250e+00) (18, 3.85333806276321411133e-01) (19, 4.25239562988281250000e+01) (20, 5.67677831649780273438e+00) (21, -1.78288898468017578125e+01) (0, -1.91726837158203125000e+01) (1, -3.00728855133056640625e+01) (2, -3.09723415374755859375e+01) (3, 9.12130928039550781250e+00) (4, 6.52463579177856445312e+00) (5, 8.23248004913330078125e+00) (6, 4.29410123825073242188e+00) (7, -1.05585908889770507812e+01) (8, -1.23064165115356445312e+01) (9, -2.00678310394287109375e+01) (10, 5.44660997390747070312e+00) (11, -1.10732698440551757812e+01) (12, -2.88004970550537109375e+01) (13, -9.26300716400146484375e+00) (14, -6.60842895507812500000e+00) (15, -1.10426301956176757812e+01) (16, -3.08133544921875000000e+01) (17, -8.14785385131835937500e+00) (18, -1.91762027740478515625e+01) (19, 1.02346811294555664062e+01) (20, 1.75660305023193359375e+01) (21, 3.45969123840332031250e+01) (0, -1.80144424438476562500e+01) (1, 1.56577224731445312500e+01) (2, -1.59436664581298828125e+01) (3, 1.09083280563354492188e+01) (4, 2.19455718994140625000e+01) (5, 2.56618232727050781250e+01) (6, 4.37869224548339843750e+01) (7, 2.70785021781921386719e+00) (8, -2.30945110321044921875e+00) (9, 5.04006919860839843750e+01) (10, -4.49795150756835937500e+00) (11, -1.05462656021118164062e+01) (12, -8.09503495693206787109e-01) (13, 4.11782550811767578125e+00) (14, 1.58423433303833007812e+01) (15, -4.20341110229492187500e+01) (16, -1.17545881271362304688e+01) (17, 2.69443178176879882812e+00) (18, 4.35775909423828125000e+01) (19, -8.96598815917968750000e-01) (20, -2.10413322448730468750e+01) (21, 5.56164932250976562500e+00) (0, -7.57106113433837890625e+00) (1, -2.78835029602050781250e+01) (2, -4.29352607727050781250e+01) (3, -9.38495922088623046875e+00) (4, -3.68608245849609375000e+01) (5, -1.76679611206054687500e+01) (6, 2.27972049713134765625e+01) (7, 3.97357521057128906250e+01) (8, -1.03829460144042968750e+01) (9, -3.36575584411621093750e+01) (10, -2.37954463958740234375e+01) (11, -2.93055667877197265625e+01) (12, 1.25146389007568359375e+01) (13, 1.63154277801513671875e+01) (14, -2.32027840614318847656e+00) (15, -1.43354835510253906250e+01) (16, -1.53628969192504882812e+01) (17, -4.66392021179199218750e+01) (18, 2.64684238433837890625e+01) (19, -6.09425430297851562500e+01) (20, -4.35095500946044921875e+00) (21, 2.03867664337158203125e+01) (0, -2.32849998474121093750e+01) (1, -4.31227111816406250000e+00) (2, 1.62877311706542968750e+01) (3, 8.77007102966308593750e+00) (4, 5.13787803649902343750e+01) (5, -5.66119432449340820312e+00) (6, -4.06328535079956054688e+00) (7, -1.10962638854980468750e+01) (8, 9.29467618465423583984e-01) (9, -1.94167566299438476562e+00) (10, 5.77367663383483886719e-01) (11, 1.53682851791381835938e+01) (12, -1.23678369522094726562e+01) (13, 1.72704982757568359375e+01) (14, -5.58021605014801025391e-01) (15, 2.44612646102905273438e+00) (16, 1.05890297889709472656e+00) (17, -2.06908168792724609375e+01) (18, 2.63617935180664062500e+01) (19, -2.06455020904541015625e+01) (20, -9.09646606445312500000e+00) (21, 2.60323715209960937500e+00) (0, 1.92222843170166015625e+01) (1, 1.65329284667968750000e+01) (2, 5.71965217590332031250e+01) (3, -1.27483382821083068848e-01) (4, -9.39883327484130859375e+00) (5, 2.65773487091064453125e+01) (6, 5.27486152648925781250e+01) (7, -1.80152721405029296875e+01) (8, 5.49877786636352539062e+00) (9, 1.17047300338745117188e+01) (10, -7.41579961776733398438e+00) (11, -1.83110466003417968750e+01) (12, -3.24837422370910644531e+00) (13, 3.68432712554931640625e+00) (14, -5.14464759826660156250e+00) (15, -1.43135356903076171875e+01) (16, 1.82443313598632812500e+01) (17, -6.89350051879882812500e+01) (18, -9.06878204345703125000e+01) (19, 3.43788566589355468750e+01) (20, -6.70382452011108398438e+00) (21, -7.96368503570556640625e+00) (0, -3.89148926734924316406e+00) (1, -1.94977366924285888672e+00) (2, -6.90797042846679687500e+01) (3, -7.52037715911865234375e+00) (4, -3.07121505737304687500e+01) (5, 2.96106967926025390625e+01) (6, 1.08459939956665039062e+01) (7, -8.21962432861328125000e+01) (8, -1.33280248641967773438e+01) (9, 1.30452203750610351562e+01) (10, 4.05939102172851562500e+00) (11, 2.19642138481140136719e+00) (12, -1.53361654281616210938e+00) (13, -7.48648691177368164062e+00) (14, 1.64595260620117187500e+01) (15, -6.53993654251098632812e+00) (16, -1.63031995296478271484e-01) (17, 4.41280990839004516602e-01) (18, 3.95022048950195312500e+01) (19, 1.00477504730224609375e+01) (20, 2.41105735301971435547e-01) (21, -2.40461230278015136719e+00) (0, 4.77560539245605468750e+01) (1, 1.75637900829315185547e+00) (2, -3.07064580917358398438e+00) (3, 4.19535369873046875000e+01) (4, 4.50978698730468750000e+01) (5, -6.14731693267822265625e+00) (6, -5.90057144165039062500e+01) (7, 1.22937374114990234375e+01) (8, 1.46956992149353027344e+00) (9, -1.16645965576171875000e+01) (10, -9.26781654357910156250e+00) (11, -3.91561927795410156250e+01) (12, -5.29837322235107421875e+00) (13, 2.08726673126220703125e+01) (14, 1.27531576156616210938e+01) (15, 3.06150074005126953125e+01) (16, 1.47628641128540039062e+01) (17, 2.86204490661621093750e+01) (18, -8.16491985321044921875e+00) (19, 2.80597043037414550781e+00) (20, -2.77864341735839843750e+01) (21, -9.76315116882324218750e+00) (0, -2.14006423950195312500e+01) (1, 5.28062477111816406250e+01) (2, 8.49277973175048828125e+00) (3, 1.33329038619995117188e+01) (4, -5.23008155822753906250e+00) (5, 1.13266258239746093750e+01) (6, -1.04858207702636718750e+01) (7, 2.14641189575195312500e+01) (8, 1.95463218688964843750e+01) (9, 2.20215415954589843750e+01) (10, -2.51409854888916015625e+01) (11, -1.69343700408935546875e+01) (12, -1.11443634033203125000e+01) (13, 1.31505012512207031250e+00) (14, -2.63888816833496093750e+01) (15, -2.92038688659667968750e+01) (16, -7.38155794143676757812e+00) (17, 1.78042948246002197266e+00) (18, 5.90328264236450195312e+00) (19, 6.36384963989257812500e+00) (20, 1.82889425754547119141e+00) (21, 9.03269100189208984375e+00) (0, -9.11667919158935546875e+00) (1, 1.17259201049804687500e+02) (2, 3.39228630065917968750e+01) (3, -1.33166160583496093750e+01) (4, 5.99246406555175781250e+01) (5, -3.11624317169189453125e+01) (6, -5.03013839721679687500e+01) (7, -8.68597209453582763672e-01) (8, 2.08503284454345703125e+01) (9, -1.68659133911132812500e+01) (10, -3.90320053100585937500e+01) (11, -3.16347618103027343750e+01) (12, 2.37239112854003906250e+01) (13, 3.88277664184570312500e+01) (14, 4.38640365600585937500e+01) (15, -6.88482761383056640625e-01) (16, 1.32108151912689208984e+00) (17, 1.43757038116455078125e+01) (18, -1.78045701980590820312e+00) (19, -9.54034519195556640625e+00) (20, 1.44752321243286132812e+01) (21, 1.16184368133544921875e+01) (0, -3.10242156982421875000e+01) (1, 1.06131529808044433594e+00) (2, -3.60687866210937500000e+01) (3, 4.01420974731445312500e+01) (4, -1.18229579925537109375e+01) (5, -1.48503618240356445312e+01) (6, -2.51538848876953125000e+01) (7, -4.05433807373046875000e+01) (8, -2.97719631195068359375e+01) (9, -3.06699962615966796875e+01) (10, -4.01870460510253906250e+01) (11, -2.13961925506591796875e+01) (12, -2.27099456787109375000e+01) (13, -2.09105968475341796875e+00) (14, -3.47936706542968750000e+01) (15, -2.53165626525878906250e+01) (16, -4.97849502563476562500e+01) (17, -1.17917232513427734375e+01) (18, -1.98152809143066406250e+01) (19, 2.09854125976562500000e+01) (20, 1.54550714492797851562e+01) (21, 7.74364700317382812500e+01) (0, -2.39099407196044921875e+01) (1, -2.71048021316528320312e+00) (2, -2.89360828399658203125e+01) (3, 8.98286056518554687500e+00) (4, 1.07677202224731445312e+01) (5, 2.19230422973632812500e+01) (6, -1.74901409149169921875e+01) (7, -1.09619617462158203125e+01) (8, 5.56399869918823242188e+00) (9, 1.19765968322753906250e+01) (10, 7.85195827484130859375e+00) (11, -4.50054883956909179688e+00) (12, 1.78137946128845214844e+00) (13, 2.02728533744812011719e+00) (14, -1.53341436386108398438e+01) (15, 1.46310501098632812500e+01) (16, 1.67385692596435546875e+01) (17, -2.39111900329589843750e+01) (18, -2.39807605743408203125e+01) (19, -1.92609901428222656250e+01) (20, 1.41366147994995117188e+01) (21, 1.91516184806823730469e+00) (0, 1.79652900695800781250e+01) (1, 1.19404954910278320312e+01) (2, -2.87688446044921875000e+00) (3, -2.69246616363525390625e+01) (4, 1.30001564025878906250e+01) (5, -1.18948202133178710938e+01) (6, 7.81392383575439453125e+00) (7, 2.51406841278076171875e+01) (8, 1.51372327804565429688e+01) (9, 3.06820430755615234375e+01) (10, 2.41020908355712890625e+01) (11, 2.50402145385742187500e+01) (12, -1.62985038757324218750e+01) (13, -5.11548233032226562500e+01) (14, 1.20042304992675781250e+01) (15, -4.94664859771728515625e+00) (16, -6.25592517852783203125e+00) (17, 1.07971391677856445312e+01) (18, 1.47723841667175292969e+00) (19, 1.83040847778320312500e+01) (20, -1.70524253845214843750e+01) (21, -1.70290908813476562500e+01) (0, 1.77229728698730468750e+01) (1, 1.94651889801025390625e+01) (2, -1.40938940048217773438e+01) (3, -2.86479663848876953125e+01) (4, -2.66719570159912109375e+01) (5, -3.94095268249511718750e+01) (6, -3.11155166625976562500e+01) (7, -3.60739059448242187500e+01) (8, 5.63976430892944335938e+00) (9, 1.71801071166992187500e+01) (10, 1.68938694000244140625e+01) (11, 1.56625432968139648438e+01) (12, 1.44364204406738281250e+01) (13, 1.99649829864501953125e+01) (14, 1.96288414001464843750e+01) (15, 7.74985790252685546875e+00) (16, 8.21159648895263671875e+00) (17, 3.67042083740234375000e+01) (18, 4.09159774780273437500e+01) (19, -1.34251413345336914062e+01) (20, 7.56241559982299804688e+00) (21, -1.29240694046020507812e+01) (0, 1.84441280364990234375e+01) (1, -2.28656444549560546875e+01) (2, -3.17500553131103515625e+01) (3, 2.69770145416259765625e+01) (4, 4.04567222595214843750e+01) (5, 8.81451606750488281250e+00) (6, 1.51508531570434570312e+01) (7, -2.50296235084533691406e+00) (8, 1.51890106201171875000e+01) (9, 4.60726737976074218750e+00) (10, 1.73570423126220703125e+01) (11, 2.03601512908935546875e+01) (12, 1.09370765686035156250e+01) (13, 5.29304084777832031250e+01) (14, 1.00093650817871093750e+01) (15, -2.12783408164978027344e+00) (16, -9.93200302124023437500e+00) (17, 1.49184417724609375000e+01) (18, -1.02427663803100585938e+01) (19, 5.56421394348144531250e+01) (20, 7.06517636775970458984e-01) (21, -9.15796566009521484375e+00) (0, -1.02534885406494140625e+01) (1, 2.76336264610290527344e+00) (2, -3.72667670249938964844e+00) (3, 1.10412130355834960938e+01) (4, -1.46279468536376953125e+01) (5, -1.71614151000976562500e+01) (6, -4.24872875213623046875e+00) (7, 3.15940990447998046875e+01) (8, 1.32855510711669921875e+01) (9, 2.39904804229736328125e+01) (10, 2.86011238098144531250e+01) (11, -8.21425378322601318359e-01) (12, -3.69378356933593750000e+01) (13, -5.62125625610351562500e+01) (14, 2.85810890197753906250e+01) (15, -3.96082344055175781250e+01) (16, 1.79977273941040039062e+00) (17, -7.24916267395019531250e+00) (18, -3.00941162109375000000e+01) (19, -2.35799674987792968750e+01) (20, -1.94653701782226562500e+01) (21, -1.99472293853759765625e+01) (0, 3.43830227851867675781e+00) (1, 7.48115348815917968750e+00) (2, -3.46412620544433593750e+01) (3, -6.66212940216064453125e+00) (4, 6.22602005004882812500e+01) (5, 4.68927307128906250000e+01) (6, 3.18843307495117187500e+01) (7, 3.84516792297363281250e+01) (8, 5.97562599182128906250e+00) (9, -1.58387317657470703125e+01) (10, 1.56654958724975585938e+01) (11, 2.15511627197265625000e+01) (12, 3.60608825683593750000e+01) (13, 5.20843315124511718750e+01) (14, -2.16794795989990234375e+01) (15, -5.71453857421875000000e+00) (16, -4.77164125442504882812e+00) (17, -6.04402542114257812500e+00) (18, 2.09133872985839843750e+01) (19, 1.17621679306030273438e+01) (20, -2.05175914764404296875e+01) (21, -1.46411943435668945312e+01) (0, -1.35196173191070556641e+00) (1, 5.45344467163085937500e+01) (2, 3.36310005187988281250e+01) (3, -3.34799804687500000000e+01) (4, 3.27955665588378906250e+01) (5, 1.25711333751678466797e+00) (6, -2.07348098754882812500e+01) (7, -1.41334123611450195312e+01) (8, -3.65360832214355468750e+01) (9, -3.37436981201171875000e+01) (10, -1.73989334106445312500e+01) (11, 1.67989063262939453125e+01) (12, -1.44165754318237304688e+01) (13, 2.15509700775146484375e+01) (14, 5.86029434204101562500e+00) (15, -7.01565170288085937500e+00) (16, 2.41886844635009765625e+01) (17, -6.13205528259277343750e+00) (18, 4.37150154113769531250e+01) (19, -4.11970329284667968750e+01) (20, -5.86812171936035156250e+01) (21, 4.11792087554931640625e+00) (0, -4.26944274902343750000e+01) (1, -7.11323852539062500000e+01) (2, -1.95073699951171875000e+01) (3, 8.43685245513916015625e+00) (4, 1.88310837745666503906e+00) (5, -4.17607841491699218750e+01) (6, -3.73801879882812500000e+01) (7, 1.38855957984924316406e+00) (8, -1.33306331634521484375e+01) (9, -1.74360427856445312500e+01) (10, -2.29960937500000000000e+01) (11, -1.60237789154052734375e+00) (12, 3.43573951721191406250e+01) (13, 2.22000598907470703125e+01) (14, -2.11925029754638671875e+00) (15, 9.80000972747802734375e+00) (16, -2.87147784233093261719e+00) (17, 5.70039787292480468750e+01) (18, -1.11370334625244140625e+01) (19, -4.47078895568847656250e+01) (20, 1.42970418930053710938e+00) (21, 1.13377218246459960938e+01) (0, -1.85586071014404296875e+01) (1, 2.42385902404785156250e+01) (2, 1.75703926086425781250e+01) (3, -3.01503467559814453125e+01) (4, -2.24286880493164062500e+01) (5, -8.52231216430664062500e+00) (6, -2.72136325836181640625e+01) (7, 1.66822128295898437500e+01) (8, -8.77203178405761718750e+00) (9, -2.95303344726562500000e+01) (10, -7.12535476684570312500e+00) (11, 5.01415348052978515625e+00) (12, -3.02661399841308593750e+01) (13, -1.24813804626464843750e+01) (14, -1.40030555725097656250e+01) (15, 1.29175500869750976562e+01) (16, 4.85085372924804687500e+01) (17, 6.11843490600585937500e+01) (18, -6.36746788024902343750e+00) (19, 5.14626846313476562500e+01) (20, 1.25769579410552978516e+00) (21, -3.45645737648010253906e+00) (0, -2.16456127166748046875e+01) (1, -3.00710678100585937500e+01) (2, 2.55720882415771484375e+01) (3, 4.75790232419967651367e-01) (4, 4.36589736938476562500e+01) (5, 2.55100555419921875000e+01) (6, 1.63079261779785156250e+01) (7, -6.70102739334106445312e+00) (8, 1.72647457122802734375e+01) (9, 2.81090965270996093750e+01) (10, 9.90074157714843750000e+00) (11, 1.03033962249755859375e+01) (12, 1.45098590850830078125e+01) (13, 3.11955165863037109375e+01) (14, -8.41856098175048828125e+00) (15, -2.53193416595458984375e+01) (16, -2.79316253662109375000e+01) (17, -2.99686163663864135742e-01) (18, -8.55443763732910156250e+00) (19, -1.25652151107788085938e+01) (20, 7.44158077239990234375e+00) (21, 3.98857927322387695312e+00) (0, -2.44204216003417968750e+01) (1, 1.82246494293212890625e+01) (2, -1.68358936309814453125e+01) (3, 1.61147994995117187500e+01) (4, -1.55737257003784179688e+00) (5, 1.17120003700256347656e+00) (6, -1.81744956970214843750e+01) (7, -2.32328033447265625000e+01) (8, -2.45637817382812500000e+01) (9, -2.87394371032714843750e+01) (10, -5.42055740356445312500e+01) (11, -2.90362472534179687500e+01) (12, -9.43261909484863281250e+00) (13, -6.19660186767578125000e+00) (14, -2.77646999359130859375e+01) (15, -2.53800640106201171875e+01) (16, -4.98733100891113281250e+01) (17, 1.41738843917846679688e+01) (18, -2.21274414062500000000e+01) (19, -1.63653984069824218750e+01) (20, 3.59997820854187011719e+00) (21, 7.57336120605468750000e+01) (0, -1.58890953063964843750e+01) (1, 7.57876892089843750000e+01) (2, 4.56867256164550781250e+01) (3, -4.95215225219726562500e+01) (4, 1.52609415054321289062e+01) (5, -2.99180297851562500000e+01) (6, -2.21163101196289062500e+01) (7, 1.68781356811523437500e+01) (8, -4.09038734436035156250e+01) (9, -4.60285644531250000000e+01) (10, 2.03452377319335937500e+01) (11, 4.16183509826660156250e+01) (12, 3.36236381530761718750e+01) (13, 2.08815708160400390625e+01) (14, -7.68500947952270507812e+00) (15, -2.38412342071533203125e+01) (16, 4.85525751113891601562e+00) (17, -1.69143104553222656250e+01) (18, -2.17126617431640625000e+01) (19, 1.74698810577392578125e+01) (20, -1.16885251998901367188e+01) (21, 6.97468948364257812500e+00) (0, 1.01444654464721679688e+01) (1, 9.43625926971435546875e+00) (2, 8.11939048767089843750e+00) (3, 3.48351783752441406250e+01) (4, -3.12526416778564453125e+01) (5, -5.31214027404785156250e+01) (6, -1.62013645172119140625e+01) (7, 8.12547779083251953125e+00) (8, -2.14640464782714843750e+01) (9, 8.07845497131347656250e+00) (10, -7.51270675659179687500e+00) (11, 4.32428550720214843750e+00) (12, -2.76877460479736328125e+01) (13, -2.04626407623291015625e+01) (14, -1.47267274856567382812e+01) (15, -1.82723731994628906250e+01) (16, -2.20357551574707031250e+01) (17, -2.17062306404113769531e+00) (18, 7.10149154663085937500e+01) (19, -5.06237068176269531250e+01) (20, -2.38601341247558593750e+01) (21, 6.22718334197998046875e+00) (0, -2.49620494842529296875e+01) (1, 6.98504972457885742188e+00) (2, 1.92587718963623046875e+01) (3, -3.37861442565917968750e+01) (4, 2.72194600105285644531e+00) (5, -8.25103664398193359375e+00) (6, 2.56728096008300781250e+01) (7, 5.75342063903808593750e+01) (8, -1.06539697647094726562e+01) (9, -2.78248214721679687500e+01) (10, -1.86231174468994140625e+01) (11, -1.41781158447265625000e+01) (12, 1.39780597686767578125e+01) (13, -8.23331594467163085938e-01) (14, -2.93979206085205078125e+01) (15, -1.04170684814453125000e+01) (16, -1.93124401569366455078e+00) (17, 1.17003927230834960938e+01) (18, 1.76825103759765625000e+01) (19, -6.19164962768554687500e+01) (20, 8.68492126464843750000e+00) (21, 1.44826116561889648438e+01) (0, -2.27619304656982421875e+01) (1, -2.17856740951538085938e+00) (2, 8.03063392639160156250e-01) (3, 6.44938802719116210938e+00) (4, -2.37454357147216796875e+01) (5, -9.05600738525390625000e+00) (6, -5.31596136093139648438e+00) (7, -9.62311649322509765625e+00) (8, 5.45075559616088867188e+00) (9, 6.62653970718383789062e+00) (10, 2.44765682220458984375e+01) (11, 2.90757675170898437500e+01) (12, -6.52681291103363037109e-01) (13, 2.85961112976074218750e+01) (14, -2.19491291046142578125e+01) (15, -4.77629947662353515625e+00) (16, -1.54704046249389648438e+00) (17, 5.13943710327148437500e+01) (18, 2.66035842895507812500e+01) (19, 2.99297547340393066406e+00) (20, 4.84213781356811523438e+00) (21, -3.16047286987304687500e+00) (0, 1.23320550918579101562e+01) (1, 5.31686553955078125000e+01) (2, -2.63635807037353515625e+01) (3, -1.05760946273803710938e+01) (4, -3.69015464782714843750e+01) (5, 1.68120555877685546875e+01) (6, 5.30908012390136718750e+00) (7, -1.55306301116943359375e+01) (8, 9.39908504486083984375e+00) (9, 7.47948265075683593750e+00) (10, 9.77916145324707031250e+00) (11, 1.54075660705566406250e+01) (12, -1.02585086822509765625e+01) (13, 9.91180896759033203125e+00) (14, 3.90947303771972656250e+01) (15, -2.49534950256347656250e+01) (16, -5.74790077209472656250e+01) (17, 1.24868288040161132812e+01) (18, -2.67701778411865234375e+01) (19, 1.20220499038696289062e+01) (20, -4.93596343994140625000e+01) (21, -9.96439993381500244141e-01) (0, -2.77801036834716796875e+00) (1, -9.17260360717773437500e+00) (2, -9.35493946075439453125e+00) (3, -2.35606689453125000000e+01) (4, -9.20868873596191406250e+00) (5, -2.66856193542480468750e+01) (6, 5.37460088729858398438e+00) (7, 1.44769315719604492188e+01) (8, 7.07005929946899414062e+00) (9, -1.31812334060668945312e+00) (10, -1.21400098800659179688e+01) (11, 2.01204085350036621094e+00) (12, -3.37403717041015625000e+01) (13, 4.33384084701538085938e+00) (14, -5.49415636062622070312e+00) (15, -5.81576967239379882812e+00) (16, -2.50757904052734375000e+01) (17, -4.55095062255859375000e+01) (18, -2.19714565277099609375e+01) (19, 1.82072181701660156250e+01) (20, -6.38201093673706054688e+00) (21, 3.27056550979614257812e+00) (0, -1.69601917266845703125e+01) (1, 1.82977447509765625000e+01) (2, -6.98224115371704101562e+00) (3, 1.32919816970825195312e+01) (4, 4.63045501708984375000e+00) (5, 1.42843475341796875000e+01) (6, -1.42011909484863281250e+01) (7, -1.38943433761596679688e+01) (8, -3.41442718505859375000e+01) (9, -2.34081535339355468750e+01) (10, -4.07722244262695312500e+01) (11, -2.22786788940429687500e+01) (12, 1.50597343444824218750e+01) (13, 1.57253475189208984375e+01) (14, -1.75768833160400390625e+01) (15, -2.59133338928222656250e+01) (16, -4.30546913146972656250e+01) (17, 1.15012035369873046875e+01) (18, -1.56420335769653320312e+01) (19, -1.90673503875732421875e+01) (20, -4.93580532073974609375e+00) (21, 6.91641693115234375000e+01) (0, 1.89987354278564453125e+01) (1, 3.10586566925048828125e+01) (2, 5.69436798095703125000e+01) (3, -5.31091833114624023438e+00) (4, -8.83487319946289062500e+01) (5, 3.78104066848754882812e+00) (6, -1.31993093490600585938e+01) (7, -2.22339859008789062500e+01) (8, -1.73696937561035156250e+01) (9, 7.04850244522094726562e+00) (10, -9.93083381652832031250e+00) (11, -1.44850988388061523438e+01) (12, 3.37885131835937500000e+01) (13, 3.54623069763183593750e+01) (14, 1.75755290985107421875e+01) (15, 7.90495967864990234375e+00) (16, -2.30258464813232421875e+01) (17, 1.26684789657592773438e+01) (18, 1.29089508056640625000e+01) (19, 1.18469314575195312500e+01) (20, 3.47936320304870605469e+00) (21, -4.29700762033462524414e-02) (0, 5.41145858764648437500e+01) (1, 1.91064720153808593750e+01) (2, 3.36551933288574218750e+01) (3, 2.87147293090820312500e+01) (4, 1.21573009490966796875e+01) (5, 3.82502365112304687500e+01) (6, -5.16335725784301757812e+00) (7, -3.50626335144042968750e+01) (8, -6.98209476470947265625e+00) (9, -4.07566261291503906250e+00) (10, 8.32744121551513671875e+00) (11, 1.37374353408813476562e+01) (12, -8.09843599796295166016e-01) (13, -2.97743968963623046875e+01) (14, -1.78546409606933593750e+01) (15, 6.80157566070556640625e+00) (16, 2.62931442260742187500e+01) (17, -1.44236602783203125000e+01) (18, 1.55201692581176757812e+01) (19, -6.47001113891601562500e+01) (20, 3.83284711837768554688e+00) (21, -1.15595693588256835938e+01) (0, -4.05998420715332031250e+01) (1, 2.34477081298828125000e+01) (2, -5.76052665710449218750e+01) (3, 1.07697553634643554688e+01) (4, 2.88054008483886718750e+01) (5, 1.07183198928833007812e+01) (6, -3.77773551940917968750e+01) (7, -1.95328655242919921875e+01) (8, 3.36032152175903320312e-01) (9, 2.00069732666015625000e+01) (10, 5.80406665802001953125e+00) (11, -3.80947184562683105469e+00) (12, 2.24852428436279296875e+01) (13, -7.48742389678955078125e+00) (14, -1.98810882568359375000e+01) (15, 2.81390457153320312500e+01) (16, 1.15247690677642822266e+00) (17, 4.73685874938964843750e+01) (18, -1.68465042114257812500e+00) (19, 6.90506553649902343750e+00) (20, -7.30301284790039062500e+00) (21, 7.77322149276733398438e+00) (0, 2.26872158050537109375e+01) (1, -1.97503318786621093750e+01) (2, -2.85313377380371093750e+01) (3, -3.13706493377685546875e+01) (4, -5.35877799987792968750e+00) (5, 4.03706407546997070312e+00) (6, -1.58408012390136718750e+01) (7, 1.06331367492675781250e+01) (8, -8.36743354797363281250e+00) (9, -1.67529430389404296875e+01) (10, -4.51434469223022460938e+00) (11, -1.20248279571533203125e+01) (12, -1.60539493560791015625e+01) (13, 4.43206548690795898438e+00) (14, 2.30198726654052734375e+01) (15, 7.73398685455322265625e+00) (16, 1.08336603641510009766e+00) (17, -2.35783176422119140625e+01) (18, -3.78334236145019531250e+01) (19, 4.09294815063476562500e+01) (20, -5.94931888580322265625e+00) (21, -8.52269840240478515625e+00) (0, 6.89725279808044433594e-01) (1, -2.03168563842773437500e+01) (2, -4.26301155090332031250e+01) (3, 2.71309566497802734375e+01) (4, -3.76445541381835937500e+01) (5, -2.42642498016357421875e+01) (6, -9.44194507598876953125e+00) (7, -3.25546693801879882812e+00) (8, 1.98975360393524169922e+00) (9, 1.98996009826660156250e+01) (10, -1.20753526687622070312e+01) (11, -2.47103710174560546875e+01) (12, 2.98956546783447265625e+01) (13, 1.64452133178710937500e+01) (14, -1.87324535846710205078e+00) (15, -1.74985542297363281250e+01) (16, -2.31954803466796875000e+01) (17, 1.20677003860473632812e+01) (18, -1.00768194198608398438e+01) (19, -4.54234790802001953125e+00) (20, -2.52231750488281250000e+01) (21, 1.45580215454101562500e+01) (0, -1.53522891998291015625e+01) (1, 4.97301816940307617188e+00) (2, -2.32207641601562500000e+01) (3, 2.91428375244140625000e+00) (4, -3.20200634002685546875e+00) (5, 9.94623184204101562500e+00) (6, -8.36885347962379455566e-02) (7, -1.41725444793701171875e+01) (8, -1.56449947357177734375e+01) (9, -2.52410602569580078125e+01) (10, -2.81655941009521484375e+01) (11, -1.29444627761840820312e+01) (12, -1.20974845886230468750e+01) (13, -1.31246721744537353516e+00) (14, -1.57366542816162109375e+01) (15, -2.54608383178710937500e+01) (16, -3.45653800964355468750e+01) (17, 4.42168569564819335938e+00) (18, -1.99425773620605468750e+01) (19, -3.10600605010986328125e+01) (20, 4.44155597686767578125e+00) (21, 6.51005706787109375000e+01) (0, 1.11325180530548095703e+00) (1, -4.48963928222656250000e+01) (2, -2.22126426696777343750e+01) (3, -7.12410926818847656250e+00) (4, 3.00197544097900390625e+01) (5, 5.89785432815551757812e+00) (6, 1.21585092544555664062e+01) (7, -9.00517368316650390625e+00) (8, -1.14371547698974609375e+01) (9, -3.35564002990722656250e+01) (10, 5.02526378631591796875e+00) (11, 4.20751380920410156250e+00) (12, -5.02590026855468750000e+01) (13, -1.52289590835571289062e+01) (14, 1.61785888671875000000e+00) (15, 1.16917586326599121094e+00) (16, 1.33305435180664062500e+01) (17, 9.29650497436523437500e+00) (18, -4.62806129455566406250e+01) (19, -8.29488468170166015625e+00) (20, 1.54614439010620117188e+01) (21, 1.38558053970336914062e+00) (0, -2.72742748260498046875e+01) (1, -2.87218475341796875000e+01) (2, -1.41579151153564453125e+01) (3, -1.19490013122558593750e+01) (4, -2.41103229522705078125e+01) (5, 5.87881278991699218750e+01) (6, 5.34773635864257812500e+00) (7, 2.31258468627929687500e+01) (8, -1.98311710357666015625e+01) (9, -3.44720687866210937500e+01) (10, -1.69212646484375000000e+01) (11, -1.61201248168945312500e+01) (12, 3.12877979278564453125e+01) (13, -1.82784690856933593750e+01) (14, 3.37424784898757934570e-01) (15, -5.42483472824096679688e+00) (16, -1.55095310211181640625e+01) (17, 3.14295232295989990234e-01) (18, 1.99945247173309326172e+00) (19, -3.18821945190429687500e+01) (20, 3.35806961059570312500e+01) (21, 1.56844921112060546875e+01) (0, 4.11948738098144531250e+01) (1, -2.21733608245849609375e+01) (2, 4.30090446472167968750e+01) (3, 2.02439270019531250000e+01) (4, 1.74694519042968750000e+01) (5, 7.73450040817260742188e+00) (6, 3.44033126831054687500e+01) (7, -3.50371856689453125000e+01) (8, -4.07589530944824218750e+01) (9, -1.02236423492431640625e+01) (10, -5.84877157211303710938e+00) (11, 1.39661026000976562500e+00) (12, -1.29866778850555419922e+00) (13, -1.60935020446777343750e+01) (14, 4.00833272933959960938e+00) (15, -2.79162559509277343750e+01) (16, -1.34854583740234375000e+01) (17, -3.11353321075439453125e+01) (18, -1.15919456481933593750e+01) (19, 5.88685379028320312500e+01) (20, -3.88433074951171875000e+01) (21, -2.08757734298706054688e+00) (0, 1.22828254699707031250e+01) (1, -3.51981048583984375000e+01) (2, -2.07319068908691406250e+01) (3, -3.93166809082031250000e+01) (4, 1.66154277324676513672e+00) (5, 5.71923103332519531250e+01) (6, 3.81105117797851562500e+01) (7, -4.07744026184082031250e+01) (8, -3.87830924987792968750e+01) (9, 1.32421426773071289062e+01) (10, -1.58558750152587890625e+01) (11, -1.50398235321044921875e+01) (12, -1.34956321716308593750e+01) (13, 1.41796293258666992188e+01) (14, 2.86010913848876953125e+01) (15, 9.34170627593994140625e+00) (16, 2.02411651611328125000e+01) (17, 5.59038810729980468750e+01) (18, -4.09783172607421875000e+01) (19, 4.40584945678710937500e+01) (20, 7.74651467800140380859e-01) (21, -6.34232759475708007812e+00) (0, 1.82119953632354736328e+00) (1, -3.68844121694564819336e-01) (2, 1.63109359741210937500e+01) (3, 3.49361705780029296875e+00) (4, 6.44006118774414062500e+01) (5, -1.49036903381347656250e+01) (6, -5.26352262496948242188e+00) (7, 1.12118034362792968750e+01) (8, 1.16056718826293945312e+01) (9, 1.03903026580810546875e+01) (10, -3.08129930496215820312e+00) (11, 2.38747239112854003906e+00) (12, -4.94416856765747070312e+00) (13, -1.69572658538818359375e+01) (14, -1.20129413604736328125e+01) (15, 2.31538105010986328125e+01) (16, 3.03756504058837890625e+01) (17, 3.13423881530761718750e+01) (18, 3.17351627349853515625e+00) (19, 2.66943969726562500000e+01) (20, 1.16372241973876953125e+01) (21, -1.18977413177490234375e+01) (0, 2.90931930541992187500e+01) (1, 3.20069236755371093750e+01) (2, 2.97892093658447265625e+00) (3, 1.97645926475524902344e+00) (4, 1.90263252258300781250e+01) (5, 1.81127738952636718750e+01) (6, 4.13182258605957031250e+01) (7, -3.07115173339843750000e+01) (8, -1.30283296108245849609e+00) (9, -2.42610740661621093750e+01) (10, 5.46255782246589660645e-02) (11, -6.56886863708496093750e+00) (12, 3.01190643310546875000e+01) (13, 4.16495857238769531250e+01) (14, -1.01598443984985351562e+01) (15, -2.95471115112304687500e+01) (16, -8.16484642028808593750e+00) (17, 3.46268157958984375000e+01) (18, -5.15386343002319335938e+00) (19, -1.78174400329589843750e+01) (20, 2.32546730041503906250e+01) (21, 6.69532728195190429688e+00) (0, 1.19916944503784179688e+01) (1, -7.76225852966308593750e+00) (2, -9.21927738189697265625e+00) (3, -1.56377911567687988281e+00) (4, -2.26309852600097656250e+01) (5, 2.61697082519531250000e+01) (6, 4.11344108581542968750e+01) (7, -1.17024431228637695312e+01) (8, 3.49364972114562988281e+00) (9, -3.52553629875183105469e+00) (10, -1.93344249725341796875e+01) (11, -1.70935440063476562500e+01) (12, -6.61522369384765625000e+01) (13, -2.57728824615478515625e+01) (14, 2.79679155349731445312e+00) (15, -6.17341852188110351562e+00) (16, 1.19497737884521484375e+01) (17, -7.12824096679687500000e+01) (18, 3.30444812774658203125e+00) (19, -1.88692340850830078125e+01) (20, -3.13216781616210937500e+01) (21, 3.13291311264038085938e+00) (0, -3.03896933794021606445e-01) (1, 1.65585365295410156250e+01) (2, 1.87612285614013671875e+01) (3, 1.26790237426757812500e+00) (4, 1.55346956253051757812e+01) (5, 6.50038223266601562500e+01) (6, 5.93152313232421875000e+01) (7, -2.54245414733886718750e+01) (8, -5.45800876617431640625e+00) (9, -2.15462512969970703125e+01) (10, -3.02447776794433593750e+01) (11, -2.95171871185302734375e+01) (12, 4.17533779144287109375e+00) (13, 1.66672194004058837891e+00) (14, 2.47592468261718750000e+01) (15, 1.71870536804199218750e+01) (16, 2.91735668182373046875e+01) (17, 3.50011482238769531250e+01) (18, 1.08365511894226074219e+00) (19, -2.37136287689208984375e+01) (20, -9.06615352630615234375e+00) (21, 1.55680024623870849609e+00) (0, 5.63226127624511718750e+00) (1, -2.02635917663574218750e+01) (2, -1.67363815307617187500e+01) (3, -3.80346226692199707031e+00) (4, 4.53760862350463867188e+00) (5, -8.98723888397216796875e+00) (6, -1.13468456268310546875e+01) (7, 9.76446723937988281250e+00) (8, 3.53254203796386718750e+01) (9, 4.16154556274414062500e+01) (10, 1.67606010437011718750e+01) (11, 1.64128875732421875000e+01) (12, -4.03500785827636718750e+01) (13, -1.02975358963012695312e+01) (14, -9.76660370826721191406e-01) (15, -1.82428588867187500000e+01) (16, -2.13297424316406250000e+01) (17, -2.76463103294372558594e+00) (18, -3.55884623527526855469e+00) (19, -1.18688459396362304688e+01) (20, -2.47305030822753906250e+01) (21, -5.65235567092895507812e+00) (0, -1.69246139526367187500e+01) (1, -2.04050769805908203125e+01) (2, -2.26600265502929687500e+01) (3, -3.89691543579101562500e+01) (4, 6.01179885864257812500e+01) (5, 2.76590061187744140625e+01) (6, 3.86536102294921875000e+01) (7, -6.16347503662109375000e+00) (8, -1.97485077381134033203e+00) (9, 7.57536077499389648438e+00) (10, -2.87410545349121093750e+01) (11, 7.86303758621215820312e+00) (12, 1.15295658111572265625e+01) (13, 2.89303455352783203125e+01) (14, 8.08088493347167968750e+00) (15, 1.86480503082275390625e+01) (16, 1.40413398742675781250e+01) (17, 1.38867397308349609375e+01) (18, 7.29337978363037109375e+00) (19, 1.63566482067108154297e+00) (20, -6.67109727859497070312e+00) (21, 9.58247184753417968750e+00) (0, 7.65964412689208984375e+00) (1, 4.62578926086425781250e+01) (2, -3.04424324035644531250e+01) (3, 4.96054916381835937500e+01) (4, -2.12505187988281250000e+01) (5, 2.57618846893310546875e+01) (6, -9.28837299346923828125e+00) (7, -3.47591876983642578125e+00) (8, -2.51209430694580078125e+01) (9, -5.14563674926757812500e+01) (10, -1.48731632232666015625e+01) (11, -6.84264469146728515625e+00) (12, 1.56772451400756835938e+01) (13, 1.77496604919433593750e+01) (14, -1.74419250488281250000e+01) (15, 1.35015382766723632812e+01) (16, 3.75400018692016601562e+00) (17, -5.71339845657348632812e+00) (18, 1.87862224578857421875e+01) (19, 2.04091281890869140625e+01) (20, 1.04742221832275390625e+01) (21, 1.83556632995605468750e+01) (0, 1.54472694396972656250e+01) (1, -2.27073478698730468750e+01) (2, 5.42011337280273437500e+01) (3, -2.06473522186279296875e+01) (4, -3.62782249450683593750e+01) (5, 1.10946378707885742188e+01) (6, -1.76205463409423828125e+01) (7, -5.38695859909057617188e+00) (8, 8.95618629455566406250e+00) (9, -1.49686193466186523438e+01) (10, -1.20601224899291992188e+01) (11, -8.08017539978027343750e+00) (12, 3.78713378906250000000e+01) (13, 2.97200412750244140625e+01) (14, 8.02193260192871093750e+00) (15, -1.70044116973876953125e+01) (16, -9.03914833068847656250e+00) (17, 1.72568893432617187500e+01) (18, -1.85398292541503906250e+01) (19, 2.20300140380859375000e+01) (20, -7.67148435115814208984e-02) (21, -3.50316548347473144531e+00) (0, 4.26205139160156250000e+01) (1, -4.69528865814208984375e+00) (2, -5.99006881713867187500e+01) (3, 2.92444648742675781250e+01) (4, 2.80480728149414062500e+01) (5, -2.68872814178466796875e+01) (6, 1.81970329284667968750e+01) (7, -3.77549076080322265625e+00) (8, 2.55781631469726562500e+01) (9, 1.52926511764526367188e+01) (10, 2.23500328063964843750e+01) (11, 1.42963027954101562500e+01) (12, -1.97613716125488281250e+01) (13, 1.24150805175304412842e-01) (14, -3.98876523971557617188e+00) (15, -3.13668594360351562500e+01) (16, -1.68237838745117187500e+01) (17, -8.56798171997070312500e+00) (18, 2.52386512756347656250e+01) (19, 2.65026569366455078125e+00) (20, 1.09893150329589843750e+01) (21, -1.33775739669799804688e+01) (0, -7.50702142715454101562e+00) (1, -1.36788234710693359375e+01) (2, 1.26512289047241210938e+01) (3, -2.55989341735839843750e+01) (4, 1.71755161285400390625e+01) (5, 4.79758262634277343750e+00) (6, -1.47883710861206054688e+01) (7, 6.64715576171875000000e+00) (8, -5.52448368072509765625e+00) (9, -1.96750390529632568359e+00) (10, 2.38011608123779296875e+01) (11, -2.00779271125793457031e+00) (12, -1.27110452651977539062e+01) (13, -9.93320751190185546875e+00) (14, 4.63531951904296875000e+01) (15, 1.63536701202392578125e+01) (16, 4.08499031066894531250e+01) (17, 6.99101924896240234375e+00) (18, 1.50266075134277343750e+01) (19, 5.03849315643310546875e+00) (20, 6.82024765014648437500e+00) (21, -2.18850307464599609375e+01) (0, -3.46444053649902343750e+01) (1, 8.77835845947265625000e+00) (2, -1.70532512664794921875e+01) (3, 1.46927947998046875000e+01) (4, -1.09289417266845703125e+01) (5, -3.47745475769042968750e+01) (6, -1.56589899063110351562e+01) (7, -6.47908449172973632812e-01) (8, -4.07589578628540039062e+00) (9, 5.34930658340454101562e+00) (10, 2.41214046478271484375e+01) (11, 3.92029800415039062500e+01) (12, 1.56932773590087890625e+01) (13, 9.17484760284423828125e+00) (14, -8.85128974914550781250e+00) (15, -2.55812644958496093750e+01) (16, -2.41991577148437500000e+01) (17, -2.64601650238037109375e+01) (18, -1.46313095092773437500e+01) (19, -6.04423789978027343750e+01) (20, -1.62150440216064453125e+01) (21, 1.77247114479541778564e-02) (22, -5.94770288467407226562e+00) (23, 2.79130744934082031250e+00) (24, 1.48487663269042968750e+01) (25, -1.13407306373119354248e-01) (26, 9.02098640799522399902e-02) (27, 1.70351238250732421875e+01) (28, 1.19132041931152343750e+01) (29, -5.33383131027221679688e+00) (30, 1.46885383129119873047e+00) (31, -7.54183650016784667969e-01) (32, 3.84087890386581420898e-01) (33, -8.88617801666259765625e+00) (34, 3.84915304183959960938e+00) (35, -3.38237142562866210938e+00) (36, -1.30507886409759521484e+00) (37, 7.81336212158203125000e+00) (38, 6.09200572967529296875e+00) (39, -3.13164281845092773438e+00) (40, -2.40468406677246093750e+00) (41, -1.59587354660034179688e+01) (42, -1.52526865005493164062e+01) (43, 1.54400050640106201172e+00) (44, 7.71898984909057617188e+00) (45, -1.05253629684448242188e+01) (46, 9.77365207672119140625e+00) (47, -2.90994787216186523438e+00) (48, 4.86078691482543945312e+00) (49, -1.22164707183837890625e+01) (50, -8.27665424346923828125e+00) (51, -2.90203005075454711914e-01) (52, 3.75282883644104003906e+00) (53, -1.74096851348876953125e+01) (54, -6.09436750411987304688e+00) (55, -7.31277179718017578125e+00) (56, -3.26897048950195312500e+00) (57, 4.40662479400634765625e+00) (58, 7.73249053955078125000e+00) (59, -4.10489845275878906250e+00) (60, -1.63176307678222656250e+01) (61, -1.10678806304931640625e+01) (62, -2.84751176834106445312e+00) (63, 2.89837670326232910156e+00) (64, 6.74221420288085937500e+00) (65, 3.19262123107910156250e+00) (66, -1.44088068008422851562e+01) (67, -3.20712375640869140625e+00) (68, 3.50078439712524414062e+00) (69, 5.46655321121215820312e+00) (70, 6.82716464996337890625e+00) (71, 1.26571083068847656250e+00) (72, -2.23805010318756103516e-02) (73, 7.03854322433471679688e+00) (74, 8.22284317016601562500e+00) (75, 5.49092388153076171875e+00) (76, 1.09613466262817382812e+01) (77, -3.25171184539794921875e+00) (78, 1.31705999374389648438e+00) (79, 6.65120899677276611328e-01) (80, 3.12939357757568359375e+00) (81, -3.84213113784790039062e+00) (82, -1.73611164093017578125e+01) (22, 4.34547805786132812500e+00) (23, -3.97439789772033691406e+00) (24, -8.76396179199218750000e+00) (25, -1.00840606689453125000e+01) (26, 5.53818941116333007812e+00) (27, 1.08389701843261718750e+01) (28, 4.86507844924926757812e+00) (29, -7.98874664306640625000e+00) (30, 6.89912199974060058594e-01) (31, -7.95551896095275878906e-01) (32, -1.11591732501983642578e+00) (33, -6.57557535171508789062e+00) (34, -5.05362558364868164062e+00) (35, 6.07605743408203125000e+00) (36, 5.99499368667602539062e+00) (37, -8.43247222900390625000e+00) (38, -4.01968717575073242188e+00) (39, -9.20921516418457031250e+00) (40, -5.76348066329956054688e+00) (41, 1.30194139480590820312e+01) (42, -1.42056045532226562500e+01) (43, -2.57425069808959960938e+00) (44, -3.55132317543029785156e+00) (45, 3.51712298393249511719e+00) (46, -1.17235813140869140625e+01) (47, -3.89708733558654785156e+00) (48, 9.58070564270019531250e+00) (49, 8.93919181823730468750e+00) (50, -1.24647116661071777344e+00) (51, -4.19939661026000976562e+00) (52, 2.47583603858947753906e+00) (53, -1.51731395721435546875e+01) (54, 1.43871390819549560547e+00) (55, 1.20121026039123535156e+00) (56, 1.47669582366943359375e+01) (57, 8.11494445800781250000e+00) (58, -7.16232824325561523438e+00) (59, -5.72605276107788085938e+00) (60, -1.10455169677734375000e+01) (61, 6.54998016357421875000e+00) (62, -7.59628534317016601562e+00) (63, 1.53191411495208740234e+00) (64, -1.87497949600219726562e+00) (65, -4.83119535446166992188e+00) (66, -1.33069324493408203125e+01) (67, -3.26720452308654785156e+00) (68, -5.73615121841430664062e+00) (69, 6.54906940460205078125e+00) (70, 1.93550199270248413086e-01) (71, 1.73893308639526367188e+00) (72, 5.28981256484985351562e+00) (73, -5.02472400665283203125e+00) (74, 1.05763578414916992188e+01) (75, 3.31242227554321289062e+00) (76, 8.63465404510498046875e+00) (77, -2.64769840240478515625e+00) (78, 1.21653261184692382812e+01) (79, -1.87353026866912841797e+00) (80, -3.62872809171676635742e-01) (81, -1.64306020736694335938e+00) (82, -1.56304092407226562500e+01) (22, 1.06513249874114990234e+00) (23, 2.18166089057922363281e+00) (24, 6.40077447891235351562e+00) (25, 5.91205787658691406250e+00) (26, 2.31462597846984863281e+00) (27, 1.65169734954833984375e+01) (28, 1.58470335006713867188e+01) (29, 3.01982188224792480469e+00) (30, 4.40640020370483398438e+00) (31, -2.00459170341491699219e+00) (32, 7.29228496551513671875e+00) (33, -8.58488368988037109375e+00) (34, -2.75148987770080566406e+00) (35, -8.89792156219482421875e+00) (36, -3.50622892379760742188e-01) (37, -6.25253009796142578125e+00) (38, 1.80060520172119140625e+01) (39, 3.25776124000549316406e+00) (40, -4.63999986648559570312e-01) (41, -9.72246360778808593750e+00) (42, -1.23735742568969726562e+01) (43, 4.36753463745117187500e+00) (44, 3.23856472969055175781e+00) (45, 5.28816986083984375000e+00) (46, 2.99648135900497436523e-01) (47, 2.84976387023925781250e+00) (48, 2.09939074516296386719e+00) (49, -2.06740438938140869141e-01) (50, 1.27138500213623046875e+01) (51, 7.59722375869750976562e+00) (52, -2.77925086021423339844e+00) (53, -1.86737556457519531250e+01) (54, -4.01688623428344726562e+00) (55, -5.24214744567871093750e+00) (56, -1.03808574676513671875e+01) (57, 2.93669152259826660156e+00) (58, -6.27506208419799804688e+00) (59, 4.12253051996231079102e-01) (60, -1.86340217590332031250e+01) (61, -1.26259098052978515625e+01) (62, -4.83577346801757812500e+00) (63, 2.67390608787536621094e+00) (64, 4.08811378479003906250e+00) (65, 3.14139533042907714844e+00) (66, -1.51787166595458984375e+01) (67, -3.47586572170257568359e-01) (68, 9.20356750488281250000e-01) (69, -4.29923486709594726562e+00) (70, 1.44611558914184570312e+01) (71, 7.40819454193115234375e+00) (72, -1.06712830066680908203e+00) (73, -7.02495956420898437500e+00) (74, -1.46768083572387695312e+01) (75, 4.01656836271286010742e-01) (76, 2.47649455070495605469e+00) (77, -4.29539155960083007812e+00) (78, -4.34582901000976562500e+00) (79, 4.73370885848999023438e+00) (80, 3.97849106788635253906e+00) (81, -1.56890058517456054688e+00) (82, -1.95624008178710937500e+01) (22, -1.13269701004028320312e+01) (23, -1.01735579967498779297e+00) (24, 1.04936037063598632812e+01) (25, -1.14315595626831054688e+01) (26, -3.32797574996948242188e+00) (27, 1.27796373367309570312e+01) (28, 3.61913752555847167969e+00) (29, -2.03009438514709472656e+00) (30, 1.18934774398803710938e+01) (31, -5.38226068019866943359e-01) (32, 4.37332987785339355469e-01) (33, -4.26582384109497070312e+00) (34, -1.55843293666839599609e+00) (35, 5.95037555694580078125e+00) (36, -6.33621931076049804688e+00) (37, -1.05143280029296875000e+01) (38, -1.28745803833007812500e+01) (39, -9.63579475879669189453e-01) (40, 4.60373926162719726562e+00) (41, 3.00632548332214355469e+00) (42, -1.35491628646850585938e+01) (43, -1.03305912017822265625e+00) (44, 9.96079683303833007812e-01) (45, -2.75685286521911621094e+00) (46, 8.34509849548339843750e+00) (47, 4.15499258041381835938e+00) (48, 3.52010273933410644531e+00) (49, -7.35221719741821289062e+00) (50, 1.28338897228240966797e+00) (51, 3.72117638587951660156e+00) (52, -5.79493331909179687500e+00) (53, -1.28056898117065429688e+01) (54, -6.78455209732055664062e+00) (55, -5.30383634567260742188e+00) (56, 8.66980838775634765625e+00) (57, 1.00018060207366943359e+00) (58, -1.25043904781341552734e+00) (59, 4.75922316312789916992e-01) (60, -1.41941709518432617188e+01) (61, -6.74443197250366210938e+00) (62, -9.29510593414306640625e+00) (63, 4.13732862472534179688e+00) (64, 3.62816214561462402344e+00) (65, 2.71053576469421386719e+00) (66, -1.05169324874877929688e+01) (67, 3.62346816062927246094e+00) (68, 2.41007852554321289062e+00) (69, -1.08044834136962890625e+01) (70, 2.36882388591766357422e-01) (71, 5.19274568557739257812e+00) (72, -4.16848331689834594727e-01) (73, -6.87216043472290039062e+00) (74, -3.59419703483581542969e+00) (75, 7.87616968154907226562e+00) (76, 2.63979029655456542969e+00) (77, -2.74792313575744628906e+00) (78, -7.64900064468383789062e+00) (79, 2.52778840065002441406e+00) (80, 3.96845555305480957031e+00) (81, -5.64899206161499023438e-01) (82, -1.44713792800903320312e+01) (22, -4.31760847568511962891e-01) (23, -3.76847910881042480469e+00) (24, -9.48723602294921875000e+00) (25, -1.39239072799682617188e+00) (26, 1.50389456748962402344e+00) (27, 1.34144001007080078125e+01) (28, -1.48550205230712890625e+01) (29, 5.13193750381469726562e+00) (30, -7.80686497688293457031e-01) (31, -3.64388346672058105469e+00) (32, 6.21655321121215820312e+00) (33, -1.21361446380615234375e+01) (34, 4.96939182281494140625e+00) (35, -7.04560136795043945312e+00) (36, 4.24299430847167968750e+00) (37, -1.13745415210723876953e+00) (38, 8.06112003326416015625e+00) (39, 8.94145393371582031250e+00) (40, 1.75338730216026306152e-01) (41, 1.25503997802734375000e+01) (42, -1.14139328002929687500e+01) (43, -1.63440942764282226562e+00) (44, 4.25167918205261230469e-01) (45, 1.43238985538482666016e+00) (46, 7.22998619079589843750e+00) (47, 1.08060789108276367188e+00) (48, -3.04478430747985839844e+00) (49, -7.41556644439697265625e+00) (50, -2.21992468833923339844e+00) (51, 5.04933643341064453125e+00) (52, -2.89078927040100097656e+00) (53, -1.24023132324218750000e+01) (54, -9.57114791870117187500e+00) (55, 6.76612091064453125000e+00) (56, -2.09562587738037109375e+00) (57, -9.31588292121887207031e-01) (58, 9.45076847076416015625e+00) (59, -1.30276441574096679688e-01) (60, -1.35666179656982421875e+01) (61, -1.10483856201171875000e+01) (62, 1.36967277526855468750e+00) (63, -7.25574016571044921875e-01) (64, 5.11290216445922851562e+00) (65, -7.95385789871215820312e+00) (66, -1.23351955413818359375e+01) (67, 2.22665953636169433594e+00) (68, -1.26727318763732910156e+00) (69, -7.36852407455444335938e+00) (70, 4.40916347503662109375e+00) (71, 1.46634111404418945312e+01) (72, 7.18150019645690917969e-01) (73, -5.13147163391113281250e+00) (74, -3.11553025245666503906e+00) (75, -3.86481833457946777344e+00) (76, -1.82621936798095703125e+01) (77, 9.57230687141418457031e-01) (78, -2.21033954620361328125e+00) (79, 1.03484249114990234375e+01) (80, 3.60507082939147949219e+00) (81, 3.11593341827392578125e+00) (82, -1.47880783081054687500e+01) (22, 8.57334995269775390625e+00) (23, 3.95419621467590332031e+00) (24, -4.57202339172363281250e+00) (25, 6.97774362564086914062e+00) (26, 3.13206243515014648438e+00) (27, 1.34948186874389648438e+01) (28, 9.10997867584228515625e-01) (29, 1.28088831901550292969e-01) (30, 9.03309154510498046875e+00) (31, -4.08375072479248046875e+00) (32, -2.19913911819458007812e+00) (33, -7.79821920394897460938e+00) (34, -4.19300365447998046875e+00) (35, 2.51382350921630859375e+00) (36, -8.64561557769775390625e+00) (37, 9.10707283020019531250e+00) (38, -5.79440116882324218750e+00) (39, -3.73205971717834472656e+00) (40, -1.01195621490478515625e+01) (41, 5.76091670989990234375e+00) (42, -1.76337680816650390625e+01) (43, -2.05137372016906738281e+00) (44, -3.02682781219482421875e+00) (45, -3.21114730834960937500e+00) (46, 4.66631472110748291016e-01) (47, -1.97690546512603759766e-01) (48, -5.42508125305175781250e-01) (49, 1.67226803302764892578e+00) (50, 1.29074478149414062500e+00) (51, -1.15960617065429687500e+01) (52, 3.27652645111083984375e+00) (53, -1.72007827758789062500e+01) (54, 6.33386659622192382812e+00) (55, -9.42605495452880859375e+00) (56, 1.48964977264404296875e+00) (57, 3.92607092857360839844e+00) (58, -1.31353878974914550781e+00) (59, 3.09277594089508056641e-01) (60, -1.30128564834594726562e+01) (61, 3.88601946830749511719e+00) (62, -9.49378299713134765625e+00) (63, -1.05472078323364257812e+01) (64, 7.18885755538940429688e+00) (65, -1.74267077445983886719e+00) (66, -1.06788015365600585938e+01) (67, 5.61873769760131835938e+00) (68, 3.63291859626770019531e+00) (69, 6.92129182815551757812e+00) (70, 1.93996870517730712891e+00) (71, -5.98498106002807617188e+00) (72, -1.84969019889831542969e+00) (73, 4.79658031463623046875e+00) (74, 2.23935222625732421875e+00) (75, 7.97527313232421875000e+00) (76, 8.69224739074707031250e+00) (77, -4.72035312652587890625e+00) (78, 2.00711894035339355469e+00) (79, -2.81632876396179199219e+00) (80, 1.38508520126342773438e+01) (81, 7.81775331497192382812e+00) (82, -1.77574729919433593750e+01) (22, -4.74247121810913085938e+00) (23, -2.03085327148437500000e+00) (24, -5.29727792739868164062e+00) (25, 3.99822664260864257812e+00) (26, -1.85705928802490234375e+01) (27, 1.60386981964111328125e+01) (28, -1.37443149089813232422e+00) (29, 1.74821937084197998047e+00) (30, -2.60118556022644042969e+00) (31, -5.78164291381835937500e+00) (32, -1.91799974441528320312e+00) (33, -9.47284412384033203125e+00) (34, 1.31069650650024414062e+01) (35, 6.30334186553955078125e+00) (36, -6.25604534149169921875e+00) (37, -6.76950836181640625000e+00) (38, 2.03260159492492675781e+00) (39, -5.81222248077392578125e+00) (40, -6.66990804672241210938e+00) (41, -1.04655599594116210938e+01) (42, -1.45196361541748046875e+01) (43, 5.52914714813232421875e+00) (44, -6.18307232856750488281e-01) (45, -5.17983865737915039062e+00) (46, 2.15111637115478515625e+00) (47, -1.12809829711914062500e+01) (48, 9.68993854522705078125e+00) (49, -8.64527606964111328125e+00) (50, -9.57104778289794921875e+00) (51, -1.00416259765625000000e+01) (52, 4.10730934143066406250e+00) (53, -1.43796176910400390625e+01) (54, -7.21230936050415039062e+00) (55, -3.94814372062683105469e+00) (56, -3.80105495452880859375e+00) (57, 5.30260753631591796875e+00) (58, 1.45455276966094970703e+00) (59, 3.65697884559631347656e+00) (60, -1.54950504302978515625e+01) (61, -1.07503356933593750000e+01) (62, 3.42677712440490722656e+00) (63, -2.39952445030212402344e+00) (64, -1.83168280124664306641e+00) (65, -3.06277918815612792969e+00) (66, -1.57529458999633789062e+01) (67, 2.72798228263854980469e+00) (68, 3.30939745903015136719e+00) (69, 4.18821430206298828125e+00) (70, 4.53311443328857421875e+00) (71, -1.23372897505760192871e-02) (72, -2.82677435874938964844e+00) (73, 1.54254376888275146484e+00) (74, -3.07356142997741699219e+00) (75, -1.25648653507232666016e+00) (76, 6.02544069290161132812e+00) (77, 5.09288644790649414062e+00) (78, -3.59062218666076660156e+00) (79, 2.60609358549118041992e-01) (80, 3.46488356590270996094e+00) (81, -2.51154303550720214844e+00) (82, -1.71363220214843750000e+01) (22, 9.47083950042724609375e+00) (23, 1.96778869628906250000e+00) (24, 9.55900287628173828125e+00) (25, 9.25997638702392578125e+00) (26, -5.65366649627685546875e+00) (27, 2.08014888763427734375e+01) (28, 8.98250675201416015625e+00) (29, 1.61474668979644775391e+00) (30, 1.18951582908630371094e+00) (31, 1.50278985500335693359e+00) (32, 3.65696024894714355469e+00) (33, -1.14962129592895507812e+01) (34, -6.61739110946655273438e-01) (35, -9.49125957489013671875e+00) (36, -4.16619682312011718750e+00) (37, 6.91938304901123046875e+00) (38, -6.70932483673095703125e+00) (39, 5.47095835208892822266e-01) (40, 3.93570256233215332031e+00) (41, 4.50972604751586914062e+00) (42, -1.95434474945068359375e+01) (43, -3.99892044067382812500e+00) (44, -4.17674684524536132812e+00) (45, 3.73409718275070190430e-01) (46, 1.24320602416992187500e+00) (47, -9.81839084625244140625e+00) (48, 5.69237327575683593750e+00) (49, 4.05741596221923828125e+00) (50, 3.45078206062316894531e+00) (51, 8.66151142120361328125e+00) (52, 5.08644998073577880859e-01) (53, -1.50430631637573242188e+01) (54, 6.66886711120605468750e+00) (55, -2.89004874229431152344e+00) (56, 1.63915717601776123047e+00) (57, 3.24728989601135253906e+00) (58, -9.51076984405517578125e+00) (59, -2.49059391021728515625e+00) (60, -1.58816747665405273438e+01) (61, 5.92491912841796875000e+00) (62, -3.19382214546203613281e+00) (63, 4.25186455249786376953e-01) (64, 1.43441453576087951660e-01) (65, -2.55302309989929199219e+00) (66, -1.76885395050048828125e+01) (67, 4.63131380081176757812e+00) (68, 3.96748232841491699219e+00) (69, 1.54848165512084960938e+01) (70, 5.40710639953613281250e+00) (71, 1.16852846145629882812e+01) (72, -3.56792187690734863281e+00) (73, -1.11812601089477539062e+01) (74, -1.12709856033325195312e+01) (75, -8.25861155986785888672e-01) (76, -1.78454801440238952637e-01) (77, -5.70213127136230468750e+00) (78, 6.41843032836914062500e+00) (79, -2.98219799995422363281e+00) (80, 6.16503810882568359375e+00) (81, -8.52728247642517089844e-01) (82, -2.17427959442138671875e+01) (22, -1.19237909317016601562e+01) (23, -3.72517967224121093750e+00) (24, -9.57872509956359863281e-01) (25, -7.41360473632812500000e+00) (26, 1.49714193344116210938e+01) (27, 1.84744338989257812500e+01) (28, 5.25919294357299804688e+00) (29, -5.22156095504760742188e+00) (30, 5.97261667251586914062e+00) (31, 8.57604694366455078125e+00) (32, -4.47333812713623046875e+00) (33, -1.52409944534301757812e+01) (34, -1.37176799774169921875e+00) (35, -5.00866174697875976562e-01) (36, 5.17932367324829101562e+00) (37, -2.11758279800415039062e+00) (38, -3.47668361663818359375e+00) (39, 8.71310138702392578125e+00) (40, 7.18770265579223632812e+00) (41, 2.54657840728759765625e+00) (42, -1.84869422912597656250e+01) (43, -4.91908836364746093750e+00) (44, 4.60562515258789062500e+00) (45, 5.02881526947021484375e+00) (46, 1.27468335628509521484e+00) (47, 3.70257043838500976562e+00) (48, -3.10276031494140625000e+00) (49, 9.07800579071044921875e+00) (50, 6.39885902404785156250e+00) (51, -2.08856773376464843750e+00) (52, 8.24103450775146484375e+00) (53, -1.44594678878784179688e+01) (54, -4.72418975830078125000e+00) (55, 9.95884227752685546875e+00) (56, 6.69076347351074218750e+00) (57, -6.91513586044311523438e+00) (58, -5.57166719436645507812e+00) (59, 7.71411848068237304688e+00) (60, -1.36738328933715820312e+01) (61, 7.05123376846313476562e+00) (62, 5.72701978683471679688e+00) (63, -2.18999290466308593750e+00) (64, -4.15889883041381835938e+00) (65, 6.43925905227661132812e-01) (66, -1.54972124099731445312e+01) (67, -1.62515175342559814453e+00) (68, 2.18562984466552734375e+00) (69, 5.70035636425018310547e-01) (70, -5.11350584030151367188e+00) (71, 9.98556613922119140625e+00) (72, -2.10709524154663085938e+00) (73, 5.00397777557373046875e+00) (74, 9.69651699066162109375e+00) (75, 6.65340614318847656250e+00) (76, -3.49958610534667968750e+00) (77, -9.97346973419189453125e+00) (78, 6.89357423782348632812e+00) (79, 1.08127975463867187500e+00) (80, -3.06206607818603515625e+00) (81, 6.07924270629882812500e+00) (82, -2.00384101867675781250e+01) (22, 9.70695018768310546875e+00) (23, -3.47268724441528320312e+00) (24, 5.00700235366821289062e+00) (25, -4.04860353469848632812e+00) (26, -7.73099327087402343750e+00) (27, 1.74956607818603515625e+01) (28, 8.71823787689208984375e+00) (29, 6.40476751327514648438e+00) (30, -1.52552521228790283203e+00) (31, 3.65855026245117187500e+00) (32, -7.85068082809448242188e+00) (33, -1.27032938003540039062e+01) (34, -1.79837477207183837891e+00) (35, 4.08490943908691406250e+00) (36, -5.12443780899047851562e-01) (37, -5.38649320602416992188e+00) (38, 6.79482460021972656250e+00) (39, -7.84614086151123046875e+00) (40, -2.23834443092346191406e+00) (41, -1.32062911987304687500e+01) (42, -1.83948154449462890625e+01) (43, 6.62475013732910156250e+00) (44, -3.79175353050231933594e+00) (45, -4.93983507156372070312e+00) (46, -3.06532859802246093750e-01) (47, -5.21195411682128906250e-01) (48, -3.20527362823486328125e+00) (49, -2.03704833984375000000e+00) (50, 7.26849842071533203125e+00) (51, -3.05266916751861572266e-01) (52, -1.19250333309173583984e+00) (53, -2.00277729034423828125e+01) (54, -7.15770387649536132812e+00) (55, 4.26988554000854492188e+00) (56, 5.73345851898193359375e+00) (57, -2.36456871032714843750e+00) (58, 2.75973033905029296875e+00) (59, 1.67799746990203857422e+00) (60, -1.79360065460205078125e+01) (61, 4.77568721771240234375e+00) (62, -6.77302503585815429688e+00) (63, -2.76714897155761718750e+00) (64, 3.77165579795837402344e+00) (65, 3.20017623901367187500e+00) (66, -1.62369136810302734375e+01) (67, -7.53267383575439453125e+00) (68, 4.43374395370483398438e+00) (69, 1.24252378940582275391e+00) (70, -1.06289892196655273438e+01) (71, -7.36763095855712890625e+00) (72, -8.25969696044921875000e+00) (73, 1.06071557998657226562e+01) (74, -8.05353641510009765625e+00) (75, 5.25396680831909179688e+00) (76, -7.81829118728637695312e+00) (77, -1.15262365341186523438e+00) (78, -3.87120580673217773438e+00) (79, -1.12359678745269775391e+00) (80, 7.24370479583740234375e+00) (81, 2.58935546875000000000e+00) (82, -2.11680011749267578125e+01) (22, -7.88072872161865234375e+00) (23, -2.79569506645202636719e+00) (24, -5.86560773849487304688e+00) (25, -2.68011927604675292969e+00) (26, -2.04583430290222167969e+00) (27, 1.00426301956176757812e+01) (28, -2.77389907836914062500e+00) (29, 7.68425464630126953125e-01) (30, -5.12039756774902343750e+00) (31, 6.73363685607910156250e-01) (32, 2.33840394020080566406e+00) (33, -6.07854795455932617188e+00) (34, 3.80780935287475585938e+00) (35, -4.19484758377075195312e+00) (36, 3.23701047897338867188e+00) (37, 6.90729808807373046875e+00) (38, -6.11151647567749023438e+00) (39, -3.43624186515808105469e+00) (40, -8.32435071468353271484e-01) (41, -4.25406837463378906250e+00) (42, -1.06274528503417968750e+01) (43, -2.28695583343505859375e+00) (44, -4.18263769149780273438e+00) (45, -1.18834199905395507812e+01) (46, 1.61246700286865234375e+01) (47, -6.43598699569702148438e+00) (48, 4.28239393234252929688e+00) (49, -2.16892814636230468750e+00) (50, 1.06384730339050292969e+00) (51, -4.85079002380371093750e+00) (52, 9.28259968757629394531e-01) (53, -1.45776329040527343750e+01) (54, -1.69697865843772888184e-01) (55, -3.80352020263671875000e+00) (56, -7.80411124229431152344e-01) (57, 6.92807388305664062500e+00) (58, -3.78389000892639160156e+00) (59, -2.43734002113342285156e+00) (60, -9.97979545593261718750e+00) (61, 2.24990084767341613770e-01) (62, 3.51610756479203701019e-03) (63, -4.51887083053588867188e+00) (64, -4.03526496887207031250e+00) (65, -9.15761590003967285156e-01) (66, -1.00886468887329101562e+01) (67, -2.68060773611068725586e-01) (68, -4.49883031845092773438e+00) (69, 5.33937025070190429688e+00) (70, 4.43914270401000976562e+00) (71, 8.06685161590576171875e+00) (72, 8.02276420593261718750e+00) (73, -6.72517657279968261719e-01) (74, 1.02773628234863281250e+01) (75, 1.89390611648559570312e+00) (76, 3.79110527038574218750e+00) (77, -1.72755196690559387207e-01) (78, 8.13182163238525390625e+00) (79, 2.61747908592224121094e+00) (80, 7.15827703475952148438e+00) (81, -2.87698841094970703125e+00) (82, -1.09520215988159179688e+01) (22, -3.06429505348205566406e+00) (23, 6.66867733001708984375e+00) (24, 3.14793539047241210938e+00) (25, 5.35045909881591796875e+00) (26, 6.45596313476562500000e+00) (27, 1.45466976165771484375e+01) (28, -2.85184364765882492065e-02) (29, -1.65533864498138427734e+00) (30, 4.40711784362792968750e+00) (31, 2.75965929031372070312e+00) (32, 6.31076288223266601562e+00) (33, -6.18929386138916015625e+00) (34, -6.72227621078491210938e+00) (35, -1.10593671798706054688e+01) (36, 2.38648319244384765625e+00) (37, 1.67066171765327453613e-01) (38, 8.54399949312210083008e-02) (39, 8.97329747676849365234e-01) (40, 3.54219293594360351562e+00) (41, 8.82155132293701171875e+00) (42, -1.71459121704101562500e+01) (43, -4.81042432785034179688e+00) (44, 2.85132265090942382812e+00) (45, 6.72546720504760742188e+00) (46, -1.44130945205688476562e+01) (47, 8.23366737365722656250e+00) (48, 2.57010173797607421875e+00) (49, 4.75788688659667968750e+00) (50, 6.13680303096771240234e-01) (51, 4.56051158905029296875e+00) (52, 6.67448997497558593750e-01) (53, -1.53186693191528320312e+01) (54, 2.36375141143798828125e+00) (55, 1.49184358119964599609e+00) (56, 2.13323020935058593750e+00) (57, 1.22625935077667236328e+00) (58, -2.43132519721984863281e+00) (59, 3.89472627639770507812e+00) (60, -1.49405765533447265625e+01) (61, -4.42737627029418945312e+00) (62, -3.31159830093383789062e+00) (63, -2.65364265441894531250e+00) (64, -3.14302176237106323242e-01) (65, 6.58320283889770507812e+00) (66, -1.62904357910156250000e+01) (67, 8.61261081695556640625e+00) (68, -1.49561586380004882812e+01) (69, 1.64523994922637939453e+00) (70, 7.07106542587280273438e+00) (71, -2.82383322715759277344e-01) (72, -8.38474273681640625000e+00) (73, -9.12180900573730468750e+00) (74, -1.93830287456512451172e+00) (75, 1.28103470802307128906e+00) (76, 4.44683647155761718750e+00) (77, -4.09108257293701171875e+00) (78, -4.01452922821044921875e+00) (79, -7.29608106613159179688e+00) (80, 3.32941937446594238281e+00) (81, -1.74222183227539062500e+00) (82, -1.77845668792724609375e+01) (22, -8.76020526885986328125e+00) (23, -1.02705612182617187500e+01) (24, 1.18153638839721679688e+01) (25, -1.72207260131835937500e+01) (26, -7.65405476093292236328e-01) (27, 1.14329547882080078125e+01) (28, -2.14805197715759277344e+00) (29, 6.63184225559234619141e-01) (30, 8.31803703308105468750e+00) (31, 1.36077141761779785156e+00) (32, 2.74345964193344116211e-01) (33, -8.02546977996826171875e+00) (34, 8.73919296264648437500e+00) (35, -1.18651695251464843750e+01) (36, -4.89843845367431640625e+00) (37, -5.15562725067138671875e+00) (38, 4.31684207916259765625e+00) (39, -3.09627270698547363281e+00) (40, 2.38787961006164550781e+00) (41, 8.60274505615234375000e+00) (42, -1.01192588806152343750e+01) (43, 3.28193449974060058594e+00) (44, 1.19009125232696533203e+00) (45, 1.39677762985229492188e+00) (46, 1.07089233398437500000e+01) (47, -4.03011798858642578125e+00) (48, 3.93206787109375000000e+00) (49, -8.67987251281738281250e+00) (50, 5.64128208160400390625e+00) (51, 3.02131104469299316406e+00) (52, 4.44067335128784179688e+00) (53, -1.02908611297607421875e+01) (54, 1.39916515350341796875e+00) (55, -8.66888427734375000000e+00) (56, -3.37790513038635253906e+00) (57, 4.47560882568359375000e+00) (58, 3.12713789939880371094e+00) (59, -2.58511805534362792969e+00) (60, -1.10445175170898437500e+01) (61, 3.08565306663513183594e+00) (62, -4.13932037353515625000e+00) (63, 4.95399427413940429688e+00) (64, -7.82959997653961181641e-01) (65, 4.59311723709106445312e+00) (66, -1.22460460662841796875e+01) (67, -1.28057594299316406250e+01) (68, -9.75477981567382812500e+00) (69, -5.25878763198852539062e+00) (70, -2.55477118492126464844e+00) (71, 1.14630098342895507812e+01) (72, 2.49134922027587890625e+00) (73, -5.86122512817382812500e+00) (74, -3.56383824348449707031e+00) (75, 3.62481427192687988281e+00) (76, 7.53089141845703125000e+00) (77, -1.06859292984008789062e+01) (78, 7.99049282073974609375e+00) (79, -1.72061753273010253906e+00) (80, 4.81872606277465820312e+00) (81, 1.71795725822448730469e+00) (82, -1.11195182800292968750e+01) (22, 1.71944847106933593750e+01) (23, 6.71936416625976562500e+00) (24, 3.97602677345275878906e+00) (25, 1.10225458145141601562e+01) (26, -8.74228096008300781250e+00) (27, 1.74301738739013671875e+01) (28, -1.04667425155639648438e+01) (29, -1.07470102310180664062e+01) (30, 2.36004972457885742188e+00) (31, -1.68174350261688232422e+00) (32, 6.90963459014892578125e+00) (33, -5.30686044692993164062e+00) (34, -4.81609201431274414062e+00) (35, -4.23444795608520507812e+00) (36, -4.86129093170166015625e+00) (37, -4.15738344192504882812e+00) (38, 1.17289221286773681641e+00) (39, 1.78137409687042236328e+00) (40, -1.75966966152191162109e+00) (41, 3.82365059852600097656e+00) (42, -1.53826656341552734375e+01) (43, 2.76834058761596679688e+00) (44, 1.58676993846893310547e+00) (45, 2.26907157897949218750e+00) (46, 7.25327074527740478516e-01) (47, -6.65041208267211914062e+00) (48, 3.89124846458435058594e+00) (49, 6.20088481903076171875e+00) (50, 7.72294569015502929688e+00) (51, 3.18187165260314941406e+00) (52, -6.74673414230346679688e+00) (53, -1.72792778015136718750e+01) (54, 6.67450857162475585938e+00) (55, -4.18684196472167968750e+00) (56, 1.97895431518554687500e+00) (57, -3.95053124427795410156e+00) (58, 1.43661990296095609665e-03) (59, -9.02687644958496093750e+00) (60, -1.33816862106323242188e+01) (61, 3.37700295448303222656e+00) (62, 2.61210274696350097656e+00) (63, -2.65221428871154785156e+00) (64, -3.85289406776428222656e+00) (65, 3.59119534492492675781e+00) (66, -1.63004932403564453125e+01) (67, 6.77465152740478515625e+00) (68, 3.48481202125549316406e+00) (69, 2.83148241043090820312e+00) (70, 4.18885374069213867188e+00) (71, 1.40182673931121826172e+00) (72, 6.89956712722778320312e+00) (73, -9.93438053131103515625e+00) (74, -4.66862154006958007812e+00) (75, -5.99296188354492187500e+00) (76, 6.28742074966430664062e+00) (77, 5.72996139526367187500e+00) (78, 1.30948865413665771484e+00) (79, -2.21443605422973632812e+00) (80, 6.38572740554809570312e+00) (81, 1.98503300547599792480e-01) (82, -1.81334362030029296875e+01) (22, -5.07111072540283203125e+00) (23, 4.94239473342895507812e+00) (24, 3.99043512344360351562e+00) (25, 4.60757064819335937500e+00) (26, -5.00414657592773437500e+00) (27, 1.72859306335449218750e+01) (28, 1.54566645622253417969e+00) (29, 5.39599370956420898438e+00) (30, -1.29384696483612060547e+00) (31, -7.00900316238403320312e+00) (32, -1.10649597644805908203e+00) (33, -6.78491401672363281250e+00) (34, -6.61285829544067382812e+00) (35, -1.88389956951141357422e+00) (36, 1.46973192691802978516e+00) (37, 1.65201206207275390625e+01) (38, -7.11878395080566406250e+00) (39, -4.72134160995483398438e+00) (40, 5.28138971328735351562e+00) (41, -7.88656473159790039062e+00) (42, -1.20555133819580078125e+01) (43, 8.23392486572265625000e+00) (44, -2.65148448944091796875e+00) (45, -1.05145597457885742188e+01) (46, -6.54670715332031250000e+00) (47, 1.08334722518920898438e+01) (48, 1.28206849098205566406e+00) (49, -6.69045639038085937500e+00) (50, -5.85397291183471679688e+00) (51, -4.22913730144500732422e-01) (52, 4.47298574447631835938e+00) (53, -1.69563140869140625000e+01) (54, 1.43139734864234924316e-01) (55, -4.50787734985351562500e+00) (56, 2.70877748727798461914e-01) (57, 1.09698152542114257812e+00) (58, -6.17284297943115234375e+00) (59, 7.08037614822387695312e+00) (60, -1.62638130187988281250e+01) (61, -6.22330760955810546875e+00) (62, 6.24422121047973632812e+00) (63, -5.00017452239990234375e+00) (64, 1.90255129337310791016e+00) (65, -6.41218471527099609375e+00) (66, -1.60991497039794921875e+01) (67, 6.72823619842529296875e+00) (68, -2.96617436408996582031e+00) (69, 5.23796844482421875000e+00) (70, -4.08827495574951171875e+00) (71, 7.92915868759155273438e+00) (72, -4.52718114852905273438e+00) (73, 1.34974880218505859375e+01) (74, -7.39177894592285156250e+00) (75, 3.35762596130371093750e+00) (76, -4.49119377136230468750e+00) (77, -7.57850551605224609375e+00) (78, -1.63644349575042724609e+00) (79, 2.63668823242187500000e+00) (80, -1.05390253067016601562e+01) (81, -1.22891449928283691406e+00) (82, -1.86867542266845703125e+01) (22, 1.15207786560058593750e+01) (23, 3.44773888587951660156e+00) (24, -8.79532814025878906250e+00) (25, 5.87996196746826171875e+00) (26, -5.81977081298828125000e+00) (27, 1.06078586578369140625e+01) (28, 2.49630403518676757812e+00) (29, 1.00996084213256835938e+01) (30, 4.73561859130859375000e+00) (31, -6.85406684875488281250e+00) (32, 6.03167200088500976562e+00) (33, -7.33477973937988281250e+00) (34, 8.51163196563720703125e+00) (35, -4.05201196670532226562e+00) (36, 1.06656284332275390625e+01) (37, -1.26788282394409179688e+01) (38, -5.68982839584350585938e-01) (39, 9.66160202026367187500e+00) (40, -3.72684121131896972656e+00) (41, 3.44065523147583007812e+00) (42, -1.21095418930053710938e+01) (43, -3.58331108093261718750e+00) (44, -1.27244939804077148438e+01) (45, 4.80061769485473632812e-01) (46, 7.84041309356689453125e+00) (47, -4.84013557434082031250e+00) (48, 6.63327121734619140625e+00) (49, 1.17233600616455078125e+01) (50, -2.48462581634521484375e+00) (51, -1.08704557418823242188e+01) (52, 4.72775506973266601562e+00) (53, -1.29246053695678710938e+01) (54, -5.89268636703491210938e+00) (55, 5.15337181091308593750e+00) (56, 6.99613332748413085938e-01) (57, 7.17055988311767578125e+00) (58, -3.27109527587890625000e+00) (59, -5.89721584320068359375e+00) (60, -1.21292848587036132812e+01) (61, 8.55684471130371093750e+00) (62, 6.79310703277587890625e+00) (63, -6.95302438735961914062e+00) (64, -7.69887828826904296875e+00) (65, -6.18431568145751953125e+00) (66, -9.94227218627929687500e+00) (67, -5.21589994430541992188e+00) (68, -4.88336277008056640625e+00) (69, 9.83650207519531250000e+00) (70, -1.11127052307128906250e+01) (71, 2.17008876800537109375e+00) (72, -1.96726453304290771484e+00) (73, 5.04951667785644531250e+00) (74, 7.53563940525054931641e-01) (75, -3.86886096000671386719e+00) (76, -9.47602331638336181641e-01) (77, 6.34929001331329345703e-01) (78, -2.44155263900756835938e+00) (79, 4.37339258193969726562e+00) (80, 1.13072986602783203125e+01) (81, 1.57830870151519775391e+00) (82, -1.44616975784301757812e+01) (22, 1.14522304534912109375e+01) (23, 9.68426895141601562500e+00) (24, 5.19921875000000000000e+00) (25, -8.88063144683837890625e+00) (26, -1.71856987476348876953e+00) (27, 1.42986145019531250000e+01) (28, 5.61477994918823242188e+00) (29, -3.72326588630676269531e+00) (30, -1.77590382099151611328e+00) (31, 2.62561964988708496094e+00) (32, 2.81944370269775390625e+00) (33, -3.37491345405578613281e+00) (34, 5.16148376464843750000e+00) (35, 1.02790441513061523438e+01) (36, -8.74651622772216796875e+00) (37, -9.62785720825195312500e+00) (38, 2.69855618476867675781e+00) (39, -1.79418396949768066406e+00) (40, -7.04498815536499023438e+00) (41, -4.29241609573364257812e+00) (42, -1.36326885223388671875e+01) (43, -4.30454921722412109375e+00) (44, -4.48414945602416992188e+00) (45, -3.29663062095642089844e+00) (46, 1.26135149002075195312e+01) (47, -3.48166298866271972656e+00) (48, 2.31689453125000000000e+00) (49, -6.94194555282592773438e+00) (50, 9.47761774063110351562e-01) (51, 1.87035775184631347656e+00) (52, -9.47431206703186035156e-01) (53, -1.31063709259033203125e+01) (54, -5.60758161544799804688e+00) (55, 1.86253130435943603516e-01) (56, -2.64691996574401855469e+00) (57, -1.55491542816162109375e+00) (58, 3.98461389541625976562e+00) (59, -4.75040102005004882812e+00) (60, -1.17301158905029296875e+01) (61, -3.98471093177795410156e+00) (62, -8.79044532775878906250e-01) (63, -8.65095615386962890625e+00) (64, -1.01454961299896240234e+00) (65, 7.79152441024780273438e+00) (66, -1.25590534210205078125e+01) (67, 1.90047657489776611328e+00) (68, 1.69130218029022216797e+00) (69, 9.32102584838867187500e+00) (70, 1.67152762413024902344e+00) (71, 1.88052821159362792969e+00) (72, 4.44947385787963867188e+00) (73, 1.23343110084533691406e+00) (74, -5.22713994979858398438e+00) (75, 5.38834333419799804688e+00) (76, -8.14121055603027343750e+00) (77, 2.19596219062805175781e+00) (78, 1.03966464996337890625e+01) (79, 1.06712808609008789062e+01) (80, 7.98409700393676757812e+00) (81, -1.60592138767242431641e+00) (82, -1.43808898925781250000e+01) (22, 8.98027610778808593750e+00) (23, -2.93161177635192871094e+00) (24, -2.61097168922424316406e+00) (25, 3.45573449134826660156e+00) (26, -7.95683860778808593750e+00) (27, 1.62098712921142578125e+01) (28, -1.03220891952514648438e+01) (29, -1.09972944259643554688e+01) (30, -6.60355758666992187500e+00) (31, -7.83521509170532226562e+00) (32, -4.39373397827148437500e+00) (33, -9.85042667388916015625e+00) (34, -7.90516567230224609375e+00) (35, 3.22596287727355957031e+00) (36, 2.00489950180053710938e+00) (37, 1.21456356048583984375e+01) (38, -4.86337375640869140625e+00) (39, -6.25043678283691406250e+00) (40, -3.03471589088439941406e+00) (41, 9.06886196136474609375e+00) (42, -1.76505737304687500000e+01) (43, 3.40710663795471191406e+00) (44, -1.20691804885864257812e+01) (45, -4.84371519088745117188e+00) (46, 6.30779123306274414062e+00) (47, -7.54448318481445312500e+00) (48, 2.78977274894714355469e+00) (49, 1.99327874183654785156e+00) (50, 1.76353842020034790039e-01) (51, 6.88259780406951904297e-01) (52, -1.91046690940856933594e+00) (53, -1.54937505722045898438e+01) (54, 6.53423118591308593750e+00) (55, 1.40751886367797851562e+00) (56, 6.73469257354736328125e+00) (57, -1.63076430559158325195e-01) (58, 4.22167629003524780273e-02) (59, -1.29053387790918350220e-02) (60, -1.44114751815795898438e+01) (61, 7.63749659061431884766e-01) (62, 5.68135499954223632812e+00) (63, -3.91168117523193359375e+00) (64, 1.80129384994506835938e+00) (65, 4.77371168136596679688e+00) (66, -1.47966451644897460938e+01) (67, -2.68057417869567871094e+00) (68, -1.08239424228668212891e+00) (69, -9.71943318843841552734e-01) (70, -1.11693773269653320312e+01) (71, -4.10324048995971679688e+00) (72, 3.42190718650817871094e+00) (73, 1.41076111793518066406e+00) (74, 7.04421341419219970703e-01) (75, -8.87051296234130859375e+00) (76, -1.28699779510498046875e+00) (77, 1.05584287643432617188e+00) (78, -3.05818390846252441406e+00) (79, -5.21036767959594726562e+00) (80, 2.74086165428161621094e+00) (81, 1.08877449035644531250e+01) (82, -1.81312808990478515625e+01) (22, 1.09618759155273437500e+01) (23, 1.97709617614746093750e+01) (24, -7.14328145980834960938e+00) (25, -8.88711357116699218750e+00) (26, -2.07140827178955078125e+00) (27, 1.64997882843017578125e+01) (28, -2.76925849914550781250e+00) (29, -1.05198965072631835938e+01) (30, 8.49961280822753906250e+00) (31, -7.35808134078979492188e+00) (32, -5.22483682632446289062e+00) (33, -6.66617202758789062500e+00) (34, -4.33555650711059570312e+00) (35, 1.56970655918121337891e+00) (36, -5.80042457580566406250e+00) (37, -8.13504886627197265625e+00) (38, 3.94401311874389648438e+00) (39, 2.19160413742065429688e+00) (40, -6.25970840454101562500e+00) (41, -8.35330104827880859375e+00) (42, -1.16224241256713867188e+01) (43, 5.83770513534545898438e+00) (44, -2.08317488431930541992e-01) (45, 1.55838000774383544922e+00) (46, -8.27065765857696533203e-01) (47, -7.15166568756103515625e+00) (48, 1.77069914340972900391e+00) (49, 9.80463266372680664062e-01) (50, 1.98874974250793457031e+00) (51, 1.04634332656860351562e+01) (52, -5.00255680084228515625e+00) (53, -1.61101589202880859375e+01) (54, -9.55524635314941406250e+00) (55, 6.41834449768066406250e+00) (56, -3.59496831893920898438e+00) (57, -2.91090345382690429688e+00) (58, -9.89036369323730468750e+00) (59, -5.71137714385986328125e+00) (60, -1.70411281585693359375e+01) (61, -9.82048130035400390625e+00) (62, 2.99887371063232421875e+00) (63, 3.27387666702270507812e+00) (64, -3.31510686874389648438e+00) (65, -1.05162134170532226562e+01) (66, -1.00908269882202148438e+01) (67, 4.81463623046875000000e+00) (68, 1.61882984638214111328e+00) (69, -8.10239410400390625000e+00) (70, -1.46940636634826660156e+00) (71, 7.03161239624023437500e+00) (72, -7.08999729156494140625e+00) (73, 1.07820100784301757812e+01) (74, 2.00881290435791015625e+00) (75, -5.52248060703277587891e-01) (76, 7.88669967651367187500e+00) (77, 5.10003626346588134766e-01) (78, -5.57762622833251953125e+00) (79, 5.30157041549682617188e+00) (80, 1.45821790695190429688e+01) (81, -3.74778318405151367188e+00) (82, -1.72133712768554687500e+01) (22, -9.05920124053955078125e+00) (23, -1.46024572849273681641e+00) (24, -3.22194266319274902344e+00) (25, 2.88297474384307861328e-01) (26, 1.79932367801666259766e+00) (27, 1.41651391983032226562e+01) (28, 4.13023567199707031250e+00) (29, 4.35990190505981445312e+00) (30, -5.09227275848388671875e-01) (31, 2.75460219383239746094e+00) (32, -1.14112532138824462891e+00) (33, -3.97769021987915039062e+00) (34, -1.10080063343048095703e+00) (35, -4.50868940353393554688e+00) (36, -1.39063568115234375000e+01) (37, -5.96477270126342773438e-01) (38, 5.81470966339111328125e+00) (39, 2.15139889717102050781e+00) (40, 2.02984285354614257812e+00) (41, -6.55273854732513427734e-01) (42, -1.48878240585327148438e+01) (43, 9.09954166412353515625e+00) (44, -8.77519798278808593750e+00) (45, 1.17947518825531005859e-01) (46, -5.44184350967407226562e+00) (47, 8.55341076850891113281e-01) (48, -3.89200782775878906250e+00) (49, -9.13988590240478515625e+00) (50, -7.24361562728881835938e+00) (51, 1.07550919055938720703e+00) (52, -7.77797889709472656250e+00) (53, -1.61091670989990234375e+01) (54, -3.90426397323608398438e+00) (55, 1.63973200321197509766e+00) (56, 3.85900282859802246094e+00) (57, 2.30618739128112792969e+00) (58, 8.62801265716552734375e+00) (59, -3.76995873451232910156e+00) (60, -1.64156951904296875000e+01) (61, 1.12089042663574218750e+01) (62, 8.80671215057373046875e+00) (63, 2.39867353439331054688e+00) (64, -2.56898474693298339844e+00) (65, 6.07373189926147460938e+00) (66, -1.72658939361572265625e+01) (67, -2.34302473068237304688e+00) (68, 1.53924620151519775391e+00) (69, -3.25628328323364257812e+00) (70, -1.01492977142333984375e+00) (71, 3.94365978240966796875e+00) (72, 3.99765872955322265625e+00) (73, 4.00263500213623046875e+00) (74, 8.21277713775634765625e+00) (75, -3.82387161254882812500e+00) (76, -7.92502307891845703125e+00) (77, 4.43437385559082031250e+00) (78, -6.80863142013549804688e+00) (79, -7.73016691207885742188e+00) (80, 6.95860958099365234375e+00) (81, 2.15809655189514160156e+00) (82, -1.72385540008544921875e+01) (22, -7.67069149017333984375e+00) (23, 6.05707168579101562500e+00) (24, -3.32433509826660156250e+00) (25, -1.84905898571014404297e+00) (26, 6.08541965484619140625e+00) (27, 1.48736505508422851562e+01) (28, -2.11478042602539062500e+01) (29, -1.06175880432128906250e+01) (30, -5.28030490875244140625e+00) (31, -9.25974786281585693359e-01) (32, -1.27891039848327636719e+00) (33, -1.43773012161254882812e+01) (34, 7.12593078613281250000e+00) (35, -1.30472879409790039062e+01) (36, -3.27100229263305664062e+00) (37, 1.50154933333396911621e-01) (38, 3.53746318817138671875e+00) (39, -1.56017327308654785156e+00) (40, 3.00058937072753906250e+00) (41, 8.39178657531738281250e+00) (42, -1.78913021087646484375e+01) (43, -6.91300570964813232422e-01) (44, 3.43346500396728515625e+00) (45, -1.19109754562377929688e+01) (46, 5.05068588256835937500e+00) (47, 1.66848516464233398438e+00) (48, 6.11523246765136718750e+00) (49, -2.49187326431274414062e+00) (50, -1.23399095535278320312e+01) (51, -4.73308950662612915039e-01) (52, -5.23614597320556640625e+00) (53, -1.63557395935058593750e+01) (54, 5.46265792846679687500e+00) (55, -1.26818981170654296875e+01) (56, -1.77533054351806640625e+00) (57, 2.74338197708129882812e+00) (58, 8.09991836547851562500e+00) (59, -5.34175014495849609375e+00) (60, -1.63361625671386718750e+01) (61, -5.81029987335205078125e+00) (62, -2.66034650802612304688e+00) (63, -8.01095440983772277832e-02) (64, -1.10001862049102783203e+00) (65, -4.48309946060180664062e+00) (66, -1.41323156356811523438e+01) (67, 9.05787169933319091797e-01) (68, 2.75017690658569335938e+00) (69, -1.91328918933868408203e+00) (70, 5.03511333465576171875e+00) (71, 9.69102954864501953125e+00) (72, 1.59170341491699218750e+00) (73, 1.78956413269042968750e+00) (74, 1.10005826950073242188e+01) (75, 3.64822483062744140625e+00) (76, 1.43143415451049804688e+00) (77, 3.69426059722900390625e+00) (78, -4.33959007263183593750e-01) (79, -7.51777827739715576172e-01) (80, 3.92497968673706054688e+00) (81, -1.11907649040222167969e+00) (82, -1.80673580169677734375e+01) (22, -6.33552360534667968750e+00) (23, 4.27788114547729492188e+00) (24, -3.97711420059204101562e+00) (25, 3.67956042289733886719e+00) (26, -3.51550281047821044922e-01) (27, 1.66363201141357421875e+01) (28, -8.56101131439208984375e+00) (29, -7.02667570114135742188e+00) (30, 2.26473450660705566406e+00) (31, -1.58753001689910888672e+00) (32, -2.10307049751281738281e+00) (33, -6.39212274551391601562e+00) (34, -5.00675582885742187500e+00) (35, 7.02749061584472656250e+00) (36, 4.70344591140747070312e+00) (37, 4.88328409194946289062e+00) (38, -1.50290524959564208984e+00) (39, -3.12195801734924316406e+00) (40, 4.58641576766967773438e+00) (41, 7.07403182983398437500e+00) (42, -1.42799272537231445312e+01) (43, 4.33001136779785156250e+00) (44, 6.71055316925048828125e+00) (45, -3.30935931205749511719e+00) (46, -2.92242980003356933594e+00) (47, 5.72354555130004882812e-01) (48, -3.22888875007629394531e+00) (49, 1.04400837421417236328e+00) (50, -5.14202785491943359375e+00) (51, 3.27567529678344726562e+00) (52, -4.95147180557250976562e+00) (53, -1.53869104385375976562e+01) (54, 5.62664978206157684326e-02) (55, -9.87334728240966796875e-01) (56, -2.97049021720886230469e+00) (57, -1.05569636821746826172e+00) (58, 8.17639160156250000000e+00) (59, 8.98410558700561523438e-01) (60, -1.74518585205078125000e+01) (61, -6.86577653884887695312e+00) (62, 3.71659302711486816406e+00) (63, -5.39204645156860351562e+00) (64, 2.61521029472351074219e+00) (65, -3.43683153390884399414e-01) (66, -1.14913530349731445312e+01) (67, 6.10845804214477539062e+00) (68, -3.37737822532653808594e+00) (69, -6.39636278152465820312e+00) (70, -1.39480886459350585938e+01) (71, -1.53775703907012939453e+00) (72, -3.28506493568420410156e+00) (73, 1.06973428726196289062e+01) (74, -4.06515216827392578125e+00) (75, 6.31765174865722656250e+00) (76, -9.79880619049072265625e+00) (77, -4.50286102294921875000e+00) (78, -4.72607553005218505859e-01) (79, 2.80450749397277832031e+00) (80, 2.97836041450500488281e+00) (81, 9.25225067138671875000e+00) (82, -1.85996990203857421875e+01) (22, 3.59251379966735839844e+00) (23, -2.51239371299743652344e+00) (24, 7.81540918350219726562e+00) (25, -2.00522732734680175781e+00) (26, -5.14786720275878906250e+00) (27, 1.27563781738281250000e+01) (28, -9.63674736022949218750e+00) (29, 6.42446517944335937500e+00) (30, -2.47983121871948242188e+00) (31, -5.75326108932495117188e+00) (32, -1.48060035705566406250e+00) (33, -1.19103794097900390625e+01) (34, 8.29693222045898437500e+00) (35, 3.17909455299377441406e+00) (36, 9.10665810108184814453e-01) (37, 3.93549561500549316406e+00) (38, -2.53583645820617675781e+00) (39, 2.15472459793090820312e+00) (40, 7.22574281692504882812e+00) (41, 3.97928547859191894531e+00) (42, -1.41843528747558593750e+01) (43, 1.06861486434936523438e+01) (44, -7.07882583141326904297e-01) (45, -3.06946635246276855469e+00) (46, -1.93340158462524414062e+00) (47, 1.83364105224609375000e+00) (48, 7.41967260837554931641e-01) (49, -6.36694335937500000000e+00) (50, -3.80372357368469238281e+00) (51, -1.27280769348144531250e+01) (52, 7.77742815017700195312e+00) (53, -1.31333103179931640625e+01) (54, 1.40622699260711669922e+00) (55, 3.55884146690368652344e+00) (56, -7.46215200424194335938e+00) (57, 2.25595879554748535156e+00) (58, 2.61947774887084960938e+00) (59, -3.55621790885925292969e+00) (60, -9.89510059356689453125e+00) (61, -2.12924146652221679688e+00) (62, 1.75282907485961914062e+00) (63, 4.92701673507690429688e+00) (64, -8.53435325622558593750e+00) (65, 9.45291709899902343750e+00) (66, -1.33043537139892578125e+01) (67, -1.32798843383789062500e+01) (68, -2.68011021614074707031e+00) (69, -1.57217180728912353516e+00) (70, -5.16141510009765625000e+00) (71, -3.39341282844543457031e+00) (72, -9.45166528224945068359e-01) (73, -9.36546039581298828125e+00) (74, 5.47392904758453369141e-01) (75, 1.21240413188934326172e+00) (76, 2.69216704368591308594e+00) (77, -4.99505043029785156250e+00) (78, -5.46843433380126953125e+00) (79, 3.59467720985412597656e+00) (80, 2.96861672401428222656e+00) (81, 2.78991866111755371094e+00) (82, -1.43703861236572265625e+01) (22, 9.55300712585449218750e+00) (23, -3.03435659408569335938e+00) (24, 2.70569229125976562500e+00) (25, 2.56398034095764160156e+00) (26, -9.41649532318115234375e+00) (27, 1.30852222442626953125e+01) (28, -5.12779116630554199219e-01) (29, 6.91386651992797851562e+00) (30, -2.72783327102661132812e+00) (31, 5.04000854492187500000e+00) (32, -3.31552195549011230469e+00) (33, -1.07722463607788085938e+01) (34, 7.66628646850585937500e+00) (35, 8.48980903625488281250e+00) (36, -2.44850468635559082031e+00) (37, 7.02394390106201171875e+00) (38, 3.42830181121826171875e+00) (39, -9.42997264862060546875e+00) (40, 5.27627849578857421875e+00) (41, 3.85825300216674804688e+00) (42, -1.52328405380249023438e+01) (43, -2.46935892105102539062e+00) (44, -1.03217067718505859375e+01) (45, -2.99374413490295410156e+00) (46, 6.10444927215576171875e+00) (47, -1.04495725631713867188e+01) (48, 8.06298732757568359375e+00) (49, -8.32968056201934814453e-01) (50, -6.93605041503906250000e+00) (51, -3.29435014724731445312e+00) (52, -4.51717185974121093750e+00) (53, -1.48306179046630859375e+01) (54, 4.80791854858398437500e+00) (55, -5.49405431747436523438e+00) (56, -1.31498479843139648438e+00) (57, 4.31681776046752929688e+00) (58, 6.93632030487060546875e+00) (59, 4.27410650253295898438e+00) (60, -1.47400856018066406250e+01) (61, 7.94689273834228515625e+00) (62, -2.15523171424865722656e+00) (63, 1.75990772247314453125e+00) (64, -4.05330467224121093750e+00) (65, -7.71057605743408203125e-01) (66, -1.51579599380493164062e+01) (67, -3.08571517467498779297e-01) (68, -1.36345529556274414062e+00) (69, -3.83096396923065185547e-01) (70, 2.27363657951354980469e+00) (71, -1.90623545646667480469e+00) (72, 6.71960830688476562500e+00) (73, -2.50477623939514160156e+00) (74, 6.04104900360107421875e+00) (75, 5.12189388275146484375e+00) (76, 9.26834583282470703125e+00) (77, 1.05562801361083984375e+01) (78, 8.69179630279541015625e+00) (79, -1.12971811294555664062e+01) (80, 6.65150260925292968750e+00) (81, -8.11661529541015625000e+00) (82, -1.56331701278686523438e+01) (22, -6.69655513763427734375e+00) (23, -2.18878746032714843750e+00) (24, -1.20210199356079101562e+01) (25, -4.13564729690551757812e+00) (26, 1.41891157627105712891e+00) (27, 1.41124029159545898438e+01) (28, -1.20379543304443359375e+01) (29, -2.37221240997314453125e+00) (30, -5.75614356994628906250e+00) (31, 1.40979325771331787109e+00) (32, 1.68135130405426025391e+00) (33, -9.76382541656494140625e+00) (34, 6.68601036071777343750e+00) (35, 6.19111251831054687500e+00) (36, 4.22676992416381835938e+00) (37, -2.89136004447937011719e+00) (38, 5.45308303833007812500e+00) (39, -9.79219436645507812500e-01) (40, 4.43799781799316406250e+00) (41, 1.79783821105957031250e+01) (42, -1.57138128280639648438e+01) (43, 4.23985385894775390625e+00) (44, 9.61631722748279571533e-03) (45, 1.12559747695922851562e+00) (46, 1.70565092563629150391e+00) (47, -4.55506038665771484375e+00) (48, 9.88421630859375000000e+00) (49, 1.12638540267944335938e+01) (50, -9.79985046386718750000e+00) (51, 6.62711381912231445312e+00) (52, -3.40307259559631347656e+00) (53, -1.29470186233520507812e+01) (54, 3.33572125434875488281e+00) (55, 1.15634479522705078125e+01) (56, 1.72513037919998168945e-01) (57, 1.85919511318206787109e+00) (58, 1.88723087310791015625e+00) (59, -4.61742401123046875000e+00) (60, -1.00938806533813476562e+01) (61, -3.18133187294006347656e+00) (62, 2.42353415489196777344e+00) (63, -6.41116476058959960938e+00) (64, -2.34139394760131835938e+00) (65, -8.29645061492919921875e+00) (66, -1.11322126388549804688e+01) (67, -6.76269292831420898438e+00) (68, 5.18092012405395507812e+00) (69, 