FANN_FLO_2.1
num_layers=3
learning_rate=0.700000
connection_rate=1.000000
network_type=0
learning_momentum=0.400000
training_algorithm=0
train_error_function=1
train_stop_function=0
cascade_output_change_fraction=0.010000
quickprop_decay=-0.000100
quickprop_mu=1.750000
rprop_increase_factor=1.200000
rprop_decrease_factor=0.500000
rprop_delta_min=0.000000
rprop_delta_max=50.000000
rprop_delta_zero=0.100000
cascade_output_stagnation_epochs=12
cascade_candidate_change_fraction=0.010000
cascade_candidate_stagnation_epochs=12
cascade_max_out_epochs=150
cascade_min_out_epochs=50
cascade_max_cand_epochs=150
cascade_min_cand_epochs=50
cascade_num_candidate_groups=2
bit_fail_limit=3.49999994039535522461e-01
cascade_candidate_limit=1.00000000000000000000e+03
cascade_weight_multiplier=4.00000005960464477539e-01
cascade_activation_functions_count=10
cascade_activation_functions=3 5 7 8 10 11 14 15 16 17 
cascade_activation_steepnesses_count=4
cascade_activation_steepnesses=2.50000000000000000000e-01 5.00000000000000000000e-01 7.50000000000000000000e-01 1.00000000000000000000e+00 
layer_sizes=22 121 41 
scale_included=0
neurons (num_inputs, activation_function, activation_steepness)=(0, 0, 0.00000000000000000000e+00) (0, 0, 0.00000000000000000000e+00) (0, 0, 0.00000000000000000000e+00) (0, 0, 0.00000000000000000000e+00) (0, 0, 0.00000000000000000000e+00) (0, 0, 0.00000000000000000000e+00) (0, 0, 0.00000000000000000000e+00) (0, 0, 0.00000000000000000000e+00) (0, 0, 0.00000000000000000000e+00) (0, 0, 0.00000000000000000000e+00) (0, 0, 0.00000000000000000000e+00) (0, 0, 0.00000000000000000000e+00) (0, 0, 0.00000000000000000000e+00) (0, 0, 0.00000000000000000000e+00) (0, 0, 0.00000000000000000000e+00) (0, 0, 0.00000000000000000000e+00) (0, 0, 0.00000000000000000000e+00) (0, 0, 0.00000000000000000000e+00) (0, 0, 0.00000000000000000000e+00) (0, 0, 0.00000000000000000000e+00) (0, 0, 0.00000000000000000000e+00) (0, 0, 0.00000000000000000000e+00) (22, 5, 1.00000000000000000000e+00) (22, 5, 1.00000000000000000000e+00) (22, 5, 1.00000000000000000000e+00) (22, 5, 1.00000000000000000000e+00) (22, 5, 1.00000000000000000000e+00) (22, 5, 1.00000000000000000000e+00) (22, 5, 1.00000000000000000000e+00) (22, 5, 1.00000000000000000000e+00) (22, 5, 1.00000000000000000000e+00) (22, 5, 1.00000000000000000000e+00) (22, 5, 1.00000000000000000000e+00) (22, 5, 1.00000000000000000000e+00) (22, 5, 1.00000000000000000000e+00) (22, 5, 1.00000000000000000000e+00) (22, 5, 1.00000000000000000000e+00) (22, 5, 1.00000000000000000000e+00) (22, 5, 1.00000000000000000000e+00) (22, 5, 1.00000000000000000000e+00) (22, 5, 1.00000000000000000000e+00) (22, 5, 1.00000000000000000000e+00) (22, 5, 1.00000000000000000000e+00) (22, 5, 1.00000000000000000000e+00) (22, 5, 1.00000000000000000000e+00) (22, 5, 1.00000000000000000000e+00) (22, 5, 1.00000000000000000000e+00) (22, 5, 1.00000000000000000000e+00) (22, 5, 1.00000000000000000000e+00) (22, 5, 1.00000000000000000000e+00) (22, 5, 1.00000000000000000000e+00) (22, 5, 1.00000000000000000000e+00) (22, 5, 1.00000000000000000000e+00) (22, 5, 1.00000000000000000000e+00) (22, 5, 1.00000000000000000000e+00) (22, 5, 1.00000000000000000000e+00) (22, 5, 1.00000000000000000000e+00) (22, 5, 1.00000000000000000000e+00) (22, 5, 1.00000000000000000000e+00) (22, 5, 1.00000000000000000000e+00) (22, 5, 1.00000000000000000000e+00) (22, 5, 1.00000000000000000000e+00) (22, 5, 1.00000000000000000000e+00) (22, 5, 1.00000000000000000000e+00) (22, 5, 1.00000000000000000000e+00) (22, 5, 1.00000000000000000000e+00) (22, 5, 1.00000000000000000000e+00) (22, 5, 1.00000000000000000000e+00) (22, 5, 1.00000000000000000000e+00) (22, 5, 1.00000000000000000000e+00) (22, 5, 1.00000000000000000000e+00) (22, 5, 1.00000000000000000000e+00) (22, 5, 1.00000000000000000000e+00) (22, 5, 1.00000000000000000000e+00) (22, 5, 1.00000000000000000000e+00) (22, 5, 1.00000000000000000000e+00) (22, 5, 1.00000000000000000000e+00) (22, 5, 1.00000000000000000000e+00) (22, 5, 1.00000000000000000000e+00) (22, 5, 1.00000000000000000000e+00) (22, 5, 1.00000000000000000000e+00) (22, 5, 1.00000000000000000000e+00) (22, 5, 1.00000000000000000000e+00) (22, 5, 1.00000000000000000000e+00) (22, 5, 1.00000000000000000000e+00) (22, 5, 1.00000000000000000000e+00) (22, 5, 1.00000000000000000000e+00) (22, 5, 1.00000000000000000000e+00) (22, 5, 1.00000000000000000000e+00) (22, 5, 1.00000000000000000000e+00) (22, 5, 1.00000000000000000000e+00) (22, 5, 1.00000000000000000000e+00) (22, 5, 1.00000000000000000000e+00) (22, 5, 1.00000000000000000000e+00) (22, 5, 1.00000000000000000000e+00) (22, 5, 1.00000000000000000000e+00) (22, 5, 1.00000000000000000000e+00) (22, 5, 1.00000000000000000000e+00) (22, 5, 1.00000000000000000000e+00) (22, 5, 1.00000000000000000000e+00) (22, 5, 1.00000000000000000000e+00) (22, 5, 1.00000000000000000000e+00) (22, 5, 1.00000000000000000000e+00) (22, 5, 1.00000000000000000000e+00) (22, 5, 1.00000000000000000000e+00) (22, 5, 1.00000000000000000000e+00) (22, 5, 1.00000000000000000000e+00) (22, 5, 1.00000000000000000000e+00) (22, 5, 1.00000000000000000000e+00) (22, 5, 1.00000000000000000000e+00) (22, 5, 1.00000000000000000000e+00) (22, 5, 1.00000000000000000000e+00) (22, 5, 1.00000000000000000000e+00) (22, 5, 1.00000000000000000000e+00) (22, 5, 1.00000000000000000000e+00) (22, 5, 1.00000000000000000000e+00) (22, 5, 1.00000000000000000000e+00) (22, 5, 1.00000000000000000000e+00) (22, 5, 1.00000000000000000000e+00) (22, 5, 1.00000000000000000000e+00) (22, 5, 1.00000000000000000000e+00) (22, 5, 1.00000000000000000000e+00) (22, 5, 1.00000000000000000000e+00) (22, 5, 1.00000000000000000000e+00) (22, 5, 1.00000000000000000000e+00) (22, 5, 1.00000000000000000000e+00) (22, 5, 1.00000000000000000000e+00) (22, 5, 1.00000000000000000000e+00) (22, 5, 1.00000000000000000000e+00) (22, 5, 1.00000000000000000000e+00) (22, 5, 1.00000000000000000000e+00) (22, 5, 1.00000000000000000000e+00) (22, 5, 1.00000000000000000000e+00) (22, 5, 1.00000000000000000000e+00) (22, 5, 1.00000000000000000000e+00) (22, 5, 1.00000000000000000000e+00) (22, 5, 1.00000000000000000000e+00) (22, 5, 1.00000000000000000000e+00) (22, 5, 1.00000000000000000000e+00) (22, 5, 1.00000000000000000000e+00) (22, 5, 1.00000000000000000000e+00) (22, 5, 1.00000000000000000000e+00) (0, 5, 1.00000000000000000000e+00) (121, 5, 1.00000000000000000000e+00) (121, 5, 1.00000000000000000000e+00) (121, 5, 1.00000000000000000000e+00) (121, 5, 1.00000000000000000000e+00) (121, 5, 1.00000000000000000000e+00) (121, 5, 1.00000000000000000000e+00) (121, 5, 1.00000000000000000000e+00) (121, 5, 1.00000000000000000000e+00) (121, 5, 1.00000000000000000000e+00) (121, 5, 1.00000000000000000000e+00) (121, 5, 1.00000000000000000000e+00) (121, 5, 1.00000000000000000000e+00) (121, 5, 1.00000000000000000000e+00) (121, 5, 1.00000000000000000000e+00) (121, 5, 1.00000000000000000000e+00) (121, 5, 1.00000000000000000000e+00) (121, 5, 1.00000000000000000000e+00) (121, 5, 1.00000000000000000000e+00) (121, 5, 1.00000000000000000000e+00) (121, 5, 1.00000000000000000000e+00) (121, 5, 1.00000000000000000000e+00) (121, 5, 1.00000000000000000000e+00) (121, 5, 1.00000000000000000000e+00) (121, 5, 1.00000000000000000000e+00) (121, 5, 1.00000000000000000000e+00) (121, 5, 1.00000000000000000000e+00) (121, 5, 1.00000000000000000000e+00) (121, 5, 1.00000000000000000000e+00) (121, 5, 1.00000000000000000000e+00) (121, 5, 1.00000000000000000000e+00) (121, 5, 1.00000000000000000000e+00) (121, 5, 1.00000000000000000000e+00) (121, 5, 1.00000000000000000000e+00) (121, 5, 1.00000000000000000000e+00) (121, 5, 1.00000000000000000000e+00) (121, 5, 1.00000000000000000000e+00) (121, 5, 1.00000000000000000000e+00) (121, 5, 1.00000000000000000000e+00) (121, 5, 1.00000000000000000000e+00) (121, 5, 1.00000000000000000000e+00) (0, 5, 1.00000000000000000000e+00) 
connections (connected_to_neuron, weight)=(0, -9.52664566040039062500e+00) (1, -2.94729480743408203125e+01) (2, -2.86187934875488281250e+01) (3, -1.34782800674438476562e+01) (4, -6.68295135498046875000e+01) (5, -1.82252292633056640625e+01) (6, -1.00928535461425781250e+01) (7, 2.58535176515579223633e-01) (8, 1.02641668319702148438e+01) (9, 7.48524951934814453125e+00) (10, -2.75161628723144531250e+01) (11, -1.58007841110229492188e+01) (12, -2.87053470611572265625e+01) (13, 5.14436721801757812500e-01) (14, -2.23857078552246093750e+01) (15, -1.48827219009399414062e+01) (16, -2.74670906066894531250e+01) (17, -2.83802318572998046875e+01) (18, -9.42106425762176513672e-01) (19, 4.43781757354736328125e+00) (20, 3.18558387756347656250e+01) (21, 7.38215255737304687500e+01) (0, 1.48787374496459960938e+01) (1, -5.09768638610839843750e+01) (2, 4.71085309982299804688e+00) (3, 2.81405105590820312500e+01) (4, -1.54660577774047851562e+01) (5, 3.02919745445251464844e+00) (6, 4.82370042800903320312e+00) (7, -2.99868774414062500000e+01) (8, -9.00048351287841796875e+00) (9, 5.81956634521484375000e+01) (10, -1.80828964710235595703e+00) (11, 1.70349851250648498535e-01) (12, 1.83298263549804687500e+01) (13, 2.03193206787109375000e+01) (14, 1.44779701232910156250e+01) (15, -2.10650653839111328125e+01) (16, -9.43102169036865234375e+00) (17, -5.93037843704223632812e+00) (18, -2.25096130371093750000e+00) (19, 1.33038377761840820312e+01) (20, -5.36778182983398437500e+01) (21, 8.61278724670410156250e+00) (0, 1.41744577884674072266e+00) (1, -6.41613388061523437500e+01) (2, 5.58120880126953125000e+01) (3, -5.62966489791870117188e+00) (4, -9.08223800659179687500e+01) (5, -4.26556873321533203125e+00) (6, 5.45061454772949218750e+01) (7, 1.10556163787841796875e+01) (8, 3.19935359954833984375e+01) (9, 3.51962351799011230469e+00) (10, -4.63624267578125000000e+01) (11, -4.07916641235351562500e+01) (12, 2.61579742431640625000e+01) (13, -4.34664678573608398438e+00) (14, 1.64070072174072265625e+01) (15, -2.22536678314208984375e+01) (16, 1.21110305786132812500e+01) (17, -3.35110549926757812500e+01) (18, -1.62117099761962890625e+01) (19, -4.03463134765625000000e+01) (20, 5.26839351654052734375e+00) (21, 1.46005268096923828125e+01) (0, -2.37202320098876953125e+01) (1, -6.92738800048828125000e+01) (2, -3.20598983764648437500e+01) (3, 2.08661174774169921875e+01) (4, -7.83774566650390625000e+01) (5, 2.87335281372070312500e+01) (6, 3.10127143859863281250e+01) (7, -6.56889867782592773438e+00) (8, 1.27919263839721679688e+01) (9, -1.43533115386962890625e+01) (10, -2.60461635589599609375e+01) (11, -8.04071235656738281250e+00) (12, 8.83572673797607421875e+00) (13, -7.70593309402465820312e+00) (14, 2.87261161804199218750e+01) (15, 4.75604391098022460938e+00) (16, 2.11282730102539062500e+01) (17, -1.81646118164062500000e+01) (18, 4.59052238464355468750e+01) (19, -7.72503585815429687500e+01) (20, -4.03747844696044921875e+00) (21, 2.69470367431640625000e+01) (0, -1.23310136795043945312e+01) (1, -5.53697395324707031250e+01) (2, -4.75357856750488281250e+01) (3, -1.55072622299194335938e+01) (4, 3.51646690368652343750e+01) (5, 2.57484130859375000000e+01) (6, -3.74352149963378906250e+01) (7, 1.51674394607543945312e+01) (8, -1.76443309783935546875e+01) (9, -6.00828895568847656250e+01) (10, 2.28052024841308593750e+01) (11, 2.76259880065917968750e+01) (12, 6.34757690429687500000e+01) (13, 4.25429306030273437500e+01) (14, 1.39980688095092773438e+01) (15, 2.04040222167968750000e+01) (16, 5.32292699813842773438e+00) (17, 3.33969306945800781250e+01) (18, -2.23559303283691406250e+01) (19, 7.27205352783203125000e+01) (20, 3.85587692260742187500e+01) (21, -4.72279024124145507812e+00) (0, -3.21366310119628906250e+01) (1, -6.64694900512695312500e+01) (2, 2.35492095947265625000e+01) (3, -2.87179064750671386719e+00) (4, -3.77842178344726562500e+01) (5, 5.43758811950683593750e+01) (6, -2.01917171478271484375e+01) (7, -4.64205932617187500000e+01) (8, -3.41618232727050781250e+01) (9, -5.10326919555664062500e+01) (10, -6.31291913986206054688e+00) (11, -4.20361638069152832031e-01) (12, -3.92663841247558593750e+01) (13, 3.30900877714157104492e-01) (14, 9.59155654907226562500e+00) (15, 1.38113584518432617188e+01) (16, 1.07454414367675781250e+02) (17, -4.95546951293945312500e+01) (18, 3.30518684387207031250e+01) (19, -1.05141983032226562500e+01) (20, 7.66523075103759765625e+00) (21, 3.24902954101562500000e+01) (0, -3.26112480163574218750e+01) (1, 6.11645221710205078125e+00) (2, 9.71394348144531250000e+01) (3, -3.03554744720458984375e+01) (4, -9.26977615356445312500e+01) (5, 3.26085090637207031250e+01) (6, 5.34886054992675781250e+01) (7, 9.05424833297729492188e-01) (8, 2.03505401611328125000e+01) (9, 5.84336318969726562500e+01) (10, -3.76343154907226562500e+00) (11, -8.69973850250244140625e+00) (12, -2.56994457244873046875e+01) (13, -3.67949066162109375000e+01) (14, 3.77873725891113281250e+01) (15, 2.21762313842773437500e+01) (16, 4.79943046569824218750e+01) (17, -3.48398704528808593750e+01) (18, -3.45594215393066406250e+01) (19, 3.02298774719238281250e+01) (20, -1.70180854797363281250e+01) (21, -1.71457118988037109375e+01) (0, -1.29550075531005859375e+01) (1, -1.31896181106567382812e+01) (2, -3.02442474365234375000e+01) (3, 2.21533946990966796875e+01) (4, -6.49151325225830078125e+00) (5, -6.76322784423828125000e+01) (6, 1.98246707916259765625e+01) (7, -3.91875343322753906250e+01) (8, -1.35856688022613525391e+00) (9, 1.16543960571289062500e+01) (10, 2.28171787261962890625e+01) (11, 3.58793220520019531250e+01) (12, 3.30208015441894531250e+01) (13, -8.97661972045898437500e+01) (14, -6.48740386962890625000e+00) (15, 1.38551788330078125000e+01) (16, -6.69150161743164062500e+01) (17, -6.45601119995117187500e+01) (18, -2.85917205810546875000e+01) (19, -4.71507949829101562500e+01) (20, -5.19872970581054687500e+01) (21, -1.70928173065185546875e+01) (0, 2.14643611907958984375e+01) (1, -1.92136363983154296875e+01) (2, -1.09144554138183593750e+01) (3, -1.82839756011962890625e+01) (4, -6.32336378097534179688e+00) (5, -2.04735870361328125000e+01) (6, -1.60876731872558593750e+01) (7, -5.61903381347656250000e+01) (8, -4.32412195205688476562e+00) (9, 2.48111209869384765625e+01) (10, 4.80201053619384765625e+00) (11, 1.47583532333374023438e+01) (12, 9.93292427062988281250e+00) (13, -1.50648136138916015625e+01) (14, 3.36824990808963775635e-02) (15, 1.75961112976074218750e+00) (16, 3.69383735656738281250e+01) (17, -5.25807905197143554688e+00) (18, -1.96730632781982421875e+01) (19, -4.15048789978027343750e+00) (20, -6.61020946502685546875e+00) (21, 5.63506889343261718750e+00) (0, -3.11060943603515625000e+01) (1, 5.17811632156372070312e+00) (2, -5.16478805541992187500e+01) (3, -8.39022159576416015625e-01) (4, 2.64199676513671875000e+01) (5, -2.96489105224609375000e+01) (6, 4.53560638427734375000e+01) (7, 3.25845642089843750000e+01) (8, 2.06802597045898437500e+01) (9, -1.12760953903198242188e+01) (10, -1.96458797454833984375e+01) (11, -1.79427051544189453125e+01) (12, -4.46305942535400390625e+00) (13, 3.41371421813964843750e+01) (14, -1.90217418670654296875e+01) (15, -4.38272628784179687500e+01) (16, -3.69596519470214843750e+01) (17, -3.87280731201171875000e+01) (18, 4.71351737976074218750e+01) (19, -9.15356445312500000000e+00) (20, 1.31719446182250976562e+01) (21, 2.58096675872802734375e+01) (0, 2.24775428771972656250e+01) (1, 2.26631126403808593750e+01) (2, 3.34699516296386718750e+01) (3, 3.86962661743164062500e+01) (4, 2.66498661041259765625e+01) (5, 7.52861976623535156250e+00) (6, 1.75921497344970703125e+01) (7, 2.18896102905273437500e+01) (8, 1.24771738052368164062e+00) (9, -1.42459011077880859375e+01) (10, 1.40517644882202148438e+01) (11, 9.11859607696533203125e+00) (12, 3.48691749572753906250e+01) (13, -1.57162580490112304688e+01) (14, 3.08027992248535156250e+01) (15, 3.22422981262207031250e+01) (16, 3.69441680908203125000e+01) (17, 4.71526145935058593750e+01) (18, 1.19651336669921875000e+01) (19, 1.43292636871337890625e+01) (20, -2.62839965820312500000e+01) (21, -7.84219360351562500000e+01) (0, -4.15560197830200195312e+00) (1, -1.51074047088623046875e+01) (2, 1.40079641342163085938e+01) (3, -4.53916320800781250000e+01) (4, -1.69636845588684082031e+00) (5, -3.78300552368164062500e+01) (6, -3.48300590515136718750e+01) (7, 1.83948063850402832031e+00) (8, -2.42173900604248046875e+01) (9, -8.71488749980926513672e-01) (10, -4.64702987670898437500e+01) (11, 2.45058059692382812500e+00) (12, 5.15953025817871093750e+01) (13, 2.74999561309814453125e+01) (14, 3.32160530090332031250e+01) (15, 3.19441947937011718750e+01) (16, 1.40861063003540039062e+01) (17, 5.02921152114868164062e+00) (18, 3.37059669494628906250e+01) (19, -2.23979187011718750000e+01) (20, -4.75648460388183593750e+01) (21, -6.19963884353637695312e+00) (0, -6.94981956481933593750e+00) (1, -3.82251281738281250000e+01) (2, -7.04169158935546875000e+01) (3, -3.72205467224121093750e+01) (4, -6.64051055908203125000e+01) (5, 6.69377374649047851562e+00) (6, 2.48637866973876953125e+01) (7, -3.17250537872314453125e+01) (8, 1.99435939788818359375e+01) (9, 3.56251869201660156250e+01) (10, 4.35227203369140625000e+00) (11, 1.34151124954223632812e+01) (12, 6.48994541168212890625e+00) (13, -2.22915115356445312500e+01) (14, -7.55681705474853515625e+00) (15, -1.81687068939208984375e+01) (16, -2.54661140441894531250e+01) (17, 9.22114431858062744141e-01) (18, 1.67880973815917968750e+01) (19, 9.20832455158233642578e-01) (20, -2.75151672363281250000e+01) (21, 3.20642013549804687500e+01) (0, 8.63821697235107421875e+00) (1, 8.59805941581726074219e-01) (2, -1.08853387832641601562e+01) (3, 1.40854406356811523438e+01) (4, 5.81986122131347656250e+01) (5, -4.58097267150878906250e+00) (6, 2.10489997863769531250e+01) (7, -1.53183650970458984375e+01) (8, -1.03053894042968750000e+01) (9, -5.01781368255615234375e+00) (10, 2.81629199981689453125e+01) (11, 6.51938171386718750000e+01) (12, 3.11841220855712890625e+01) (13, -1.58144054412841796875e+01) (14, -8.82622301578521728516e-01) (15, -3.73202476501464843750e+01) (16, -4.90865468978881835938e+00) (17, -2.83105430603027343750e+01) (18, 6.30802202224731445312e+00) (19, -3.48844833374023437500e+01) (20, 1.42062540054321289062e+01) (21, 5.33632755279541015625e+00) (0, 5.82215785980224609375e+00) (1, -4.06126976013183593750e+01) (2, 4.78115577697753906250e+01) (3, -2.21442394256591796875e+01) (4, 9.43023834228515625000e+01) (5, -7.37555236816406250000e+01) (6, -4.23233451843261718750e+01) (7, -1.40356340408325195312e+01) (8, -1.33649797439575195312e+01) (9, 1.98579158782958984375e+01) (10, 1.03970193862915039062e+01) (11, 2.68042583465576171875e+01) (12, 1.70799839496612548828e+00) (13, -9.88706350326538085938e-01) (14, -1.44420824050903320312e+01) (15, -1.95751178264617919922e+00) (16, -2.45320186614990234375e+01) (17, 8.71900711059570312500e+01) (18, 2.05791759490966796875e+01) (19, -3.88986167907714843750e+01) (20, -1.03901672363281250000e+01) (21, -8.22564125061035156250e+00) (0, 1.52451028823852539062e+01) (1, 1.10067367553710937500e+02) (2, -2.68935394287109375000e+01) (3, 4.89602088928222656250e+00) (4, 1.30521736145019531250e+01) (5, 1.38218185424804687500e+02) (6, 9.74453277587890625000e+01) (7, 2.71937370300292968750e+00) (8, -2.86721000671386718750e+01) (9, 4.80625104904174804688e+00) (10, -4.08414878845214843750e+01) (11, -2.63523082733154296875e+01) (12, 7.77677993774414062500e+01) (13, 4.22377357482910156250e+01) (14, -5.07520675659179687500e+01) (15, -1.61143455505371093750e+01) (16, 6.25942707061767578125e+00) (17, 3.59266090393066406250e+01) (18, 4.19603691101074218750e+01) (19, -2.18815727233886718750e+01) (20, 4.87885169982910156250e+01) (21, 1.89626712799072265625e+01) (0, -9.93389282226562500000e+01) (1, -4.75786638259887695312e+00) (2, 7.22790985107421875000e+01) (3, 5.87555789947509765625e+00) (4, 1.64977111816406250000e+01) (5, 8.63925781250000000000e+01) (6, 1.73964881896972656250e+01) (7, -3.04447174072265625000e+01) (8, -9.95706081390380859375e+00) (9, 3.95264968872070312500e+01) (10, -2.38512268066406250000e+01) (11, -3.15747299194335937500e+01) (12, -3.51397628784179687500e+01) (13, 1.04333143234252929688e+01) (14, -2.26719932556152343750e+01) (15, 4.11473464965820312500e+01) (16, 3.96161956787109375000e+01) (17, 5.19851226806640625000e+01) (18, 2.74858627319335937500e+01) (19, -1.17986726760864257812e+01) (20, 5.63884544372558593750e+01) (21, 2.26583886146545410156e+00) (0, 4.54564933776855468750e+01) (1, 1.08069009780883789062e+01) (2, -1.34171972274780273438e+01) (3, 3.73493537902832031250e+01) (4, -4.72413682937622070312e+00) (5, 1.17381680011749267578e+00) (6, 2.30467243194580078125e+01) (7, -1.82403793334960937500e+01) (8, 7.92066097259521484375e+00) (9, 1.78100013732910156250e+01) (10, -2.09130706787109375000e+01) (11, -2.69355545043945312500e+01) (12, -1.75145931243896484375e+01) (13, 9.83709239959716796875e+00) (14, 1.01542015075683593750e+01) (15, -1.42788257598876953125e+01) (16, -3.56176376342773437500e+01) (17, -2.93953361511230468750e+01) (18, 9.48360025882720947266e-01) (19, 2.73222217559814453125e+01) (20, 5.72537422180175781250e+00) (21, -7.85070705413818359375e+00) (0, -2.77621898651123046875e+01) (1, -1.20181684494018554688e+01) (2, -2.19141883850097656250e+01) (3, 3.18547159433364868164e-01) (4, -1.83247737884521484375e+01) (5, -1.85936565399169921875e+01) (6, -6.50361490249633789062e+00) (7, 3.51340332031250000000e+01) (8, 1.66478424072265625000e+01) (9, 1.54391422271728515625e+01) (10, -2.51333637237548828125e+01) (11, -2.47689533233642578125e+01) (12, -1.29106771945953369141e+00) (13, -2.51273012161254882812e+00) (14, -3.45156784057617187500e+01) (15, 1.03915882110595703125e+01) (16, -9.54873085021972656250e+00) (17, -1.42308025360107421875e+01) (18, -1.76529350280761718750e+01) (19, 2.15136852264404296875e+01) (20, 1.28165159225463867188e+01) (21, 4.28908462524414062500e+01) (0, -2.77434940338134765625e+01) (1, -2.97434463500976562500e+01) (2, 1.27473344802856445312e+01) (3, 1.19427061080932617188e+01) (4, 6.36133613586425781250e+01) (5, -1.60609302520751953125e+01) (6, 6.52959289550781250000e+01) (7, 4.52317810058593750000e+00) (8, -3.31715698242187500000e+01) (9, -1.78128643035888671875e+01) (10, 1.45303688049316406250e+01) (11, 6.33183631896972656250e+01) (12, 3.51219291687011718750e+01) (13, 5.32348022460937500000e+01) (14, 2.78859424591064453125e+01) (15, -2.09431858062744140625e+01) (16, -1.47875332832336425781e+00) (17, -1.06186161041259765625e+01) (18, 4.70853042602539062500e+01) (19, -1.83340435028076171875e+01) (20, -4.61963958740234375000e+01) (21, -1.74742069244384765625e+01) (0, 5.69365844726562500000e+01) (1, 4.71335754394531250000e+01) (2, 8.39209175109863281250e+00) (3, 5.40860366821289062500e+01) (4, -1.90677738189697265625e+01) (5, 3.81216125488281250000e+01) (6, 1.00222465515136718750e+02) (7, -2.22807617187500000000e+01) (8, -4.47105932235717773438e+00) (9, 1.23171052932739257812e+01) (10, -1.96615715026855468750e+01) (11, -2.45168781280517578125e+00) (12, -5.44196090698242187500e+01) (13, -3.12633399963378906250e+01) (14, -1.55975704193115234375e+01) (15, -2.37666530609130859375e+01) (16, 2.15297832489013671875e+01) (17, -4.46977310180664062500e+01) (18, 7.92365875244140625000e+01) (19, -2.30104331970214843750e+01) (20, -2.40567893981933593750e+01) (21, 2.45550003051757812500e+01) (0, 1.33178806304931640625e+01) (1, -6.01265907287597656250e+00) (2, -3.25032544136047363281e+00) (3, -4.16579132080078125000e+01) (4, 1.10988435745239257812e+01) (5, -7.77115554809570312500e+01) (6, 1.49723052978515625000e+01) (7, -3.50896334648132324219e+00) (8, -5.77530937194824218750e+01) (9, -4.21711654663085937500e+01) (10, -9.56902408599853515625e+00) (11, 1.75462532043457031250e+01) (12, -9.16354274749755859375e+00) (13, -3.38541793823242187500e+01) (14, 4.79005634784698486328e-01) (15, 2.34519863128662109375e+01) (16, -1.11860723495483398438e+01) (17, -9.91608238220214843750e+00) (18, 1.71214332580566406250e+01) (19, 5.41348991394042968750e+01) (20, 4.57821350097656250000e+01) (21, -1.46035051345825195312e+01) (0, -3.97266540527343750000e+01) (1, -1.53025798797607421875e+01) (2, -2.07308902740478515625e+01) (3, -1.45539445877075195312e+01) (4, -8.87364387512207031250e+00) (5, -8.47596645355224609375e+00) (6, -3.62620964050292968750e+01) (7, -5.12505569458007812500e+01) (8, -1.49591674804687500000e+01) (9, -8.00573730468750000000e+00) (10, 2.03848552703857421875e+01) (11, 7.99330139160156250000e+00) (12, -3.21318006515502929688e+00) (13, -1.14754753112792968750e+01) (14, 4.11006927490234375000e+01) (15, 1.74932479858398437500e+01) (16, 3.97785339355468750000e+01) (17, -2.20646667480468750000e+01) (18, 7.80055465698242187500e+01) (19, 5.53629798889160156250e+01) (20, 2.18246364593505859375e+01) (21, -2.50189571380615234375e+01) (0, 3.23138084411621093750e+01) (1, -4.37853660583496093750e+01) (2, 2.08866329193115234375e+01) (3, -2.37494487762451171875e+01) (4, 3.72204470634460449219e+00) (5, 1.73848094940185546875e+01) (6, 1.54959192276000976562e+01) (7, -1.64818534851074218750e+01) (8, -2.88182716369628906250e+01) (9, 2.78111457824707031250e+01) (10, -3.29517211914062500000e+01) (11, -3.56415557861328125000e+01) (12, -2.21178932189941406250e+01) (13, -2.70093746185302734375e+01) (14, -1.48296308517456054688e+01) (15, 6.26446151733398437500e+01) (16, 3.68858795166015625000e+01) (17, 7.05475473403930664062e+00) (18, 4.15623188018798828125e+00) (19, 7.21080207824707031250e+00) (20, 2.96864643096923828125e+01) (21, -2.75816106796264648438e+00) (0, -3.67271881103515625000e+01) (1, 2.33180999755859375000e+01) (2, 3.95561180114746093750e+01) (3, -2.96377487182617187500e+01) (4, 4.98519020080566406250e+01) (5, -2.75170021057128906250e+01) (6, -2.32323989868164062500e+01) (7, -2.59794616699218750000e+01) (8, -5.98905220031738281250e+01) (9, 8.37796688079833984375e+00) (10, 1.81314888000488281250e+01) (11, 3.62736129760742187500e+01) (12, 1.01045967102050781250e+02) (13, 7.84302139282226562500e+01) (14, 2.47432250976562500000e+01) (15, 3.45925788879394531250e+01) (16, 1.59308414459228515625e+01) (17, 1.05167961120605468750e+02) (18, -6.88994169235229492188e+00) (19, 2.59442710876464843750e+01) (20, 2.69790096282958984375e+01) (21, -2.12514877319335937500e+01) (0, -2.42676105499267578125e+01) (1, 7.11015462875366210938e+00) (2, 2.10308990478515625000e+01) (3, -3.99708786010742187500e+01) (4, -3.72262840270996093750e+01) (5, -5.79273147583007812500e+01) (6, -3.21963233947753906250e+01) (7, 5.89495582580566406250e+01) (8, 5.49581375122070312500e+01) (9, 3.30565757751464843750e+01) (10, -1.62493476867675781250e+01) (11, 9.88180351257324218750e+00) (12, 3.09510555267333984375e+01) (13, -1.72614994049072265625e+01) (14, -3.36388053894042968750e+01) (15, -7.80635070800781250000e+00) (16, -2.72851295471191406250e+01) (17, -3.46843185424804687500e+01) (18, -6.08271560668945312500e+01) (19, -4.12675666809082031250e+01) (20, -3.98888854980468750000e+01) (21, 3.23049659729003906250e+01) (0, 1.54419269561767578125e+01) (1, -6.18639612197875976562e+00) (2, -5.23962173461914062500e+01) (3, 3.14171161651611328125e+01) (4, -2.53975486755371093750e+01) (5, -6.75803909301757812500e+01) (6, -2.15695400238037109375e+01) (7, 1.66249179840087890625e+01) (8, -5.66522359848022460938e+00) (9, -1.24337711334228515625e+01) (10, -2.70854282379150390625e+01) (11, -2.84701175689697265625e+01) (12, -1.39856128692626953125e+01) (13, -8.64819869995117187500e+01) (14, -5.81180620193481445312e+00) (15, 2.97486343383789062500e+01) (16, 1.28849334716796875000e+01) (17, 1.39728317260742187500e+01) (18, -6.23097038269042968750e+01) (19, -5.43136863708496093750e+01) (20, -1.88807487487792968750e+01) (21, -5.28674268722534179688e+00) (0, -2.04118576049804687500e+01) (1, -1.75343990325927734375e+01) (2, -5.06797637939453125000e+01) (3, -7.27699813842773437500e+01) (4, -4.62748832702636718750e+01) (5, -3.90262260437011718750e+01) (6, 4.03807735443115234375e+00) (7, -3.47030401229858398438e-01) (8, -8.99712860584259033203e-01) (9, 2.14111876487731933594e+00) (10, -3.24431991577148437500e+01) (11, -3.02497634887695312500e+01) (12, 1.19718730449676513672e+00) (13, 7.50011215209960937500e+01) (14, 9.96390247344970703125e+00) (15, -1.60458087921142578125e+01) (16, -3.68341178894042968750e+01) (17, -3.57098808288574218750e+01) (18, 3.15487551689147949219e+00) (19, 3.44183387756347656250e+01) (20, 2.23629989624023437500e+01) (21, 4.71536493301391601562e+00) (0, -1.50393848419189453125e+01) (1, -2.63396930694580078125e+01) (2, -1.74975147247314453125e+01) (3, 1.77950692176818847656e+00) (4, -4.17538986206054687500e+01) (5, 6.08268928527832031250e+00) (6, 5.41569185256958007812e+00) (7, -5.76702022552490234375e+00) (8, -9.13110065460205078125e+00) (9, 1.17038357257843017578e+00) (10, -2.95621166229248046875e+01) (11, -1.60495948791503906250e+01) (12, -1.69775371551513671875e+01) (13, 1.37616281509399414062e+01) (14, -4.75921478271484375000e+01) (15, -4.74871292114257812500e+01) (16, -3.75285568237304687500e+01) (17, -2.96280212402343750000e+01) (18, 1.51058208942413330078e+00) (19, -1.46354408264160156250e+01) (20, 3.74459495544433593750e+01) (21, 9.50532531738281250000e+01) (0, 1.30987558364868164062e+01) (1, -4.36881780624389648438e+00) (2, 6.10446052551269531250e+01) (3, 3.85115623474121093750e+01) (4, 1.13226097106933593750e+02) (5, 2.80217952728271484375e+01) (6, -7.23376274108886718750e-01) (7, 6.84237718582153320312e+00) (8, -3.91837310791015625000e+01) (9, -4.04598159790039062500e+01) (10, 4.55714378356933593750e+01) (11, 4.82968864440917968750e+01) (12, 2.68459854125976562500e+01) (13, -3.17504138946533203125e+01) (14, 1.17188386917114257812e+01) (15, 1.19623069763183593750e+01) (16, 3.26430320739746093750e+01) (17, -2.40297412872314453125e+01) (18, -1.75554485321044921875e+01) (19, 5.07773828506469726562e+00) (20, -3.62759437561035156250e+01) (21, -2.21657447814941406250e+01) (0, -3.63303146362304687500e+01) (1, -2.81278953552246093750e+01) (2, -8.83312892913818359375e+00) (3, -3.47517318725585937500e+01) (4, -3.53050575256347656250e+01) (5, 2.75348377227783203125e+00) (6, 1.04969320297241210938e+01) (7, -9.87976837158203125000e+00) (8, 1.06104488372802734375e+01) (9, 8.80459976196289062500e+00) (10, -6.89745254516601562500e+01) (11, -6.62267990112304687500e+01) (12, -1.08767766952514648438e+01) (13, -9.32514190673828125000e+00) (14, -4.25074920654296875000e+01) (15, -1.32755970954895019531e+00) (16, -1.40321655273437500000e+01) (17, -6.28007698059082031250e+00) (18, 8.53454971313476562500e+00) (19, 3.87961959838867187500e+00) (20, 2.16096382141113281250e+01) (21, 6.27108650207519531250e+01) (0, -3.18722057342529296875e+01) (1, 4.39484710693359375000e+01) (2, -2.12922840118408203125e+01) (3, -7.14670324325561523438e+00) (4, 1.50678462982177734375e+01) (5, 2.12611217498779296875e+01) (6, 5.45580596923828125000e+01) (7, 1.87020206451416015625e+01) (8, -1.60814247131347656250e+01) (9, -4.07102622985839843750e+01) (10, -3.79623756408691406250e+01) (11, -2.96218204498291015625e+01) (12, -4.94435195922851562500e+01) (13, -3.85710334777832031250e+01) (14, 9.24114990234375000000e+00) (15, 2.77673130035400390625e+01) (16, 2.87746772766113281250e+01) (17, 6.96168289184570312500e+01) (18, 2.47579860687255859375e+01) (19, -1.17144145965576171875e+01) (20, 1.45047760009765625000e+01) (21, -1.30969276428222656250e+01) (0, 1.95609152317047119141e+00) (1, 1.89046268463134765625e+01) (2, 7.45188827514648437500e+01) (3, 1.55533466339111328125e+01) (4, 2.37145862579345703125e+01) (5, 1.55338239669799804688e+01) (6, 2.58682537078857421875e+01) (7, 1.58905229568481445312e+01) (8, 3.33836860656738281250e+01) (9, 2.93178195953369140625e+01) (10, -3.91180534362792968750e+01) (11, -2.96916255950927734375e+01) (12, 1.05376501083374023438e+01) (13, 3.98508338928222656250e+01) (14, -1.98353214263916015625e+01) (15, -5.11237411499023437500e+01) (16, -5.31997871398925781250e+01) (17, -2.75878200531005859375e+01) (18, 4.56054229736328125000e+01) (19, -5.44233970642089843750e+01) (20, -3.41642684936523437500e+01) (21, 6.58389711380004882812e+00) (0, 2.34397659301757812500e+01) (1, 2.83826179504394531250e+01) (2, -2.96653842926025390625e+00) (3, 2.29817104339599609375e+00) (4, 4.00476722717285156250e+01) (5, -1.74781875610351562500e+01) (6, 3.37127995491027832031e+00) (7, 2.67970609664916992188e+00) (8, -2.12076377868652343750e+01) (9, -1.68920612335205078125e+01) (10, -9.69169044494628906250e+00) (11, 9.76053047180175781250e+00) (12, 2.27040615081787109375e+01) (13, 2.15676803588867187500e+01) (14, 5.33315925598144531250e+01) (15, 1.07208995819091796875e+01) (16, 2.95477008819580078125e+01) (17, 1.91367034912109375000e+01) (18, 1.48871793746948242188e+01) (19, 2.84228954315185546875e+01) (20, -1.44463262557983398438e+01) (21, -7.31952743530273437500e+01) (0, 5.72954940795898437500e+01) (1, 7.27250061035156250000e+01) (2, -5.12315330505371093750e+01) (3, 2.34190807342529296875e+01) (4, -4.26913681030273437500e+01) (5, -8.56571578979492187500e+01) (6, -5.07258186340332031250e+01) (7, 1.87179107666015625000e+01) (8, 1.84046287536621093750e+01) (9, 3.14224605560302734375e+01) (10, 1.77553863525390625000e+01) (11, 7.22974014282226562500e+00) (12, -7.58091688156127929688e+00) (13, -2.48513545989990234375e+01) (14, -3.07807540893554687500e+01) (15, -1.09546823501586914062e+01) (16, -4.10988845825195312500e+01) (17, -3.36972045898437500000e+01) (18, 5.07989273071289062500e+01) (19, -3.08594226837158203125e+01) (20, 1.70735931396484375000e+01) (21, -1.40746915340423583984e+00) (0, 6.38834190368652343750e+00) (1, -8.03445205688476562500e+01) (2, -2.85819530487060546875e+01) (3, -5.67270469665527343750e+00) (4, -9.49293212890625000000e+01) (5, -5.14340209960937500000e+00) (6, -1.76494045257568359375e+01) (7, -1.59182825088500976562e+01) (8, -4.92672252655029296875e+00) (9, -5.23065605163574218750e+01) (10, 2.38005104064941406250e+01) (11, 3.79383926391601562500e+01) (12, -5.81411895751953125000e+01) (13, -3.66568641662597656250e+01) (14, 1.16528081893920898438e+01) (15, 5.41778564453125000000e+01) (16, 4.34851036071777343750e+01) (17, -7.99935913085937500000e+01) (18, -1.00392532348632812500e+02) (19, 3.13393554687500000000e+01) (20, -2.65873470306396484375e+01) (21, -9.34266948699951171875e+00) (0, 1.57232131958007812500e+01) (1, -4.07337226867675781250e+01) (2, -5.19546051025390625000e+01) (3, 2.05064945220947265625e+01) (4, 4.75222663879394531250e+01) (5, 8.02759857177734375000e+01) (6, 7.08531723022460937500e+01) (7, 1.97100658416748046875e+01) (8, -9.70813214778900146484e-01) (9, -9.56678295135498046875e+00) (10, -4.83411026000976562500e+00) (11, 1.12675752639770507812e+01) (12, 4.32022361755371093750e+01) (13, -2.63287639617919921875e+01) (14, -7.14059734344482421875e+00) (15, 3.47784881591796875000e+01) (16, 5.90620803833007812500e+01) (17, 5.33701858520507812500e+01) (18, -1.04863922119140625000e+02) (19, 5.64194946289062500000e+01) (20, -3.51836090087890625000e+01) (21, -5.78027915954589843750e+00) (0, 3.75622558593750000000e+01) (1, -1.35956659317016601562e+01) (2, 3.94453811645507812500e+01) (3, -1.63793861865997314453e+00) (4, 9.97112884521484375000e+01) (5, 1.44761962890625000000e+01) (6, -3.32153511047363281250e+01) (7, 1.92467174530029296875e+01) (8, -7.33396768569946289062e+00) (9, 7.25422143936157226562e+00) (10, 4.21744651794433593750e+01) (11, 3.92608833312988281250e+01) (12, 3.35386848449707031250e+01) (13, 3.02499008178710937500e+00) (14, 6.04537200927734375000e+01) (15, 5.26496925354003906250e+01) (16, 5.77426795959472656250e+01) (17, 2.08790378570556640625e+01) (18, 1.74306068420410156250e+01) (19, 3.51185798645019531250e+01) (20, -6.22183952331542968750e+01) (21, -1.16619865417480468750e+02) (0, 1.12753257751464843750e+01) (1, -4.75325107574462890625e+00) (2, 8.52981109619140625000e+01) (3, -2.77705173492431640625e+01) (4, 1.66305506229400634766e+00) (5, 4.05811462402343750000e+01) (6, 1.93591632843017578125e+01) (7, 6.23306732177734375000e+01) (8, 3.19502754211425781250e+01) (9, 4.24631547927856445312e+00) (10, -8.21473312377929687500e+01) (11, -9.64013366699218750000e+01) (12, -3.70024943351745605469e+00) (13, -1.19283819198608398438e+01) (14, -3.03852882385253906250e+01) (15, -7.67766475677490234375e+00) (16, 5.46082611083984375000e+01) (17, 3.69420928955078125000e+01) (18, -5.53934764862060546875e+00) (19, -6.57326278686523437500e+01) (20, 3.01038093566894531250e+01) (21, 4.50046825408935546875e+00) (0, -2.61274385452270507812e+00) (1, 2.56705684661865234375e+01) (2, 4.64532709121704101562e+00) (3, 2.34956026077270507812e+00) (4, 4.55706310272216796875e+00) (5, 4.82411050796508789062e+00) (6, 2.84450874328613281250e+01) (7, -2.92818870544433593750e+01) (8, -1.54580965042114257812e+01) (9, -1.76647834777832031250e+01) (10, 3.86483268737792968750e+01) (11, 1.00302877426147460938e+01) (12, -4.35614252090454101562e+00) (13, -1.92920055389404296875e+01) (14, 2.50016326904296875000e+01) (15, -1.63452255725860595703e+00) (16, 2.13927822113037109375e+01) (17, 1.43196239471435546875e+01) (18, -2.37702484130859375000e+01) (19, 7.76645565032958984375e+00) (20, 8.04197692871093750000e+00) (21, -3.74076461791992187500e+01) (0, 5.67018210887908935547e-01) (1, 5.20858840942382812500e+01) (2, 3.51269454956054687500e+01) (3, 6.57838287353515625000e+01) (4, -1.04081581115722656250e+02) (5, 7.02559051513671875000e+01) (6, 3.88270416259765625000e+01) (7, -2.24183750152587890625e+00) (8, 1.16430940628051757812e+01) (9, 1.58147583007812500000e+01) (10, -1.44309120178222656250e+01) (11, -2.49892864227294921875e+01) (12, -2.80158691406250000000e+01) (13, -1.24342651367187500000e+02) (14, -6.02194366455078125000e+01) (15, -6.37670707702636718750e+01) (16, -2.91539573669433593750e+01) (17, 8.72407341003417968750e+00) (18, -6.14056289196014404297e-01) (19, 3.51765403747558593750e+01) (20, -9.10607337951660156250e+00) (21, 2.88053131103515625000e+01) (0, -2.18568382263183593750e+01) (1, -2.14838275909423828125e+01) (2, 2.36880817413330078125e+01) (3, 3.78705596923828125000e+00) (4, -2.41673278808593750000e+01) (5, 2.64465389251708984375e+01) (6, -1.96467018127441406250e+01) (7, 5.13348083496093750000e+01) (8, 4.42295761108398437500e+01) (9, 1.73562412261962890625e+01) (10, -2.43698196411132812500e+01) (11, -3.94158363342285156250e+01) (12, 7.43282546997070312500e+01) (13, 7.35005187988281250000e+01) (14, -3.27330875396728515625e+00) (15, -5.49910888671875000000e+01) (16, -7.95530929565429687500e+01) (17, -1.30743389129638671875e+01) (18, -4.18755035400390625000e+01) (19, -1.68701725006103515625e+01) (20, 3.34092445373535156250e+01) (21, 1.62757987976074218750e+01) (0, -7.20967626571655273438e+00) (1, -2.52831125259399414062e+00) (2, -6.10758161544799804688e+00) (3, -1.02602531433105468750e+02) (4, -7.13554077148437500000e+01) (5, 7.25909957885742187500e+01) (6, -1.85634403228759765625e+01) (7, -1.52701930999755859375e+01) (8, -1.18370361328125000000e+02) (9, -6.33986740112304687500e+01) (10, 3.79952011108398437500e+01) (11, 5.76706085205078125000e+01) (12, 7.45905761718750000000e+01) (13, 9.61447830200195312500e+01) (14, 2.07395076751708984375e+01) (15, 3.11821269989013671875e+01) (16, 5.60047531127929687500e+01) (17, -7.71704816818237304688e+00) (18, -8.97554168701171875000e+01) (19, -1.97111396789550781250e+01) (20, -5.96553945541381835938e+00) (21, 1.56232285499572753906e+00) (0, 3.01071376800537109375e+01) (1, 7.85969314575195312500e+01) (2, 8.93831481933593750000e+01) (3, -3.43549079895019531250e+01) (4, -2.38371124267578125000e+01) (5, 1.88346252441406250000e+01) (6, 3.71497802734375000000e+01) (7, 6.97394714355468750000e+01) (8, 2.78269271850585937500e+01) (9, -1.88695449829101562500e+01) (10, -3.43621139526367187500e+01) (11, -4.96204376220703125000e+00) (12, 8.69324493408203125000e+01) (13, 1.76738376617431640625e+01) (14, -6.89645233154296875000e+01) (15, -7.37407608032226562500e+01) (16, -6.34327430725097656250e+01) (17, -1.09663209915161132812e+01) (18, -4.11353416442871093750e+01) (19, -5.30150127410888671875e+00) (20, 4.40157699584960937500e+01) (21, 2.05446453094482421875e+01) (0, -2.57918300628662109375e+01) (1, 4.39098815917968750000e+01) (2, -1.56968870162963867188e+01) (3, -2.36541652679443359375e+01) (4, 1.42820768356323242188e+01) (5, -5.08353500366210937500e+01) (6, 2.37564811706542968750e+01) (7, 9.52393150329589843750e+00) (8, 4.98904190063476562500e+01) (9, 6.98717041015625000000e+01) (10, 3.33070588111877441406e+00) (11, -1.28446502685546875000e+01) (12, -8.43959884643554687500e+01) (13, -5.95183143615722656250e+01) (14, -2.38949775695800781250e+00) (15, -2.58079319000244140625e+01) (16, -4.25346908569335937500e+01) (17, -1.17852687835693359375e+01) (18, -2.14350643157958984375e+01) (19, -1.58867197036743164062e+01) (20, -2.32147006988525390625e+01) (21, -1.95813503265380859375e+01) (0, 2.23848609924316406250e+01) (1, 3.76571350097656250000e+01) (2, 2.07298336029052734375e+01) (3, 3.99947013854980468750e+01) (4, -2.48177852630615234375e+01) (5, -1.83912811279296875000e+01) (6, 5.56839513778686523438e+00) (7, -2.86939201354980468750e+01) (8, -2.52231431007385253906e+00) (9, 5.63194036483764648438e+00) (10, -1.57659749984741210938e+01) (11, -1.00989055633544921875e+01) (12, 1.04142560958862304688e+01) (13, 2.42661418914794921875e+01) (14, -3.41788291931152343750e+01) (15, -2.02229022979736328125e+01) (16, -1.99311008453369140625e+01) (17, -3.78674507141113281250e+01) (18, 1.61430988311767578125e+01) (19, -3.06722965240478515625e+01) (20, -2.16988563537597656250e+00) (21, 2.18854827880859375000e+01) (0, -3.28020782470703125000e+01) (1, 1.36593122482299804688e+01) (2, -3.30582923889160156250e+01) (3, 1.30310945510864257812e+01) (4, -7.00909500122070312500e+01) (5, -1.45333692431449890137e-01) (6, 5.49943304061889648438e+00) (7, -1.47775182723999023438e+01) (8, -6.98705673217773437500e+00) (9, -9.04991626739501953125e+00) (10, -1.48238611221313476562e+01) (11, -5.60274887084960937500e+01) (12, -3.20281524658203125000e+01) (13, -1.90171623229980468750e+01) (14, -1.98983097076416015625e+01) (15, -1.11363801956176757812e+01) (16, -1.37696733474731445312e+01) (17, -1.34364633560180664062e+01) (18, 1.40111341476440429688e+01) (19, 2.71166629791259765625e+01) (20, 3.97111625671386718750e+01) (21, 6.91740493774414062500e+01) (0, 1.19030084609985351562e+01) (1, -3.53390197753906250000e+01) (2, 7.27583389282226562500e+01) (3, -2.30213928222656250000e+01) (4, -7.00974988937377929688e+00) (5, 9.33068847656250000000e+00) (6, -1.75794959068298339844e+00) (7, 7.62545299530029296875e+00) (8, -1.76902065277099609375e+01) (9, -1.53785095214843750000e+01) (10, -2.92097415924072265625e+01) (11, 1.78919816017150878906e+00) (12, 1.36241016387939453125e+01) (13, -1.20900845527648925781e+00) (14, -3.67879409790039062500e+01) (15, -2.63667621612548828125e+01) (16, -1.12311754226684570312e+01) (17, 3.22746467590332031250e+00) (18, -2.13326873779296875000e+01) (19, -1.65512237548828125000e+01) (20, 1.81207160949707031250e+01) (21, 4.20390777587890625000e+01) (0, -4.25710792541503906250e+01) (1, 6.05535354614257812500e+01) (2, 1.72019348144531250000e+01) (3, -3.39800949096679687500e+01) (4, -7.59634304046630859375e+00) (5, -4.25474891662597656250e+01) (6, -1.34908218383789062500e+01) (7, 5.44116592407226562500e+01) (8, 2.50335998535156250000e+01) (9, 8.03188419342041015625e+00) (10, 8.46669006347656250000e+00) (11, 4.38435649871826171875e+00) (12, 2.12080097198486328125e+01) (13, 1.63399753570556640625e+01) (14, -1.37227840423583984375e+01) (15, -4.94991188049316406250e+01) (16, -4.83794250488281250000e+01) (17, -2.25769367218017578125e+01) (18, -8.27832031250000000000e+00) (19, -4.47031021118164062500e+00) (20, -5.85921287536621093750e+00) (21, 2.01934185028076171875e+01) (0, -1.41097354888916015625e+01) (1, -1.02996273040771484375e+01) (2, 2.85046005249023437500e+00) (3, -2.02499065399169921875e+01) (4, -4.82959976196289062500e+01) (5, 1.65207314491271972656e+00) (6, -3.76136040687561035156e+00) (7, -5.18888139724731445312e+00) (8, 2.02736778259277343750e+01) (9, 8.93732070922851562500e-01) (10, -1.90592632293701171875e+01) (11, -1.15491676330566406250e+01) (12, -2.30233049392700195312e+00) (13, 2.17615776062011718750e+01) (14, -2.56523723602294921875e+01) (15, -3.48353996276855468750e+01) (16, -2.29585971832275390625e+01) (17, -3.88309822082519531250e+01) (18, 1.79186952114105224609e+00) (19, -1.24099779129028320312e+01) (20, 2.71047859191894531250e+01) (21, 7.40737457275390625000e+01) (0, 8.26908588409423828125e-01) (1, -8.43147659301757812500e+00) (2, -2.58192081451416015625e+01) (3, 1.08285112380981445312e+01) (4, 2.21571178436279296875e+01) (5, -9.41810226440429687500e+00) (6, -6.47812414169311523438e+00) (7, -7.80422306060791015625e+00) (8, 2.18027725219726562500e+01) (9, 1.91756725311279296875e+01) (10, -1.14854660034179687500e+01) (11, -4.38599395751953125000e+00) (12, -7.00409927368164062500e+01) (13, -3.43998260498046875000e+01) (14, -8.23976635932922363281e-01) (15, 3.14043307304382324219e+00) (16, -1.11081275939941406250e+01) (17, 5.52949638366699218750e+01) (18, -1.16598501205444335938e+01) (19, -2.43053722381591796875e+01) (20, 1.21297540664672851562e+01) (21, 1.37639484405517578125e+01) (0, -6.01641540527343750000e+01) (1, 2.16895599365234375000e+01) (2, 2.59523029327392578125e+01) (3, -6.54096298217773437500e+01) (4, -1.02380485534667968750e+01) (5, 3.47766227722167968750e+01) (6, 1.43847513198852539062e+01) (7, -2.92760467529296875000e+01) (8, -1.97360076904296875000e+01) (9, 1.60695056915283203125e+01) (10, 9.34500122070312500000e+00) (11, 1.90367698669433593750e+01) (12, 3.02682924270629882812e+00) (13, 4.14269256591796875000e+00) (14, -4.10337591171264648438e+00) (15, 8.91217589378356933594e-01) (16, 2.32219448089599609375e+01) (17, 8.52776527404785156250e+00) (18, 1.81333045959472656250e+01) (19, 2.72235355377197265625e+01) (20, 1.73066234588623046875e+01) (21, 7.01029920578002929688e+00) (0, 4.94124293327331542969e-01) (1, 2.19450302124023437500e+01) (2, 2.65636196136474609375e+01) (3, -2.93102169036865234375e+00) (4, 3.97452392578125000000e+01) (5, 1.69375634193420410156e+00) (6, 3.24624085426330566406e+00) (7, 3.75892281532287597656e+00) (8, -4.55874776840209960938e+00) (9, -3.61818242073059082031e+00) (10, 1.32548151016235351562e+01) (11, 2.75356173515319824219e+00) (12, -1.70478606224060058594e+00) (13, 1.31094789505004882812e+01) (14, 3.34809417724609375000e+01) (15, 3.07742881774902343750e+01) (16, 3.43231124877929687500e+01) (17, 2.41962947845458984375e+01) (18, 1.68898544311523437500e+01) (19, 8.40377712249755859375e+00) (20, -2.38191738128662109375e+01) (21, -5.28085327148437500000e+01) (0, 1.64777908325195312500e+01) (1, 5.02903461456298828125e+00) (2, -1.20980777740478515625e+01) (3, -2.50017662048339843750e+01) (4, 7.59601516723632812500e+01) (5, -1.76318836212158203125e+01) (6, 1.75435276031494140625e+01) (7, -1.08575897216796875000e+01) (8, -4.00141382217407226562e+00) (9, 1.53895034790039062500e+01) (10, -4.80932474136352539062e+00) (11, -7.00490713119506835938e+00) (12, -2.83368701934814453125e+01) (13, -5.68307647705078125000e+01) (14, 4.62790641784667968750e+01) (15, 2.90226039886474609375e+01) (16, 2.21431083679199218750e+01) (17, 1.93000049591064453125e+01) (18, 4.91777954101562500000e+01) (19, -7.01866483688354492188e+00) (20, -2.93416423797607421875e+01) (21, -3.13776054382324218750e+01) (0, -4.28660049438476562500e+01) (1, -3.63372688293457031250e+01) (2, -6.25842952728271484375e+00) (3, -3.91770973205566406250e+01) (4, -2.36947174072265625000e+01) (5, 5.41824221611022949219e-01) (6, -5.59053878784179687500e+01) (7, -2.13414144515991210938e+00) (8, -2.91305732727050781250e+00) (9, 2.52337008714675903320e-02) (10, -1.87607026100158691406e+00) (11, 2.09302806854248046875e+01) (12, 4.70759201049804687500e+01) (13, -2.04125919342041015625e+01) (14, 1.16477644443511962891e+00) (15, -5.77706260681152343750e+01) (16, -7.01292495727539062500e+01) (17, 2.14502162933349609375e+01) (18, -4.31625938415527343750e+01) (19, -3.24908518791198730469e+00) (20, 3.53154253959655761719e+00) (21, 7.07102060317993164062e+00) (0, 9.45872402191162109375e+00) (1, -6.87925529479980468750e+00) (2, 1.96625289916992187500e+01) (3, -2.07244415283203125000e+01) (4, 4.41766405105590820312e+00) (5, -3.45227622985839843750e+01) (6, -4.60034065246582031250e+01) (7, -2.85780849456787109375e+01) (8, -1.78073940277099609375e+01) (9, 4.34117393493652343750e+01) (10, 1.57796611785888671875e+01) (11, 1.21463298797607421875e+01) (12, -3.10143527984619140625e+01) (13, -3.78572082519531250000e+01) (14, 2.56054000854492187500e+01) (15, 1.90346469879150390625e+01) (16, 3.46030578613281250000e+01) (17, -4.81663417816162109375e+00) (18, 1.01804599761962890625e+01) (19, 2.29747257232666015625e+01) (20, -6.98499908447265625000e+01) (21, -2.78155231475830078125e+01) (0, -1.01749229431152343750e+01) (1, -1.85760383605957031250e+01) (2, -4.70791015625000000000e+01) (3, -1.98736190795898437500e+01) (4, 1.34527626037597656250e+01) (5, 9.89580726623535156250e+00) (6, -1.03844013214111328125e+01) (7, -8.31469039916992187500e+01) (8, -9.67756881713867187500e+01) (9, -6.49794082641601562500e+01) (10, -1.05651035308837890625e+01) (11, -3.03885116577148437500e+01) (12, 1.74048957824707031250e+01) (13, -2.61621112823486328125e+01) (14, 4.42821931838989257812e+00) (15, -1.42532997131347656250e+01) (16, -1.11657981872558593750e+01) (17, -2.80418262481689453125e+01) (18, -3.69950408935546875000e+01) (19, 4.98481750488281250000e+01) (20, -4.94251441955566406250e+00) (21, 2.86334381103515625000e+01) (0, 1.41300706863403320312e+01) (1, 3.74950981140136718750e+01) (2, -3.40964202880859375000e+01) (3, 1.04830352783203125000e+02) (4, -3.20346832275390625000e+01) (5, -5.83368072509765625000e+01) (6, -2.75109519958496093750e+01) (7, -6.02500305175781250000e+01) (8, -5.64633293151855468750e+01) (9, 3.44144892692565917969e+00) (10, 1.63745346069335937500e+01) (11, 2.96334686279296875000e+01) (12, 9.49948272705078125000e+01) (13, 9.07399444580078125000e+01) (14, -1.10955696105957031250e+01) (15, -2.01294231414794921875e+00) (16, -1.40975046157836914062e+01) (17, -3.60352249145507812500e+01) (18, -4.05597038269042968750e+01) (19, -5.41546344757080078125e+00) (20, -9.90145206451416015625e+00) (21, 5.67568111419677734375e+00) (0, -2.04669513702392578125e+01) (1, 3.70429444313049316406e+00) (2, 7.72763824462890625000e+00) (3, 2.25185966491699218750e+00) (4, 2.33602085113525390625e+01) (5, 6.49875335693359375000e+01) (6, 2.99550399780273437500e+01) (7, 1.56866321563720703125e+01) (8, -3.57484855651855468750e+01) (9, -4.26525840759277343750e+01) (10, -4.25059013366699218750e+01) (11, -3.27409019470214843750e+01) (12, -6.98963499069213867188e+00) (13, 4.85898494720458984375e+00) (14, -3.88231163024902343750e+01) (15, 3.05684261322021484375e+01) (16, 5.53744087219238281250e+01) (17, 2.54853553771972656250e+01) (18, -1.28358421325683593750e+01) (19, -8.02811682224273681641e-01) (20, 1.10635738372802734375e+01) (21, 1.01210269927978515625e+01) (0, 2.85591735839843750000e+01) (1, 1.85292091369628906250e+01) (2, 1.59114637374877929688e+01) (3, 1.77071323394775390625e+01) (4, 5.09636993408203125000e+01) (5, -5.15437459945678710938e+00) (6, 3.04571914672851562500e+00) (7, -2.40440416336059570312e+00) (8, -1.19328193664550781250e+01) (9, -6.65941619873046875000e+00) (10, 3.37107467651367187500e+01) (11, 1.82267684936523437500e+01) (12, 3.32222671508789062500e+01) (13, -9.61296367645263671875e+00) (14, 3.56067504882812500000e+01) (15, 2.61652278900146484375e+01) (16, 3.11196575164794921875e+01) (17, 4.20363807678222656250e+01) (18, -8.82734680175781250000e+00) (19, 2.27046756744384765625e+01) (20, -3.52864418029785156250e+01) (21, -9.93911437988281250000e+01) (0, -3.64156265258789062500e+01) (1, -8.92846298217773437500e+00) (2, 1.45922160148620605469e+00) (3, -1.40835464000701904297e+00) (4, -1.75936355590820312500e+01) (5, 2.95891990661621093750e+01) (6, -4.97596931457519531250e+01) (7, 2.00669784545898437500e+01) (8, 2.78983097076416015625e+01) (9, 1.29408292770385742188e+01) (10, -2.15592174530029296875e+01) (11, -1.91636924743652343750e+01) (12, -1.30178747177124023438e+01) (13, -2.94162201881408691406e+00) (14, -1.26600065231323242188e+01) (15, 2.53994274139404296875e+01) (16, 4.68795318603515625000e+01) (17, -1.65128231048583984375e+01) (18, -7.54000854492187500000e+01) (19, 1.22293624877929687500e+01) (20, 1.48120088577270507812e+01) (21, 2.14690700173377990723e-01) (0, 2.03917503356933593750e+01) (1, 3.53624839782714843750e+01) (2, 2.61380825042724609375e+01) (3, 1.58060522079467773438e+01) (4, 5.67369346618652343750e+01) (5, 6.16781413555145263672e-01) (6, -1.49494771957397460938e+01) (7, 5.36166715621948242188e+00) (8, -2.25839557647705078125e+01) (9, -2.92695331573486328125e+01) (10, 2.81464538574218750000e+01) (11, 7.25109148025512695312e+00) (12, 1.91959629058837890625e+01) (13, -2.77609920501708984375e+00) (14, 5.18706474304199218750e+01) (15, 2.94562854766845703125e+01) (16, 4.45798568725585937500e+01) (17, 3.97065811157226562500e+01) (18, -1.42898964881896972656e+00) (19, -3.59232425689697265625e+00) (20, -3.47836189270019531250e+01) (21, -9.53109893798828125000e+01) (0, 5.08827514648437500000e+01) (1, 7.33433609008789062500e+01) (2, 5.39932365417480468750e+01) (3, 2.30915427207946777344e+00) (4, 8.46989593505859375000e+01) (5, 2.61978111267089843750e+01) (6, 5.20003280639648437500e+01) (7, -2.32762107849121093750e+01) (8, -3.25296516418457031250e+01) (9, -3.39519882202148437500e+01) (10, 2.79271144866943359375e+01) (11, 3.34256019592285156250e+01) (12, 7.51835250854492187500e+00) (13, 2.98344211578369140625e+01) (14, 5.80320549011230468750e+00) (15, 9.43058967590332031250e+00) (16, 3.59143600463867187500e+01) (17, 1.09430068969726562500e+02) (18, 4.06343917846679687500e+01) (19, -6.05904045104980468750e+01) (20, 3.90308570861816406250e+01) (21, -3.35026855468750000000e+01) (0, 8.55746841430664062500e+00) (1, -6.27247381210327148438e+00) (2, -4.12667894363403320312e+00) (3, 3.28320503234863281250e+00) (4, -4.28911552429199218750e+01) (5, -1.18224802017211914062e+01) (6, -8.85867416858673095703e-01) (7, -8.91555595397949218750e+00) (8, 1.62912101745605468750e+01) (9, 1.50707445144653320312e+01) (10, -2.19867820739746093750e+01) (11, -2.65764198303222656250e+01) (12, -1.41883020401000976562e+01) (13, -7.66123199462890625000e+00) (14, -4.07604980468750000000e+01) (15, -2.60773124694824218750e+01) (16, -3.96027755737304687500e+01) (17, -2.75209789276123046875e+01) (18, 2.18376522064208984375e+01) (19, -1.12301182746887207031e+00) (20, 4.41647415161132812500e+01) (21, 8.19005661010742187500e+01) (0, 3.53701667785644531250e+01) (1, 1.14283132553100585938e+01) (2, -4.63628273010253906250e+01) (3, 2.19582424163818359375e+01) (4, 3.81492004394531250000e+01) (5, -1.22231817245483398438e+01) (6, 4.54396476745605468750e+01) (7, -1.04311256408691406250e+01) (8, 2.26781787872314453125e+01) (9, -9.51598167419433593750e+00) (10, -1.19562606811523437500e+01) (11, 1.11310844421386718750e+01) (12, 3.01387958526611328125e+01) (13, -5.76172409057617187500e+01) (14, -1.26745748519897460938e+00) (15, 1.81505279541015625000e+01) (16, 2.85137748718261718750e+00) (17, 9.02883815765380859375e+00) (18, 1.43201673030853271484e+00) (19, -7.99720306396484375000e+01) (20, 2.85269546508789062500e+01) (21, -6.05010318756103515625e+00) (0, -1.54784452915191650391e+00) (1, 3.93183784484863281250e+01) (2, -2.22420063018798828125e+01) (3, 3.79294357299804687500e+01) (4, 1.20853414535522460938e+01) (5, 2.86939296722412109375e+01) (6, 3.89297628402709960938e+00) (7, 1.54152858257293701172e+00) (8, -1.01141843795776367188e+01) (9, -3.20660552978515625000e+01) (10, -1.27253017425537109375e+01) (11, -2.41040172576904296875e+01) (12, -5.94813728332519531250e+01) (13, 1.64514598846435546875e+01) (14, -1.83682231903076171875e+01) (15, 2.55540428161621093750e+01) (16, 4.62879180908203125000e+01) (17, -3.82319564819335937500e+01) (18, -8.82188186645507812500e+01) (19, -1.98697910308837890625e+01) (20, 3.38640719652175903320e-01) (21, 1.82671794891357421875e+01) (0, -2.89087142944335937500e+01) (1, -1.18663375854492187500e+02) (2, -2.02585964202880859375e+01) (3, -9.40374221801757812500e+01) (4, -3.20450172424316406250e+01) (5, -7.78065872192382812500e+01) (6, 2.14697284698486328125e+01) (7, -3.45374412536621093750e+01) (8, 1.47072057723999023438e+01) (9, 3.97315521240234375000e+01) (10, 4.77080059051513671875e+00) (11, 3.19638290405273437500e+01) (12, -7.76625595092773437500e+01) (13, -7.29408798217773437500e+01) (14, 1.58761072158813476562e+01) (15, -9.08013916015625000000e+00) (16, -1.89237670898437500000e+01) (17, 1.74624931812286376953e+00) (18, -3.68996696472167968750e+01) (19, 6.22458610534667968750e+01) (20, -4.68283081054687500000e+00) (21, -7.41259622573852539062e+00) (0, -1.94806194305419921875e+01) (1, 3.14512577056884765625e+01) (2, 2.73245143890380859375e+01) (3, -2.02049942016601562500e+01) (4, 6.56701898574829101562e+00) (5, 4.95800437927246093750e+01) (6, -2.65598392486572265625e+01) (7, -4.05273513793945312500e+01) (8, 2.38590373992919921875e+01) (9, 3.89220962524414062500e+01) (10, 4.02438049316406250000e+01) (11, 2.31420364379882812500e+01) (12, -4.01970443725585937500e+01) (13, -3.61393585205078125000e+01) (14, -3.52376246452331542969e+00) (15, -1.18140439987182617188e+01) (16, 4.49811096191406250000e+01) (17, 1.50597038269042968750e+01) (18, -5.47079505920410156250e+01) (19, 1.50722396850585937500e+02) (20, 3.96628189086914062500e+01) (21, 8.74735450744628906250e+00) (0, 2.49367065429687500000e+01) (1, 3.72556648254394531250e+01) (2, 3.19473323822021484375e+01) (3, -1.04987554550170898438e+01) (4, 3.80102272033691406250e+01) (5, -9.84116897583007812500e+01) (6, -1.24124931335449218750e+02) (7, 1.57948188781738281250e+01) (8, 8.39914226531982421875e+00) (9, -9.10104215145111083984e-01) (10, 6.41080551147460937500e+01) (11, 3.53111495971679687500e+01) (12, -2.85384235382080078125e+01) (13, -9.10035400390625000000e+01) (14, 1.32825145721435546875e+01) (15, 3.59220314025878906250e+01) (16, 3.87782897949218750000e+01) (17, 9.85445175170898437500e+01) (18, 5.61811113357543945312e+00) (19, -4.27862358093261718750e+01) (20, -1.38501272201538085938e+01) (21, -4.00846939086914062500e+01) (0, -3.58541226387023925781e+00) (1, -6.62852239608764648438e+00) (2, -5.09848327636718750000e+01) (3, 3.86187248229980468750e+01) (4, -4.82063636779785156250e+01) (5, -3.09981594085693359375e+01) (6, -3.46914100646972656250e+01) (7, -2.22515296936035156250e+01) (8, -1.98530304431915283203e+00) (9, 1.01592683792114257812e+00) (10, 1.06000566482543945312e+00) (11, -1.24268856048583984375e+01) (12, 2.87914085388183593750e+01) (13, 5.31206245422363281250e+01) (14, -2.20822944641113281250e+01) (15, -1.04616155624389648438e+01) (16, -7.97349500656127929688e+00) (17, -8.85669612884521484375e+00) (18, -7.32138347625732421875e+00) (19, -3.15012817382812500000e+01) (20, 5.24699211120605468750e+00) (21, 1.50187435150146484375e+01) (0, 6.01297225952148437500e+01) (1, 3.94530982971191406250e+01) (2, -3.27483634948730468750e+01) (3, -4.14449310302734375000e+01) (4, 6.30293960571289062500e+01) (5, -5.65400581359863281250e+01) (6, -9.76961326599121093750e+00) (7, 4.22351226806640625000e+01) (8, 1.24200611114501953125e+01) (9, -6.95677709579467773438e+00) (10, -1.27993984222412109375e+01) (11, 3.92793579101562500000e+01) (12, 1.69479036331176757812e+00) (13, -4.04068984985351562500e+01) (14, 8.93052482604980468750e+00) (15, 1.89419746398925781250e+01) (16, -2.80524330139160156250e+01) (17, 2.92720909118652343750e+01) (18, 2.61476898193359375000e+01) (19, 1.04533996582031250000e+02) (20, -3.20572280883789062500e+01) (21, -3.33006515502929687500e+01) (0, -6.38045005798339843750e+01) (1, -7.48669815063476562500e+01) (2, -4.42608299255371093750e+01) (3, -3.21486854553222656250e+01) (4, -1.96545314788818359375e+01) (5, 5.74036827087402343750e+01) (6, 4.60088777542114257812e+00) (7, -2.37099952697753906250e+01) (8, 1.84836518764495849609e+00) (9, 2.29654731750488281250e+01) (10, 2.55232906341552734375e+01) (11, 2.09752082824707031250e+00) (12, 3.06710529327392578125e+01) (13, 4.06550178527832031250e+01) (14, -1.61864509582519531250e+01) (15, -5.43402862548828125000e+01) (16, -4.00767707824707031250e+00) (17, -2.21516819000244140625e+01) (18, -3.22639961242675781250e+01) (19, 5.77526397705078125000e+01) (20, 6.47838020324707031250e+00) (21, 8.67118358612060546875e+00) (0, -2.88428001403808593750e+01) (1, -1.14959821701049804688e+01) (2, -2.58468513488769531250e+01) (3, -2.51496067047119140625e+01) (4, 3.52316594123840332031e+00) (5, -5.42559547424316406250e+01) (6, -5.91998519897460937500e+01) (7, -3.64504313468933105469e+00) (8, -1.28608055114746093750e+01) (9, -8.39944076538085937500e+00) (10, 3.25968712568283081055e-01) (11, 1.96384601593017578125e+01) (12, 1.89521297812461853027e-01) (13, 7.79603481292724609375e+00) (14, -2.88047075271606445312e+00) (15, 1.71706676483154296875e+01) (16, -2.54212379455566406250e+00) (17, 8.26876068115234375000e+00) (18, -1.70716571807861328125e+01) (19, -7.36413526535034179688e+00) (20, 6.98473548889160156250e+00) (21, 1.78165645599365234375e+01) (0, -9.62324714660644531250e+00) (1, 5.75789184570312500000e+01) (2, 4.91069450378417968750e+01) (3, 5.21761398315429687500e+01) (4, -2.61068763732910156250e+01) (5, 3.79044303894042968750e+01) (6, -5.27263975143432617188e+00) (7, 5.26994285583496093750e+01) (8, 6.74417572021484375000e+01) (9, 1.65318279266357421875e+01) (10, 9.01093196868896484375e+00) (11, 4.03694421052932739258e-01) (12, 3.91131744384765625000e+01) (13, 1.22061693668365478516e+00) (14, -1.33015499114990234375e+01) (15, -2.69373817443847656250e+01) (16, -4.06714210510253906250e+01) (17, 4.15920219421386718750e+01) (18, 4.60723876953125000000e+01) (19, 1.74092495441436767578e+00) (20, 3.53245353698730468750e+01) (21, 1.34540796279907226562e+01) (0, 1.12907934188842773438e+01) (1, -5.24527091979980468750e+01) (2, -4.64549522399902343750e+01) (3, -2.18358650207519531250e+01) (4, -4.55286254882812500000e+01) (5, 1.44385662078857421875e+01) (6, 7.66202306747436523438e+00) (7, -2.83314571380615234375e+01) (8, -3.24087982177734375000e+01) (9, -5.93071031570434570312e+00) (10, -1.68766098022460937500e+01) (11, -5.62177896499633789062e+00) (12, 2.77954330444335937500e+01) (13, 8.57402515411376953125e+00) (14, -2.09001197814941406250e+01) (15, -1.54129343032836914062e+01) (16, 6.56726002693176269531e-01) (17, 2.28337211608886718750e+01) (18, 4.14857521057128906250e+01) (19, -9.35850677490234375000e+01) (20, 1.14699935913085937500e+01) (21, 9.87276649475097656250e+00) (0, -7.97959661483764648438e+00) (1, -9.60363998413085937500e+01) (2, -1.08684234619140625000e+02) (3, 3.94423179626464843750e+01) (4, -2.57650985717773437500e+01) (5, 5.76706409454345703125e+00) (6, -2.69036407470703125000e+01) (7, 2.76479768753051757812e+00) (8, 4.36491966247558593750e-01) (9, -4.02591180801391601562e+00) (10, 5.16970710754394531250e+01) (11, 3.35074043273925781250e+01) (12, 3.02248077392578125000e+01) (13, -2.22068328857421875000e+01) (14, -5.84966957569122314453e-01) (15, 2.68798637390136718750e+01) (16, 4.06828536987304687500e+01) (17, 1.56804723739624023438e+01) (18, -3.07407073974609375000e+01) (19, -2.81034493446350097656e+00) (20, -2.74431171417236328125e+01) (21, 2.33779525756835937500e+01) (0, 4.49638223648071289062e+00) (1, 1.56124315261840820312e+01) (2, 4.05546035766601562500e+01) (3, -3.20883140563964843750e+01) (4, -1.66973316669464111328e+00) (5, -1.25953102111816406250e+01) (6, -3.15463161468505859375e+01) (7, -4.47473487854003906250e+01) (8, -7.87179946899414062500e+01) (9, -6.18276329040527343750e+01) (10, 1.41427898406982421875e+01) (11, 5.22017326354980468750e+01) (12, 2.90360050201416015625e+01) (13, 2.64852161407470703125e+01) (14, 1.29014873504638671875e+01) (15, 1.73606109619140625000e+01) (16, 4.60368394851684570312e+00) (17, 2.40966453552246093750e+01) (18, -2.27466411590576171875e+01) (19, -1.63469219207763671875e+01) (20, -3.47752494812011718750e+01) (21, -1.74659385681152343750e+01) (0, 1.97276759147644042969e+00) (1, -3.67363548278808593750e+01) (2, 1.17697877883911132812e+01) (3, -2.29141712188720703125e+01) (4, 7.90385818481445312500e+00) (5, 2.18496627807617187500e+01) (6, 3.52166481018066406250e+01) (7, 2.56202335357666015625e+01) (8, 1.99314537048339843750e+01) (9, -9.39579010009765625000e+00) (10, 1.47123880386352539062e+01) (11, 7.21085596084594726562e+00) (12, -5.81233749389648437500e+01) (13, 3.48794975280761718750e+01) (14, 2.35617694854736328125e+01) (15, 1.03283233642578125000e+01) (16, 2.44134864807128906250e+01) (17, 3.95214080810546875000e+01) (18, 1.59584581851959228516e+00) (19, -2.49246764183044433594e+00) (20, -3.12135257720947265625e+01) (21, -1.32713146209716796875e+01) (0, -3.45272903442382812500e+01) (1, -4.43372764587402343750e+01) (2, -5.53864364624023437500e+01) (3, 9.15375709533691406250e+00) (4, -2.29841365814208984375e+01) (5, 3.12155704498291015625e+01) (6, 5.50940704345703125000e+01) (7, 3.33757591247558593750e+01) (8, 3.13869810104370117188e+00) (9, 2.87258586883544921875e+01) (10, -1.54075181484222412109e+00) (11, -1.46303472518920898438e+01) (12, 2.73821234703063964844e+00) (13, -8.22342777252197265625e+00) (14, 2.43384671211242675781e+00) (15, -6.07594566345214843750e+01) (16, -2.81557865142822265625e+01) (17, 1.50817048549652099609e+00) (18, 1.46562159061431884766e+00) (19, -4.51521015167236328125e+00) (20, 1.61336727142333984375e+01) (21, 1.57356595993041992188e+01) (0, -5.86112642288208007812e+00) (1, -4.47701911926269531250e+01) (2, 3.08588290214538574219e+00) (3, 3.71070289611816406250e+00) (4, -3.29126548767089843750e+01) (5, 3.12524566650390625000e+01) (6, 2.55484981536865234375e+01) (7, -3.20602760314941406250e+01) (8, 4.14377784729003906250e+00) (9, 7.56774282455444335938e+00) (10, 2.12121677398681640625e+01) (11, 8.82501888275146484375e+00) (12, -1.79753458499908447266e+00) (13, 4.18880004882812500000e+01) (14, 1.80498409271240234375e+01) (15, 2.51355304718017578125e+01) (16, 2.81179828643798828125e+01) (17, 1.85161571502685546875e+01) (18, -1.24636220932006835938e+01) (19, 6.96178588867187500000e+01) (20, -1.74177970886230468750e+01) (21, -1.56243009567260742188e+01) (0, -2.83929862976074218750e+01) (1, 1.18662595748901367188e+01) (2, 6.55067443847656250000e+00) (3, -1.50364980697631835938e+01) (4, -3.71541442871093750000e+01) (5, -3.42971382141113281250e+01) (6, -2.03815631866455078125e+01) (7, -2.35233726501464843750e+01) (8, -3.33604202270507812500e+01) (9, 2.01402454376220703125e+01) (10, -8.94905090332031250000e+00) (11, 1.10874974727630615234e+00) (12, 2.77373480796813964844e+00) (13, -1.17851696014404296875e+01) (14, -3.17412090301513671875e+00) (15, -2.09444293975830078125e+01) (16, -4.12223358154296875000e+01) (17, -9.10257530212402343750e+00) (18, 6.44001007080078125000e+00) (19, -2.21765041351318359375e+01) (20, 3.95354247093200683594e+00) (21, 2.35247306823730468750e+01) (0, -8.17978572845458984375e+00) (1, 1.34466571807861328125e+01) (2, 1.35676712036132812500e+02) (3, 4.53905820846557617188e+00) (4, 1.22492618560791015625e+01) (5, 7.02857055664062500000e+01) (6, -9.31620979309082031250e+00) (7, -9.04948139190673828125e+00) (8, -8.18960762023925781250e+00) (9, -6.13703536987304687500e+01) (10, -3.75443344116210937500e+01) (11, -1.86625499725341796875e+01) (12, 2.27940692901611328125e+01) (13, -1.91588420867919921875e+01) (14, -3.39841995239257812500e+01) (15, 4.66258859634399414062e+00) (16, 3.43290710449218750000e+01) (17, 1.88648662567138671875e+01) (18, -2.02943992614746093750e+01) (19, -1.73382549285888671875e+01) (20, -3.38534698486328125000e+01) (21, 1.40753726959228515625e+01) (0, -2.07561060786247253418e-01) (1, 5.28682518005371093750e+00) (2, 1.75657405853271484375e+01) (3, 8.81383514404296875000e+00) (4, -1.88550834655761718750e+01) (5, 4.84314498901367187500e+01) (6, 5.63753623962402343750e+01) (7, 2.57461566925048828125e+01) (8, 6.69437866210937500000e+01) (9, 4.64967460632324218750e+01) (10, -1.73624801635742187500e+01) (11, -1.30678672790527343750e+01) (12, -9.38752269744873046875e+00) (13, -2.51684703826904296875e+01) (14, -6.12401056289672851562e+00) (15, -4.33159904479980468750e+01) (16, -3.81463699340820312500e+01) (17, -9.07980422973632812500e+01) (18, -7.55472030639648437500e+01) (19, 1.07159614562988281250e+00) (20, -1.19330568313598632812e+01) (21, 1.21600894927978515625e+01) (0, -2.19091415405273437500e+01) (1, -2.30282878875732421875e+00) (2, -1.53842341899871826172e+00) (3, -1.07393112182617187500e+01) (4, -3.97491645812988281250e+01) (5, -1.03343570232391357422e+00) (6, 1.92712364196777343750e+01) (7, 3.84288978576660156250e+00) (8, 3.36099386215209960938e+00) (9, 3.58095550537109375000e+00) (10, -1.78158588409423828125e+01) (11, 1.11559257507324218750e+01) (12, 3.94240522384643554688e+00) (13, 2.60568499565124511719e+00) (14, -4.68406906127929687500e+01) (15, -1.41661920547485351562e+01) (16, -1.10122337341308593750e+01) (17, -2.19013767242431640625e+01) (18, -6.75849533081054687500e+00) (19, -1.31759519577026367188e+01) (20, 3.14695701599121093750e+01) (21, 6.28142318725585937500e+01) (0, 3.79406318664550781250e+01) (1, 4.33015403747558593750e+01) (2, -1.47303876876831054688e+01) (3, 1.94671554565429687500e+01) (4, 3.36948127746582031250e+01) (5, 1.12534866333007812500e+01) (6, 2.62691426277160644531e+00) (7, -1.16684141159057617188e+01) (8, -1.97066040039062500000e+01) (9, -1.16159086227416992188e+01) (10, 7.40844154357910156250e+00) (11, -7.22826480865478515625e+00) (12, -4.36086797714233398438e+00) (13, 2.57752475738525390625e+01) (14, 2.02943172454833984375e+01) (15, 6.09537601470947265625e+00) (16, 2.37180137634277343750e+01) (17, -5.20872993469238281250e+01) (18, 1.36141242980957031250e+01) (19, -4.16843185424804687500e+01) (20, -4.84090766906738281250e+01) (21, 1.12896032333374023438e+01) (0, -4.08013648986816406250e+01) (1, 4.32752342224121093750e+01) (2, 1.98584346771240234375e+01) (3, 7.79128799438476562500e+01) (4, -6.44710998535156250000e+01) (5, -2.26405448913574218750e+01) (6, -3.23688735961914062500e+01) (7, 2.23643469810485839844e+00) (8, 2.42056102752685546875e+01) (9, 1.20282335281372070312e+01) (10, -2.25271816253662109375e+01) (11, 1.54953498840332031250e+01) (12, 3.51030578613281250000e+01) (13, 1.28335943222045898438e+01) (14, -1.41525125503540039062e+01) (15, -7.71304988861083984375e+00) (16, 8.80500602722167968750e+00) (17, 1.44417419433593750000e+01) (18, -4.00353927612304687500e+01) (19, -6.53360443115234375000e+01) (20, 3.25908279418945312500e+01) (21, 1.93900966644287109375e+01) (0, -4.47740898132324218750e+01) (1, 1.91920814514160156250e+01) (2, 6.35201148986816406250e+01) (3, -6.48458862304687500000e+01) (4, -2.57386131286621093750e+01) (5, 1.59453382492065429688e+01) (6, -2.70341396331787109375e+01) (7, -1.17682437896728515625e+01) (8, -2.47808856964111328125e+01) (9, -2.04765625000000000000e+01) (10, -7.26474761962890625000e+01) (11, -3.92500000000000000000e+01) (12, 1.14157972335815429688e+01) (13, 1.07895364761352539062e+01) (14, -8.60169792175292968750e+00) (15, 2.18231487274169921875e+01) (16, 3.74482994079589843750e+01) (17, -1.17737569808959960938e+01) (18, 9.29239940643310546875e+00) (19, 6.34256172180175781250e+01) (20, 1.43532621860504150391e+00) (21, 2.49506568908691406250e+01) (0, 5.68036766052246093750e+01) (1, -1.78259410858154296875e+01) (2, -5.55684089660644531250e+01) (3, 1.88407115936279296875e+01) (4, -4.08165245056152343750e+01) (5, 3.24716758728027343750e+01) (6, -4.79134216308593750000e+01) (7, 5.02351303100585937500e+01) (8, 1.03220336914062500000e+02) (9, 1.46855652332305908203e+00) (10, -1.89271697998046875000e+01) (11, -2.73876228332519531250e+01) (12, -7.24410629272460937500e+01) (13, -3.74724617004394531250e+01) (14, -3.69075889587402343750e+01) (15, 5.29924058914184570312e+00) (16, 1.21889078617095947266e+00) (17, 2.11110782623291015625e+00) (18, 2.22747249603271484375e+01) (19, 1.76389732360839843750e+01) (20, 1.23167765140533447266e+00) (21, 6.13950061798095703125e+00) (0, 4.06609115600585937500e+01) (1, 4.29237861633300781250e+01) (2, -1.30556554794311523438e+01) (3, 3.06594467163085937500e+01) (4, 1.07254325866699218750e+02) (5, 4.44141082763671875000e+01) (6, 9.50445785522460937500e+01) (7, 1.22015058994293212891e+00) (8, 6.34087038040161132812e+00) (9, -1.55473546981811523438e+01) (10, -1.86427307128906250000e+01) (11, -6.68245458602905273438e+00) (12, 3.19086017608642578125e+01) (13, 1.83238906860351562500e+01) (14, -2.38745193481445312500e+01) (15, -3.43980598449707031250e+00) (16, 1.59351377487182617188e+01) (17, -2.47447071075439453125e+01) (18, 2.61926746368408203125e+01) (19, -3.08091621398925781250e+01) (20, 2.54152774810791015625e+01) (21, 1.81277427673339843750e+01) (0, -6.77871627807617187500e+01) (1, 3.45601997375488281250e+01) (2, -6.46737442016601562500e+01) (3, 1.42668838500976562500e+01) (4, 2.00172843933105468750e+01) (5, -6.98522796630859375000e+01) (6, -1.04913558959960937500e+01) (7, 2.69956989288330078125e+01) (8, 8.95809326171875000000e+01) (9, 8.14704589843750000000e+01) (10, -7.00303077697753906250e-01) (11, -1.27834787368774414062e+01) (12, -4.83273811340332031250e+01) (13, -4.24828491210937500000e+01) (14, -1.39990615844726562500e+01) (15, -7.58544015884399414062e+00) (16, -8.95263862609863281250e+00) (17, 9.94048976898193359375e+00) (18, 5.96185760498046875000e+01) (19, -3.38042411804199218750e+01) (20, 1.39950599670410156250e+01) (21, 5.30592441558837890625e-01) (0, -2.70104432106018066406e+00) (1, -1.30396051406860351562e+01) (2, -2.49809951782226562500e+01) (3, -7.50518465042114257812e+00) (4, 5.17230272293090820312e+00) (5, 1.74114894866943359375e+01) (6, 1.18086414337158203125e+01) (7, 1.87654895782470703125e+01) (8, -3.06986370086669921875e+01) (9, 1.16812477111816406250e+01) (10, 2.12650241851806640625e+01) (11, 3.66332092285156250000e+01) (12, 4.72444686889648437500e+01) (13, 1.77007198333740234375e+01) (14, 2.93026981353759765625e+01) (15, -1.38396043777465820312e+01) (16, -3.30089416503906250000e+01) (17, 3.92359352111816406250e+01) (18, 9.45266532897949218750e+00) (19, 4.77957382202148437500e+01) (20, -1.84078998565673828125e+01) (21, -1.59778842926025390625e+01) (0, -1.15855274200439453125e+01) (1, 8.14448852539062500000e+01) (2, 2.85400428771972656250e+01) (3, 4.40390586853027343750e+00) (4, 6.74019241333007812500e+01) (5, 2.54723739624023437500e+01) (6, 4.65078582763671875000e+01) (7, -1.78376817703247070312e+00) (8, 2.96331462860107421875e+01) (9, 6.85191059112548828125e+00) (10, 2.49188213348388671875e+01) (11, 7.64026463031768798828e-01) (12, -9.78734588623046875000e+00) (13, 4.58908939361572265625e+00) (14, 6.28358221054077148438e+00) (15, 2.39164104461669921875e+01) (16, 4.70860557556152343750e+01) (17, -2.63288917541503906250e+01) (18, 2.31307678222656250000e+01) (19, 4.71516914367675781250e+01) (20, 3.08368282318115234375e+01) (21, -4.65293884277343750000e+01) (0, -3.07058944702148437500e+01) (1, 2.43782463073730468750e+01) (2, -1.06246322631835937500e+02) (3, 9.71249465942382812500e+01) (4, 1.77518424987792968750e+01) (5, 3.81467399597167968750e+01) (6, 1.05725288391113281250e+01) (7, -4.56714391708374023438e+00) (8, -2.45337829589843750000e+01) (9, -2.53641567230224609375e+01) (10, 2.03954181671142578125e+01) (11, 1.13865594863891601562e+01) (12, 5.85853004455566406250e+01) (13, 3.11558074951171875000e+01) (14, -2.34095001220703125000e+00) (15, -5.03308982849121093750e+01) (16, -3.67259063720703125000e+01) (17, -8.34534912109375000000e+01) (18, -5.25028572082519531250e+01) (19, 9.43569755554199218750e+00) (20, -2.61408367156982421875e+01) (21, -4.88494253158569335938e+00) (0, -1.10307989120483398438e+01) (1, 6.06676368713378906250e+01) (2, 1.88281230926513671875e+01) (3, 4.84836530685424804688e+00) (4, 9.05357971191406250000e+01) (5, 1.47272291183471679688e+01) (6, 2.82908225059509277344e+00) (7, -2.45375990867614746094e+00) (8, -2.88986587524414062500e+01) (9, -1.39351921081542968750e+01) (10, -8.38293361663818359375e+00) (11, -2.98093795776367187500e+01) (12, -6.76000671386718750000e+01) (13, -3.49946632385253906250e+01) (14, 1.38776559829711914062e+01) (15, 2.38963279724121093750e+01) (16, 5.79150085449218750000e+01) (17, -4.88572120666503906250e+01) (18, -1.25825233459472656250e+01) (19, 7.15129318237304687500e+01) (20, -5.45304336547851562500e+01) (21, 3.04578304290771484375e+00) (0, 4.96910667419433593750e+01) (1, 4.22398986816406250000e+01) (2, 2.03955669403076171875e+01) (3, 3.93998107910156250000e+01) (4, -9.97807693481445312500e+00) (5, -4.82487449645996093750e+01) (6, -4.54983444213867187500e+01) (7, 4.09108085632324218750e+01) (8, 4.83165969848632812500e+01) (9, -1.89754257202148437500e+01) (10, 1.58426456451416015625e+01) (11, 2.67471027374267578125e+00) (12, -2.63622932434082031250e+01) (13, 1.72882652282714843750e+01) (14, 6.32966995239257812500e-01) (15, 8.01944285631179809570e-02) (16, 1.16223182678222656250e+01) (17, 1.94687366485595703125e+01) (18, 3.03743247985839843750e+01) (19, -4.33788728713989257812e+00) (20, -1.90747165679931640625e+01) (21, -1.22868289947509765625e+01) (0, -4.75584125518798828125e+00) (1, -1.31748794555664062500e+02) (2, -4.73593622446060180664e-01) (3, -1.75972232818603515625e+01) (4, 4.87048912048339843750e+01) (5, -4.13286476135253906250e+01) (6, 1.80152664184570312500e+01) (7, 9.56410503387451171875e+00) (8, 4.09291152954101562500e+01) (9, 9.27651519775390625000e+01) (10, -6.49234008789062500000e+00) (11, -6.58824110031127929688e+00) (12, -1.68973255157470703125e+01) (13, 1.90039863586425781250e+01) (14, 1.71617565155029296875e+01) (15, -2.82700233459472656250e+01) (16, -8.54822692871093750000e+01) (17, 7.08601808547973632812e+00) (18, 1.83923339843750000000e+01) (19, -1.75462329387664794922e+00) (20, 6.73130607604980468750e+00) (21, -3.27325177192687988281e+00) (0, -1.07792119979858398438e+01) (1, -2.63708152770996093750e+01) (2, 7.87251615524291992188e+00) (3, -3.68443832397460937500e+01) (4, -3.13136386871337890625e+01) (5, -4.02032327651977539062e+00) (6, -2.70870018005371093750e+01) (7, 3.86820864677429199219e+00) (8, 4.93796958923339843750e+01) (9, 8.40487194061279296875e+00) (10, 1.79800033569335937500e+00) (11, 5.51053524017333984375e-01) (12, 1.98332443237304687500e+01) (13, 2.43873653411865234375e+01) (14, -2.80882143974304199219e+00) (15, -5.40079879760742187500e+01) (16, -4.32618217468261718750e+01) (17, -2.79412555694580078125e+01) (18, -1.60048980712890625000e+01) (19, 2.39229717254638671875e+01) (20, 9.46277332305908203125e+00) (21, 3.23504867553710937500e+01) (0, -1.21344318389892578125e+01) (1, 9.92465209960937500000e+01) (2, 1.62326679229736328125e+01) (3, 6.54057693481445312500e+01) (4, 1.34183397293090820312e+01) (5, 4.26532554626464843750e+01) (6, 4.11335983276367187500e+01) (7, 4.70650978386402130127e-02) (8, -5.33105239868164062500e+01) (9, -6.97589340209960937500e+01) (10, -1.20656929016113281250e+01) (11, 6.00873613357543945312e+00) (12, 5.29677085876464843750e+01) (13, 8.46831588745117187500e+01) (14, 1.93627662658691406250e+01) (15, -1.67516689300537109375e+01) (16, 1.15660810470581054688e+01) (17, -4.23423881530761718750e+01) (18, 6.04484252929687500000e+01) (19, -7.80072174072265625000e+01) (20, -7.12312173843383789062e+00) (21, 2.08633079528808593750e+01) (0, -2.72145023345947265625e+01) (1, 6.04135055541992187500e+01) (2, -1.99187068939208984375e+01) (3, -2.39330005645751953125e+01) (4, -1.84182338714599609375e+01) (5, 6.16374359130859375000e+01) (6, -9.48989772796630859375e+00) (7, 5.40011367797851562500e+01) (8, -2.88910751342773437500e+01) (9, -5.81379051208496093750e+01) (10, 1.09565944671630859375e+01) (11, 6.85928201675415039062e+00) (12, 9.95336303710937500000e+01) (13, 5.60966377258300781250e+01) (14, 4.36339169740676879883e-01) (15, -1.75172328948974609375e+01) (16, -2.83887119293212890625e+01) (17, -9.67719116210937500000e+01) (18, -1.02559310913085937500e+02) (19, 9.42253265380859375000e+01) (20, -3.54520589113235473633e-01) (21, 9.10656356811523437500e+00) (0, 3.88007316589355468750e+01) (1, 3.03681335449218750000e+01) (2, 6.04035568237304687500e+01) (3, 3.89261436462402343750e+01) (4, 3.21492614746093750000e+01) (5, 1.89923706054687500000e+01) (6, 6.74234542846679687500e+01) (7, 3.54385643005371093750e+01) (8, 1.24743133544921875000e+02) (9, 8.86850357055664062500e+01) (10, 1.53893861770629882812e+01) (11, -1.05598325729370117188e+01) (12, -3.05184707641601562500e+01) (13, -8.62000122070312500000e+01) (14, -9.36075305938720703125e+00) (15, 1.36336660385131835938e+01) (16, 2.41699810028076171875e+01) (17, 3.40693817138671875000e+01) (18, -5.38713684082031250000e+01) (19, 9.70172576904296875000e+01) (20, 1.74659938812255859375e+01) (21, -4.55562553405761718750e+01) (0, 5.63240957260131835938e+00) (1, -1.12705039978027343750e+01) (2, 4.23448324203491210938e+00) (3, -8.71749782562255859375e+00) (4, 1.21917104721069335938e+01) (5, 2.44197058677673339844e+00) (6, 5.45468559265136718750e+01) (7, 1.13868055343627929688e+01) (8, 8.67324829101562500000e+00) (9, 2.70224418640136718750e+01) (10, -1.83955249786376953125e+01) (11, 8.86677646636962890625e+00) (12, -4.45384073257446289062e+00) (13, -3.26198601722717285156e+00) (14, -3.65340781211853027344e+00) (15, 3.26102371215820312500e+01) (16, 1.09445695877075195312e+01) (17, -1.03316342830657958984e+00) (18, -3.86625823974609375000e+01) (19, 6.19326353073120117188e+00) (20, -1.73950424194335937500e+01) (21, -2.67319083213806152344e-01) (0, -2.18511414527893066406e+00) (1, 2.40971832275390625000e+01) (2, 6.08701992034912109375e+00) (3, -1.60253620147705078125e+01) (4, 7.75738525390625000000e+01) (5, -3.36800193786621093750e+01) (6, -3.89034538269042968750e+01) (7, -8.15152168273925781250e+00) (8, -1.31637263298034667969e+00) (9, -1.63597831726074218750e+01) (10, 3.18590641021728515625e+01) (11, 2.16823978424072265625e+01) (12, 3.91827812194824218750e+01) (13, 3.56139450073242187500e+01) (14, 1.20874719619750976562e+01) (15, 1.18674373626708984375e+01) (16, 2.37529106140136718750e+01) (17, -2.09423656463623046875e+01) (18, -4.52088594436645507812e+00) (19, 1.71274757385253906250e+01) (20, 3.00844502449035644531e+00) (21, -3.40494270324707031250e+01) (0, 7.64123916625976562500e+00) (1, -5.73012542724609375000e+01) (2, 7.27165365219116210938e+00) (3, 3.61191825866699218750e+01) (4, -1.64274806976318359375e+01) (5, 7.08375015258789062500e+01) (6, 3.86621551513671875000e+01) (7, -6.30622062683105468750e+01) (8, 5.18893623352050781250e+00) (9, 5.20617179870605468750e+01) (10, -3.13430385589599609375e+01) (11, -1.83491687774658203125e+01) (12, -6.83249902725219726562e+00) (13, 1.30142393112182617188e+01) (14, 3.10836238861083984375e+01) (15, 2.51629467010498046875e+01) (16, 4.30945816040039062500e+01) (17, 2.96119480133056640625e+01) (18, 3.17664318084716796875e+01) (19, -3.72963142395019531250e+01) (20, -2.87354183197021484375e+01) (21, -1.20805015563964843750e+01) (0, 7.89009714126586914062e+00) (1, -2.27895488739013671875e+01) (2, 1.68879032135009765625e+01) (3, 1.84796962738037109375e+01) (4, -7.18652677536010742188e+00) (5, 3.09303903579711914062e+00) (6, 2.70710220336914062500e+01) (7, -5.35028915405273437500e+01) (8, -3.05515975952148437500e+01) (9, -1.52240285873413085938e+01) (10, 1.28040819168090820312e+01) (11, 1.70167675018310546875e+01) (12, 3.40581016540527343750e+01) (13, 6.92580490112304687500e+01) (14, 2.18827323913574218750e+01) (15, -6.05209231376647949219e-01) (16, 3.05618834495544433594e+00) (17, 2.92705593109130859375e+01) (18, -3.51326713562011718750e+01) (19, -2.29856605529785156250e+01) (20, 8.61647796630859375000e+00) (21, 6.49522733688354492188e+00) (0, 3.52458267211914062500e+01) (1, 5.43878364562988281250e+01) (2, 1.96664867401123046875e+01) (3, 3.83141517639160156250e+01) (4, 3.75620956420898437500e+01) (5, 2.07968940734863281250e+01) (6, -3.36286544799804687500e+01) (7, 1.84300088882446289062e+00) (8, -3.86532783508300781250e+01) (9, -7.09414825439453125000e+01) (10, -2.91374416351318359375e+01) (11, -4.39817848205566406250e+01) (12, 4.12405281066894531250e+01) (13, 3.44654083251953125000e+01) (14, -5.38152427673339843750e+01) (15, -1.88092136383056640625e+01) (16, -1.11413602828979492188e+01) (17, 9.74975585937500000000e+00) (18, 1.68496112823486328125e+01) (19, -7.29261445999145507812e+00) (20, 1.81007671356201171875e+01) (21, 2.90560092926025390625e+01) (0, -2.27033481597900390625e+01) (1, 4.27679557800292968750e+01) (2, 1.53921222686767578125e+01) (3, 5.19053125381469726562e+00) (4, 3.34696626663208007812e+00) (5, -4.26803512573242187500e+01) (6, -3.37793290615081787109e-01) (7, 2.26314144134521484375e+01) (8, 2.01969089508056640625e+01) (9, 2.05020580291748046875e+01) (10, -1.34214200973510742188e+01) (11, -9.93568897247314453125e+00) (12, -4.90098953247070312500e+01) (13, -3.45240631103515625000e+01) (14, 5.42049932479858398438e+00) (15, 1.33754358291625976562e+01) (16, 1.63776378631591796875e+01) (17, -7.77346878051757812500e+01) (18, -2.28845996856689453125e+01) (19, 4.39677286148071289062e+00) (20, 5.98791897296905517578e-01) (21, -8.46218204498291015625e+00) (0, -1.28166170120239257812e+01) (1, 6.13277292251586914062e+00) (2, -8.18452262878417968750e+00) (3, -1.87509403228759765625e+01) (4, 1.34993333816528320312e+01) (5, -3.29358077049255371094e+00) (6, 2.54897365570068359375e+01) (7, -3.11316299438476562500e+01) (8, -2.37403678894042968750e+00) (9, -1.32818078994750976562e+00) (10, 5.35056266784667968750e+01) (11, 3.13972625732421875000e+01) (12, 8.54138374328613281250e+00) (13, 1.78680217266082763672e+00) (14, 2.74907445907592773438e+00) (15, 1.51480646133422851562e+01) (16, 1.25184087753295898438e+01) (17, 9.88521862030029296875e+00) (18, -4.01007156372070312500e+01) (19, 3.28560104370117187500e+01) (20, 5.88715076446533203125e+00) (21, 3.98600745201110839844e+00) (0, -3.14885540008544921875e+01) (1, -1.59634625911712646484e+00) (2, -2.40219383239746093750e+01) (3, -2.33147296905517578125e+01) (4, 3.47078323364257812500e+01) (5, 9.35867011547088623047e-01) (6, -3.40311199426651000977e-01) (7, 1.26583385467529296875e+01) (8, -3.62791290283203125000e+01) (9, -2.67901725769042968750e+01) (10, 2.11982307434082031250e+01) (11, 7.54274797439575195312e+00) (12, 5.42696876525878906250e+01) (13, 1.22718343734741210938e+01) (14, 2.00860252380371093750e+01) (15, -1.33523559570312500000e+01) (16, 3.89205217361450195312e+00) (17, 6.24576377868652343750e+01) (18, 4.17756614685058593750e+01) (19, 7.19666976928710937500e+01) (20, 5.81241111755371093750e+01) (21, -4.91192907094955444336e-01) (0, 2.51033096313476562500e+01) (1, 1.22004669189453125000e+02) (2, -8.95820331573486328125e+00) (3, 6.28191146850585937500e+01) (4, 4.37862739562988281250e+01) (5, 5.33297157287597656250e+01) (6, 3.84918098449707031250e+01) (7, 1.63743877410888671875e+01) (8, 8.07379436492919921875e+00) (9, -3.91866035461425781250e+01) (10, -1.41942567825317382812e+01) (11, -3.11228637695312500000e+01) (12, 2.61799888610839843750e+01) (13, 2.25274372100830078125e+01) (14, -5.63829765319824218750e+01) (15, -1.01472826004028320312e+01) (16, 3.26288185119628906250e+01) (17, -3.79096674919128417969e+00) (18, -1.20865452289581298828e+00) (19, -6.89821853637695312500e+01) (20, -4.69969291687011718750e+01) (21, 3.03433036804199218750e+01) (0, 4.88388023376464843750e+01) (1, 2.27004337310791015625e+01) (2, -1.62232418060302734375e+01) (3, 9.80269470214843750000e+01) (4, 1.06019840240478515625e+01) (5, 1.59104480743408203125e+01) (6, -2.79708156585693359375e+01) (7, 1.20290594100952148438e+01) (8, -2.63697719573974609375e+01) (9, -4.38994674682617187500e+01) (10, -4.24955463409423828125e+00) (11, -3.59558486938476562500e+00) (12, 3.70921173095703125000e+01) (13, -3.05313358306884765625e+01) (14, 1.55476319789886474609e+00) (15, -1.02699079513549804688e+01) (16, 4.31610822677612304688e-01) (17, -2.24396777153015136719e+00) (18, -6.65284395217895507812e+00) (19, -1.06117721557617187500e+02) (20, -2.81289119720458984375e+01) (21, 6.45408964157104492188e+00) (0, -6.69925546646118164062e+00) (1, -4.69838380813598632812e+00) (2, -8.65234947204589843750e+00) (3, 4.82066535949707031250e+00) (4, 4.83542060852050781250e+01) (5, 2.50702190399169921875e+00) (6, -3.39840126037597656250e+00) (7, 7.63236045837402343750e+00) (8, -3.34931716918945312500e+01) (9, -4.52891616821289062500e+01) (10, 1.32873573303222656250e+01) (11, -5.96907377243041992188e+00) (12, -1.15239725112915039062e+01) (13, 8.86537456512451171875e+00) (14, -2.83202195167541503906e+00) (15, 3.80085258483886718750e+01) (16, 4.02624206542968750000e+01) (17, -2.19857482910156250000e+01) (18, -3.90236206054687500000e+01) (19, 8.39115524291992187500e+00) (20, 1.14397583007812500000e+01) (21, 9.95430850982666015625e+00) (0, -2.65355396270751953125e+01) (1, 4.08142852783203125000e+01) (2, 7.58390731811523437500e+01) (3, -2.37487869262695312500e+01) (4, -1.28678237915039062500e+02) (5, 9.84318923950195312500e+01) (6, 6.17969131469726562500e+01) (7, -2.36650257110595703125e+01) (8, 1.66835536956787109375e+01) (9, 8.24098205566406250000e+00) (10, -5.00162200927734375000e+01) (11, -7.27099304199218750000e+01) (12, -6.37064170837402343750e+01) (13, -5.87885971069335937500e+01) (14, -1.90696887969970703125e+01) (15, 1.20158553123474121094e+00) (16, 2.48336219787597656250e+01) (17, -3.72421836853027343750e+01) (18, -5.51591634750366210938e+00) (19, -6.32580220699310302734e-01) (20, 1.69483242034912109375e+01) (21, 3.49114913940429687500e+01) (0, 1.43981094360351562500e+01) (1, 3.26918258666992187500e+01) (2, -6.18221549987792968750e+01) (3, 3.16951389312744140625e+01) (4, -2.19712200164794921875e+01) (5, -1.95047473907470703125e+01) (6, 2.84692420959472656250e+01) (7, -2.57195453643798828125e+01) (8, -2.30411930084228515625e+01) (9, -1.98939018249511718750e+01) (10, 3.53496894836425781250e+01) (11, 2.83398609161376953125e+01) (12, -3.02837810516357421875e+01) (13, -2.13651866912841796875e+01) (14, 3.93032722473144531250e+01) (15, 2.45508003234863281250e+01) (16, 8.83909320831298828125e+00) (17, 1.10375604629516601562e+01) (18, -8.20651245117187500000e+01) (19, 6.79513702392578125000e+01) (20, -1.20961427688598632812e+01) (21, -6.71344089508056640625e+00) (0, -8.86010456085205078125e+00) (1, 1.02470989227294921875e+01) (2, 1.84030055999755859375e+01) (3, -4.09290924072265625000e+01) (4, -1.40420217514038085938e+01) (5, 1.84269866943359375000e+01) (6, 2.01836071014404296875e+01) (7, 1.83136501312255859375e+01) (8, -1.11943664550781250000e+01) (9, 1.40748643875122070312e+01) (10, -1.39392309188842773438e+01) (11, 1.71019959449768066406e+00) (12, 3.23789858818054199219e+00) (13, 1.49790716171264648438e+01) (14, 8.46286964416503906250e+00) (15, -1.86949386596679687500e+01) (16, 3.61006402969360351562e+00) (17, 5.04506921768188476562e+00) (18, 9.56321411132812500000e+01) (19, 1.62348728179931640625e+01) (20, 4.14627990722656250000e+01) (21, 4.19149112701416015625e+00) (0, 9.04477119445800781250e+00) (1, -1.00196409225463867188e+01) (2, 9.74464988708496093750e+00) (3, -4.54350948333740234375e+00) (4, 8.74333381652832031250e+00) (5, -2.71879539489746093750e+01) (6, -3.32582855224609375000e+01) (7, 3.12670379877090454102e-01) (8, -1.28567485809326171875e+01) (9, -1.63812675476074218750e+01) (10, 8.17978515625000000000e+01) (11, 8.77986297607421875000e+01) (12, -1.01313753128051757812e+01) (13, -7.06832456588745117188e+00) (14, -7.00139236450195312500e+00) (15, -1.97805652618408203125e+01) (16, -1.06671457290649414062e+01) (17, -2.27469997406005859375e+01) (18, -2.83949031829833984375e+01) (19, 4.91050567626953125000e+01) (20, 2.65825080871582031250e+01) (21, -2.18161869049072265625e+01) (0, -3.09449539184570312500e+01) (1, 7.26038360595703125000e+01) (2, 8.18762969970703125000e+01) (3, -1.93328118324279785156e+00) (4, 1.92171440124511718750e+01) (5, -6.96573028564453125000e+01) (6, -7.87939596176147460938e+00) (7, -2.62018699645996093750e+01) (8, 4.37800407409667968750e+00) (9, -3.95774960517883300781e+00) (10, -1.83609313964843750000e+01) (11, -3.46033744812011718750e+01) (12, -2.13940582275390625000e+01) (13, -3.63043022155761718750e+01) (14, -9.69048881530761718750e+00) (15, 2.93039569854736328125e+01) (16, 1.52639846801757812500e+01) (17, -6.23949146270751953125e+00) (18, 8.64050445556640625000e+01) (19, -6.74022750854492187500e+01) (20, 2.97884178161621093750e+01) (21, -3.49975752830505371094e+00) (0, 6.98443527221679687500e+01) (1, -1.02874633789062500000e+02) (2, -2.32313213348388671875e+01) (3, -7.10840749740600585938e+00) (4, 1.21657348632812500000e+02) (5, -7.09266128540039062500e+01) (6, -8.82788772583007812500e+01) (7, 3.42540454864501953125e+00) (8, 2.10422534942626953125e+01) (9, 5.96733627319335937500e+01) (10, -2.80302143096923828125e+01) (11, -3.72994766235351562500e+01) (12, 6.20143699645996093750e+01) (13, -1.93447055816650390625e+01) (14, 1.63599376678466796875e+01) (15, 1.69500675201416015625e+01) (16, 1.94024715423583984375e+01) (17, 2.07424942016601562500e+02) (18, 3.92016143798828125000e+01) (19, 6.78155364990234375000e+01) (20, -8.97034835815429687500e+00) (21, -3.80967636108398437500e+01) (0, 1.48310403823852539062e+01) (1, -2.39672889709472656250e+01) (2, -5.35426473617553710938e+00) (3, 1.10418655395507812500e+02) (4, -3.29532356262207031250e+01) (5, -2.57121353149414062500e+01) (6, -3.42198867797851562500e+01) (7, -1.19584760665893554688e+01) (8, -3.16844749450683593750e+01) (9, -6.56297912597656250000e+01) (10, 6.12939491271972656250e+01) (11, 5.54953575134277343750e+01) (12, -2.75427665710449218750e+01) (13, 8.14794540405273437500e+00) (14, 1.06227121353149414062e+01) (15, -7.93356084823608398438e+00) (16, -3.59088935852050781250e+01) (17, 1.70623111724853515625e+01) (18, 1.59244794845581054688e+01) (19, 1.93009948730468750000e+00) (20, 1.23122701644897460938e+01) (21, -2.25998706817626953125e+01) (0, -2.69131088256835937500e+01) (1, 2.10116767883300781250e+01) (2, 7.42662954330444335938e+00) (3, -7.64449119567871093750e+00) (4, -1.43756622314453125000e+02) (5, 7.69857978820800781250e+00) (6, -3.39600872993469238281e+00) (7, 2.49703483581542968750e+01) (8, 1.05961029052734375000e+02) (9, -2.18311619758605957031e+00) (10, -2.95327377319335937500e+00) (11, -1.67926654815673828125e+01) (12, 2.31382999420166015625e+01) (13, 3.40984230041503906250e+01) (14, -9.46005439758300781250e+00) (15, -5.49414062500000000000e+00) (16, 8.78583908081054687500e+00) (17, 3.29294395446777343750e+01) (18, -8.99270343780517578125e+00) (19, 4.05072021484375000000e+01) (20, 5.15366935729980468750e+00) (21, 2.62592430114746093750e+01) (0, -7.72899341583251953125e+00) (1, 5.16916656494140625000e+01) (2, -1.92070674896240234375e+01) (3, -6.17538528442382812500e+01) (4, 7.33389816284179687500e+01) (5, -2.00096225738525390625e+01) (6, 3.88462600708007812500e+01) (7, 1.45233860015869140625e+01) (8, 2.02412071228027343750e+01) (9, 3.51518554687500000000e+01) (10, -6.19364356994628906250e+01) (11, -4.66973838806152343750e+01) (12, 2.19095573425292968750e+01) (13, -7.09330129623413085938e+00) (14, -1.16648197174072265625e+01) (15, -7.03191184997558593750e+00) (16, 7.15644407272338867188e+00) (17, 1.06183624267578125000e+01) (18, 1.05691352844238281250e+02) (19, -1.71920909881591796875e+01) (20, -2.84816145896911621094e+00) (21, -4.25269889831542968750e+00) (22, -1.24099454879760742188e+01) (23, 1.17422113418579101562e+01) (24, -3.29724621772766113281e+00) (25, -2.37703418731689453125e+00) (26, 5.18701314926147460938e+00) (27, 5.79317903518676757812e+00) (28, 2.02403116226196289062e+00) (29, -4.57998800277709960938e+00) (30, 1.53931295871734619141e+00) (31, -7.45397233963012695312e+00) (32, 1.23424768447875976562e+01) (33, -7.43814420700073242188e+00) (34, -5.19052088260650634766e-01) (35, 1.18027433753013610840e-01) (36, -1.00177669525146484375e+00) (37, 4.06888246536254882812e+00) (38, 4.44945287704467773438e+00) (39, 3.25590014457702636719e-01) (40, -9.69177722930908203125e+00) (41, 8.03767085075378417969e-01) (42, -3.17511868476867675781e+00) (43, -1.28473320007324218750e+01) (44, -8.50253462791442871094e-01) (45, 3.40226864814758300781e+00) (46, 3.33750653266906738281e+00) (47, -3.03428292274475097656e+00) (48, -5.96180105209350585938e+00) (49, -2.91054844856262207031e+00) (50, -1.60749206542968750000e+01) (51, 4.44725418090820312500e+00) (52, -1.18970479965209960938e+01) (53, -1.74040424823760986328e+00) (54, -9.31949329376220703125e+00) (55, 1.53897304534912109375e+01) (56, -1.00943965911865234375e+01) (57, 1.36251983642578125000e+01) (58, 5.66568899154663085938e+00) (59, 1.43392972946166992188e+01) (60, -7.75316572189331054688e+00) (61, 9.28023242950439453125e+00) (62, 1.43195238113403320312e+01) (63, -3.60278677940368652344e+00) (64, 1.28953945636749267578e+00) (65, -6.35489606857299804688e+00) (66, 1.15480470657348632812e+00) (67, -1.20616798400878906250e+01) (68, -1.07587976455688476562e+01) (69, -8.68866539001464843750e+00) (70, -1.11981973648071289062e+01) (71, -1.71831760406494140625e+01) (72, -2.06735992431640625000e+00) (73, -1.02351808547973632812e+00) (74, 5.07717466354370117188e+00) (75, 6.23538827896118164062e+00) (76, 6.02736997604370117188e+00) (77, 6.65977048873901367188e+00) (78, 9.36320781707763671875e+00) (79, -1.31304883956909179688e+00) (80, 3.56239295005798339844e+00) (81, 1.73528575897216796875e+01) (82, 7.30151033401489257812e+00) (83, 1.64440383911132812500e+01) (84, 1.76997232437133789062e+00) (85, -1.57458038330078125000e+01) (86, -6.53679990768432617188e+00) (87, -3.92021107673645019531e+00) (88, 8.65576839447021484375e+00) (89, 2.04381656646728515625e+01) (90, -1.04200563430786132812e+01) (91, -8.29537010192871093750e+00) (92, 1.61083185672760009766e+00) (93, 5.81777715682983398438e+00) (94, -3.87889218330383300781e+00) (95, -2.41783499717712402344e+00) (96, -1.54633843898773193359e+00) (97, 1.73722610473632812500e+01) (98, -5.31833505630493164062e+00) (99, -4.53656554222106933594e-01) (100, 4.15836143493652343750e+00) (101, 4.80066633224487304688e+00) (102, -7.27050065994262695312e+00) (103, 4.77486515045166015625e+00) (104, 1.17390203475952148438e+01) (105, -1.49119272232055664062e+01) (106, -6.56724309921264648438e+00) (107, -8.24093723297119140625e+00) (108, -5.22058248519897460938e+00) (109, -9.19335260987281799316e-02) (110, -2.20479989051818847656e+00) (111, -1.27888317108154296875e+01) (112, 1.09377994537353515625e+01) (113, 1.18352019786834716797e+00) (114, 3.51288962364196777344e+00) (115, 5.08095216751098632812e+00) (116, -4.12470531463623046875e+00) (117, 7.84237051010131835938e+00) (118, -1.70660161972045898438e+00) (119, -5.82916975021362304688e+00) (120, 1.40666413307189941406e+00) (121, 6.67124748229980468750e+00) (122, 2.30794167518615722656e+00) (123, 1.69153583049774169922e+00) (124, 9.66263389587402343750e+00) (125, 2.07423591613769531250e+00) (126, -1.32096433639526367188e+01) (127, -9.38551044464111328125e+00) (128, 6.31288671493530273438e+00) (129, 4.17576169967651367188e+00) (130, 5.25601243972778320312e+00) (131, -5.85190153121948242188e+00) (132, 4.18058586120605468750e+00) (133, 7.54174327850341796875e+00) (134, 8.01567459106445312500e+00) (135, -1.15285420417785644531e+00) (136, 5.42139172554016113281e-01) (137, -1.41099452972412109375e+01) (138, 1.03373661041259765625e+01) (139, -1.39747905731201171875e+00) (140, -2.28806591033935546875e+00) (141, -9.92112255096435546875e+00) (142, -1.46266222000122070312e+01) (22, -1.67467975616455078125e+01) (23, 3.68726205825805664062e+00) (24, 1.84541487693786621094e+00) (25, 9.86014556884765625000e+00) (26, 8.08283901214599609375e+00) (27, 1.00198898315429687500e+01) (28, -2.21834735870361328125e+01) (29, -1.65757427215576171875e+01) (30, 2.12108683586120605469e+00) (31, 1.20342814922332763672e+00) (32, 1.77179927825927734375e+01) (33, 4.32952880859375000000e+00) (34, -1.00446662902832031250e+01) (35, -4.37188339233398437500e+00) (36, 6.14620351791381835938e+00) (37, 6.04403543472290039062e+00) (38, 3.32536125183105468750e+00) (39, -2.11541104316711425781e+00) (40, -8.33766269683837890625e+00) (41, 1.57173547744750976562e+01) (42, -2.12482948303222656250e+01) (43, -1.80574703216552734375e+01) (44, 5.36969089508056640625e+00) (45, 4.39654779434204101562e+00) (46, 