FANN_FLO_2.1
num_layers=3
learning_rate=0.700000
connection_rate=1.000000
network_type=0
learning_momentum=0.400000
training_algorithm=0
train_error_function=1
train_stop_function=0
cascade_output_change_fraction=0.010000
quickprop_decay=-0.000100
quickprop_mu=1.750000
rprop_increase_factor=1.200000
rprop_decrease_factor=0.500000
rprop_delta_min=0.000000
rprop_delta_max=50.000000
rprop_delta_zero=0.100000
cascade_output_stagnation_epochs=12
cascade_candidate_change_fraction=0.010000
cascade_candidate_stagnation_epochs=12
cascade_max_out_epochs=150
cascade_min_out_epochs=50
cascade_max_cand_epochs=150
cascade_min_cand_epochs=50
cascade_num_candidate_groups=2
bit_fail_limit=3.49999994039535522461e-01
cascade_candidate_limit=1.00000000000000000000e+03
cascade_weight_multiplier=4.00000005960464477539e-01
cascade_activation_functions_count=10
cascade_activation_functions=3 5 7 8 10 11 14 15 16 17 
cascade_activation_steepnesses_count=4
cascade_activation_steepnesses=2.50000000000000000000e-01 5.00000000000000000000e-01 7.50000000000000000000e-01 1.00000000000000000000e+00 
layer_sizes=31 61 41 
scale_included=0
neurons (num_inputs, activation_function, activation_steepness)=(0, 0, 0.00000000000000000000e+00) (0, 0, 0.00000000000000000000e+00) (0, 0, 0.00000000000000000000e+00) (0, 0, 0.00000000000000000000e+00) (0, 0, 0.00000000000000000000e+00) (0, 0, 0.00000000000000000000e+00) (0, 0, 0.00000000000000000000e+00) (0, 0, 0.00000000000000000000e+00) (0, 0, 0.00000000000000000000e+00) (0, 0, 0.00000000000000000000e+00) (0, 0, 0.00000000000000000000e+00) (0, 0, 0.00000000000000000000e+00) (0, 0, 0.00000000000000000000e+00) (0, 0, 0.00000000000000000000e+00) (0, 0, 0.00000000000000000000e+00) (0, 0, 0.00000000000000000000e+00) (0, 0, 0.00000000000000000000e+00) (0, 0, 0.00000000000000000000e+00) (0, 0, 0.00000000000000000000e+00) (0, 0, 0.00000000000000000000e+00) (0, 0, 0.00000000000000000000e+00) (0, 0, 0.00000000000000000000e+00) (0, 0, 0.00000000000000000000e+00) (0, 0, 0.00000000000000000000e+00) (0, 0, 0.00000000000000000000e+00) (0, 0, 0.00000000000000000000e+00) (0, 0, 0.00000000000000000000e+00) (0, 0, 0.00000000000000000000e+00) (0, 0, 0.00000000000000000000e+00) (0, 0, 0.00000000000000000000e+00) (0, 0, 0.00000000000000000000e+00) (31, 5, 1.00000000000000000000e+00) (31, 5, 1.00000000000000000000e+00) (31, 5, 1.00000000000000000000e+00) (31, 5, 1.00000000000000000000e+00) (31, 5, 1.00000000000000000000e+00) (31, 5, 1.00000000000000000000e+00) (31, 5, 1.00000000000000000000e+00) (31, 5, 1.00000000000000000000e+00) (31, 5, 1.00000000000000000000e+00) (31, 5, 1.00000000000000000000e+00) (31, 5, 1.00000000000000000000e+00) (31, 5, 1.00000000000000000000e+00) (31, 5, 1.00000000000000000000e+00) (31, 5, 1.00000000000000000000e+00) (31, 5, 1.00000000000000000000e+00) (31, 5, 1.00000000000000000000e+00) (31, 5, 1.00000000000000000000e+00) (31, 5, 1.00000000000000000000e+00) (31, 5, 1.00000000000000000000e+00) (31, 5, 1.00000000000000000000e+00) (31, 5, 1.00000000000000000000e+00) (31, 5, 1.00000000000000000000e+00) (31, 5, 1.00000000000000000000e+00) (31, 5, 1.00000000000000000000e+00) (31, 5, 1.00000000000000000000e+00) (31, 5, 1.00000000000000000000e+00) (31, 5, 1.00000000000000000000e+00) (31, 5, 1.00000000000000000000e+00) (31, 5, 1.00000000000000000000e+00) (31, 5, 1.00000000000000000000e+00) (31, 5, 1.00000000000000000000e+00) (31, 5, 1.00000000000000000000e+00) (31, 5, 1.00000000000000000000e+00) (31, 5, 1.00000000000000000000e+00) (31, 5, 1.00000000000000000000e+00) (31, 5, 1.00000000000000000000e+00) (31, 5, 1.00000000000000000000e+00) (31, 5, 1.00000000000000000000e+00) (31, 5, 1.00000000000000000000e+00) (31, 5, 1.00000000000000000000e+00) (31, 5, 1.00000000000000000000e+00) (31, 5, 1.00000000000000000000e+00) (31, 5, 1.00000000000000000000e+00) (31, 5, 1.00000000000000000000e+00) (31, 5, 1.00000000000000000000e+00) (31, 5, 1.00000000000000000000e+00) (31, 5, 1.00000000000000000000e+00) (31, 5, 1.00000000000000000000e+00) (31, 5, 1.00000000000000000000e+00) (31, 5, 1.00000000000000000000e+00) (31, 5, 1.00000000000000000000e+00) (31, 5, 1.00000000000000000000e+00) (31, 5, 1.00000000000000000000e+00) (31, 5, 1.00000000000000000000e+00) (31, 5, 1.00000000000000000000e+00) (31, 5, 1.00000000000000000000e+00) (31, 5, 1.00000000000000000000e+00) (31, 5, 1.00000000000000000000e+00) (31, 5, 1.00000000000000000000e+00) (31, 5, 1.00000000000000000000e+00) (0, 5, 1.00000000000000000000e+00) (61, 5, 1.00000000000000000000e+00) (61, 5, 1.00000000000000000000e+00) (61, 5, 1.00000000000000000000e+00) (61, 5, 1.00000000000000000000e+00) (61, 5, 1.00000000000000000000e+00) (61, 5, 1.00000000000000000000e+00) (61, 5, 1.00000000000000000000e+00) (61, 5, 1.00000000000000000000e+00) (61, 5, 1.00000000000000000000e+00) (61, 5, 1.00000000000000000000e+00) (61, 5, 1.00000000000000000000e+00) (61, 5, 1.00000000000000000000e+00) (61, 5, 1.00000000000000000000e+00) (61, 5, 1.00000000000000000000e+00) (61, 5, 1.00000000000000000000e+00) (61, 5, 1.00000000000000000000e+00) (61, 5, 1.00000000000000000000e+00) (61, 5, 1.00000000000000000000e+00) (61, 5, 1.00000000000000000000e+00) (61, 5, 1.00000000000000000000e+00) (61, 5, 1.00000000000000000000e+00) (61, 5, 1.00000000000000000000e+00) (61, 5, 1.00000000000000000000e+00) (61, 5, 1.00000000000000000000e+00) (61, 5, 1.00000000000000000000e+00) (61, 5, 1.00000000000000000000e+00) (61, 5, 1.00000000000000000000e+00) (61, 5, 1.00000000000000000000e+00) (61, 5, 1.00000000000000000000e+00) (61, 5, 1.00000000000000000000e+00) (61, 5, 1.00000000000000000000e+00) (61, 5, 1.00000000000000000000e+00) (61, 5, 1.00000000000000000000e+00) (61, 5, 1.00000000000000000000e+00) (61, 5, 1.00000000000000000000e+00) (61, 5, 1.00000000000000000000e+00) (61, 5, 1.00000000000000000000e+00) (61, 5, 1.00000000000000000000e+00) (61, 5, 1.00000000000000000000e+00) (61, 5, 1.00000000000000000000e+00) (0, 5, 1.00000000000000000000e+00) 
connections (connected_to_neuron, weight)=(0, 1.74420074462890625000e+02) (1, 7.98663635253906250000e+01) (2, 3.94361000061035156250e+01) (3, -3.89998626708984375000e+01) (4, 2.02269630432128906250e+01) (5, 1.09049819946289062500e+02) (6, 1.27370521545410156250e+02) (7, 1.80011169433593750000e+02) (8, -4.38808870315551757812e+00) (9, -7.92130508422851562500e+01) (10, -1.46097854614257812500e+02) (11, -2.27161376953125000000e+02) (12, -2.51792465209960937500e+02) (13, -2.22658432006835937500e+02) (14, -1.29678741455078125000e+02) (15, -1.26010528564453125000e+02) (16, 2.13817539215087890625e+01) (17, 1.40127166748046875000e+02) (18, 2.47875213623046875000e+02) (19, 1.28072998046875000000e+02) (20, -7.00752944946289062500e+01) (21, -2.69605560302734375000e+02) (22, -1.08816070556640625000e+02) (23, -1.58626007080078125000e+02) (24, -1.21312339782714843750e+02) (25, 2.26160621643066406250e+00) (26, 5.43529853820800781250e+01) (27, 7.11939163208007812500e+01) (28, 1.68929626464843750000e+02) (29, -3.56029090881347656250e+01) (30, -1.98338027954101562500e+02) (0, 7.85777854919433593750e+00) (1, 5.34360923767089843750e+01) (2, 3.42198883056640625000e+02) (3, -1.46808258056640625000e+02) (4, -1.85353942871093750000e+02) (5, -2.39195938110351562500e+01) (6, -1.57379440307617187500e+02) (7, 1.65708847045898437500e+02) (8, 1.89193649291992187500e+02) (9, 1.13286636352539062500e+02) (10, 1.42744354248046875000e+02) (11, 1.90765441894531250000e+02) (12, 1.76496337890625000000e+02) (13, 1.43128250122070312500e+02) (14, -2.18851989746093750000e+02) (15, -1.43945114135742187500e+02) (16, -1.53712448120117187500e+02) (17, -2.04131179809570312500e+02) (18, -1.41484252929687500000e+02) (19, -1.21754417419433593750e+02) (20, -5.66226816177368164062e+00) (21, 2.54548629760742187500e+02) (22, 2.66613403320312500000e+02) (23, 1.41579650878906250000e+02) (24, -2.71913269042968750000e+02) (25, -9.53910217285156250000e+01) (26, -8.13931579589843750000e+01) (27, -1.32845039367675781250e+01) (28, -1.91004142761230468750e+01) (29, 1.61651748657226562500e+02) (30, 2.36848617553710937500e+02) (0, -5.82807617187500000000e+01) (1, -8.03311767578125000000e+01) (2, -1.51342239379882812500e+02) (3, 3.76184570312500000000e+02) (4, 3.71871734619140625000e+02) (5, -4.51481857299804687500e+01) (6, -2.18277683258056640625e+01) (7, -1.13480773925781250000e+02) (8, -5.95537567138671875000e+01) (9, -1.31820404052734375000e+02) (10, -1.63293930053710937500e+02) (11, -1.80756164550781250000e+02) (12, -1.33627243041992187500e+02) (13, 1.23319368362426757812e+01) (14, 1.28433975219726562500e+02) (15, 1.75689105987548828125e+01) (16, 4.76227378845214843750e+01) (17, 6.28843307495117187500e+01) (18, -5.60704841613769531250e+01) (19, 2.96061553955078125000e+02) (20, 1.44563140869140625000e+02) (21, 6.51979522705078125000e+01) (22, -1.89603591918945312500e+02) (23, -1.08660079956054687500e+02) (24, -3.71377334594726562500e+01) (25, 7.89949493408203125000e+01) (26, -3.12630996704101562500e+01) (27, 1.70925170898437500000e+02) (28, 5.41620559692382812500e+01) (29, -2.32454345703125000000e+02) (30, 1.12629585266113281250e+02) (0, 6.01963348388671875000e+01) (1, -1.30581891536712646484e+00) (2, 3.59709472656250000000e+01) (3, -1.19284324645996093750e+01) (4, 1.10669342041015625000e+02) (5, 2.42016677856445312500e+02) (6, 5.28367195129394531250e+01) (7, 2.90428276062011718750e+01) (8, 1.93712406158447265625e+01) (9, -9.14621124267578125000e+01) (10, 1.54519638061523437500e+02) (11, 1.24745071411132812500e+02) (12, 3.11302814483642578125e+01) (13, 3.08617992401123046875e+01) (14, 2.49905109405517578125e+01) (15, -7.45866470336914062500e+01) (16, -4.54372138977050781250e+01) (17, 4.21420211791992187500e+01) (18, 1.83111267089843750000e+02) (19, 5.31091156005859375000e+01) (20, 1.53962585449218750000e+02) (21, -2.89040088653564453125e+01) (22, -1.64380935668945312500e+02) (23, -4.91053390502929687500e+01) (24, 2.29941833496093750000e+02) (25, -3.19675660133361816406e+00) (26, 2.76889400482177734375e+01) (27, 1.53614913940429687500e+02) (28, 1.87866073608398437500e+02) (29, 3.70242767333984375000e+01) (30, 6.23953369140625000000e+02) (0, -1.76193447113037109375e+01) (1, 3.45878997802734375000e+02) (2, 4.21953399658203125000e+02) (3, -4.04095550537109375000e+02) (4, -5.64962097167968750000e+02) (5, -6.54780151367187500000e+02) (6, -5.66846862792968750000e+02) (7, 7.04234542846679687500e+01) (8, 1.38199752807617187500e+02) (9, -7.43586578369140625000e+01) (10, 2.13468994140625000000e+02) (11, 6.62006530761718750000e+01) (12, 2.28404006958007812500e+02) (13, 1.76662414550781250000e+02) (14, 1.73022018432617187500e+02) (15, 1.32301986694335937500e+02) (16, -7.14458656311035156250e+00) (17, -4.24254379272460937500e+01) (18, -2.47343261718750000000e+02) (19, -1.97452987670898437500e+02) (20, 2.20804321289062500000e+02) (21, 5.97579833984375000000e+02) (22, -9.63324260711669921875e+00) (23, -1.71282897949218750000e+02) (24, -7.98066253662109375000e+01) (25, -6.10831871032714843750e+01) (26, -4.74381523132324218750e+01) (27, 7.38929824829101562500e+01) (28, 8.31835250854492187500e+01) (29, 2.27102035522460937500e+02) (30, -1.99871673583984375000e+02) (0, 1.57257604598999023438e+01) (1, 1.59807800292968750000e+02) (2, 4.18748092651367187500e+01) (3, -2.22067489624023437500e+02) (4, -2.84027770996093750000e+02) (5, 1.14838661193847656250e+02) (6, 2.31882553100585937500e+02) (7, 2.38819015502929687500e+02) (8, 9.92760772705078125000e+01) (9, -9.57349166870117187500e+01) (10, -1.86096725463867187500e+02) (11, -1.07117584228515625000e+02) (12, -2.32851821899414062500e+02) (13, -7.51084365844726562500e+01) (14, 3.63083587646484375000e+02) (15, 1.91496887207031250000e+02) (16, 2.28366882324218750000e+02) (17, 2.07208938598632812500e+02) (18, 5.00966691970825195312e+00) (19, -3.91530578613281250000e+02) (20, 8.88025817871093750000e+01) (21, 1.52950515747070312500e+02) (22, 1.78510971069335937500e+01) (23, 2.11671981811523437500e+02) (24, 1.51038421630859375000e+02) (25, -1.64930953979492187500e+02) (26, -3.04905517578125000000e+02) (27, 5.18730449676513671875e+00) (28, -8.66801300048828125000e+01) (29, 3.22173423767089843750e+01) (30, 2.78036468505859375000e+02) (0, 4.05260467529296875000e+01) (1, -4.68654212951660156250e+01) (2, -2.80185821533203125000e+02) (3, -1.21180908203125000000e+02) (4, -6.10175209045410156250e+01) (5, 7.27000045776367187500e+01) (6, 8.73929824829101562500e+01) (7, 3.14762039184570312500e+01) (8, 7.21387863159179687500e+01) (9, 2.13121063232421875000e+02) (10, 9.88559494018554687500e+01) (11, -4.41235542297363281250e+01) (12, -5.12856521606445312500e+01) (13, 8.56485462188720703125e+00) (14, -6.58574104309082031250e+00) (15, -3.52832679748535156250e+01) (16, 1.08149232864379882812e+01) (17, 1.16901588439941406250e+02) (18, 2.82976104736328125000e+02) (19, 1.28569427490234375000e+02) (20, -8.93423690795898437500e+01) (21, -1.15339981079101562500e+02) (22, -1.19707656860351562500e+02) (23, -1.69762283325195312500e+02) (24, 2.42022857666015625000e+02) (25, 1.84913604736328125000e+02) (26, 2.21332824707031250000e+02) (27, 7.92410049438476562500e+01) (28, 3.33801818847656250000e+02) (29, 1.60469837188720703125e+01) (30, 5.35360717773437500000e+02) (0, 1.84110137939453125000e+02) (1, 2.19970062255859375000e+02) (2, 3.94388465881347656250e+01) (3, 1.19327522277832031250e+02) (4, 6.97252578735351562500e+01) (5, 2.58646514892578125000e+02) (6, 3.33291687011718750000e+02) (7, 1.59853698730468750000e+02) (8, 8.53747558593750000000e+01) (9, -3.32370849609375000000e+02) (10, -2.63920684814453125000e+02) (11, -2.83234954833984375000e+02) (12, -1.05214065551757812500e+02) (13, 1.69577667236328125000e+02) (14, -9.15549373626708984375e+00) (15, -7.64353103637695312500e+01) (16, -8.14662475585937500000e+01) (17, -1.92849273681640625000e+01) (18, -9.80614852905273437500e+01) (19, -1.13326347351074218750e+02) (20, 6.29815101623535156250e+01) (21, 2.48759155273437500000e+02) (22, 2.26233383178710937500e+02) (23, -2.77746124267578125000e+02) (24, -1.08516467285156250000e+03) (25, -3.03261840820312500000e+02) (26, 4.17868690490722656250e+01) (27, 1.58138198852539062500e+02) (28, 4.57008819580078125000e+02) (29, 2.88733215332031250000e+02) (30, 2.87605346679687500000e+02) (0, -3.27047309875488281250e+01) (1, -8.89746932983398437500e+01) (2, -4.38531112670898437500e+01) (3, -1.37208816528320312500e+02) (4, -1.68502990722656250000e+02) (5, -2.85564470291137695312e+00) (6, 2.04709033966064453125e+01) (7, -7.87644653320312500000e+01) (8, -3.95963745117187500000e+01) (9, -7.68500900268554687500e+01) (10, -5.60666542053222656250e+01) (11, -7.11041641235351562500e+00) (12, 4.14189338684082031250e+01) (13, 1.76691619873046875000e+02) (14, 1.33951599121093750000e+02) (15, -4.08386659622192382812e+00) (16, -3.96877861022949218750e+01) (17, -7.44435119628906250000e+01) (18, -5.43957862854003906250e+01) (19, -7.43095016479492187500e+01) (20, 1.08447044372558593750e+02) (21, 2.19891143798828125000e+02) (22, 3.06447052001953125000e+02) (23, 2.04450286865234375000e+02) (24, -4.11628150939941406250e+01) (25, -2.33505828857421875000e+02) (26, -2.63277679443359375000e+02) (27, -1.17455207824707031250e+02) (28, 3.03119445800781250000e+02) (29, 3.70430633544921875000e+02) (30, 1.23444572448730468750e+02) (0, -9.16501647949218750000e+02) (1, -8.43708679199218750000e+02) (2, -1.71197555541992187500e+02) (3, 1.01883720397949218750e+02) (4, 1.46180923461914062500e+02) (5, 3.70605712890625000000e+02) (6, 1.42744674682617187500e+02) (7, -1.48786727905273437500e+02) (8, 2.39706466674804687500e+02) (9, -1.71416778564453125000e+02) (10, -1.45042602539062500000e+03) (11, -1.88581433105468750000e+03) (12, -1.79163500976562500000e+03) (13, -1.91642822265625000000e+02) (14, 1.29252700805664062500e+02) (15, 2.73982513427734375000e+02) (16, 9.47227783203125000000e+02) (17, 5.85124511718750000000e+02) (18, -3.56771484375000000000e+02) (19, 6.34408203125000000000e+02) (20, 1.55338012695312500000e+03) (21, 1.67138635253906250000e+03) (22, 1.06384338378906250000e+03) (23, -2.58003807067871093750e+01) (24, -1.44956161499023437500e+02) (25, 4.18733886718750000000e+02) (26, -4.31113037109375000000e+02) (27, 1.73040209960937500000e+03) (28, 4.36465484619140625000e+02) (29, -1.56999160766601562500e+02) (30, -3.52581274414062500000e+03) (0, -6.40018310546875000000e+01) (1, -3.07952804565429687500e+01) (2, 1.25606979370117187500e+02) (3, -4.20906097412109375000e+02) (4, -2.65414733886718750000e+02) (5, 2.46952606201171875000e+02) (6, -1.50183925628662109375e+01) (7, -8.81463088989257812500e+01) (8, -1.45155029296875000000e+02) (9, -3.86510543823242187500e+01) (10, 1.35825637817382812500e+02) (11, 1.06959724426269531250e+02) (12, 2.62429168701171875000e+02) (13, 6.51061401367187500000e+01) (14, -6.41608352661132812500e+01) (15, -2.99171848297119140625e+01) (16, -4.76206359863281250000e+01) (17, -5.30132331848144531250e+01) (18, -1.09362426757812500000e+02) (19, -1.49984573364257812500e+02) (20, -3.64736671447753906250e+01) (21, 4.73711547851562500000e+01) (22, 1.66896209716796875000e+02) (23, 6.15984039306640625000e+01) (24, -1.68628479003906250000e+02) (25, -2.05991653442382812500e+02) (26, 1.24368873596191406250e+02) (27, -9.27097396850585937500e+01) (28, 2.96284088134765625000e+02) (29, 2.52387969970703125000e+02) (30, -8.84699249267578125000e+01) (0, 1.75579208374023437500e+02) (1, 2.31153411865234375000e+02) (2, 1.45334594726562500000e+02) (3, -4.87056732177734375000e+01) (4, 2.18881816864013671875e+01) (5, 3.00878234863281250000e+02) (6, 5.43925857543945312500e+01) (7, 1.65078372955322265625e+01) (8, -1.66085235595703125000e+02) (9, -1.93328002929687500000e+02) (10, -6.26666564941406250000e+01) (11, -9.37609939575195312500e+01) (12, -2.73691711425781250000e+02) (13, -2.05937561035156250000e+02) (14, -4.00850715637207031250e+01) (15, -1.09362289428710937500e+02) (16, 1.99782123565673828125e+01) (17, 6.39456024169921875000e+01) (18, 1.01888664245605468750e+02) (19, 1.88465393066406250000e+02) (20, 4.02114410400390625000e+02) (21, 5.65934875488281250000e+02) (22, 6.11644248962402343750e+01) (23, -2.80279937744140625000e+02) (24, -6.53215759277343750000e+02) (25, -2.29165527343750000000e+02) (26, -1.88304153442382812500e+02) (27, -1.32597778320312500000e+02) (28, -9.04624080657958984375e+00) (29, -8.19174499511718750000e+01) (30, -8.93176193237304687500e+01) (0, -2.01321395874023437500e+02) (1, -2.54753093719482421875e+01) (2, 1.21987480163574218750e+02) (3, 3.43704345703125000000e+02) (4, 3.60089447021484375000e+02) (5, -3.11537902832031250000e+02) (6, -2.95970397949218750000e+02) (7, 6.68027954101562500000e+01) (8, -1.01030149459838867188e+01) (9, -2.04904708862304687500e+02) (10, -3.74456748962402343750e+01) (11, -1.24519744873046875000e+02) (12, -3.14831390380859375000e+02) (13, -1.59194320678710937500e+02) (14, -4.81567382812500000000e+01) (15, 1.75913238525390625000e+02) (16, 6.12468414306640625000e+01) (17, 9.49320755004882812500e+01) (18, -1.03849420547485351562e+01) (19, 1.01374664306640625000e+02) (20, 1.48789215087890625000e+02) (21, 4.14160400390625000000e+02) (22, 2.57339477539062500000e+02) (23, 2.32708496093750000000e+02) (24, 1.62549316406250000000e+02) (25, -5.75887794494628906250e+01) (26, -4.76051788330078125000e+01) (27, 2.58440795898437500000e+02) (28, -3.05598937988281250000e+02) (29, -3.32517181396484375000e+02) (30, 1.71839752197265625000e+02) (0, 1.22170963287353515625e+01) (1, 1.34731857299804687500e+02) (2, 2.49595687866210937500e+02) (3, 9.18691329956054687500e+01) (4, 7.16996307373046875000e+01) (5, -8.50191688537597656250e+00) (6, 7.51239242553710937500e+01) (7, 2.65792045593261718750e+01) (8, 7.82250289916992187500e+01) (9, -1.54462219238281250000e+02) (10, -5.65979156494140625000e+01) (11, -7.83927202224731445312e+00) (12, 8.17104339599609375000e+01) (13, 1.56408096313476562500e+02) (14, 5.88228187561035156250e+01) (15, -7.41178817749023437500e+01) (16, -1.48178138732910156250e+01) (17, 3.08945045471191406250e+01) (18, 1.03753036499023437500e+02) (19, 1.61883373260498046875e+01) (20, 2.26791915893554687500e+02) (21, 2.20584777832031250000e+02) (22, -9.64161987304687500000e+01) (23, 5.54582786560058593750e+00) (24, -1.56281066894531250000e+02) (25, -1.78369720458984375000e+02) (26, -1.72096881866455078125e+01) (27, 1.01058296203613281250e+02) (28, -9.69269256591796875000e+01) (29, -1.20211532592773437500e+02) (30, 4.62800445556640625000e+02) (0, -1.44683237075805664062e+01) (1, 8.29327964782714843750e+00) (2, -6.99683074951171875000e+01) (3, 1.83389724731445312500e+02) (4, 1.90549728393554687500e+02) (5, 3.21799926757812500000e+02) (6, 4.83920402526855468750e+01) (7, -3.43700897216796875000e+02) (8, -3.12803039550781250000e+02) (9, 1.50864038467407226562e+01) (10, 9.20678634643554687500e+01) (11, 1.31806091308593750000e+02) (12, 1.96452529907226562500e+02) (13, 1.14035720825195312500e+02) (14, 5.10746574401855468750e+01) (15, 7.39162826538085937500e+01) (16, -3.15117111206054687500e+01) (17, -8.62049026489257812500e+01) (18, -1.08930664062500000000e+02) (19, 7.23206253051757812500e+01) (20, -1.49793563842773437500e+02) (21, -2.72318328857421875000e+02) (22, 1.73322601318359375000e+02) (23, 4.22995330810546875000e+02) (24, 4.09699890136718750000e+02) (25, -6.17106971740722656250e+01) (26, -1.34364061355590820312e+01) (27, -3.36667022705078125000e+02) (28, -2.83631652832031250000e+02) (29, -1.47629928588867187500e+02) (30, 9.10836639404296875000e+01) (0, 2.71630821228027343750e+01) (1, -2.10812286376953125000e+02) (2, -2.35750076293945312500e+02) (3, 1.68655456542968750000e+02) (4, 1.72693344116210937500e+02) (5, 1.68200210571289062500e+02) (6, 1.04251693725585937500e+02) (7, 1.06940879821777343750e+01) (8, -3.92585220336914062500e+01) (9, 1.24285173416137695312e+01) (10, -5.89259948730468750000e+01) (11, 5.96471176147460937500e+01) (12, -7.92573242187500000000e+01) (13, -9.85379257202148437500e+01) (14, -1.91955902099609375000e+02) (15, -3.13909378051757812500e+01) (16, 6.96647186279296875000e+01) (17, 1.23117507934570312500e+02) (18, 1.97102111816406250000e+02) (19, 5.93578414916992187500e+01) (20, -1.33065383911132812500e+02) (21, -1.33010696411132812500e+02) (22, 5.42660766601562500000e+02) (23, 3.25425598144531250000e+02) (24, 2.59854354858398437500e+01) (25, -2.16877792358398437500e+02) (26, -9.87513198852539062500e+01) (27, -7.95926437377929687500e+01) (28, 1.07966133117675781250e+02) (29, 1.47347900390625000000e+02) (30, 5.07885223388671875000e+02) (0, 1.06601409912109375000e+02) (1, 1.11352396011352539062e+01) (2, -6.58796920776367187500e+01) (3, 4.81416282653808593750e+01) (4, -8.76104927062988281250e+00) (5, -1.10152267456054687500e+02) (6, -1.62983901977539062500e+02) (7, -2.63002777099609375000e+02) (8, -2.46274200439453125000e+02) (9, -1.22292617797851562500e+02) (10, 4.21908340454101562500e+01) (11, 1.63147933959960937500e+02) (12, 1.00809638977050781250e+02) (13, 1.44534698486328125000e+02) (14, -9.24477386474609375000e+01) (15, -1.89182586669921875000e+01) (16, 3.24293937683105468750e+01) (17, 3.38256311416625976562e+00) (18, -8.27028579711914062500e+01) (19, 1.21134506225585937500e+02) (20, 3.82941467285156250000e+02) (21, 6.41335632324218750000e+02) (22, 3.55782958984375000000e+02) (23, -4.48720794677734375000e+02) (24, -1.15208300781250000000e+03) (25, -3.43317321777343750000e+02) (26, -1.09407081604003906250e+02) (27, -2.24468124389648437500e+02) (28, 9.94772720336914062500e+01) (29, 2.86607879638671875000e+02) (30, -3.94273620605468750000e+02) (0, 3.91996879577636718750e+01) (1, 3.67551536560058593750e+01) (2, -5.91702766418457031250e+01) (3, 2.20465576171875000000e+02) (4, 1.45314041137695312500e+02) (5, 1.57972274780273437500e+02) (6, 2.77911254882812500000e+02) (7, 1.27351760864257812500e+02) (8, 3.27386749267578125000e+02) (9, 9.68230152130126953125e+00) (10, 5.63944892883300781250e+01) (11, 4.90087547302246093750e+01) (12, 5.71235160827636718750e+01) (13, -1.48599243164062500000e+01) (14, 1.95717220306396484375e+01) (15, 3.71429061889648437500e+01) (16, 4.38741912841796875000e+01) (17, -2.19896278381347656250e+01) (18, -3.84377145767211914062e+00) (19, -7.12469329833984375000e+01) (20, 6.97442398071289062500e+01) (21, 1.11153633117675781250e+02) (22, -7.55676956176757812500e+01) (23, 8.72172546386718750000e+01) (24, 8.67351684570312500000e+01) (25, 3.90605239868164062500e+01) (26, -4.93468208312988281250e+01) (27, 1.73976249694824218750e+01) (28, -3.93287200927734375000e+01) (29, -8.91782226562500000000e+01) (30, 1.02170526123046875000e+03) (0, -6.59876022338867187500e+01) (1, -8.49828338623046875000e+01) (2, -2.08199748992919921875e+01) (3, -1.17870697021484375000e+02) (4, -1.52282104492187500000e+02) (5, 8.04304580688476562500e+01) (6, 1.48329916000366210938e+01) (7, 1.17619865417480468750e+02) (8, 1.69576736450195312500e+02) (9, 1.84228042602539062500e+02) (10, -3.92319416999816894531e+00) (11, 3.98085975646972656250e+00) (12, 5.53879966735839843750e+01) (13, 5.33912544250488281250e+01) (14, 8.78090000152587890625e+00) (15, -5.28425483703613281250e+01) (16, -6.52839231491088867188e+00) (17, 1.35274238586425781250e+01) (18, 1.38164993286132812500e+02) (19, 7.97206115722656250000e+01) (20, -6.75546951293945312500e+01) (21, -1.66943939208984375000e+02) (22, -5.71903114318847656250e+01) (23, -1.61095180511474609375e+01) (24, 1.69307388305664062500e+02) (25, 2.33714263916015625000e+02) (26, 1.50641357421875000000e+02) (27, 4.76271209716796875000e+01) (28, 9.50114059448242187500e+01) (29, -4.08910827636718750000e+01) (30, 3.63853942871093750000e+02) (0, 1.13477735519409179688e+01) (1, -9.01039657592773437500e+01) (2, -1.44334396362304687500e+02) (3, 7.62964248657226562500e+01) (4, -6.66185808181762695312e+00) (5, -8.46009292602539062500e+01) (6, 1.06551223754882812500e+02) (7, 1.16801925659179687500e+02) (8, -5.00978660583496093750e+01) (9, -2.00501754760742187500e+02) (10, -2.44208618164062500000e+02) (11, -9.99454727172851562500e+01) (12, -1.39494094848632812500e+02) (13, -4.98522758483886718750e-01) (14, 1.26613464355468750000e+02) (15, -3.21303787231445312500e+01) (16, 1.89599411010742187500e+02) (17, 2.27564361572265625000e+02) (18, 2.81290924072265625000e+02) (19, 3.65967376708984375000e+02) (20, 5.75620002746582031250e+01) (21, 3.17053585052490234375e+01) (22, -1.71602416992187500000e+02) (23, 5.75764045715332031250e+01) (24, -1.74147384643554687500e+02) (25, -2.97182830810546875000e+02) (26, -8.08201293945312500000e+01) (27, 3.97590698242187500000e+02) (28, -5.20559787750244140625e+00) (29, -1.28706146240234375000e+02) (30, 3.56312141418457031250e+01) (0, 8.60059204101562500000e+01) (1, 8.44379959106445312500e+01) (2, -2.40011940002441406250e+01) (3, 1.14922889709472656250e+02) (4, 1.18319046020507812500e+02) (5, -1.23963844299316406250e+02) (6, -1.78359436035156250000e+02) (7, -1.15448661804199218750e+02) (8, -7.60914764404296875000e+01) (9, 1.03588516235351562500e+02) (10, 1.03665027618408203125e+01) (11, 7.12666091918945312500e+01) (12, 3.18503761291503906250e+01) (13, -6.09746646881103515625e+00) (14, -6.67233428955078125000e+01) (15, 1.62971191406250000000e+02) (16, 1.08529300689697265625e+01) (17, 4.84170532226562500000e+00) (18, -1.29867202758789062500e+02) (19, -4.33482574462890625000e+02) (20, -2.83957336425781250000e+02) (21, -2.27250518798828125000e+02) (22, 9.30528182983398437500e+01) (23, -1.94337844848632812500e+02) (24, -1.51148834228515625000e+02) (25, 1.87534942626953125000e+02) (26, 2.61415119171142578125e+01) (27, -1.54549896240234375000e+02) (28, -1.07674667358398437500e+02) (29, 2.95563385009765625000e+02) (30, -4.00558013916015625000e+02) (0, 2.63172702789306640625e+01) (1, 1.13853034973144531250e+01) (2, 1.00958457946777343750e+02) (3, 1.59769683837890625000e+02) (4, 1.78923126220703125000e+02) (5, -1.10554328918457031250e+02) (6, -1.74353591918945312500e+02) (7, -1.34828735351562500000e+02) (8, -7.48411636352539062500e+01) (9, -1.25115364074707031250e+02) (10, 2.21916542053222656250e+01) (11, -7.31799697875976562500e+00) (12, -2.50754146575927734375e+01) (13, -6.37618446350097656250e+00) (14, 3.62595329284667968750e+01) (15, 1.75576953887939453125e+01) (16, -1.19155044555664062500e+01) (17, 9.25774765014648437500e+01) (18, 9.45010833740234375000e+01) (19, 7.29367752075195312500e+01) (20, 2.77279266357421875000e+02) (21, 2.55107040405273437500e+02) (22, -3.74125137329101562500e+01) (23, -2.14527908325195312500e+02) (24, -2.23045997619628906250e+01) (25, 6.28209686279296875000e+01) (26, -1.20531593322753906250e+02) (27, 1.09593612670898437500e+02) (28, 2.23584808349609375000e+02) (29, 7.48263626098632812500e+01) (30, 3.89659179687500000000e+02) (0, 5.78818941116333007812e+00) (1, -6.29774894714355468750e+01) (2, -2.65291870117187500000e+02) (3, 2.27285186767578125000e+02) (4, 2.78742614746093750000e+02) (5, -5.38117179870605468750e+01) (6, 9.37466506958007812500e+01) (7, 1.18153587341308593750e+02) (8, 1.35869110107421875000e+02) (9, 2.54171798706054687500e+02) (10, 4.22380790710449218750e+01) (11, -2.03002619743347167969e+00) (12, -5.50401992797851562500e+01) (13, -1.56810241699218750000e+02) (14, -1.09117965698242187500e+02) (15, 1.12503156661987304688e+01) (16, 5.50743064880371093750e+01) (17, 6.25601615905761718750e+01) (18, 7.99755096435546875000e+01) (19, -3.00131435394287109375e+01) (20, -1.93022155761718750000e+02) (21, -1.81228775024414062500e+02) (22, -1.88886322021484375000e+02) (23, -2.50363723754882812500e+02) (24, 9.71024322509765625000e+01) (25, 3.21675628662109375000e+02) (26, 1.18937889099121093750e+02) (27, -2.14163422584533691406e+00) (28, -7.37521286010742187500e+01) (29, -1.84700073242187500000e+02) (30, 2.28340972900390625000e+02) (0, -6.26326408386230468750e+01) (1, 6.59134292602539062500e+01) (2, 1.79302337646484375000e+02) (3, 2.18379653930664062500e+02) (4, 7.46609268188476562500e+01) (5, -3.92171173095703125000e+02) (6, -2.66470489501953125000e+02) (7, -1.88409988403320312500e+02) (8, -1.95307617187500000000e+01) (9, -7.63059539794921875000e+01) (10, 3.12821846008300781250e+01) (11, 9.29935684204101562500e+01) (12, 2.06126724243164062500e+02) (13, 1.57445053100585937500e+02) (14, 8.98466339111328125000e+01) (15, -1.21481826782226562500e+02) (16, -8.41617889404296875000e+01) (17, -1.47032119750976562500e+02) (18, -1.87215213775634765625e+01) (19, 3.50392578125000000000e+02) (20, 2.28830764770507812500e+02) (21, 1.77559890747070312500e+02) (22, -3.36963958740234375000e+02) (23, -2.39533481597900390625e+01) (24, 2.95412994384765625000e+02) (25, -4.31327972412109375000e+01) (26, 3.28756904602050781250e+01) (27, 1.82954284667968750000e+02) (28, -2.41952255249023437500e+02) (29, -2.67506347656250000000e+02) (30, 1.99372665405273437500e+02) (0, -8.78341979980468750000e+01) (1, -4.48388442993164062500e+01) (2, 2.15715652465820312500e+02) (3, 3.50100463867187500000e+02) (4, 3.83386444091796875000e+02) (5, -2.50372009277343750000e+01) (6, -6.60991821289062500000e+01) (7, -1.64923904418945312500e+02) (8, -2.81588317871093750000e+02) (9, -1.88499618530273437500e+02) (10, 1.12997055053710937500e+02) (11, 2.09911361694335937500e+02) (12, 1.02543087005615234375e+01) (13, -1.23005615234375000000e+02) (14, -2.61429138183593750000e+02) (15, 3.35462341308593750000e+01) (16, -3.38211860656738281250e+01) (17, -8.59161198139190673828e-01) (18, -3.01532459259033203125e+00) (19, 1.50724563598632812500e+02) (20, 1.13139791488647460938e+01) (21, 1.55999252319335937500e+02) (22, 3.07743225097656250000e+02) (23, 1.21778411865234375000e+02) (24, -2.32793624877929687500e+02) (25, -2.57739013671875000000e+02) (26, 1.19546348571777343750e+02) (27, -1.04036979675292968750e+02) (28, -2.40119888305664062500e+02) (29, -1.89611770629882812500e+02) (30, -1.22748359680175781250e+02) (0, -3.61145820617675781250e+01) (1, -4.28703918457031250000e+01) (2, 8.97547607421875000000e+01) (3, 3.05363159179687500000e+02) (4, 1.23806663513183593750e+02) (5, -4.47579498291015625000e+01) (6, -6.09635009765625000000e+01) (7, -2.61977119445800781250e+01) (8, 1.30038421630859375000e+02) (9, -1.32143569946289062500e+02) (10, -6.34187355041503906250e+01) (11, -1.29157609939575195312e+01) (12, 2.23914966583251953125e+01) (13, 1.93598739624023437500e+02) (14, 1.57305618286132812500e+02) (15, 4.96313819885253906250e+01) (16, 3.51352767944335937500e+01) (17, 7.76232223510742187500e+01) (18, 6.07078857421875000000e+01) (19, -1.11251243591308593750e+02) (20, 3.62509193420410156250e+01) (21, 3.72311515808105468750e+01) (22, -7.41498107910156250000e+01) (23, -4.53731613159179687500e+01) (24, 2.08383274078369140625e+01) (25, -2.39021015167236328125e+01) (26, 3.54222908020019531250e+01) (27, 3.11968444824218750000e+02) (28, 3.80563995361328125000e+02) (29, 2.07494827270507812500e+02) (30, 9.61866577148437500000e+02) (0, -1.71983261108398437500e+02) (1, -3.17964202880859375000e+02) (2, -4.19468841552734375000e+01) (3, -7.90493164062500000000e+01) (4, 8.49234771728515625000e+01) (5, -2.83680419921875000000e+02) (6, -4.89858795166015625000e+02) (7, -1.85748748779296875000e+02) (8, -5.96059112548828125000e+01) (9, 1.38599411010742187500e+02) (10, 3.94077087402343750000e+02) (11, 1.78370193481445312500e+02) (12, 4.22867431640625000000e+01) (13, -1.00889411926269531250e+02) (14, -1.83477764129638671875e+01) (15, 3.15126647949218750000e+02) (16, 1.65375671386718750000e+02) (17, 1.01637695312500000000e+02) (18, -1.12490053176879882812e+01) (19, -1.21892730712890625000e+02) (20, -9.59392089843750000000e+01) (21, -3.82785797119140625000e+01) (22, 1.60756484985351562500e+02) (23, 3.41777458190917968750e+01) (24, 5.20132263183593750000e+02) (25, 4.03053863525390625000e+02) (26, 1.91574859619140625000e+01) (27, -1.57119232177734375000e+02) (28, -4.30352630615234375000e+02) (29, -2.09356346130371093750e+01) (30, -2.36859649658203125000e+02) (0, -8.11287658691406250000e+02) (1, -7.47956848144531250000e+02) (2, -5.61196365356445312500e+01) (3, 2.15016342163085937500e+02) (4, 2.46894927978515625000e+02) (5, 4.02804840087890625000e+02) (6, 3.04727691650390625000e+02) (7, 7.17994766235351562500e+01) (8, 4.97801269531250000000e+02) (9, 6.47702026367187500000e+01) (10, -1.46688293457031250000e+03) (11, -1.95572155761718750000e+03) (12, -1.91143273925781250000e+03) (13, -1.74093292236328125000e+02) (14, 2.00719451904296875000e+02) (15, 4.23941986083984375000e+02) (16, 1.10207983398437500000e+03) (17, 6.92096252441406250000e+02) (18, -3.41426300048828125000e+02) (19, 7.63796813964843750000e+02) (20, 1.74350549316406250000e+03) (21, 1.99878552246093750000e+03) (22, 1.28516845703125000000e+03) (23, 8.30597457885742187500e+01) (24, -1.28292480468750000000e+02) (25, 5.49454589843750000000e+02) (26, -3.71169403076171875000e+02) (27, 1.92236987304687500000e+03) (28, 5.33428771972656250000e+02) (29, -2.68460350036621093750e+01) (30, -3.94671337890625000000e+03) (0, -1.64609039306640625000e+02) (1, -2.08427291870117187500e+02) (2, -2.97060184478759765625e+01) (3, -1.72630996704101562500e+02) (4, -8.06533508300781250000e+01) (5, -4.15464935302734375000e+01) (6, 1.37178604125976562500e+02) (7, -3.75159950256347656250e+01) (8, 1.92208042144775390625e+01) (9, 8.52445220947265625000e+00) (10, 1.67398345947265625000e+02) (11, 1.78755752563476562500e+02) (12, 1.65029479980468750000e+02) (13, 4.96414184570312500000e+01) (14, -7.71250762939453125000e+01) (15, 7.41948556900024414062e+00) (16, -1.03790512084960937500e+02) (17, -1.83674331665039062500e+02) (18, -1.46265548706054687500e+02) (19, 2.53570413589477539062e+00) (20, 4.99745597839355468750e+01) (21, -1.60509704589843750000e+02) (22, -7.41211318969726562500e+01) (23, 2.16736587524414062500e+02) (24, 3.04340332031250000000e+02) (25, 1.17193397521972656250e+02) (26, 5.74034423828125000000e+02) (27, 3.40480499267578125000e+02) (28, -8.48290405273437500000e+01) (29, -2.44221557617187500000e+02) (30, 2.21741226196289062500e+02) (0, 1.09295310974121093750e+02) (1, 9.87418594360351562500e+01) (2, 1.96722961425781250000e+02) (3, 6.76068038940429687500e+01) (4, -1.58667419433593750000e+02) (5, -1.57022216796875000000e+02) (6, -1.52815200805664062500e+02) (7, -1.15950447082519531250e+02) (8, -5.60883560180664062500e+01) (9, 4.90742492675781250000e+01) (10, 6.17854309082031250000e+01) (11, 2.23274936676025390625e+01) (12, 6.87467041015625000000e+01) (13, 1.54210708618164062500e+02) (14, -1.31494388580322265625e+01) (15, -2.09694080352783203125e+01) (16, -2.87278747558593750000e+01) (17, -1.41966724395751953125e+01) (18, -2.75742454528808593750e+01) (19, -7.33305816650390625000e+01) (20, 4.19814834594726562500e+01) (21, 3.14771270751953125000e+02) (22, 2.84264984130859375000e+02) (23, -2.19362030029296875000e+02) (24, -7.56620056152343750000e+02) (25, -3.46930755615234375000e+02) (26, 4.37167587280273437500e+01) (27, -1.19087921142578125000e+02) (28, 2.00602691650390625000e+02) (29, 3.11731842041015625000e+02) (30, -1.27471397399902343750e+02) (0, -5.82354888916015625000e+01) (1, -1.21062335968017578125e+01) (2, 1.17578811645507812500e+02) (3, -6.06672782897949218750e+01) (4, -6.96178131103515625000e+01) (5, 8.85655441284179687500e+01) (6, 6.24516754150390625000e+01) (7, -2.07896757125854492188e+00) (8, -1.30316802978515625000e+02) (9, -1.62721801757812500000e+02) (10, 3.24381027221679687500e+01) (11, -5.74575958251953125000e+01) (12, -1.05230155944824218750e+02) (13, -1.02906951904296875000e+01) (14, 9.76776885986328125000e+01) (15, 1.41779403686523437500e+02) (16, 5.09059104919433593750e+01) (17, -1.71815147399902343750e+01) (18, -2.39325637817382812500e+02) (19, -3.84404235839843750000e+02) (20, -1.45017456054687500000e+02) (21, -6.22560405731201171875e+00) (22, 3.43997558593750000000e+02) (23, 2.98669921875000000000e+02) (24, -3.19280910491943359375e+01) (25, -1.72379623413085937500e+02) (26, 1.30811834335327148438e+01) (27, 5.41958808898925781250e+01) (28, 1.20383728027343750000e+02) (29, 2.39384002685546875000e+02) (30, 1.48902114868164062500e+02) (0, -1.69534091949462890625e+01) (1, -3.41856408119201660156e+00) (2, 2.72686195373535156250e+01) (3, 2.85531982421875000000e+02) (4, 4.01824005126953125000e+02) (5, 1.78804641723632812500e+02) (6, -7.52347564697265625000e+01) (7, -2.53650451660156250000e+02) (8, -1.56024566650390625000e+02) (9, -4.34364280700683593750e+01) (10, -8.12495651245117187500e+01) (11, -2.18371353149414062500e+02) (12, -2.65883789062500000000e+02) (13, -1.02128318786621093750e+02) (14, -8.21663742065429687500e+01) (15, 2.49971084594726562500e+01) (16, -8.39011077880859375000e+01) (17, 7.28041458129882812500e+01) (18, 2.12886161804199218750e+01) (19, -6.13483886718750000000e+01) (20, -1.95429977416992187500e+02) (21, -3.40427581787109375000e+02) (22, 1.33355926513671875000e+02) (23, -3.85753364562988281250e+01) (24, 1.76316146850585937500e+02) (25, 1.41779113769531250000e+02) (26, -5.34077262878417968750e+01) (27, 1.12798912048339843750e+02) (28, 1.78235015869140625000e+02) (29, 6.28431663513183593750e+01) (30, -2.20795166015625000000e+02) (0, 9.38492050170898437500e+01) (1, -7.06899261474609375000e+00) (2, 4.72309112548828125000e+01) (3, -3.39512451171875000000e+02) (4, -2.61867401123046875000e+02) (5, 1.25868011474609375000e+02) (6, 9.95377273559570312500e+01) (7, -5.86349067687988281250e+01) (8, -1.13262100219726562500e+02) (9, -3.03667175292968750000e+02) (10, -1.05477142333984375000e+02) (11, -9.57057647705078125000e+01) (12, -9.54324007034301757812e-01) (13, -5.33192300796508789062e+00) (14, 5.33110771179199218750e+01) (15, -1.80400665283203125000e+02) (16, -3.92861251831054687500e+01) (17, 9.02720336914062500000e+01) (18, 3.44672119140625000000e+02) (19, 4.13678741455078125000e+02) (20, 3.22620025634765625000e+02) (21, 3.50099182128906250000e+02) (22, 2.10457702636718750000e+02) (23, 3.52813553810119628906e+00) (24, -6.67503662109375000000e+01) (25, -2.63096832275390625000e+02) (26, 7.07598037719726562500e+01) (27, 1.53420196533203125000e+02) (28, 1.77428558349609375000e+02) (29, -1.17188613891601562500e+02) (30, 1.69399490356445312500e+02) (0, 2.40714630126953125000e+02) (1, 1.30932540893554687500e+02) (2, -2.94875946044921875000e+02) (3, -4.91946350097656250000e+02) (4, -3.42672271728515625000e+02) (5, 1.32155578613281250000e+02) (6, -5.66906661987304687500e+01) (7, 5.17768096923828125000e+01) (8, 5.00660400390625000000e+01) (9, 7.83335494995117187500e+01) (10, 6.74369735717773437500e+01) (11, 1.39951553344726562500e+02) (12, 1.64874992370605468750e+01) (13, 2.29401493072509765625e+01) (14, 4.69599151611328125000e+01) (15, 4.18543548583984375000e+01) (16, 1.64903125762939453125e+01) (17, -1.67234283447265625000e+02) (18, -8.15753555297851562500e+01) (19, -3.23025703430175781250e+01) (20, 9.23197631835937500000e+01) (21, 2.63451080322265625000e+02) (22, -6.53513412475585937500e+01) (23, -5.49800758361816406250e+01) (24, 3.47459220886230468750e+01) (25, 1.58141296386718750000e+02) (26, 1.09579093933105468750e+02) (27, -2.46251220703125000000e+02) (28, -8.05002746582031250000e+01) (29, -1.58471441268920898438e+01) (30, -3.07621398925781250000e+02) (0, -9.53141021728515625000e+00) (1, -3.37115402221679687500e+01) (2, -8.88516464233398437500e+01) (3, -2.86595783233642578125e+01) (4, 9.93584632873535156250e+00) (5, -3.74515581130981445312e+00) (6, 1.65983093261718750000e+02) (7, 1.74336730957031250000e+02) (8, 8.23687820434570312500e+01) (9, 2.13697948455810546875e+01) (10, 1.47408843994140625000e+02) (11, 3.36874351501464843750e+01) (12, 1.90445816040039062500e+02) (13, -6.45012435913085937500e+01) (14, -2.80178436279296875000e+02) (15, -2.59593078613281250000e+02) (16, -1.69722290039062500000e+02) (17, -8.64214935302734375000e+01) (18, -6.38483428955078125000e+00) (19, 1.89577117919921875000e+02) (20, 4.08595924377441406250e+01) (21, 1.97331790924072265625e+01) (22, -1.22122947692871093750e+02) (23, -8.65176773071289062500e+01) (24, -9.79312610626220703125e+00) (25, 3.34125938415527343750e+01) (26, 2.25884811401367187500e+02) (27, 3.79263801574707031250e+01) (28, -1.16180473327636718750e+02) (29, -9.90605239868164062500e+01) (30, -1.17437286376953125000e+02) (0, 1.71394996643066406250e+01) (1, -2.72190570831298828125e+00) (2, -3.79970002174377441406e+00) (3, -3.96905632019042968750e+01) (4, -5.02996406555175781250e+01) (5, -2.12783981323242187500e+02) (6, -1.60199489593505859375e+01) (7, 1.85234268188476562500e+02) (8, 1.32375289916992187500e+02) (9, 5.58905639648437500000e+01) (10, -6.04978446960449218750e+01) (11, -1.37351348876953125000e+02) (12, -2.60009033203125000000e+02) (13, -1.36974822998046875000e+02) (14, 3.75734634399414062500e+01) (15, -2.07607097625732421875e+01) (16, 8.21272048950195312500e+01) (17, 6.98291778564453125000e+01) (18, -7.34149017333984375000e+01) (19, -1.56129903793334960938e+01) (20, 1.04132125854492187500e+02) (21, 1.56733993530273437500e+02) (22, -3.59149169921875000000e+02) (23, -1.48315902709960937500e+02) (24, 3.26603469848632812500e+01) (25, 4.32015686035156250000e+01) (26, -2.16477340698242187500e+02) (27, 8.41497573852539062500e+01) (28, -1.66117523193359375000e+02) (29, -1.67672912597656250000e+02) (30, -5.81732849121093750000e+02) (0, -5.47088356018066406250e+01) (1, -2.92578796386718750000e+02) (2, -5.14419433593750000000e+02) (3, -1.20408309936523437500e+02) (4, -3.86925926208496093750e+01) (5, -1.00704269409179687500e+02) (6, 6.29856758117675781250e+01) (7, 1.83807846069335937500e+02) (8, 2.46367752075195312500e+02) (9, 1.72230682373046875000e+02) (10, -1.06970596313476562500e+02) (11, -5.79634971618652343750e+01) (12, -8.77560882568359375000e+01) (13, 2.93495121002197265625e+01) (14, 2.92845153808593750000e+01) (15, 7.37210464477539062500e+01) (16, 7.29753036499023437500e+01) (17, 3.90863609313964843750e+01) (18, -2.81167659759521484375e+01) (19, -1.00783386230468750000e+02) (20, -2.03835037231445312500e+02) (21, -2.62130088806152343750e+01) (22, 5.96475105285644531250e+01) (23, 9.20693435668945312500e+01) (24, 1.06475532531738281250e+02) (25, 1.67590759277343750000e+02) (26, 1.48136230468750000000e+02) (27, 2.34670959472656250000e+02) (28, 2.08261795043945312500e+02) (29, 9.45067367553710937500e+01) (30, 2.73144035339355468750e+01) (0, -6.57107543945312500000e+01) (1, -1.11675659179687500000e+02) (2, -4.82159179687500000000e+02) (3, 2.06851242065429687500e+02) (4, 2.33140274047851562500e+02) (5, -1.71672439575195312500e+00) (6, 3.78813591003417968750e+01) (7, 2.47756820678710937500e+02) (8, 3.57101165771484375000e+02) (9, 2.50705383300781250000e+02) (10, -2.09308349609375000000e+02) (11, 8.06511611938476562500e+01) (12, 7.21968841552734375000e+01) (13, -1.10718202590942382812e+01) (14, -1.88455108642578125000e+02) (15, -9.29447650909423828125e-01) (16, 7.62182083129882812500e+01) (17, -7.69390869140625000000e+01) (18, -1.53534713745117187500e+02) (19, -3.27754882812500000000e+02) (20, -2.25790710449218750000e+02) (21, 6.54882888793945312500e+01) (22, 5.29411811828613281250e+01) (23, 1.79251800537109375000e+02) (24, 1.09385536193847656250e+02) (25, 4.46536895751953125000e+02) (26, 1.16361717224121093750e+02) (27, 1.02683174133300781250e+02) (28, -4.47143310546875000000e+02) (29, -5.27726097106933593750e+01) (30, 1.29921783447265625000e+02) (0, -7.45038986206054687500e+01) (1, -1.31121047973632812500e+02) (2, 7.79585647583007812500e+01) (3, -1.31717300415039062500e+02) (4, -8.28270339965820312500e+01) (5, -5.66347742080688476562e+00) (6, 2.34531631469726562500e+01) (7, 1.61346755981445312500e+02) (8, 1.12714454650878906250e+02) (9, 1.84120773315429687500e+02) (10, 8.94055709838867187500e+01) (11, -9.90296649932861328125e+00) (12, -1.72593444824218750000e+02) (13, -2.25297027587890625000e+02) (14, -1.75910903930664062500e+02) (15, -9.34569320678710937500e+01) (16, -2.65472850799560546875e+01) (17, 4.56757431030273437500e+01) (18, 4.63672447204589843750e+01) (19, 1.63194313049316406250e+01) (20, -1.11644077301025390625e+01) (21, 2.96601238250732421875e+01) (22, 3.44661216735839843750e+01) (23, -1.27990889549255371094e+00) (24, -1.17972373962402343750e+01) (25, -3.03058671951293945312e+00) (26, -8.40516815185546875000e+01) (27, -3.51712112426757812500e+01) (28, 4.32569198608398437500e+01) (29, 6.52382507324218750000e+01) (30, -2.10072326660156250000e+02) (0, 8.45521926879882812500e+01) (1, -2.67729614257812500000e+02) (2, -3.45221618652343750000e+02) (3, 7.90691146850585937500e+01) (4, 1.39293716430664062500e+02) (5, 5.30303192138671875000e+01) (6, -2.46242122650146484375e+01) (7, -9.60489425659179687500e+01) (8, -2.58492614746093750000e+02) (9, 1.08521102905273437500e+02) (10, -7.79704141616821289062e+00) (11, -7.45326919555664062500e+01) (12, -2.77490978240966796875e+01) (13, -9.96653366088867187500e+01) (14, -2.25494201660156250000e+02) (15, 5.17031555175781250000e+01) (16, 3.61365661621093750000e+01) (17, 1.03774429321289062500e+02) (18, -1.32720947265625000000e-01) (19, 2.86722839355468750000e+02) (20, -1.74856124877929687500e+02) (21, -1.55207687377929687500e+02) (22, 4.18827850341796875000e+02) (23, -1.75805377960205078125e+01) (24, -2.36832794189453125000e+02) (25, -1.60944576263427734375e+01) (26, 1.20884466171264648438e+01) (27, -1.59036071777343750000e+02) (28, 1.74400115966796875000e+02) (29, 1.39809875488281250000e+02) (30, -4.07553558349609375000e+02) (0, -2.28955688476562500000e+01) (1, -1.84710662841796875000e+02) (2, -2.62000503540039062500e+01) (3, 1.83921401977539062500e+02) (4, 6.36045761108398437500e+01) (5, -2.17936843872070312500e+02) (6, -8.30444488525390625000e+01) (7, -1.90000305175781250000e+02) (8, -1.07520011901855468750e+02) (9, -3.67544975280761718750e+01) (10, 4.44043617248535156250e+01) (11, 1.84156890869140625000e+02) (12, 5.48833541870117187500e+01) (13, 2.89803070068359375000e+02) (14, 1.25938011169433593750e+02) (15, 3.83816375732421875000e+01) (16, -7.57125320434570312500e+01) (17, -1.78151046752929687500e+02) (18, -2.74245208740234375000e+02) (19, -1.78931838989257812500e+02) (20, 7.80658035278320312500e+01) (21, -2.72241363525390625000e+01) (22, -1.30706451416015625000e+02) (23, -3.23709167480468750000e+02) (24, -4.34658752441406250000e+02) (25, 1.15717872619628906250e+02) (26, 2.02226776123046875000e+02) (27, 1.51040664672851562500e+02) (28, 2.19115020751953125000e+02) (29, 2.86951232910156250000e+02) (30, -3.18999176025390625000e+02) (0, 1.21367805480957031250e+02) (1, -2.70028324127197265625e+01) (2, -2.12806930541992187500e+02) (3, -2.45280975341796875000e+02) (4, -2.17455566406250000000e+02) (5, 7.82812652587890625000e+01) (6, 2.19512161254882812500e+02) (7, 1.47356079101562500000e+02) (8, 1.01720909118652343750e+02) (9, -2.46115264892578125000e+01) (10, 2.21751831054687500000e+02) (11, 2.31456573486328125000e+02) (12, 2.49685333251953125000e+02) (13, 2.20096206665039062500e+02) (14, -4.08605728149414062500e+01) (15, -1.62087539672851562500e+02) (16, -6.62713088989257812500e+01) (17, -1.14821128845214843750e+02) (18, 5.54881811141967773438e+00) (19, 2.11164505004882812500e+02) (20, 3.26703948974609375000e+02) (21, 3.95923919677734375000e+02) (22, -8.15278930664062500000e+01) (23, -3.08952178955078125000e+02) (24, -4.57557617187500000000e+02) (25, -2.62015533447265625000e+02) (26, 2.86204833984375000000e+02) (27, 1.16133567810058593750e+02) (28, 1.34916107177734375000e+02) (29, 1.29982513427734375000e+02) (30, 4.27025909423828125000e+02) (0, 8.31358032226562500000e+02) (1, 7.27680358886718750000e+02) (2, 1.12294815063476562500e+02) (3, -1.88372604370117187500e+02) (4, -2.36910614013671875000e+02) (5, -4.38667266845703125000e+02) (6, -2.88204803466796875000e+02) (7, -2.78969650268554687500e+01) (8, -4.15413757324218750000e+02) (9, -1.65557804107666015625e+01) (10, 1.43754187011718750000e+03) (11, 1.97395373535156250000e+03) (12, 1.87173315429687500000e+03) (13, 1.15110397338867187500e+02) (14, -3.08146026611328125000e+02) (15, -5.26244445800781250000e+02) (16, -1.18726098632812500000e+03) (17, -7.84947631835937500000e+02) (18, 2.71112396240234375000e+02) (19, -8.21932800292968750000e+02) (20, -1.65641845703125000000e+03) (21, -1.85193493652343750000e+03) (22, -1.25969433593750000000e+03) (23, -5.64514350891113281250e+01) (24, 1.74684921264648437500e+02) (25, -5.64614562988281250000e+02) (26, 4.07923126220703125000e+02) (27, -1.86620581054687500000e+03) (28, -4.76667266845703125000e+02) (29, 1.73204757690429687500e+02) (30, 3.77827490234375000000e+03) (0, 6.22937049865722656250e+01) (1, 2.26302978515625000000e+02) (2, 3.42318328857421875000e+02) (3, 1.51728866577148437500e+02) (4, -7.39755344390869140625e+00) (5, -1.06594963073730468750e+02) (6, -1.37247467041015625000e+02) (7, -1.48027954101562500000e+02) (8, -6.40079269409179687500e+01) (9, 2.11318710327148437500e+02) (10, -1.65191478729248046875e+01) (11, -2.62628898620605468750e+01) (12, -9.40225448608398437500e+01) (13, -5.17455062866210937500e+01) (14, 4.05060386657714843750e+01) (15, -2.05685653686523437500e+01) (16, 9.23666229248046875000e+01) (17, 1.36738525390625000000e+02) (18, 1.11436447143554687500e+02) (19, 4.85428237915039062500e+01) (20, 1.42373001098632812500e+02) (21, 2.72904510498046875000e+02) (22, -9.34270172119140625000e+01) (23, -3.63654449462890625000e+02) (24, -5.22283020019531250000e+02) (25, -1.36327714920043945312e+01) (26, -3.94028968811035156250e+01) (27, -2.09638122558593750000e+02) (28, -1.23177253723144531250e+02) (29, -6.76253433227539062500e+01) (30, -4.16878280639648437500e+01) (0, 4.66676254272460937500e+01) (1, 4.64429740905761718750e+01) (2, -6.78204345703125000000e+01) (3, -8.78736877441406250000e+01) (4, -1.20922630310058593750e+02) (5, 3.42155517578125000000e+02) (6, 2.77740905761718750000e+02) (7, 3.08302612304687500000e+02) (8, 2.86714416503906250000e+02) (9, 2.67726478576660156250e+01) (10, -6.04916419982910156250e+01) (11, 9.31670303344726562500e+01) (12, 6.79117660522460937500e+01) (13, -4.33178215026855468750e+01) (14, -1.57284469604492187500e+01) (15, -9.90337944030761718750e+00) (16, -2.14606323242187500000e+01) (17, -7.18028030395507812500e+01) (18, 1.21730606079101562500e+02) (19, -2.36118278503417968750e+01) (20, -8.87478561401367187500e+01) (21, -8.27689933776855468750e+00) (22, 9.51776046752929687500e+01) (23, 1.88211929321289062500e+02) (24, 1.23467178344726562500e+02) (25, 6.85305175781250000000e+01) (26, 6.08848609924316406250e+01) (27, -1.25454345703125000000e+02) (28, 1.28686637878417968750e+01) (29, -6.97072525024414062500e+01) (30, 7.91593017578125000000e+02) (0, 8.70808792114257812500e+00) (1, -1.02468864440917968750e+02) (2, -1.07922630310058593750e+02) (3, 2.25908935546875000000e+02) (4, 1.17965820312500000000e+02) (5, 1.47038406372070312500e+02) (6, 6.05465278625488281250e+01) (7, 1.21627082824707031250e+02) (8, 8.88448028564453125000e+01) (9, 3.84302978515625000000e+01) (10, -1.79558868408203125000e+02) (11, -2.72332427978515625000e+02) (12, -2.38738327026367187500e+02) (13, -7.10042419433593750000e+01) (14, 1.20072601318359375000e+02) (15, 1.71785354614257812500e+02) (16, 1.26720001220703125000e+02) (17, 1.87540924072265625000e+02) (18, -9.57590789794921875000e+01) (19, -2.79074188232421875000e+02) (20, -2.26334854125976562500e+02) (21, -2.15618362426757812500e+02) (22, 1.93434906005859375000e+02) (23, 1.78607986450195312500e+02) (24, 1.62335342407226562500e+02) (25, 2.82068195343017578125e+01) (26, -2.06953811645507812500e+02) (27, 2.57876617431640625000e+02) (28, 2.47064010620117187500e+02) (29, 1.30984161376953125000e+02) (30, 5.21704589843750000000e+02) (0, -9.40568008422851562500e+01) (1, -1.15125289916992187500e+02) (2, -1.00088951110839843750e+02) (3, -7.94785385131835937500e+01) (4, 7.26734390258789062500e+01) (5, 2.06492492675781250000e+02) (6, -8.07077255249023437500e+01) (7, -2.03382751464843750000e+02) (8, -1.28107254028320312500e+02) (9, 2.07786884307861328125e+01) (10, 1.53952789306640625000e+02) (11, 1.60816833496093750000e+02) (12, 2.05803741455078125000e+02) (13, 1.34443359375000000000e+02) (14, 3.75590972900390625000e+01) (15, 4.37881355285644531250e+01) (16, -2.04627094268798828125e+01) (17, -3.55631942749023437500e+01) (18, -1.03584220886230468750e+02) (19, -2.43762863159179687500e+02) (20, -1.27190574645996093750e+02) (21, -1.50181732177734375000e+02) (22, 1.49889236450195312500e+02) (23, 3.93070037841796875000e+02) (24, 4.33574676513671875000e+02) (25, -5.38690147399902343750e+01) (26, -2.30581222534179687500e+02) (27, -4.02200897216796875000e+02) (28, -4.40186157226562500000e+01) (29, 9.17313842773437500000e+01) (30, -9.27755203247070312500e+01) (0, 2.29115478515625000000e+02) (1, 4.29644393920898437500e+01) (2, -3.75595642089843750000e+02) (3, -7.20049743652343750000e+01) (4, 1.31994750976562500000e+02) (5, 3.77045288085937500000e+01) (6, 3.79247016906738281250e+01) (7, -4.18235855102539062500e+01) (8, -3.84405136108398437500e+01) (9, -1.01218910217285156250e+02) (10, 7.75316543579101562500e+01) (11, 6.46637725830078125000e+01) (12, -1.52203292846679687500e+01) (13, 6.34798049926757812500e+01) (14, -4.22615051269531250000e+01) (15, -5.45466728210449218750e+01) (16, -3.81067848205566406250e+01) (17, -6.96640777587890625000e+01) (18, 8.32979888916015625000e+01) (19, -5.40361213684082031250e+01) (20, 1.19155975341796875000e+02) (21, 1.21465721130371093750e+02) (22, 6.67235260009765625000e+01) (23, -7.47779083251953125000e+01) (24, 3.53668098449707031250e+01) (25, 4.88279914855957031250e+01) (26, -8.71116561889648437500e+01) (27, 4.77276115417480468750e+01) (28, 2.85199249267578125000e+02) (29, 2.10765945434570312500e+02) (30, 4.88776245117187500000e+02) (0, 1.74328674316406250000e+02) (1, 2.49051422119140625000e+02) (2, 1.78498397827148437500e+02) (3, -9.46217803955078125000e+01) (4, 1.59303178787231445312e+01) (5, 3.32496795654296875000e+02) (6, -3.11739807128906250000e+01) (7, -6.33116264343261718750e+01) (8, -1.28393554687500000000e+02) (9, 2.80550060272216796875e+01) (10, 1.43377258300781250000e+02) (11, 1.61295211791992187500e+02) (12, 3.96572761535644531250e+01) (13, -2.00197540283203125000e+02) (14, -2.71283782958984375000e+02) (15, -3.01824340820312500000e+02) (16, -1.10873138427734375000e+02) (17, 3.66745948791503906250e+01) (18, 1.97428619384765625000e+02) (19, 1.24190467834472656250e+02) (20, -3.17270603179931640625e+01) (21, -1.81866302490234375000e+02) (22, -6.80776519775390625000e+01) (23, 2.97094841003417968750e+01) (24, 1.80443817138671875000e+02) (25, -1.31719284057617187500e+02) (26, -1.64383804321289062500e+02) (27, -3.69421173095703125000e+02) (28, -1.08459388732910156250e+02) (29, 9.40389480590820312500e+01) (30, 3.55712509155273437500e+01) (0, 9.00051345825195312500e+01) (1, 2.21108993530273437500e+02) (2, 4.22262023925781250000e+02) (3, 9.04398651123046875000e+01) (4, -6.06691360473632812500e+01) (5, 1.88604385375976562500e+02) (6, -9.94828643798828125000e+01) (7, -6.62340469360351562500e+01) (8, -1.96284362792968750000e+02) (9, 6.46490020751953125000e+01) (10, -5.04951705932617187500e+01) (11, -9.43798446655273437500e+01) (12, -2.51843147277832031250e+01) (13, -3.27274703979492187500e+01) (14, 9.50168533325195312500e+01) (15, -9.14289932250976562500e+01) (16, 1.38391113281250000000e+02) (17, 2.45353439331054687500e+02) (18, 2.39082275390625000000e+02) (19, 3.06576171875000000000e+02) (20, 2.68517360687255859375e+01) (21, -3.65264625549316406250e+01) (22, -1.86601470947265625000e+02) (23, -1.26991134643554687500e+02) (24, -3.54144561767578125000e+02) (25, -2.76211456298828125000e+02) (26, -1.28916717529296875000e+02) (27, -1.80148269653320312500e+02) (28, -4.46868782043457031250e+01) (29, -1.29610519409179687500e+02) (30, -9.52044525146484375000e+01) (0, -2.63267974853515625000e+01) (1, 2.97784938812255859375e+01) (2, -5.80562925338745117188e+00) (3, 2.70646881103515625000e+02) (4, 1.82757263183593750000e+02) (5, 5.28273925781250000000e+01) (6, 1.99418678283691406250e+01) (7, -8.77435779571533203125e+00) (8, -4.50621681213378906250e+01) (9, 3.29667520523071289062e+00) (10, -1.20275382995605468750e+01) (11, 7.30172958374023437500e+01) (12, -7.21489000320434570312e+00) (13, -1.05075553894042968750e+02) (14, -8.89661712646484375000e+01) (15, 1.65693466186523437500e+02) (16, 3.17605037689208984375e+01) (17, 4.06940956115722656250e+01) (18, -9.22193603515625000000e+01) (19, -1.32934880256652832031e+00) (20, -4.86363677978515625000e+01) (21, 1.42890071868896484375e+01) (22, 3.17214508056640625000e+02) (23, 2.37226333618164062500e+02) (24, -2.00977661132812500000e+02) (25, -1.90807373046875000000e+02) (26, -2.69740570068359375000e+02) (27, -3.07810180664062500000e+02) (28, -3.49451660156250000000e+02) (29, -9.78996353149414062500e+01) (30, -3.86211425781250000000e+02) (0, 1.15316802978515625000e+02) (1, 6.20889015197753906250e+01) (2, -1.08579856872558593750e+02) (3, -1.06073532104492187500e+02) (4, -1.54560852050781250000e+02) (5, -4.89222564697265625000e+01) (6, 6.02836847305297851562e+00) (7, 7.75832748413085937500e+01) (8, 7.82200622558593750000e+01) (9, 1.10366462707519531250e+02) (10, 5.25010108947753906250e+01) (11, 4.94182891845703125000e+01) (12, 1.77459888458251953125e+01) (13, -6.55384140014648437500e+01) (14, -1.35076934814453125000e+02) (15, -1.31773605346679687500e+02) (16, -7.44303054809570312500e+01) (17, -5.74340515136718750000e+01) (18, 3.48768115043640136719e+00) (19, 2.54696533203125000000e+02) (20, 2.06433731079101562500e+02) (21, 4.08054351806640625000e+02) (22, 4.68064842224121093750e+01) (23, -3.64360534667968750000e+02) (24, -3.48738952636718750000e+02) (25, 4.91910591125488281250e+01) (26, 1.77437484741210937500e+02) (27, 1.92651710510253906250e+01) (28, 2.21549774169921875000e+02) (29, 1.21807113647460937500e+02) (30, 2.10454673767089843750e+01) (0, 3.33269348144531250000e+01) (1, 2.33379577636718750000e+02) (2, 1.05891220092773437500e+02) (3, -3.99603805541992187500e+01) (4, -3.63232350349426269531e+00) (5, 1.89382247924804687500e+02) (6, -9.35198822021484375000e+01) (7, -2.44845916748046875000e+02) (8, -1.52893432617187500000e+02) (9, -4.91799850463867187500e+01) (10, -2.44492778778076171875e+01) (11, 1.45812928676605224609e+00) (12, 2.75120029449462890625e+01) (13, 9.25935440063476562500e+01) (14, 2.40122116088867187500e+02) (15, 2.09288284301757812500e+02) (16, 1.14417793273925781250e+02) (17, 7.37463912963867187500e+01) (18, -4.57203712463378906250e+01) (19, -2.34994918823242187500e+02) (20, -2.03315200805664062500e+02) (21, -1.57775741577148437500e+02) (22, -3.36245346069335937500e+01) (23, 1.78165924072265625000e+02) (24, 3.08390777587890625000e+02) (25, 7.69103012084960937500e+01) (26, -4.21461410522460937500e+01) (27, -2.73829620361328125000e+02) (28, -1.14846061706542968750e+02) (29, -3.07429828643798828125e+01) (30, -5.85021362304687500000e+01) (0, 3.16804260253906250000e+02) (1, 1.56512405395507812500e+02) (2, 1.38846954345703125000e+02) (3, 7.79215545654296875000e+01) (4, 1.08113777160644531250e+02) (5, 1.25271892547607421875e+01) (6, 1.88416423797607421875e+01) (7, 2.95567378997802734375e+01) (8, -1.31245849609375000000e+02) (9, -3.50785713195800781250e+01) (10, 1.31426147460937500000e+02) (11, 1.14490966796875000000e+02) (12, 2.22506881713867187500e+02) (13, 9.85083541870117187500e+01) (14, 2.56353855133056640625e+01) (15, 8.61767501831054687500e+01) (16, 8.53991031646728515625e+00) (17, 5.29502677917480468750e+01) (18, 6.65362854003906250000e+01) (19, -1.04011955261230468750e+02) (20, -2.19703578948974609375e+01) (21, 1.56742563247680664062e+01) (22, 1.48779724121093750000e+02) (23, 6.04432220458984375000e+01) (24, 2.51984195709228515625e+01) (25, 7.05918884277343750000e+01) (26, 2.09860122680664062500e+02) (27, 1.00707984924316406250e+02) (28, 3.25912132263183593750e+01) (29, 1.97676528930664062500e+02) (30, 1.11024340820312500000e+03) (0, -1.70582733154296875000e+01) (1, -1.33698644638061523438e+01) (2, -1.92742172241210937500e+02) (3, -2.48910781860351562500e+02) (4, -1.85001296997070312500e+02) (5, -9.97603378295898437500e+01) (6, 5.75206184387207031250e+01) (7, -5.74549484252929687500e+01) (8, -7.37000198364257812500e+01) (9, -1.21694114685058593750e+02) (10, -1.68874680995941162109e+00) (11, -4.38202247619628906250e+01) (12, 4.84692811965942382812e+00) (13, 4.65900726318359375000e+01) (14, 2.06935882568359375000e+02) (15, 1.26621246337890625000e+02) (16, 7.80845489501953125000e+01) (17, -5.79213256835937500000e+01) (18, -2.24163650512695312500e+02) (19, -9.69055099487304687500e+01) (20, 1.61999343872070312500e+02) (21, 3.86753997802734375000e+02) (22, 1.51659393310546875000e+02) (23, 4.89660377502441406250e+01) (24, 1.08274424076080322266e+00) (25, -7.80987396240234375000e+01) (26, -3.61533737182617187500e+01) (27, -8.70025062561035156250e+00) (28, 1.72916458129882812500e+02) (29, 2.47514465332031250000e+02) (30, 1.25370613098144531250e+02) (0, -5.12057723999023437500e+01) (1, -1.65094421386718750000e+02) (2, -3.45577926635742187500e+01) (3, 1.41389053344726562500e+02) (4, 5.85083122253417968750e+01) (5, -1.50922515869140625000e+02) (6, 9.27859649658203125000e+01) (7, 7.09396743774414062500e+01) (8, 5.07602005004882812500e+01) (9, 1.04597997665405273438e+01) (10, 8.37610397338867187500e+01) (11, 1.35576667785644531250e+01) (12, 1.27881984710693359375e+01) (13, 6.49522399902343750000e+01) (14, -6.39810829162597656250e+01) (15, 6.77116622924804687500e+01) (16, 3.16284923553466796875e+01) (17, 2.39305286407470703125e+01) (18, 1.00398006439208984375e+01) (19, 6.64561386108398437500e+01) (20, -1.29908386230468750000e+02) (21, -6.69673690795898437500e+01) (22, 2.75864105224609375000e+02) (23, 1.06032768249511718750e+02) (24, -2.98872924804687500000e+02) (25, -1.32086898803710937500e+02) (26, 2.24462326049804687500e+02) (27, 2.43067932128906250000e+02) (28, 2.35478851318359375000e+02) (29, 1.69364715576171875000e+02) (30, 5.50670898437500000000e+02) (0, 4.44554595947265625000e+01) (1, -3.47016787528991699219e+00) (2, 9.56505813598632812500e+01) (3, 5.30515823364257812500e+01) (4, 1.09506935119628906250e+02) (5, 9.77922363281250000000e+01) (6, 4.13495941162109375000e+01) (7, 2.79277839660644531250e+01) (8, -6.52151641845703125000e+01) (9, -1.43933135986328125000e+02) (10, -5.23431396484375000000e+01) (11, -3.76824722290039062500e+01) (12, -3.47899169921875000000e+01) (13, -7.21472702026367187500e+01) (14, -1.63986801147460937500e+02) (15, -1.66515335083007812500e+02) (16, -7.98307266235351562500e+01) (17, -3.69543609619140625000e+01) (18, -5.17583084106445312500e+01) (19, 2.58894317626953125000e+02) (20, 1.30015930175781250000e+02) (21, 9.19149208068847656250e+00) (22, -6.62232284545898437500e+01) (23, -2.70404796600341796875e+01) (24, -2.15929656982421875000e+02) (25, -1.90614395141601562500e+02) (26, 8.91255092620849609375e+00) (27, 1.40934844970703125000e+02) (28, -5.32752380371093750000e+01) (29, -1.34483917236328125000e+02) (30, -4.18759674072265625000e+02) (0, 5.72396707534790039062e+00) (1, -2.48607910156250000000e+02) (2, -1.63797119140625000000e+02) (3, -3.63796905517578125000e+02) (4, -4.21618896484375000000e+02) (5, -2.19609756469726562500e+02) (6, 4.58517730712890625000e+02) (7, 3.55126312255859375000e+02) (8, 1.13597846984863281250e+02) (9, 7.09265213012695312500e+01) (10, 6.08213882446289062500e+01) (11, 3.29273185729980468750e+01) (12, -3.47280120849609375000e+01) (13, -5.39592819213867187500e+01) (14, -1.04998298645019531250e+02) (15, -2.66160430908203125000e+02) (16, 1.53056058883666992188e+01) (17, 1.18023300170898437500e+02) (18, 3.27615600585937500000e+02) (19, 5.20891906738281250000e+02) (20, 3.17093719482421875000e+02) (21, 2.93993103027343750000e+02) (22, -9.93169250488281250000e+01) (23, 2.04072006225585937500e+02) (24, -1.61335449218750000000e+02) (25, -4.13180236816406250000e+02) (26, -3.33491249084472656250e+01) (27, 3.06081634521484375000e+02) (28, 7.79502334594726562500e+01) (29, -4.02080764770507812500e+01) (30, 3.10781341552734375000e+02) (0, -6.65966701507568359375e+00) (1, 8.51804656982421875000e+01) (2, 3.84881164550781250000e+02) (3, 2.80211639404296875000e+02) (4, 9.53931503295898437500e+01) (5, -1.06407821655273437500e+02) (6, -7.26970443725585937500e+01) (7, -1.55055480957031250000e+02) (8, -1.18024604797363281250e+02) (9, -1.84105041503906250000e+02) (10, -1.14079399108886718750e+01) (11, -2.89817848205566406250e+01) (12, 3.72197151184082031250e+01) (13, -7.30835876464843750000e+01) (14, -8.31151504516601562500e+01) (15, -1.42444458007812500000e+02) (16, -3.04714202880859375000e+01) (17, 1.47710586547851562500e+02) (18, 2.94936523437500000000e+02) (19, 2.17055191040039062500e+02) (20, 7.30082702636718750000e+01) (21, -1.30666122436523437500e+02) (22, 9.30853462219238281250e+00) (23, -3.14493484497070312500e+01) (24, 3.31167259216308593750e+01) (25, -7.96508865356445312500e+01) (26, -2.73105163574218750000e+02) (27, -2.12998256683349609375e+01) (28, 4.29088020324707031250e+01) (29, -9.55043125152587890625e+00) (30, 2.36734725952148437500e+02) (0, 6.98245239257812500000e+01) (1, 2.35427551269531250000e+01) (2, -7.61349639892578125000e+01) (3, -3.81798675537109375000e+02) (4, -2.81037322998046875000e+02) (5, -1.41753738403320312500e+02) (6, -1.10846931457519531250e+02) (7, -2.94510746002197265625e+01) (8, -8.29282608032226562500e+01) (9, 2.23610321044921875000e+02) (10, 1.40735824584960937500e+02) (11, -5.95273628234863281250e+01) (12, -1.69262603759765625000e+02) (13, -1.63008651733398437500e+02) (14, 1.63377990722656250000e+02) (15, 4.19889411926269531250e+01) (16, 5.40457420349121093750e+01) (17, 2.78811950683593750000e+01) (18, -4.95498561859130859375e+00) (19, 1.50393783569335937500e+02) (20, 1.79922882080078125000e+02) (21, 1.59562789916992187500e+02) (22, -4.33654693603515625000e+02) (23, -9.64805450439453125000e+01) (24, 4.38065277099609375000e+02) (25, 2.02371887207031250000e+02) (26, -1.99029407501220703125e+01) (27, 6.48174362182617187500e+01) (28, 1.20498437881469726562e+01) (29, -2.41731018066406250000e+02) (30, -1.69779113769531250000e+02) (31, 1.24081449508666992188e+01) (32, -4.80728435516357421875e+00) (33, 2.10092582702636718750e+01) (34, -1.05623543262481689453e+00) (35, -2.26431045532226562500e+01) (36, 2.22039908170700073242e-01) (37, 1.76105461120605468750e+01) (38, -1.77346382141113281250e+01) (39, -2.14028911590576171875e+01) (40, 9.64180068969726562500e+01) (41, 1.31140117645263671875e+01) (42, 7.07647848129272460938e+00) (43, -2.44357681274414062500e+01) (44, 1.56399259567260742188e+01) (45, -1.31107702255249023438e+01) (46, -8.55996322631835937500e+00) (47, -6.79505252838134765625e+00) (48, 2.80431213378906250000e+01) (49, 7.52271413803100585938e+00) (50, -2.40839195251464843750e+01) (51, 1.11847791671752929688e+01) (52, -3.62972569465637207031e+00) (53, 1.58323783874511718750e+01) (54, 5.95430421829223632812e+00) (55, -4.39104156494140625000e+01) (56, 1.84607849121093750000e+01) (57, -3.74660835266113281250e+01) (58, 1.01263816833496093750e+02) (59, 1.56014013290405273438e+00) (60, 2.98326516151428222656e+00) (61, -1.13137311935424804688e+01) (62, 3.49279747009277343750e+01) (63, -2.26565818786621093750e+01) (64, -8.11667537689208984375e+00) (65, -1.34733867645263671875e+00) (66, 4.93486118316650390625e+00) (67, 1.78250732421875000000e+01) (68, 5.49220895767211914062e+00) (69, -2.57282047271728515625e+01) (70, -3.66733002662658691406e+00) (71, 1.85533237457275390625e+01) (72, 5.52166175842285156250e+00) (73, -1.01622123718261718750e+02) (74, 9.43228054046630859375e+00) (75, -1.56388006210327148438e+01) (76, 5.17216348648071289062e+00) (77, -6.03215408325195312500e+00) (78, 4.28395538330078125000e+01) (79, 7.92475605010986328125e+00) (80, -1.60796985626220703125e+01) (81, -1.81356239318847656250e+01) (82, 8.30405712127685546875e+00) (83, -4.83236265182495117188e+00) (84, 2.20115375518798828125e+00) (85, 9.68028545379638671875e+00) (86, -1.19116344451904296875e+01) (87, -1.20074949264526367188e+01) (88, -6.99067592620849609375e-01) (89, 1.27199287414550781250e+01) (90, 2.23221302032470703125e+01) (91, -1.06101158142089843750e+02) (31, -1.27871423959732055664e-01) (32, 1.68654880523681640625e+01) (33, -1.63424835205078125000e+01) (34, 6.98538875579833984375e+00) (35, -1.92584266662597656250e+01) (36, 3.26847572326660156250e+01) (37, 1.08537673950195312500e+01) (38, 5.52360820770263671875e+00) (39, 1.72401275634765625000e+01) (40, 9.11254348754882812500e+01) (41, 1.87551231384277343750e+01) (42, 1.92256011962890625000e+01) (43, -1.83366546630859375000e+01) (44, 1.50306987762451171875e+01) (45, 1.20014286041259765625e+01) (46, 1.99037132263183593750e+01) (47, 1.13070144653320312500e+01) (48, 3.67205162048339843750e+01) (49, -5.60865497589111328125e+00) (50, 7.55341958999633789062e+00) (51, -6.72524690628051757812e+00) (52, -2.17330665588378906250e+01) (53, 1.52664947509765625000e+01) (54, 5.62894725799560546875e+00) (55, -2.43359489440917968750e+01) (56, -5.28573513031005859375e+00) (57, -4.73218345642089843750e+01) (58, 9.85798873901367187500e+01) (59, -1.33865320682525634766e+00) (60, -5.74436962604522705078e-01) (61, -1.84413108825683593750e+01) (62, -4.59835243225097656250e+01) (63, 2.06781158447265625000e+01) (64, 4.54718381166458129883e-01) (65, -2.33564400672912597656e+00) (66, -1.04616212844848632812e+01) (67, -9.09863185882568359375e+00) (68, 1.68784828186035156250e+01) (69, -3.57004261016845703125e+00) (70, -1.79351253509521484375e+01) (71, -3.17708415985107421875e+01) (72, 2.53560314178466796875e+01) (73, -9.78340225219726562500e+01) (74, 2.94276261329650878906e+00) (75, 2.69306373596191406250e+01) (76, 7.98985910415649414062e+00) (77, 7.92174291610717773438e+00) (78, 1.94450263977050781250e+01) (79, -3.87886500358581542969e+00) (80, 7.28591918945312500000e+00) (81, -1.84887161254882812500e+01) (82, -7.39780306816101074219e-01) (83, 9.28576278686523437500e+00) (84, 1.73362147808074951172e+00) (85, 2.55769348144531250000e+01) (86, 5.92660665512084960938e+00) (87, -9.00524139404296875000e+00) (88, 5.88774299621582031250e+00) (89, 4.70047473907470703125e+00) (90, -4.02598094940185546875e+00) (91, -1.02778877258300781250e+02) (31, -7.83707678318023681641e-01) (32, 1.54795665740966796875e+01) (33, 5.15808820724487304688e+00) (34, -7.66424608230590820312e+00) (35, 1.35804414749145507812e+00) (36, 2.31907978057861328125e+01) (37, -1.09034280776977539062e+01) (38, -1.22486000061035156250e+01) (39, -1.26911735534667968750e+01) (40, 8.70234680175781250000e+01) (41, -8.01427745819091796875e+00) (42, 1.14330368041992187500e+01) (43, 5.14841194152832031250e+01) (44, 4.25582408905029296875e+00) (45, 3.53395700454711914062e+00) (46, -1.38182811737060546875e+01) (47, 7.04970312118530273438e+00) (48, -4.25864279270172119141e-01) (49, -2.45293188095092773438e+00) (50, -1.45111370086669921875e+00) (51, 1.13916606903076171875e+01) (52, 5.37897729873657226562e+00) (53, 5.73325300216674804688e+00) (54, 1.15242938995361328125e+01) (55, 1.43833951950073242188e+01) (56, -3.92756962776184082031e+00) (57, -1.28968820571899414062e+01) (58, 9.24402008056640625000e+01) (59, -9.45054817199707031250e+00) (60, -2.14650845527648925781e+00) (61, -1.16673603057861328125e+01) (62, 1.63624095916748046875e+01) (63, -1.51721916198730468750e+01) (64, -5.61250543594360351562e+00) (65, 1.05096540451049804688e+01) (66, 2.45303058624267578125e+01) (67, -1.63000736236572265625e+01) (68, 2.06281604766845703125e+01) (69, -4.48423147201538085938e+00) (70, -1.57247724533081054688e+01) (71, -3.86443634033203125000e+01) (72, -6.03716754913330078125e+00) (73, -9.04253234863281250000e+01) (74, 1.04389858245849609375e+01) (75, -1.20744524002075195312e+01) (76, -1.78388202190399169922e+00) (77, -2.37432169914245605469e+00) (78, -1.57256059646606445312e+01) (79, 3.83730745315551757812e+00) (80, 1.59896440505981445312e+01) (81, 7.52592706680297851562e+00) (82, -9.83492279052734375000e+00) (83, 4.08617401123046875000e+00) (84, -2.09847774505615234375e+01) (85, -5.42053508758544921875e+00) (86, -1.35379161834716796875e+01) (87, 5.57886409759521484375e+00) (88, -6.54449748992919921875e+00) (89, -1.09889650344848632812e+00) (90, -2.33388805389404296875e+01) (91, -9.75630950927734375000e+01) (31, 9.94132423400878906250e+00) (32, 4.98972803354263305664e-01) (33, 7.97032022476196289062e+00) (34, 1.14475450515747070312e+01) (35, -5.60150051116943359375e+00) (36, -6.31508255004882812500e+00) (37, 2.84786820411682128906e+00) (38, 4.45515632629394531250e+00) (39, -3.21191263198852539062e+00) (40, 6.65388412475585937500e+01) (41, -3.05320739746093750000e+00) (42, 8.20048427581787109375e+00) (43, 2.86934661865234375000e+00) (44, 1.18230323791503906250e+01) (45, 1.10345087051391601562e+01) (46, 3.57920503616333007812e+00) (47, -8.50773143768310546875e+00) (48, 9.79955577850341796875e+00) (49, -7.92445611953735351562e+00) (50, -1.08032054901123046875e+01) (51, 9.92475414276123046875e+00) (52, 1.37014675140380859375e+01) (53, 3.40735459327697753906e+00) (54, -1.57540023326873779297e+00) (55, 9.89693546295166015625e+00) (56, 1.04332399368286132812e+01) (57, 1.39660823345184326172e+00) (58, 6.78019027709960937500e+01) (59, -1.86612625122070312500e+01) (60, 2.07392215728759765625e+00) (61, 1.05414476394653320312e+01) (62, 1.76265754699707031250e+01) (63, -1.03658113479614257812e+01) (64, 9.16976928710937500000e+00) (65, -7.21524143218994140625e+00) (66, -1.20358419418334960938e+01) (67, -2.20903072357177734375e+01) (68, -1.84953343868255615234e+00) (69, -1.72904853820800781250e+01) (70, 5.59563040733337402344e-01) (71, -2.62390756607055664062e+00) (72, -6.16067743301391601562e+00) (73, -6.96700820922851562500e+01) (74, 1.86236743927001953125e+01) (75, 9.64380073547363281250e+00) (76, 6.51385879516601562500e+00) (77, -2.00936779379844665527e-01) (78, 1.62581157684326171875e+01) (79, 1.69170169830322265625e+01) (80, 2.20225486755371093750e+01) (81, -1.45365226268768310547e+00) (82, -1.03425574302673339844e+00) (83, 1.26418733596801757812e+01) (84, -1.14761066436767578125e+01) (85, -6.23264598846435546875e+00) (86, 4.90872383117675781250e+00) (87, -1.73431217670440673828e+00) (88, -1.15960636138916015625e+01) (89, 6.23181247711181640625e+00) (90, -4.88042736053466796875e+00) (91, -7.09969558715820312500e+01) (31, 8.61617803573608398438e-01) (32, -2.53046150207519531250e+01) (33, 7.30823087692260742188e+00) (34, 1.63766598701477050781e+00) (35, -1.17764234542846679688e+01) (36, 1.29024515151977539062e+01) (37, -3.37863206863403320312e-01) (38, -5.80015182495117187500e-02) (39, 1.57391815185546875000e+01) (40, 5.48870315551757812500e+01) (41, 1.65170741081237792969e+00) (42, 6.20975971221923828125e+00) (43, 2.32199764251708984375e+01) (44, 5.25295543670654296875e+00) (45, 9.57744598388671875000e+00) (46, 1.61908187866210937500e+01) (47, 3.41949582099914550781e+00) (48, 4.23756790161132812500e+01) (49, -6.65606880187988281250e+00) (50, 2.14810199737548828125e+01) (51, -1.99764072895050048828e-01) (52, -1.94970333576202392578e+00) (53, -1.19662742614746093750e+01) (54, -9.14326953887939453125e+00) (55, 7.38812446594238281250e+00) (56, 4.31352710723876953125e+00) (57, 1.15275907516479492188e+01) (58, 7.76307601928710937500e+01) (59, -1.10525674819946289062e+01) (60, -3.15425324440002441406e+00) (61, 6.93138122558593750000e+00) (62, -2.12463259696960449219e+00) (63, 7.45581102371215820312e+00) (64, -1.94129829406738281250e+01) (65, -1.45115079879760742188e+01) (66, -2.06491351127624511719e+00) (67, 1.36389946937561035156e+00) (68, -4.69151782989501953125e+00) (69, -3.81478095054626464844e+00) (70, 3.40213322639465332031e+00) (71, -1.12510633468627929688e+01) (72, -1.41928281784057617188e+01) (73, -7.26187820434570312500e+01) (74, -4.28125190734863281250e+00) (75, 3.65404629707336425781e+00) (76, 1.93367710113525390625e+01) (77, 8.16230106353759765625e+00) (78, 4.18227624893188476562e+00) (79, -1.16047868728637695312e+01) (80, 8.48822498321533203125e+00) (81, 8.01172065734863281250e+00) (82, -1.11999139785766601562e+01) (83, 1.32640342712402343750e+01) (84, -9.87406635284423828125e+00) (85, 1.63603858947753906250e+01) (86, 3.96959590911865234375e+00) (87, -3.90823173522949218750e+00) (88, 1.14053449630737304688e+01) (89, 6.96815204620361328125e+00) (90, -2.70142912864685058594e+00) (91, -8.31381301879882812500e+01) (31, 1.94853436946868896484e+00) (32, -6.94061219692230224609e-02) (33, -1.82060015201568603516e+00) (34, 6.62969875335693359375e+00) (35, -2.57265734672546386719e+00) (36, 2.33750553131103515625e+01) (37, 2.92416691780090332031e+00) (38, 7.20545482635498046875e+00) (39, -1.03257865905761718750e+01) (40, 1.07036132812500000000e+02) (41, -1.51949110031127929688e+01) (42, 1.40852546691894531250e+01) (43, -2.86923618316650390625e+01) (44, 1.01625595092773437500e+01) (45, -5.53211927413940429688e+00) (46, -5.84315967559814453125e+00) (47, 7.66355323791503906250e+00) (48, 3.12740459442138671875e+01) (49, 1.06773719787597656250e+01) (50, 1.36322708129882812500e+01) (51, -6.68874597549438476562e+00) (52, -2.18719959259033203125e+01) (53, 8.03994846343994140625e+00) (54, -6.21389865875244140625e-01) (55, -2.12503957748413085938e+00) (56, -1.79215145111083984375e+01) (57, -6.26954650878906250000e+00) (58, 1.11697036743164062500e+02) (59, -7.67767810821533203125e+00) (60, -6.80059432983398437500e+00) (61, -2.32561740875244140625e+01) (62, -7.18189668655395507812e+00) (63, 2.45799899101257324219e+00) (64, -2.03191971778869628906e+00) (65, 8.84487915039062500000e+00) (66, 1.34006614685058593750e+01) (67, -3.37256927490234375000e+01) (68, -8.37926006317138671875e+00) (69, 6.68040227890014648438e+00) (70, -1.09421825408935546875e+01) (71, -2.32480850219726562500e+01) (72, 5.91172266006469726562e+00) (73, -1.13300094604492187500e+02) (74, 1.52474939823150634766e+00) (75, 2.15226154327392578125e+01) (76, -1.47006072998046875000e+01) (77, 1.13048046827316284180e-01) (78, -2.62035083770751953125e+01) (79, 1.82543027400970458984e+00) (80, 7.08617162704467773438e+00) (81, 3.50950012207031250000e+01) (82, -3.23216766119003295898e-01) (83, -3.62675452232360839844e+00) (84, -1.70680828094482421875e+01) (85, -1.88475263118743896484e+00) (86, -1.54824380874633789062e+01) (87, 2.52023673057556152344e+00) (88, 9.35066604614257812500e+00) (89, -2.82117486000061035156e+00) (90, -4.81483697891235351562e+00) (91, -1.14596191406250000000e+02) (31, 9.31406688690185546875e+00) (32, -6.92292213439941406250e+00) (33, 1.17879543304443359375e+01) (34, 9.40874767303466796875e+00) (35, -8.95909976959228515625e+00) (36, -1.13465719223022460938e+01) (37, 6.09179258346557617188e+00) (38, 3.85534119606018066406e+00) (39, -3.33751559257507324219e+00) (40, 3.91076774597167968750e+01) (41, 1.02873535156250000000e+01) (42, 1.56605119705200195312e+01) (43, 1.34506816864013671875e+01) (44, 4.43941307067871093750e+00) (45, -4.63136386871337890625e+00) (46, -5.35292100906372070312e+00) (47, -1.14124765396118164062e+01) (48, 1.87919788360595703125e+01) (49, 8.47834968566894531250e+00) (50, 9.73824501037597656250e+00) (51, -2.21677455902099609375e+01) (52, 1.02237119674682617188e+01) (53, -5.40627002716064453125e+00) (54, 1.83361225128173828125e+01) (55, 6.95379137992858886719e-01) (56, 1.14814348220825195312e+01) (57, -4.29384651184082031250e+01) (58, 8.02865295410156250000e+01) (59, 1.17844572067260742188e+01) (60, -1.26967830657958984375e+01) (61, 3.57471203804016113281e+00) (62, 6.11879777908325195312e+00) (63, 3.46087150573730468750e+01) (64, -3.22827982902526855469e+00) (65, 5.75551223754882812500e+00) (66, -5.77349233627319335938e+00) (67, 5.58865690231323242188e+00) (68, -3.27514481544494628906e+00) (69, -4.51399755477905273438e+00) (70, -1.77900850772857666016e+00) (71, -1.15304508209228515625e+01) (72, 6.33841562271118164062e+00) (73, -8.45387725830078125000e+01) (74, -9.23711299896240234375e-01) (75, 9.22084629535675048828e-01) (76, 1.99767284393310546875e+01) (77, -1.71940631866455078125e+01) (78, 9.55980837345123291016e-01) (79, -8.12138462066650390625e+00) (80, -8.38953316211700439453e-01) (81, -2.14848537445068359375e+01) (82, 1.92281985282897949219e+00) (83, -9.32906723022460937500e+00) (84, 2.05115020275115966797e-01) (85, -3.59240555763244628906e+00) (86, 3.36343455314636230469e+00) (87, 9.59637582302093505859e-01) (88, 1.06539554595947265625e+01) (89, 9.25507926940917968750e+00) (90, 5.97751045227050781250e+00) (91, -8.95357666015625000000e+01) (31, 1.63745975494384765625e+01) (32, -1.51134128570556640625e+01) (33, -5.22420310974121093750e+00) (34, 2.26869297027587890625e+01) (35, -2.43477773666381835938e+00) (36, 2.29777698516845703125e+01) (37, 3.01226253509521484375e+01) (38, 4.80755567550659179688e+00) (39, -1.94409847259521484375e+01) (40, 9.53666229248046875000e+01) (41, -8.10870265960693359375e+00) (42, -1.34132862091064453125e+01) (43, -3.17443504333496093750e+01) (44, -1.63772392272949218750e+00) (45, -1.62296352386474609375e+01) (46, -2.64498462677001953125e+01) (47, -2.12865276336669921875e+01) (48, 2.64740200042724609375e+01) (49, 1.74043083190917968750e+01) (50, 3.06911182403564453125e+00) (51, 5.21592521667480468750e+00) (52, -2.67232942581176757812e+00) (53, 2.35895595550537109375e+01) (54, -1.72364978790283203125e+01) (55, -2.75838794708251953125e+01) (56, 9.83585739135742187500e+00) (57, -1.98589649200439453125e+01) (58, 1.00012649536132812500e+02) (59, -6.96643447875976562500e+00) (60, -1.06025719642639160156e+00) (61, -1.57223968505859375000e+01) (62, -1.63171482086181640625e+01) (63, -1.73157367706298828125e+01) (64, -1.70958499908447265625e+01) (65, 1.76734466552734375000e+01) (66, 1.18704128265380859375e+01) (67, 8.94491100311279296875e+00) (68, 2.63375520706176757812e+00) (69, -2.05752563476562500000e+00) (70, -2.64286079406738281250e+01) (71, 3.30535545349121093750e+01) (72, 5.40338897705078125000e+00) (73, -9.53661041259765625000e+01) (74, 1.01778182983398437500e+01) (75, 2.88592205047607421875e+01) (76, -8.89901876449584960938e-01) (77, -1.14178962707519531250e+01) (78, -1.07847976684570312500e+01) (79, -3.32381486892700195312e+00) (80, 1.92483654022216796875e+01) (81, -3.11003704071044921875e+01) (82, 5.54978311061859130859e-01) (83, 4.90344524383544921875e+00) (84, -5.42254447937011718750e+00) (85, -1.23417177200317382812e+01) (86, 2.20095396041870117188e+00) (87, -3.42664480209350585938e+00) (88, 9.81634902954101562500e+00) (89, -1.19543018341064453125e+01) (90, 3.77448558807373046875e-01) (91, -1.02760955810546875000e+02) (31, 1.08893594741821289062e+01) (32, -2.72495102882385253906e+00) (33, -1.09760971069335937500e+01) (34, -3.06959972381591796875e+01) (35, 2.01384425163269042969e+00) (36, 3.47111473083496093750e+01) (37, -9.40982818603515625000e+00) (38, -4.86631482839584350586e-01) (39, 7.56158685684204101562e+00) (40, 8.67996368408203125000e+01) (41, 4.59587430953979492188e+00) (42, 8.97402763366699218750e+00) (43, -1.08422935009002685547e+00) (44, 6.50409889221191406250e+00) (45, -7.27504301071166992188e+00) (46, 6.17864847183227539062e+00) (47, 2.94470310211181640625e+01) (48, 5.28090095520019531250e+00) (49, -1.24519920349121093750e+01) (50, 1.85301189422607421875e+01) (51, 6.87314891815185546875e+00) (52, -3.39124488830566406250e+01) (53, -5.33233690261840820312e+00) (54, 1.67024338245391845703e+00) (55, 6.60007953643798828125e+00) (56, -3.41439895629882812500e+01) (57, -2.59834041595458984375e+01) (58, 9.43589324951171875000e+01) (59, 4.55126953125000000000e+00) (60, 1.38556995391845703125e+01) (61, -1.06827716827392578125e+01) (62, -3.12159500122070312500e+01) (63, 6.17417955398559570312e+00) (64, 1.01627559661865234375e+01) (65, 1.29676952362060546875e+01) (66, 1.18708686828613281250e+01) (67, -9.01401042938232421875e-01) (68, -3.26029658317565917969e+00) (69, 1.67493000030517578125e+01) (70, 1.41642246246337890625e+01) (71, 1.38507785797119140625e+01) (72, 2.88715991973876953125e+01) (73, -9.25825347900390625000e+01) (74, 1.49361772537231445312e+01) (75, -2.32726955413818359375e+01) (76, -2.42059917449951171875e+01) (77, 8.82928752899169921875e+00) (78, -2.39342937469482421875e+01) (79, -1.91674633026123046875e+01) (80, -6.63853549957275390625e+00) (81, -1.12051582336425781250e+00) (82, 8.37934970855712890625e+00) (83, -3.83513045310974121094e+00) (84, -2.84138278961181640625e+01) (85, 1.27894344329833984375e+01) (86, 1.16684436798095703125e+00) (87, 1.54394655227661132812e+01) (88, 2.11311016082763671875e+01) (89, -2.58358497619628906250e+01) (90, 3.23445343971252441406e+00) (91, -1.00924346923828125000e+02) (31, -2.60673069953918457031e+00) (32, -3.36421179771423339844e+00) (33, 9.52915763854980468750e+00) (34, -5.30442714691162109375e+00) (35, 1.11421585083007812500e+00) (36, -1.33833475112915039062e+01) (37, -9.11176872253417968750e+00) (38, 3.46561889648437500000e+01) (39, -1.04664335250854492188e+01) (40, 8.38889236450195312500e+01) (41, -1.29134583473205566406e+00) (42, 2.06028099060058593750e+01) (43, 1.34949798583984375000e+01) (44, 7.36794853210449218750e+00) (45, -6.52161026000976562500e+00) (46, 4.34916925430297851562e+00) (47, 1.04971952438354492188e+01) (48, -2.44400167465209960938e+00) (49, -1.35861301422119140625e+01) (50, 3.16278648376464843750e+00) (51, 1.30978775024414062500e+01) (52, 1.81927490234375000000e+01) (53, -1.39254903793334960938e+01) (54, -2.03466629981994628906e+00) (55, 3.49489936828613281250e+01) (56, 5.27716457843780517578e-01) (57, -4.34563064575195312500e+01) (58, 8.43288192749023437500e+01) (59, -1.68338871002197265625e+01) (60, 4.03877115249633789062e+00) (61, 8.03416252136230468750e+00) (62, 9.70450401306152343750e+00) (63, 1.48831949234008789062e+01) (64, -1.65934505462646484375e+01) (65, 6.42940759658813476562e+00) (66, -3.50937128067016601562e+00) (67, -1.55231256484985351562e+01) (68, -7.84006929397583007812e+00) (69, 4.89005184173583984375e+00) (70, 3.02652301788330078125e+01) (71, 9.85117340087890625000e+00) (72, 9.19964504241943359375e+00) (73, -8.46192550659179687500e+01) (74, 1.49179964065551757812e+01) (75, -8.35960388183593750000e+00) (76, 1.32073993682861328125e+01) (77, -1.51077775955200195312e+01) (78, 1.00778045654296875000e+01) (79, -5.73682308197021484375e+00) (80, 4.48674535751342773438e+00) (81, 3.77183842658996582031e+00) (82, 1.18379068374633789062e+01) (83, -1.97643241882324218750e+01) (84, -1.42453041076660156250e+01) (85, -3.03666901588439941406e+00) (86, 3.98496210575103759766e-01) (87, 1.40593681335449218750e+01) (88, -7.72268009185791015625e+00) (89, 9.33388233184814453125e+00) (90, -1.61240634918212890625e+01) (91, -9.24523849487304687500e+01) (31, -2.28663520812988281250e+01) (32, 2.41286206245422363281e+00) (33, -7.21414804458618164062e+00) (34, -7.25749731063842773438e-01) (35, -1.04189500808715820312e+01) (36, 1.20551967620849609375e+01) (37, 1.49578495025634765625e+01) (38, -3.95771455764770507812e+00) (39, -3.95467972755432128906e+00) (40, 8.30315856933593750000e+01) (41, -5.97309446334838867188e+00) (42, -2.60738143920898437500e+01) (43, -2.53473014831542968750e+01) (44, 1.90013468265533447266e+00) (45, 4.07983016967773437500e+00) (46, 1.29295599460601806641e+00) (47, 3.12492191791534423828e-01) (48, 7.57619142532348632812e+00) (49, 5.40065813064575195312e+00) (50, 1.09814348220825195312e+01) (51, -2.57071137428283691406e+00) (52, -1.61901950836181640625e+01) (53, 1.22493724822998046875e+01) (54, -3.84355187416076660156e+00) (55, -2.79177608489990234375e+01) (56, -1.27826185226440429688e+01) (57, 1.61505832672119140625e+01) (58, 8.99947357177734375000e+01) (59, 4.14963103830814361572e-02) (60, -3.02160120010375976562e+00) (61, -7.05914449691772460938e+00) (62, 3.47624325752258300781e+00) (63, -9.89720058441162109375e+00) (64, 1.24555950164794921875e+01) (65, -6.23240566253662109375e+00) (66, -3.09194850921630859375e+00) (67, 2.61166191101074218750e+01) (68, 4.70136213302612304688e+00) (69, -2.58620572090148925781e+00) (70, -6.02877616882324218750e+00) (71, -1.95249061584472656250e+01) (72, 7.78367853164672851562e+00) (73, -8.86411437988281250000e+01) (74, 1.62612209320068359375e+01) (75, 4.83762788772583007812e+00) (76, -2.71732497215270996094e+00) (77, 1.35282707214355468750e+01) (78, -1.14602966308593750000e+01) (79, -2.03126335144042968750e+01) (80, 3.83225798606872558594e+00) (81, 1.39624605178833007812e+01) (82, -8.48699092864990234375e+00) (83, 4.70063304901123046875e+00) (84, -1.08147144317626953125e+01) (85, -6.22669696807861328125e+00) (86, 4.02445411682128906250e+00) (87, -1.03003654479980468750e+01) (88, 5.45881700515747070312e+00) (89, -1.75160560607910156250e+01) (90, 4.62461423873901367188e+00) (91, -9.35239868164062500000e+01) (31, -2.35144405364990234375e+01) (32, -2.15145874023437500000e+00) (33, -3.50605577230453491211e-01) (34, -1.15146675109863281250e+01) (35, 2.68332405090332031250e+01) (36, 3.27543735504150390625e+00) (37, -1.37224998474121093750e+01) (38, -2.66553001403808593750e+01) (39, 5.08359384536743164062e+00) (40, 1.00957656860351562500e+02) (41, 4.87162160873413085938e+00) (42, -1.26438999176025390625e+01) (43, 1.60557899475097656250e+01) (44, -1.77748126983642578125e+01) (45, 1.21301040649414062500e+01) (46, -6.34500932693481445312e+00) (47, 1.12636680603027343750e+01) (48, -2.99554271697998046875e+01) (49, 8.43013191223144531250e+00) (50, -5.32295846939086914062e+00) (51, 9.96535968780517578125e+00) (52, -7.07233572006225585938e+00) (53, -2.42149925231933593750e+00) (54, 3.23830318450927734375e+00) (55, 2.62393474578857421875e+00) (56, -3.74050674438476562500e+01) (57, 2.53227157592773437500e+01) (58, 1.11707962036132812500e+02) (59, -4.79598188400268554688e+00) (60, -1.45701885223388671875e+01) (61, -2.19037704467773437500e+01) (62, -3.02482109069824218750e+01) (63, -1.03637485504150390625e+01) (64, 2.17493076324462890625e+01) (65, -1.75864279270172119141e+00) (66, 1.09097290039062500000e+01) (67, -7.91754961013793945312e-01) (68, 6.27795886993408203125e+00) (69, 8.15565872192382812500e+00) (70, 2.49366474151611328125e+00) (71, -9.99152183532714843750e+00) (72, -1.56976194381713867188e+01) (73, -1.08108825683593750000e+02) (74, 1.51388931274414062500e+01) (75, -3.86737136840820312500e+01) (76, -2.45893630981445312500e+01) (77, 8.91711521148681640625e+00) (78, -2.38340682983398437500e+01) (79, -1.30467901229858398438e+01) (80, -1.36127986907958984375e+01) (81, 1.72471504211425781250e+01) (82, -1.02280521392822265625e+01) (83, 2.78946781158447265625e+00) (84, -2.56474685668945312500e+01) (85, 3.49930572509765625000e+00) (86, -2.84919662475585937500e+01) (87, -1.77363281250000000000e+01) (88, 3.96258449554443359375e+00) (89, -1.75784063339233398438e+00) (90, 1.40054588317871093750e+01) (91, -1.17117233276367187500e+02) (31, -1.64181385040283203125e+01) (32, -6.32247400283813476562e+00) (33, 5.49396133422851562500e+00) (34, 1.19958438873291015625e+01) (35, 2.09761371612548828125e+01) (36, 9.53909111022949218750e+00) (37, 3.37318539619445800781e+00) (38, -4.03696250915527343750e+00) (39, -6.98883819580078125000e+00) (40, 9.83150787353515625000e+01) (41, 9.98275947570800781250e+00) (42, -1.17198581695556640625e+01) (43, -1.78863620758056640625e+01) (44, -3.54837632179260253906e+00) (45, 2.02489261627197265625e+01) (46, -1.12798557281494140625e+01) (47, 3.43510627746582031250e+01) (48, 2.39659252166748046875e+01) (49, 1.69947922229766845703e+00) (50, 2.77536660432815551758e-01) (51, 9.80563735961914062500e+00) (52, 3.26562428474426269531e+00) (53, 1.42360000610351562500e+01) (54, 1.10122661590576171875e+01) (55, -8.17142200469970703125e+00) (56, 1.22313270568847656250e+01) (57, 7.08608198165893554688e+00) (58, 9.94642028808593750000e+01) (59, 8.42014253139495849609e-01) (60, 1.63688449859619140625e+01) (61, -8.31994533538818359375e+00) (62, -1.23095397949218750000e+01) (63, -4.68101644515991210938e+00) (64, 5.27498722076416015625e-01) (65, -7.21896588802337646484e-01) (66, -2.27809734344482421875e+01) (67, -3.62646222114562988281e+00) (68, 4.41232585906982421875e+00) (69, -2.07253575325012207031e+00) (70, -1.11475944519042968750e+01) (71, 2.32961673736572265625e+01) (72, 1.80697383880615234375e+01) (73, -1.00047714233398437500e+02) (74, 1.96864948272705078125e+01) (75, -8.50666809082031250000e+00) (76, -1.19822111129760742188e+01) (77, 7.22781419754028320312e+00) (78, -1.02210903167724609375e+01) (79, -3.45031046867370605469e+00) (80, 1.12713584899902343750e+01) (81, 7.09421491622924804688e+00) (82, -5.99637842178344726562e+00) (83, 7.95264005661010742188e+00) (84, 1.66308269500732421875e+01) (85, 4.49279451370239257812e+00) (86, 1.29222946166992187500e+01) (87, -1.37692037969827651978e-02) (88, -2.66057908535003662109e-01) (89, -3.61126828193664550781e+00) (90, 8.46317863464355468750e+00) (91, -1.01184249877929687500e+02) (31, -5.25412750244140625000e+00) (32, -1.24733333587646484375e+01) (33, -4.95112228393554687500e+00) (34, -2.50559940338134765625e+01) (35, -2.54584865570068359375e+01) (36, -1.10385780334472656250e+01) (37, 4.91342163085937500000e+00) (38, 1.58892545700073242188e+01) (39, -1.41572749614715576172e+00) (40, 9.80778045654296875000e+01) (41, 1.26321105957031250000e+01) (42, -2.95432734489440917969e+00) (43, -3.27660026550292968750e+01) (44, -6.39368915557861328125e+00) (45, -2.83356761932373046875e+01) (46, -3.91757321357727050781e+00) (47, 1.03818845748901367188e+01) (48, 4.75787401199340820312e+00) (49, 4.96487951278686523438e+00) (50, -4.04136180877685546875e+00) (51, 6.79754352569580078125e+00) (52, -6.70591068267822265625e+00) (53, 1.72331924438476562500e+01) (54, 1.70594894886016845703e+00) (55, 8.88615787029266357422e-01) (56, 3.87565636634826660156e+00) (57, 5.39018034934997558594e-01) (58, 1.04119277954101562500e+02) (59, 1.16819448471069335938e+01) (60, -2.03818874359130859375e+01) (61, -1.12835750579833984375e+01) (62, -2.59374256134033203125e+01) (63, -1.04710340499877929688e+01) (64, -5.39292430877685546875e+00) (65, -1.79152946472167968750e+01) (66, -2.22661757469177246094e+00) (67, -1.95374526977539062500e+01) (68, -1.98579769134521484375e+01) (69, -2.19390830993652343750e+01) (70, 3.64078450202941894531e+00) (71, 1.02029209136962890625e+01) (72, 1.65039396286010742188e+00) (73, -1.02455535888671875000e+02) (74, 2.21420288085937500000e+01) (75, -6.33083877563476562500e+01) (76, 2.57190647125244140625e+01) (77, 2.19466438293457031250e+01) (78, 6.51958227157592773438e+00) (79, 3.78904414176940917969e+00) (80, 2.27699470520019531250e+01) (81, -2.82421054840087890625e+01) (82, -2.99979572296142578125e+01) (83, 1.12420616149902343750e+01) (84, -1.49302358627319335938e+01) (85, 5.24200871586799621582e-02) (86, -1.23066520690917968750e+01) (87, -2.43583374023437500000e+01) (88, -3.66078090667724609375e+00) (89, 1.07185049057006835938e+01) (90, -4.20806527137756347656e-01) (91, -1.08145889282226562500e+02) (31, -3.27733755111694335938e-01) (32, 1.74177684783935546875e+01) (33, 2.46842174530029296875e+01) (34, -5.46192073822021484375e+00) (35, 2.53041496276855468750e+01) (36, 2.26669254302978515625e+01) (37, -9.76353549957275390625e+00) (38, 1.45508127212524414062e+01) (39, -1.57485837936401367188e+01) (40, 6.65686035156250000000e+01) (41, -3.65726542472839355469e+00) (42, 2.05571508407592773438e+00) (43, 1.57242574691772460938e+01) (44, 1.69055995941162109375e+01) (45, -2.67251300811767578125e+01) (46, 4.51615667343139648438e+00) (47, -2.88897156715393066406e+00) (48, 6.71550655364990234375e+00) (49, -5.58433866500854492188e+00) (50, 9.27733421325683593750e+00) (51, 2.38914318084716796875e+01) (52, -1.05603618621826171875e+01) (53, 1.57537078857421875000e+01) (54, 2.82635140419006347656e+00) (55, 3.31267952919006347656e+00) (56, -6.00264739990234375000e+00) (57, -3.81870388984680175781e+00) (58, 7.81554565429687500000e+01) (59, -1.30243186950683593750e+01) (60, 2.63182640075683593750e+00) (61, -7.36396694183349609375e+00) (62, -7.83638143539428710938e+00) (63, -7.11428689956665039062e+00) (64, -2.62189846038818359375e+01) (65, 8.40477848052978515625e+00) (66, 2.38311443328857421875e+01) (67, -2.10752987861633300781e+00) (68, 1.19390010833740234375e+01) (69, 9.44687366485595703125e+00) (70, -2.17975196838378906250e+01) (71, 1.79924845695495605469e-01) (72, -2.09688633680343627930e-01) (73, -7.74416809082031250000e+01) (74, 8.19449234008789062500e+00) (75, 3.53024983406066894531e+00) (76, 3.79262847900390625000e+01) (77, -1.17123823165893554688e+01) (78, 1.73543510437011718750e+01) (79, -3.95527100563049316406e+00) (80, -2.00998916625976562500e+01) (81, -1.30603923797607421875e+01) (82, -9.60410499572753906250e+00) (83, -1.58469638824462890625e+01) (84, 1.01865129470825195312e+01) (85, 2.33024883270263671875e+01) (86, -1.69136981964111328125e+01) (87, 4.29212856292724609375e+00) (88, 9.91197395324707031250e+00) (89, -2.71805024147033691406e+00) (90, 9.55533218383789062500e+00) (91, -8.22621002197265625000e+01) (31, 2.92781352996826171875e+00) (32, -8.13882350921630859375e+00) (33, 9.19081592559814453125e+00) (34, 6.79594850540161132812e+00) (35, 7.62668466567993164062e+00) (36, 5.77677965164184570312e+00) (37, 2.32013568878173828125e+01) (38, -1.53267221450805664062e+01) (39, -9.96830081939697265625e+00) (40, 6.61259307861328125000e+01) (41, -1.89638900756835937500e+01) (42, -3.05692315101623535156e-01) (43, 1.48323602676391601562e+01) (44, 3.68392801284790039062e+00) (45, -1.41597223281860351562e+01) (46, 1.89450359344482421875e+01) (47, 4.23049807548522949219e-01) (48, 1.75887241363525390625e+01) (49, 5.62797021865844726562e+00) (50, -4.97997236251831054688e+00) (51, 8.60486447811126708984e-01) (52, 1.07922563552856445312e+01) (53, 1.68261394500732421875e+01) (54, -4.57534730434417724609e-01) (55, 1.25872880220413208008e-01) (56, 4.41932392120361328125e+00) (57, 2.39052753448486328125e+01) (58, 8.38674316406250000000e+01) (59, -2.52902851104736328125e+01) (60, 9.97841548919677734375e+00) (61, -1.59886569976806640625e+01) (62, -1.33736257553100585938e+01) (63, 4.12600517272949218750e-01) (64, -7.91485786437988281250e+00) (65, -1.58192396163940429688e+01) (66, 1.08817119598388671875e+01) (67, -4.12485003471374511719e-01) (68, -9.51482677459716796875e+00) (69, 3.21971917152404785156e+00) (70, 7.36489963531494140625e+00) (71, -2.28079662322998046875e+01) (72, 1.72183685302734375000e+01) (73, -8.17549285888671875000e+01) (74, 1.81644001007080078125e+01) (75, 5.22162103652954101562e+00) (76, 2.69802165031433105469e+00) (77, -1.96969127655029296875e+01) (78, -4.58402156829833984375e+00) (79, 1.53833878040313720703e+00) (80, 2.61565227508544921875e+01) (81, 