FANN_FLO_2.1
num_layers=3
learning_rate=0.700000
connection_rate=1.000000
network_type=0
learning_momentum=0.400000
training_algorithm=0
train_error_function=1
train_stop_function=0
cascade_output_change_fraction=0.010000
quickprop_decay=-0.000100
quickprop_mu=1.750000
rprop_increase_factor=1.200000
rprop_decrease_factor=0.500000
rprop_delta_min=0.000000
rprop_delta_max=50.000000
rprop_delta_zero=0.100000
cascade_output_stagnation_epochs=12
cascade_candidate_change_fraction=0.010000
cascade_candidate_stagnation_epochs=12
cascade_max_out_epochs=150
cascade_min_out_epochs=50
cascade_max_cand_epochs=150
cascade_min_cand_epochs=50
cascade_num_candidate_groups=2
bit_fail_limit=3.49999994039535522461e-01
cascade_candidate_limit=1.00000000000000000000e+03
cascade_weight_multiplier=4.00000005960464477539e-01
cascade_activation_functions_count=10
cascade_activation_functions=3 5 7 8 10 11 14 15 16 17 
cascade_activation_steepnesses_count=4
cascade_activation_steepnesses=2.50000000000000000000e-01 5.00000000000000000000e-01 7.50000000000000000000e-01 1.00000000000000000000e+00 
layer_sizes=22 61 41 
scale_included=0
neurons (num_inputs, activation_function, activation_steepness)=(0, 0, 0.00000000000000000000e+00) (0, 0, 0.00000000000000000000e+00) (0, 0, 0.00000000000000000000e+00) (0, 0, 0.00000000000000000000e+00) (0, 0, 0.00000000000000000000e+00) (0, 0, 0.00000000000000000000e+00) (0, 0, 0.00000000000000000000e+00) (0, 0, 0.00000000000000000000e+00) (0, 0, 0.00000000000000000000e+00) (0, 0, 0.00000000000000000000e+00) (0, 0, 0.00000000000000000000e+00) (0, 0, 0.00000000000000000000e+00) (0, 0, 0.00000000000000000000e+00) (0, 0, 0.00000000000000000000e+00) (0, 0, 0.00000000000000000000e+00) (0, 0, 0.00000000000000000000e+00) (0, 0, 0.00000000000000000000e+00) (0, 0, 0.00000000000000000000e+00) (0, 0, 0.00000000000000000000e+00) (0, 0, 0.00000000000000000000e+00) (0, 0, 0.00000000000000000000e+00) (0, 0, 0.00000000000000000000e+00) (22, 5, 1.00000000000000000000e+00) (22, 5, 1.00000000000000000000e+00) (22, 5, 1.00000000000000000000e+00) (22, 5, 1.00000000000000000000e+00) (22, 5, 1.00000000000000000000e+00) (22, 5, 1.00000000000000000000e+00) (22, 5, 1.00000000000000000000e+00) (22, 5, 1.00000000000000000000e+00) (22, 5, 1.00000000000000000000e+00) (22, 5, 1.00000000000000000000e+00) (22, 5, 1.00000000000000000000e+00) (22, 5, 1.00000000000000000000e+00) (22, 5, 1.00000000000000000000e+00) (22, 5, 1.00000000000000000000e+00) (22, 5, 1.00000000000000000000e+00) (22, 5, 1.00000000000000000000e+00) (22, 5, 1.00000000000000000000e+00) (22, 5, 1.00000000000000000000e+00) (22, 5, 1.00000000000000000000e+00) (22, 5, 1.00000000000000000000e+00) (22, 5, 1.00000000000000000000e+00) (22, 5, 1.00000000000000000000e+00) (22, 5, 1.00000000000000000000e+00) (22, 5, 1.00000000000000000000e+00) (22, 5, 1.00000000000000000000e+00) (22, 5, 1.00000000000000000000e+00) (22, 5, 1.00000000000000000000e+00) (22, 5, 1.00000000000000000000e+00) (22, 5, 1.00000000000000000000e+00) (22, 5, 1.00000000000000000000e+00) (22, 5, 1.00000000000000000000e+00) (22, 5, 1.00000000000000000000e+00) (22, 5, 1.00000000000000000000e+00) (22, 5, 1.00000000000000000000e+00) (22, 5, 1.00000000000000000000e+00) (22, 5, 1.00000000000000000000e+00) (22, 5, 1.00000000000000000000e+00) (22, 5, 1.00000000000000000000e+00) (22, 5, 1.00000000000000000000e+00) (22, 5, 1.00000000000000000000e+00) (22, 5, 1.00000000000000000000e+00) (22, 5, 1.00000000000000000000e+00) (22, 5, 1.00000000000000000000e+00) (22, 5, 1.00000000000000000000e+00) (22, 5, 1.00000000000000000000e+00) (22, 5, 1.00000000000000000000e+00) (22, 5, 1.00000000000000000000e+00) (22, 5, 1.00000000000000000000e+00) (22, 5, 1.00000000000000000000e+00) (22, 5, 1.00000000000000000000e+00) (22, 5, 1.00000000000000000000e+00) (22, 5, 1.00000000000000000000e+00) (22, 5, 1.00000000000000000000e+00) (22, 5, 1.00000000000000000000e+00) (22, 5, 1.00000000000000000000e+00) (22, 5, 1.00000000000000000000e+00) (22, 5, 1.00000000000000000000e+00) (22, 5, 1.00000000000000000000e+00) (22, 5, 1.00000000000000000000e+00) (22, 5, 1.00000000000000000000e+00) (0, 5, 1.00000000000000000000e+00) (61, 5, 1.00000000000000000000e+00) (61, 5, 1.00000000000000000000e+00) (61, 5, 1.00000000000000000000e+00) (61, 5, 1.00000000000000000000e+00) (61, 5, 1.00000000000000000000e+00) (61, 5, 1.00000000000000000000e+00) (61, 5, 1.00000000000000000000e+00) (61, 5, 1.00000000000000000000e+00) (61, 5, 1.00000000000000000000e+00) (61, 5, 1.00000000000000000000e+00) (61, 5, 1.00000000000000000000e+00) (61, 5, 1.00000000000000000000e+00) (61, 5, 1.00000000000000000000e+00) (61, 5, 1.00000000000000000000e+00) (61, 5, 1.00000000000000000000e+00) (61, 5, 1.00000000000000000000e+00) (61, 5, 1.00000000000000000000e+00) (61, 5, 1.00000000000000000000e+00) (61, 5, 1.00000000000000000000e+00) (61, 5, 1.00000000000000000000e+00) (61, 5, 1.00000000000000000000e+00) (61, 5, 1.00000000000000000000e+00) (61, 5, 1.00000000000000000000e+00) (61, 5, 1.00000000000000000000e+00) (61, 5, 1.00000000000000000000e+00) (61, 5, 1.00000000000000000000e+00) (61, 5, 1.00000000000000000000e+00) (61, 5, 1.00000000000000000000e+00) (61, 5, 1.00000000000000000000e+00) (61, 5, 1.00000000000000000000e+00) (61, 5, 1.00000000000000000000e+00) (61, 5, 1.00000000000000000000e+00) (61, 5, 1.00000000000000000000e+00) (61, 5, 1.00000000000000000000e+00) (61, 5, 1.00000000000000000000e+00) (61, 5, 1.00000000000000000000e+00) (61, 5, 1.00000000000000000000e+00) (61, 5, 1.00000000000000000000e+00) (61, 5, 1.00000000000000000000e+00) (61, 5, 1.00000000000000000000e+00) (0, 5, 1.00000000000000000000e+00) 
connections (connected_to_neuron, weight)=(0, -1.99706351757049560547e+00) (1, 2.51084594726562500000e+01) (2, 3.30234794616699218750e+01) (3, -2.82526798248291015625e+01) (4, 2.56940269470214843750e+01) (5, -2.10818195343017578125e+01) (6, 2.47751979827880859375e+01) (7, 5.16952705383300781250e+01) (8, 4.17620849609375000000e+01) (9, 1.54673266410827636719e+00) (10, -1.98987996578216552734e+00) (11, -4.66288900375366210938e+00) (12, 1.11787023544311523438e+01) (13, 1.25462388992309570312e+01) (14, 2.19412479400634765625e+01) (15, -4.13191223144531250000e+01) (16, -4.92982368469238281250e+01) (17, 5.28169212341308593750e+01) (18, 6.70600509643554687500e+01) (19, 1.44788799285888671875e+01) (20, 6.86427736282348632812e+00) (21, 1.60324382781982421875e+01) (0, 5.00774307250976562500e+01) (1, -4.50577545166015625000e+01) (2, -7.65109405517578125000e+01) (3, 2.74168777465820312500e+01) (4, 2.89978122711181640625e+01) (5, -6.01299324035644531250e+01) (6, -6.15732803344726562500e+01) (7, -4.24311065673828125000e+01) (8, 6.22775840759277343750e+00) (9, 4.07299385070800781250e+01) (10, -1.60084877014160156250e+01) (11, -3.13751697540283203125e+01) (12, -1.52559185028076171875e+01) (13, -3.25750312805175781250e+01) (14, 3.50242309570312500000e+01) (15, 4.83009529113769531250e+01) (16, 1.74520623683929443359e+00) (17, 9.16265296936035156250e+00) (18, 5.41284790039062500000e+01) (19, -3.27130241394042968750e+01) (20, -2.08908748626708984375e+01) (21, -1.79952087402343750000e+01) (0, -4.09067001342773437500e+01) (1, 1.39747116088867187500e+02) (2, -1.71764802932739257812e+00) (3, -1.16611709594726562500e+01) (4, 2.92220077514648437500e+01) (5, 2.20205097198486328125e+01) (6, -1.24000043869018554688e+01) (7, 3.48747329711914062500e+01) (8, 4.64692878723144531250e+01) (9, 3.77179565429687500000e+01) (10, -4.83379325866699218750e+01) (11, 8.04711532592773437500e+00) (12, -2.47592468261718750000e+01) (13, -3.63940620422363281250e+01) (14, 2.08839464187622070312e+00) (15, 2.63746395111083984375e+01) (16, 3.37490921020507812500e+01) (17, -2.99458522796630859375e+01) (18, 5.92003135681152343750e+01) (19, -4.99805984497070312500e+01) (20, 4.75035324096679687500e+01) (21, -7.67877674102783203125e+00) (0, 2.24141235351562500000e+01) (1, -4.13798637390136718750e+01) (2, -1.58101711273193359375e+01) (3, 1.07257213592529296875e+01) (4, 2.03379936218261718750e+01) (5, 3.17743911743164062500e+01) (6, 2.79686622619628906250e+01) (7, -1.54548656940460205078e+00) (8, -3.65069274902343750000e+01) (9, -2.49300670623779296875e+01) (10, -3.87220306396484375000e+01) (11, -1.59502773284912109375e+01) (12, -5.02822418212890625000e+01) (13, 1.40845842361450195312e+01) (14, 4.75160942077636718750e+01) (15, 2.88919296264648437500e+01) (16, 4.02197408676147460938e+00) (17, -5.12604637145996093750e+01) (18, 4.18201637268066406250e+01) (19, 4.08155822753906250000e+01) (20, -3.93123588562011718750e+01) (21, -9.15423965454101562500e+00) (0, -2.21883716583251953125e+01) (1, 1.95157546997070312500e+02) (2, 4.91983566284179687500e+01) (3, -4.91001278162002563477e-01) (4, 3.49130477905273437500e+01) (5, -2.30261344909667968750e+01) (6, -9.18724536895751953125e+00) (7, -5.55713844299316406250e+00) (8, -2.42370967864990234375e+01) (9, -2.22744045257568359375e+01) (10, -3.16112804412841796875e+00) (11, -1.35761194229125976562e+01) (12, -7.33955383300781250000e+01) (13, -5.08373260498046875000e+00) (14, 1.52655434608459472656e+00) (15, 1.77572097778320312500e+01) (16, 2.56943092346191406250e+01) (17, 5.63499298095703125000e+01) (18, 4.85782623291015625000e+01) (19, 3.55428237915039062500e+01) (20, -2.57166118621826171875e+01) (21, -2.89670705795288085938e+00) (0, 5.74864845275878906250e+01) (1, 1.63833296298980712891e+00) (2, 4.24993858337402343750e+01) (3, -2.26188468933105468750e+01) (4, 1.34182556152343750000e+02) (5, 1.90251064300537109375e+01) (6, 2.81900234222412109375e+01) (7, 9.50425338745117187500e+00) (8, 2.52335052490234375000e+01) (9, 2.78637142181396484375e+01) (10, -2.70125732421875000000e+01) (11, 3.46226882934570312500e+01) (12, -3.05122852325439453125e+00) (13, -1.20455894470214843750e+01) (14, 8.45086059570312500000e+01) (15, 1.10418075561523437500e+02) (16, 6.80518951416015625000e+01) (17, 1.00932098388671875000e+02) (18, 6.00231056213378906250e+01) (19, 4.09176177978515625000e+01) (20, -1.52806482315063476562e+01) (21, -1.81597946166992187500e+02) (0, -6.57033538818359375000e+01) (1, -1.13292144775390625000e+02) (2, -8.55920181274414062500e+01) (3, -2.06184406280517578125e+01) (4, -1.87624969482421875000e+01) (5, -4.07894630432128906250e+01) (6, -1.53738088607788085938e+01) (7, 1.16649904251098632812e+01) (8, 2.01517562866210937500e+01) (9, 3.42028503417968750000e+01) (10, 4.31382980346679687500e+01) (11, 2.91312389373779296875e+01) (12, 2.79670524597167968750e+01) (13, -4.52720880508422851562e-01) (14, -2.72040367126464843750e+01) (15, 7.61631536483764648438e+00) (16, 1.33223352432250976562e+01) (17, 2.46691570281982421875e+01) (18, -6.85098648071289062500e+01) (19, 2.29310455322265625000e+01) (20, 9.77005672454833984375e+00) (21, 4.57370710372924804688e+00) (0, 4.51736946105957031250e+01) (1, 7.01295242309570312500e+01) (2, 3.77684364318847656250e+01) (3, 2.97235641479492187500e+01) (4, 5.53765058517456054688e+00) (5, -6.13680419921875000000e+01) (6, -5.58518638610839843750e+01) (7, -1.96090602874755859375e+01) (8, 6.50296163558959960938e+00) (9, 4.84340381622314453125e+00) (10, 7.46201610565185546875e+00) (11, 1.74270019531250000000e+01) (12, -4.25585222244262695312e+00) (13, -3.20621604919433593750e+01) (14, -6.48520507812500000000e+01) (15, 2.85690536499023437500e+01) (16, 2.26906127929687500000e+01) (17, 4.63772583007812500000e+01) (18, -5.21002674102783203125e+00) (19, -2.76879768371582031250e+01) (20, 2.67398047447204589844e+00) (21, -1.39371728897094726562e+01) (0, 4.75501403808593750000e+01) (1, 1.47639026641845703125e+01) (2, -3.67599105834960937500e+01) (3, 1.29025440216064453125e+01) (4, 9.69577550888061523438e-01) (5, -6.22290992736816406250e+01) (6, -2.62365398406982421875e+01) (7, -5.24559707641601562500e+01) (8, -4.15115165710449218750e+00) (9, 3.14579048156738281250e+01) (10, 5.23600311279296875000e+01) (11, 4.96379585266113281250e+01) (12, -1.92126598358154296875e+01) (13, -9.35354042053222656250e+00) (14, 1.45220766067504882812e+01) (15, -3.61932029724121093750e+01) (16, -4.22774353027343750000e+01) (17, 3.91166710853576660156e+00) (18, 4.20961608886718750000e+01) (19, -3.71959495544433593750e+01) (20, -1.28487634658813476562e+01) (21, -9.72102546691894531250e+00) (0, 7.12439880371093750000e+01) (1, 1.02545570373535156250e+02) (2, 2.53465919494628906250e+01) (3, 4.01394309997558593750e+01) (4, 7.84015121459960937500e+01) (5, 1.92111343383789062500e+02) (6, 1.40926727294921875000e+02) (7, -2.66775722503662109375e+01) (8, -8.74903261661529541016e-01) (9, -9.73852825164794921875e+00) (10, -3.88326683044433593750e+01) (11, -5.75627250671386718750e+01) (12, 4.06931076049804687500e+01) (13, 5.17211341857910156250e+01) (14, -1.26471719741821289062e+01) (15, -1.29189691543579101562e+01) (16, 5.42042007446289062500e+01) (17, -7.54145050048828125000e+01) (18, -1.03247137069702148438e+01) (19, -5.66319160461425781250e+01) (20, -2.23390026092529296875e+01) (21, 3.29797477722167968750e+01) (0, 4.32488670349121093750e+01) (1, -2.07313404083251953125e+01) (2, -1.58630037307739257812e+01) (3, -4.83772754669189453125e-01) (4, -5.51858978271484375000e+01) (5, 8.17383117675781250000e+01) (6, 2.49291157722473144531e+00) (7, 5.49411048889160156250e+01) (8, 5.82007484436035156250e+01) (9, 3.37641601562500000000e+01) (10, 4.28969573974609375000e+00) (11, -2.04629745483398437500e+01) (12, 1.01155090332031250000e+01) (13, 1.90851440429687500000e+01) (14, 1.84543311595916748047e+00) (15, -8.84877777099609375000e+01) (16, -4.44414863586425781250e+01) (17, 1.27505941390991210938e+01) (18, -4.41725425720214843750e+01) (19, 2.86779842376708984375e+01) (20, 3.27021241188049316406e+00) (21, 4.89948844909667968750e+01) (0, -4.69166374206542968750e+00) (1, 3.78757858276367187500e+01) (2, -2.05934028625488281250e+01) (3, 4.05398654937744140625e+00) (4, -1.05185146331787109375e+01) (5, 2.50645046234130859375e+01) (6, 3.79603691101074218750e+01) (7, 1.28888721466064453125e+01) (8, 1.05168848037719726562e+01) (9, 9.67277145385742187500e+00) (10, 5.76338768005371093750e+00) (11, 4.68965768814086914062e-01) (12, -4.08742866516113281250e+01) (13, -2.72468643188476562500e+01) (14, 6.74955596923828125000e+01) (15, 2.00616989135742187500e+01) (16, 7.93559875488281250000e+01) (17, -1.45762319564819335938e+01) (18, -3.75841102600097656250e+01) (19, 8.23428955078125000000e+01) (20, -5.82104063034057617188e+00) (21, -1.95659790039062500000e+01) (0, 6.28790397644042968750e+01) (1, 2.73035583496093750000e+01) (2, 1.36895122528076171875e+01) (3, 2.05138797760009765625e+01) (4, 1.19281341552734375000e+02) (5, 5.79992332458496093750e+01) (6, 4.72497520446777343750e+01) (7, 1.86875305175781250000e+01) (8, 4.28169784545898437500e+01) (9, 3.08308029174804687500e+01) (10, 2.08427486419677734375e+01) (11, 5.42198448181152343750e+01) (12, 6.63755273818969726562e+00) (13, 1.46613330841064453125e+01) (14, 7.01855316162109375000e+01) (15, 7.75948791503906250000e+01) (16, 4.71348800659179687500e+01) (17, 8.01093444824218750000e+01) (18, 3.95995826721191406250e+01) (19, 8.12003479003906250000e+01) (20, 2.24623870849609375000e+01) (21, -1.71452423095703125000e+02) (0, 2.76862983703613281250e+01) (1, 2.69583873748779296875e+01) (2, -2.62676563262939453125e+01) (3, 2.72813911437988281250e+01) (4, 1.12768268585205078125e+01) (5, 1.18401573181152343750e+02) (6, 5.67880554199218750000e+01) (7, 3.42376098632812500000e+01) (8, -3.21788520812988281250e+01) (9, -5.45347099304199218750e+01) (10, -1.55289745330810546875e+01) (11, 6.55107307434082031250e+00) (12, 4.62754440307617187500e+01) (13, 1.02365623474121093750e+02) (14, -8.97357177734375000000e+00) (15, -3.29898414611816406250e+01) (16, -1.06702852249145507812e+01) (17, -4.12842597961425781250e+01) (18, -1.11721336364746093750e+02) (19, 8.51788787841796875000e+01) (20, -3.09028167724609375000e+01) (21, 3.27257490158081054688e+00) (0, -5.61051521301269531250e+01) (1, 3.99422225952148437500e+01) (2, 1.24162092208862304688e+01) (3, -9.97048020362854003906e-01) (4, 2.65161857604980468750e+01) (5, -2.70707702636718750000e+01) (6, -1.37339086532592773438e+01) (7, 1.38774480819702148438e+01) (8, 5.92450294494628906250e+01) (9, 6.03642416000366210938e+00) (10, -4.10914039611816406250e+01) (11, -3.26390304565429687500e+01) (12, -6.40733108520507812500e+01) (13, 1.68285655975341796875e+01) (14, -2.98535270690917968750e+01) (15, -2.43948917388916015625e+01) (16, -4.23403587341308593750e+01) (17, -1.30167480468750000000e+02) (18, 3.47755889892578125000e+01) (19, -1.53774757385253906250e+01) (20, -7.41263628005981445312e+00) (21, 2.53231430053710937500e+01) (0, -3.44443855285644531250e+01) (1, -1.62311553955078125000e+01) (2, 9.36252059936523437500e+01) (3, -8.25872955322265625000e+01) (4, -1.99480438232421875000e+01) (5, -1.40112857818603515625e+01) (6, 1.07636511325836181641e+00) (7, -1.15225229263305664062e+01) (8, 4.99220428466796875000e+01) (9, 2.20174999237060546875e+01) (10, 4.42172813415527343750e+01) (11, 3.61576156616210937500e+01) (12, -6.75863037109375000000e+01) (13, 1.59734449386596679688e+01) (14, 2.17773056030273437500e+01) (15, -3.54768257141113281250e+01) (16, -4.79317169189453125000e+01) (17, -4.69493522644042968750e+01) (18, -2.85180130004882812500e+01) (19, 9.30590133666992187500e+01) (20, -2.94246063232421875000e+01) (21, 6.32291734218597412109e-01) (0, -5.42491760253906250000e+01) (1, 3.60554656982421875000e+01) (2, 5.49887542724609375000e+01) (3, 7.00930404663085937500e+01) (4, -5.45912971496582031250e+01) (5, 3.99678039550781250000e+01) (6, 2.13640193939208984375e+01) (7, 9.72246885299682617188e-01) (8, 1.72435331344604492188e+00) (9, -2.01878204345703125000e+01) (10, -1.73673992156982421875e+01) (11, -9.15778350830078125000e+00) (12, 2.21895599365234375000e+01) (13, -2.68696899414062500000e+01) (14, -6.68803329467773437500e+01) (15, -4.92359352111816406250e+00) (16, 3.03986072540283203125e+01) (17, -3.81039404869079589844e+00) (18, -5.91630302369594573975e-02) (19, -1.01930894851684570312e+01) (20, 4.39847335815429687500e+01) (21, 1.79535427093505859375e+01) (0, -2.23313179016113281250e+01) (1, -3.82162971496582031250e+01) (2, -4.89308815002441406250e+01) (3, 6.61956176757812500000e+01) (4, -2.63464431762695312500e+01) (5, 1.16123285293579101562e+01) (6, -2.51488895416259765625e+01) (7, -5.18374710083007812500e+01) (8, 1.89489421844482421875e+01) (9, 4.00513305664062500000e+01) (10, -2.13417053222656250000e+01) (11, -6.32993850708007812500e+01) (12, -4.19320220947265625000e+01) (13, -1.00484247207641601562e+01) (14, 3.68195419311523437500e+01) (15, 1.55844373703002929688e+01) (16, 2.82626876831054687500e+01) (17, 1.15325241088867187500e+02) (18, -1.56868867874145507812e+01) (19, -1.29996246337890625000e+02) (20, 6.71860456466674804688e+00) (21, 1.76932449340820312500e+01) (0, 4.24995918273925781250e+01) (1, -1.88700866699218750000e+01) (2, 3.41660690307617187500e+01) (3, 1.22197408676147460938e+01) (4, 1.41689315795898437500e+02) (5, 2.46047973632812500000e+01) (6, 2.55533065795898437500e+01) (7, -3.64966249465942382812e+00) (8, 1.12208700180053710938e+01) (9, 1.89828853607177734375e+01) (10, 2.28016223907470703125e+01) (11, 8.41428146362304687500e+01) (12, 3.66704797744750976562e+00) (13, -9.83827495574951171875e+00) (14, 7.64451370239257812500e+01) (15, 6.40642242431640625000e+01) (16, 2.49507846832275390625e+01) (17, 9.88520660400390625000e+01) (18, 6.06401138305664062500e+01) (19, 3.61552963256835937500e+01) (20, -1.37589244842529296875e+01) (21, -1.71580978393554687500e+02) (0, -2.15184268951416015625e+01) (1, -5.30005722045898437500e+01) (2, 1.13166646957397460938e+01) (3, -7.58272705078125000000e+01) (4, 6.65308380126953125000e+00) (5, 1.83507347106933593750e+01) (6, 3.97672653198242187500e+01) (7, 2.35116062164306640625e+01) (8, 2.19022827148437500000e+01) (9, 2.15167236328125000000e+01) (10, -3.17210922241210937500e+01) (11, -3.64311828613281250000e+01) (12, 4.65931081771850585938e+00) (13, -1.95235157012939453125e+01) (14, -4.58157539367675781250e+00) (15, 4.21362876892089843750e+01) (16, 2.27352466583251953125e+01) (17, 1.53316938877105712891e+00) (18, 1.90579299926757812500e+01) (19, 5.58818855285644531250e+01) (20, 1.33423366546630859375e+01) (21, -9.08233737945556640625e+00) (0, 1.07522583007812500000e+01) (1, 4.23559951782226562500e+01) (2, -1.53958377838134765625e+01) (3, -2.01365242004394531250e+01) (4, 8.26182651519775390625e+00) (5, 2.38755664825439453125e+01) (6, 1.19645700454711914062e+01) (7, 5.45495271682739257812e+00) (8, -3.28249931335449218750e+01) (9, -5.50566215515136718750e+01) (10, 2.70727748870849609375e+01) (11, 9.92347240447998046875e+00) (12, 8.97502899169921875000e+00) (13, -3.07277450561523437500e+01) (14, -3.51580023765563964844e-01) (15, 1.39917955398559570312e+01) (16, 5.95365447998046875000e+01) (17, 6.64871063232421875000e+01) (18, 1.39241294860839843750e+01) (19, -4.03506813049316406250e+01) (20, -3.61663513183593750000e+01) (21, -1.63189601898193359375e+01) (0, -6.19151401519775390625e+00) (1, -1.49965171813964843750e+01) (2, -5.70786132812500000000e+01) (3, -1.14320526123046875000e+01) (4, -4.00741500854492187500e+01) (5, -1.31876742839813232422e+00) (6, 3.91841030120849609375e+00) (7, 3.61730537414550781250e+01) (8, -3.26903076171875000000e+01) (9, -3.34048271179199218750e+00) (10, 2.36183815002441406250e+01) (11, 2.70652885437011718750e+01) (12, 1.50835933685302734375e+01) (13, 4.01249217987060546875e+00) (14, -3.65416374206542968750e+01) (15, -7.41286993026733398438e-01) (16, -1.21955108642578125000e+01) (17, -4.63556251525878906250e+01) (18, 9.41831874847412109375e+00) (19, -3.78119921684265136719e+00) (20, 6.62923860549926757812e+00) (21, 2.84876632690429687500e+01) (0, 1.83725833892822265625e+01) (1, -3.56288795471191406250e+01) (2, -2.61960353851318359375e+01) (3, 7.17038869857788085938e+00) (4, 2.20712966918945312500e+01) (5, 2.01635227203369140625e+01) (6, 1.57980108261108398438e+01) (7, -3.26355600357055664062e+00) (8, -1.85224895477294921875e+01) (9, -1.81335849761962890625e+01) (10, -1.32923908233642578125e+01) (11, 1.55181570053100585938e+01) (12, -1.16317806243896484375e+01) (13, 2.89813232421875000000e+01) (14, 3.20796036720275878906e+00) (15, 8.80649089813232421875e+00) (16, 9.17505455017089843750e+00) (17, 1.86220874786376953125e+01) (18, 4.26140022277832031250e+01) (19, -3.18811874389648437500e+01) (20, -3.53529205322265625000e+01) (21, 2.02519207000732421875e+01) (0, -9.71937942504882812500e+00) (1, -7.15622806549072265625e+00) (2, 2.34231262207031250000e+01) (3, -8.18728923797607421875e+00) (4, -7.90720138549804687500e+01) (5, -1.29648904800415039062e+01) (6, 7.07293558120727539062e+00) (7, -3.29378914833068847656e+00) (8, 4.61237258911132812500e+01) (9, 4.69315567016601562500e+01) (10, 1.61690406799316406250e+01) (11, 1.53546285629272460938e+01) (12, -1.10174804687500000000e+02) (13, -7.76283874511718750000e+01) (14, -2.54885387420654296875e+00) (15, 1.14683456420898437500e+01) (16, 3.41450347900390625000e+01) (17, 2.39402222633361816406e+00) (18, -6.56255187988281250000e+01) (19, -3.57330818176269531250e+01) (20, -5.57359552383422851562e+00) (21, -1.04399375915527343750e+01) (0, 7.36934814453125000000e+01) (1, 2.71091346740722656250e+01) (2, -3.15920600891113281250e+01) (3, 7.94084854125976562500e+01) (4, 3.95700286865234375000e+02) (5, 2.33468513488769531250e+01) (6, 8.17246246337890625000e+00) (7, -4.55345840454101562500e+01) (8, -8.72889633178710937500e+01) (9, -6.46394348144531250000e+01) (10, 1.57799797058105468750e+01) (11, 2.23576183319091796875e+01) (12, 9.08227691650390625000e+01) (13, 5.77625513076782226562e+00) (14, -2.02705841064453125000e+01) (15, 1.57423233985900878906e+00) (16, 3.66705017089843750000e+01) (17, 9.51823348999023437500e+01) (18, 8.33249206542968750000e+01) (19, 6.53240633010864257812e+00) (20, 8.81048297882080078125e+00) (21, 2.69926965236663818359e-01) (0, -2.51530933380126953125e+01) (1, 3.01701092720031738281e+00) (2, -4.95909614562988281250e+01) (3, -9.25146675109863281250e+00) (4, -5.10539436340332031250e+01) (5, -3.04088039398193359375e+01) (6, -6.03940391540527343750e+00) (7, -2.21322689056396484375e+01) (8, -1.97724971771240234375e+01) (9, -3.21816749572753906250e+01) (10, -1.73279151916503906250e+01) (11, -1.16763238906860351562e+01) (12, 7.95971603393554687500e+01) (13, 3.47119941711425781250e+01) (14, 7.61517047882080078125e+00) (15, -2.20676803588867187500e+01) (16, -7.49585494995117187500e+01) (17, -1.70997791290283203125e+01) (18, 7.44564285278320312500e+01) (19, -1.41037185668945312500e+02) (20, -1.97896556854248046875e+01) (21, 3.59331588745117187500e+01) (0, 1.36857824325561523438e+01) (1, 8.19541168212890625000e+01) (2, 3.91044521331787109375e+00) (3, -1.70877361297607421875e+01) (4, 4.98025932312011718750e+01) (5, 1.53311500549316406250e+01) (6, 2.63162040710449218750e+01) (7, 1.64211864471435546875e+01) (8, -4.88554382324218750000e+01) (9, -8.08265762329101562500e+01) (10, 5.26247644424438476562e+00) (11, 3.64341201782226562500e+01) (12, 5.87122383117675781250e+01) (13, 4.14564247131347656250e+01) (14, 8.19925613403320312500e+01) (15, -2.07635116577148437500e+01) (16, 2.84567756652832031250e+01) (17, -6.81145172119140625000e+01) (18, -6.21242065429687500000e+01) (19, -3.58497428894042968750e+01) (20, -1.11336936950683593750e+01) (21, 1.84492912292480468750e+01) (0, 4.36924362182617187500e+01) (1, -8.58758163452148437500e+00) (2, 2.67549285888671875000e+01) (3, 3.12089366912841796875e+01) (4, 1.03683113098144531250e+02) (5, 4.32379150390625000000e+01) (6, 2.75922813415527343750e+01) (7, 2.32677345275878906250e+01) (8, 9.44733619689941406250e+00) (9, 1.99931411743164062500e+01) (10, 7.88301467895507812500e+00) (11, 4.14245376586914062500e+01) (12, -1.13660831451416015625e+01) (13, -2.94663562774658203125e+01) (14, 2.40567111968994140625e+01) (15, 4.33729782104492187500e+01) (16, 2.51384773254394531250e+01) (17, 3.99132347106933593750e+01) (18, 3.31022834777832031250e+01) (19, 2.70247116088867187500e+01) (20, -5.39345645904541015625e+00) (21, -1.34001434326171875000e+02) (0, 1.95775166153907775879e-01) (1, 2.24442648887634277344e+00) (2, 2.90740418434143066406e+00) (3, -1.65296916961669921875e+01) (4, -6.24929695129394531250e+01) (5, -2.81260395050048828125e+01) (6, -5.37162208557128906250e+01) (7, -6.65329666137695312500e+01) (8, -5.62624168395996093750e+01) (9, 2.71354331970214843750e+01) (10, 3.78744506835937500000e+01) (11, 2.21614055633544921875e+01) (12, 1.83892326354980468750e+01) (13, 2.73597908020019531250e+01) (14, 2.79757099151611328125e+01) (15, 6.83226823806762695312e+00) (16, -4.43875770568847656250e+01) (17, 4.99718856811523437500e+01) (18, 5.51688804626464843750e+01) (19, -1.56371240615844726562e+01) (20, -7.87097454071044921875e+00) (21, -1.75773696899414062500e+01) (0, -4.18743591308593750000e+01) (1, -3.00392932891845703125e+01) (2, -5.61432495117187500000e+01) (3, 2.58556365966796875000e+01) (4, 2.45492000579833984375e+01) (5, -2.29672565460205078125e+01) (6, -2.47276535034179687500e+01) (7, -6.25528068542480468750e+01) (8, -1.21493587493896484375e+01) (9, 5.20230102539062500000e+01) (10, 6.34209098815917968750e+01) (11, 4.85075912475585937500e+01) (12, 2.46186008453369140625e+01) (13, 7.66246032714843750000e+01) (14, -1.60927619934082031250e+01) (15, -6.10114517211914062500e+01) (16, -6.84738540649414062500e+01) (17, -5.90221118927001953125e+00) (18, 5.89804229736328125000e+01) (19, 8.91104049682617187500e+01) (20, 3.75575332641601562500e+01) (21, 6.71878719329833984375e+00) (0, -2.73739566802978515625e+01) (1, -1.54235591888427734375e+01) (2, -4.04554672241210937500e+01) (3, -6.88378763198852539062e+00) (4, -1.16147407531738281250e+02) (5, 6.69167709350585937500e+00) (6, -3.99856147766113281250e+01) (7, -1.37413787841796875000e+01) (8, -4.13596572875976562500e+01) (9, -2.92214031219482421875e+01) (10, 1.32417023181915283203e+00) (11, -3.35166206359863281250e+01) (12, 4.29632034301757812500e+01) (13, 3.88623008728027343750e+01) (14, -5.16234207153320312500e+01) (15, -5.29760284423828125000e+01) (16, -4.39134330749511718750e+01) (17, -9.28929290771484375000e+01) (18, -3.32958946228027343750e+01) (19, -7.48627243041992187500e+01) (20, 8.23114776611328125000e+00) (21, 1.49472152709960937500e+02) (0, 3.05652866363525390625e+01) (1, 4.19225769042968750000e+01) (2, 2.10247135162353515625e+01) (3, -1.14582786560058593750e+01) (4, -2.48250865936279296875e+01) (5, -2.26406555175781250000e+01) (6, -5.63832969665527343750e+01) (7, 6.18239097595214843750e+01) (8, 4.12056255340576171875e+00) (9, -2.28226203918457031250e+01) (10, -3.56027755737304687500e+01) (11, -2.56352519989013671875e+01) (12, 7.75781173706054687500e+01) (13, 7.34262847900390625000e+01) (14, 2.75373506546020507812e+00) (15, -3.13318614959716796875e+01) (16, -2.38504676818847656250e+01) (17, 3.96690864562988281250e+01) (18, -1.74866313934326171875e+01) (19, -2.91587104797363281250e+01) (20, 6.92098331451416015625e+00) (21, 9.17440891265869140625e+00) (0, -5.90684356689453125000e+01) (1, -3.33812103271484375000e+01) (2, 1.68084754943847656250e+01) (3, -9.69896697998046875000e+00) (4, 3.01354455947875976562e+00) (5, 3.20115127563476562500e+01) (6, -2.27435588836669921875e+01) (7, 1.04655370712280273438e+01) (8, -3.62758560180664062500e+01) (9, -2.32237110137939453125e+01) (10, -2.91282424926757812500e+01) (11, -5.23257102966308593750e+01) (12, -4.69720153808593750000e+01) (13, -6.60355758666992187500e+01) (14, -3.64114189147949218750e+01) (15, 9.96072864532470703125e+00) (16, 4.44522476196289062500e+01) (17, 1.40971765518188476562e+01) (18, 3.89089889526367187500e+01) (19, 5.61552963256835937500e+01) (20, 4.51525192260742187500e+01) (21, 1.12682981491088867188e+01) (0, 1.29623537063598632812e+01) (1, -6.90887069702148437500e+01) (2, -4.47067756652832031250e+01) (3, -4.77978820800781250000e+01) (4, 5.66927413940429687500e+01) (5, 2.62636795043945312500e+01) (6, 6.50881271362304687500e+01) (7, -5.40641832351684570312e+00) (8, 4.61739578247070312500e+01) (9, 9.51428070068359375000e+01) (10, 7.73423862457275390625e+00) (11, -3.09232120513916015625e+01) (12, -5.66800270080566406250e+01) (13, 8.59016609191894531250e+00) (14, -9.49123382568359375000e+00) (15, 1.12174053192138671875e+01) (16, 2.91479945182800292969e+00) (17, 5.61975364685058593750e+01) (18, -1.59876270294189453125e+01) (19, 1.72112137079238891602e-01) (20, 1.46363754272460937500e+01) (21, -8.12680721282958984375e+00) (0, -2.76486706733703613281e+00) (1, -8.92697677612304687500e+01) (2, -6.49524002075195312500e+01) (3, -5.11236991882324218750e+01) (4, -4.00441398620605468750e+01) (5, -3.07504730224609375000e+01) (6, 1.77594356536865234375e+01) (7, -1.17155799865722656250e+01) (8, 3.85900840759277343750e+01) (9, 6.16931419372558593750e+01) (10, -7.65247201919555664062e+00) (11, 5.51859951019287109375e+00) (12, -1.16710273742675781250e+02) (13, -1.23004531860351562500e+02) (14, 8.53227901458740234375e+00) (15, 1.03486661911010742188e+01) (16, -2.15019531250000000000e+01) (17, -1.08794677734375000000e+02) (18, -6.06143531799316406250e+01) (19, -8.81057357788085937500e+01) (20, -4.71220932006835937500e+01) (21, 1.44412839412689208984e+00) (0, 2.62621498107910156250e+01) (1, 1.45021347045898437500e+02) (2, 1.15413383483886718750e+02) (3, -8.17206096649169921875e+00) (4, 8.63349342346191406250e+00) (5, 2.40528373718261718750e+01) (6, 1.57624512910842895508e-01) (7, -5.07518348693847656250e+01) (8, -5.79702873229980468750e+01) (9, -3.14212932586669921875e+01) (10, -6.10475158691406250000e+01) (11, -6.52943420410156250000e+01) (12, -4.33543395996093750000e+01) (13, -3.31366920471191406250e+01) (14, -3.70357933044433593750e+01) (15, -5.14640350341796875000e+01) (16, -2.69691696166992187500e+01) (17, -1.03290138244628906250e+01) (18, 1.30274047851562500000e+02) (19, -1.26917770385742187500e+02) (20, -3.16535263061523437500e+01) (21, 4.04503059387207031250e+01) (0, -1.95917263031005859375e+01) (1, 1.80879631042480468750e+01) (2, 5.41072883605957031250e+01) (3, -2.21477108001708984375e+01) (4, -2.07189006805419921875e+01) (5, 3.09615535736083984375e+01) (6, -2.10364055633544921875e+01) (7, -6.96993484497070312500e+01) (8, 9.50354766845703125000e+00) (9, 6.23275985717773437500e+01) (10, -7.65105915069580078125e+00) (11, 4.29300498962402343750e+00) (12, -2.42853946685791015625e+01) (13, 1.02337865829467773438e+01) (14, -1.01753511428833007812e+01) (15, 1.59339866638183593750e+01) (16, 4.73256568908691406250e+01) (17, -3.12730789184570312500e+01) (18, -2.66529197692871093750e+01) (19, 7.12653656005859375000e+01) (20, -3.41045112609863281250e+01) (21, 9.45289421081542968750e+00) (0, -4.29236297607421875000e+01) (1, -6.88152313232421875000e+01) (2, -5.30332984924316406250e+01) (3, -1.58211297988891601562e+01) (4, -4.98922691345214843750e+01) (5, 4.62501907348632812500e+00) (6, 1.06195020675659179688e+01) (7, 4.51617050170898437500e+01) (8, 4.54579849243164062500e+01) (9, 5.93599662780761718750e+01) (10, -3.45165100097656250000e+01) (11, -5.77586479187011718750e+01) (12, -3.63564276695251464844e+00) (13, -4.22891006469726562500e+01) (14, 4.84600830078125000000e+00) (15, -1.93194026947021484375e+01) (16, -3.11151123046875000000e+00) (17, 1.01032571792602539062e+01) (18, -1.73806896209716796875e+01) (19, 1.56910591125488281250e+01) (20, -1.49915027618408203125e+01) (21, -1.49047155380249023438e+01) (0, -2.80722103118896484375e+01) (1, 5.79909896850585937500e+01) (2, 3.75776710510253906250e+01) (3, 3.76878128051757812500e+01) (4, -4.47216110229492187500e+01) (5, -3.99392104148864746094e+00) (6, 6.81018686294555664062e+00) (7, -3.65006332397460937500e+01) (8, -6.13048696517944335938e+00) (9, 2.98237872123718261719e+00) (10, -2.74825210571289062500e+01) (11, -5.35474510192871093750e+01) (12, 4.92790908813476562500e+01) (13, 6.04612617492675781250e+01) (14, 2.54195480346679687500e+01) (15, -8.79047107696533203125e+00) (16, -1.67548370361328125000e+01) (17, -7.02735671997070312500e+01) (18, -4.25565338134765625000e+01) (19, -7.42214965820312500000e+01) (20, -3.48767900466918945312e+00) (21, 2.32610645294189453125e+01) (0, 6.54439163208007812500e+01) (1, 1.24268531799316406250e+01) (2, 8.31831359863281250000e+00) (3, 1.56298637390136718750e+01) (4, -5.46199464797973632812e+00) (5, -7.67098379135131835938e+00) (6, 3.02830524444580078125e+01) (7, -4.18536796569824218750e+01) (8, 4.68635635375976562500e+01) (9, 1.03807350158691406250e+02) (10, 4.67949829101562500000e+01) (11, 7.55786561965942382812e+00) (12, -8.44192123413085937500e+01) (13, -9.57682113647460937500e+01) (14, -6.97099685668945312500e+01) (15, -3.07465000152587890625e+01) (16, -1.93194808959960937500e+01) (17, -2.54550685882568359375e+01) (18, -1.13844047546386718750e+02) (19, 6.87246780395507812500e+01) (20, 2.06704521179199218750e+01) (21, -2.53622035980224609375e+01) (0, -2.95796334743499755859e-01) (1, 4.55972404479980468750e+01) (2, -5.51418113708496093750e+01) (3, 1.02518333435058593750e+02) (4, -3.78472175598144531250e+01) (5, -1.13492956161499023438e+01) (6, -3.96856880187988281250e+01) (7, -2.95334167480468750000e+01) (8, -2.44116258621215820312e+00) (9, 1.86072292327880859375e+01) (10, -1.06193685531616210938e+00) (11, 2.92451810836791992188e+00) (12, 5.18351707458496093750e+01) (13, 2.98752288818359375000e+01) (14, 1.38256502151489257812e+01) (15, 9.33434367179870605469e-01) (16, -2.82588996887207031250e+01) (17, -5.04243354797363281250e+01) (18, -1.86559181213378906250e+01) (19, 2.28821587562561035156e+00) (20, 1.04153203964233398438e+01) (21, 3.98497486114501953125e+00) (0, 1.81866207122802734375e+01) (1, -9.63732223510742187500e+01) (2, -5.56479568481445312500e+01) (3, -2.09251117706298828125e+01) (4, -4.51738090515136718750e+01) (5, 5.57390632629394531250e+01) (6, 1.57317667007446289062e+01) (7, -5.04889106750488281250e+01) (8, -8.26949996948242187500e+01) (9, -3.89810409545898437500e+01) (10, -1.26334583759307861328e+00) (11, 2.41143016815185546875e+01) (12, 5.35331077575683593750e+01) (13, 1.10511779785156250000e+01) (14, 1.34258642196655273438e+01) (15, 5.49991893768310546875e+00) (16, 2.32930946350097656250e+01) (17, -1.81250247955322265625e+01) (18, -1.04500488281250000000e+02) (19, -2.80359134674072265625e+01) (20, 2.22544441223144531250e+01) (21, 1.16314306259155273438e+01) (0, -8.32586135864257812500e+01) (1, -1.91763210296630859375e+01) (2, -8.18955993652343750000e+00) (3, -2.85774593353271484375e+01) (4, 1.39705152511596679688e+01) (5, -7.22410202026367187500e+00) (6, -4.67418289184570312500e+01) (7, -6.78587341308593750000e+01) (8, -4.71012382507324218750e+01) (9, 1.64074916839599609375e+01) (10, 3.00166454315185546875e+01) (11, 8.94583225250244140625e+00) (12, 7.12717056274414062500e+01) (13, 4.23614921569824218750e+01) (14, 6.90625991821289062500e+01) (15, -3.87477874755859375000e+00) (16, -7.50916290283203125000e+00) (17, -1.09339818954467773438e+01) (18, -3.22232437133789062500e+01) (19, -1.55660414695739746094e+00) (20, 3.36322450637817382812e+00) (21, 1.72562713623046875000e+01) (0, -1.99244613647460937500e+01) (1, 2.65681419372558593750e+01) (2, -5.07761001586914062500e+01) (3, -7.07348060607910156250e+00) (4, -1.78444671630859375000e+01) (5, 1.24120740890502929688e+01) (6, -1.94586963653564453125e+01) (7, 1.89762496948242187500e+01) (8, -8.84555053710937500000e+01) (9, -1.11645309448242187500e+02) (10, -2.12156829833984375000e+01) (11, 2.60008277893066406250e+01) (12, -8.52530670166015625000e+00) (13, 6.04318542480468750000e+01) (14, 4.73792381286621093750e+01) (15, 2.85599403381347656250e+01) (16, 4.32222480773925781250e+01) (17, -3.36040645837783813477e-01) (18, -3.07964134216308593750e+01) (19, 6.07649993896484375000e+01) (20, 1.81100597381591796875e+01) (21, -2.62965126037597656250e+01) (0, -8.43695602416992187500e+01) (1, 1.11193695068359375000e+01) (2, -7.00092935562133789062e+00) (3, -1.71208992004394531250e+01) (4, -1.32267532348632812500e+02) (5, -4.33152236938476562500e+01) (6, -7.63809890747070312500e+01) (7, -3.56597824096679687500e+01) (8, -4.56198959350585937500e+01) (9, -4.41437606811523437500e+01) (10, -4.59962882995605468750e+01) (11, -8.62473220825195312500e+01) (12, -6.11043787002563476562e+00) (13, -1.27442836761474609375e+01) (14, -9.85324935913085937500e+01) (15, -1.00414764404296875000e+02) (16, -3.61364440917968750000e+01) (17, -8.00736236572265625000e+01) (18, -7.75298156738281250000e+01) (19, -5.06896057128906250000e+01) (20, -3.48290748596191406250e+01) (21, 2.02051483154296875000e+02) (0, 1.83485269546508789062e+00) (1, -1.30189867019653320312e+01) (2, -4.48349914550781250000e+01) (3, 1.09087629318237304688e+01) (4, 2.03692359924316406250e+01) (5, 2.04753684997558593750e+01) (6, 7.09810028076171875000e+01) (7, -1.53996002674102783203e+00) (8, 1.74111690521240234375e+01) (9, -2.11254310607910156250e+01) (10, -1.08484706878662109375e+01) (11, 5.21651792526245117188e+00) (12, -2.54736156463623046875e+01) (13, -8.00703277587890625000e+01) (14, 3.93021507263183593750e+01) (15, -3.14708156585693359375e+01) (16, -3.12630119323730468750e+01) (17, -3.42343482971191406250e+01) (18, -9.09097480773925781250e+00) (19, -2.72135257720947265625e+01) (20, -1.81293144226074218750e+01) (21, -1.34324531555175781250e+01) (0, -6.92320022583007812500e+01) (1, 1.91171379089355468750e+01) (2, -3.18853549957275390625e+01) (3, 2.20654277801513671875e+01) (4, -5.42980422973632812500e+01) (5, 8.20965290069580078125e+00) (6, -1.52041797637939453125e+01) (7, -1.83327686786651611328e+00) (8, -3.70269126892089843750e+01) (9, -3.51138229370117187500e+01) (10, 4.49040699005126953125e+00) (11, 9.54270458221435546875e+00) (12, -2.67592220306396484375e+01) (13, -5.90876579284667968750e+00) (14, 5.88010263442993164062e+00) (15, 7.74467620849609375000e+01) (16, 8.23273010253906250000e+01) (17, 2.29524326324462890625e+01) (18, 2.53954143524169921875e+01) (19, 1.51283731460571289062e+01) (20, -3.62187623977661132812e-01) (21, -1.82836258411407470703e+00) (0, -2.54362106323242187500e+01) (1, -4.56428184509277343750e+01) (2, -3.01765441894531250000e+01) (3, 6.16252021789550781250e+01) (4, -3.27762985229492187500e+01) (5, 5.66603317260742187500e+01) (6, 5.56213912963867187500e+01) (7, -2.66951675415039062500e+01) (8, -1.08143205642700195312e+01) (9, 2.18212985992431640625e+01) (10, -1.69692974090576171875e+01) (11, -4.92875175476074218750e+01) (12, 1.03184490203857421875e+01) (13, -2.29455432891845703125e+01) (14, 5.57758064270019531250e+01) (15, -5.45588035583496093750e+01) (16, -3.34791793823242187500e+01) (17, -1.75611991882324218750e+01) (18, 2.75462303161621093750e+01) (19, -4.55763168334960937500e+01) (20, -6.66077957153320312500e+01) (21, 2.39524211883544921875e+01) (0, -1.29575443267822265625e+01) (1, -5.31478767395019531250e+01) (2, -5.19169960021972656250e+01) (3, -3.76567625999450683594e+00) (4, -2.68781509399414062500e+01) (5, -7.18338727951049804688e+00) (6, -6.79171829223632812500e+01) (7, -7.20337524414062500000e+01) (8, -4.95502805709838867188e+00) (9, 5.21580963134765625000e+01) (10, 7.28233795166015625000e+01) (11, 2.51597099304199218750e+01) (12, -3.81669883728027343750e+01) (13, -2.24169101715087890625e+01) (14, 1.76444511413574218750e+01) (15, 4.56336021423339843750e+01) (16, 4.08783226013183593750e+01) (17, 2.79359264373779296875e+01) (18, -1.67760300636291503906e+00) (19, -1.62628746032714843750e+00) (20, -1.34549484252929687500e+01) (21, -3.88680863380432128906e+00) (0, -1.37109327316284179688e+01) (1, -1.50184879302978515625e+01) (2, -1.57029541015625000000e+02) (3, 2.59365139007568359375e+01) (4, 2.79620857238769531250e+01) (5, -8.74108276367187500000e+01) (6, -1.93594696044921875000e+02) (7, -1.87384395599365234375e+01) (8, -9.85693264007568359375e+00) (9, -2.78662662506103515625e+01) (10, 5.52375183105468750000e+01) (11, 4.92811584472656250000e+01) (12, -3.67866468429565429688e+00) (13, -8.66192722320556640625e+00) (14, -1.51500844955444335938e+01) (15, 2.14033317565917968750e+01) (16, -3.90690493583679199219e+00) (17, -2.21642513275146484375e+01) (18, -2.35454425811767578125e+01) (19, 1.55836906433105468750e+01) (20, 1.12267827987670898438e+01) (21, -2.20653438568115234375e+01) (0, 8.03227996826171875000e+00) (1, -8.11248481273651123047e-01) (2, 4.36787748336791992188e+00) (3, -4.11708679199218750000e+01) (4, 5.81390023231506347656e-01) (5, 7.59253997802734375000e+01) (6, 7.79636688232421875000e+01) (7, -6.71809463500976562500e+01) (8, -1.90045433044433593750e+01) (9, 5.44753408432006835938e+00) (10, -2.86450996398925781250e+01) (11, -5.20604133605957031250e+01) (12, 2.03543167114257812500e+01) (13, 8.41535568237304687500e+00) (14, 4.39585914611816406250e+01) (15, 7.44346761703491210938e+00) (16, 1.80267486572265625000e+01) (17, 5.78518714904785156250e+01) (18, -3.14831886291503906250e+01) (19, 1.24395589828491210938e+01) (20, 1.38742655515670776367e-01) (21, 1.46740016937255859375e+01) (0, 6.45093307495117187500e+01) (1, 1.12506286621093750000e+02) (2, -5.43721351623535156250e+01) (3, -7.45514297485351562500e+00) (4, -1.16670207977294921875e+01) (5, 2.15077543258666992188e+00) (6, -2.14859027862548828125e+01) (7, -1.43492546081542968750e+01) (8, -7.03744201660156250000e+01) (9, -5.28023033142089843750e+01) (10, -5.15468215942382812500e+00) (11, -3.49941368103027343750e+01) (12, -3.04507369995117187500e+01) (13, -4.16232347488403320312e+00) (14, -1.20944147109985351562e+01) (15, 1.95449371337890625000e+01) (16, 7.16400814056396484375e+00) (17, -7.25418930053710937500e+01) (18, -3.77932167053222656250e+01) (19, 2.25113029479980468750e+01) (20, -6.16600131988525390625e+00) (21, 1.02181549072265625000e+01) (0, 2.52345161437988281250e+01) (1, 1.60830354690551757812e+00) (2, 6.79069061279296875000e+01) (3, -1.13342170715332031250e+01) (4, 1.23961658477783203125e+01) (5, 1.06220569610595703125e+01) (6, 5.88262367248535156250e+00) (7, -4.72261571884155273438e+00) (8, -1.15925865173339843750e+01) (9, -2.03075447082519531250e+01) (10, 2.65347900390625000000e+01) (11, 3.54553642272949218750e+01) (12, 4.39821672439575195312e+00) (13, -3.86222038269042968750e+01) (14, 6.44513511657714843750e+00) (15, 1.19054775238037109375e+01) (16, 4.18303985595703125000e+01) (17, -4.57067985534667968750e+01) (18, -1.18341819763183593750e+02) (19, 6.50097560882568359375e+00) (20, 2.01562709808349609375e+01) (21, -3.24603691101074218750e+01) (0, 1.49274721145629882812e+01) (1, -2.07174320220947265625e+01) (2, -1.24288200378417968750e+02) (3, -4.29926872253417968750e+01) (4, 3.50041160583496093750e+01) (5, -4.58900680541992187500e+01) (6, -1.17576599121093750000e+00) (7, -9.59156322479248046875e+00) (8, 3.50835342407226562500e+01) (9, 1.21628322601318359375e+01) (10, 1.48168325424194335938e+01) (11, 8.19827938079833984375e+00) (12, -4.59988899230957031250e+01) (13, -5.85527839660644531250e+01) (14, -1.17574644088745117188e+00) (15, 9.05191879272460937500e+01) (16, -2.44402542114257812500e+01) (17, 2.10299911499023437500e+01) (18, -1.17328300476074218750e+01) (19, 1.38197860717773437500e+01) (20, -3.66277313232421875000e+01) (21, -3.75763587951660156250e+01) (0, -2.28905487060546875000e+01) (1, -3.47098884582519531250e+01) (2, -6.87676849365234375000e+01) (3, -3.52313423156738281250e+01) (4, -2.13133964538574218750e+01) (5, 5.89275550842285156250e+01) (6, 7.68716964721679687500e+01) (7, -1.22207517623901367188e+01) (8, 1.93410148620605468750e+01) (9, 2.39605102539062500000e+01) (10, -4.14710998535156250000e+01) (11, -6.59840698242187500000e+01) (12, -1.68740139007568359375e+01) (13, -6.92449645996093750000e+01) (14, -1.70239200592041015625e+01) (15, 6.38292846679687500000e+01) (16, 4.21315994262695312500e+01) (17, -1.13478517532348632812e+01) (18, 7.07512207031250000000e+01) (19, -2.32557201385498046875e+01) (20, -5.14442443847656250000e+01) (21, 1.00879182815551757812e+01) (0, -2.96426525115966796875e+01) (1, 6.23452281951904296875e+00) (2, 5.37593345642089843750e+01) (3, 3.95542755126953125000e+01) (4, 4.80247879028320312500e+00) (5, -5.19231700897216796875e+00) (6, 1.48605632781982421875e+01) (7, -2.52447662353515625000e+01) (8, -3.85706214904785156250e+01) (9, -1.98824443817138671875e+01) (10, 3.31131858825683593750e+01) (11, 8.46384143829345703125e+00) (12, -3.16107311248779296875e+01) (13, -1.01987323760986328125e+01) (14, 6.05686950683593750000e+01) (15, -6.63709163665771484375e+00) (16, 2.60052547454833984375e+01) (17, -3.14952678680419921875e+01) (18, 2.98038845062255859375e+01) (19, 2.05300979614257812500e+01) (20, -3.43315010070800781250e+01) (21, 1.32019920349121093750e+01) (0, -2.41812038421630859375e+01) (1, 4.54134101867675781250e+01) (2, -3.38653984069824218750e+01) (3, 2.44203014373779296875e+01) (4, 6.27864112854003906250e+01) (5, -6.69488372802734375000e+01) (6, -4.62958297729492187500e+01) (7, 1.21297836303710937500e+01) (8, 1.34622917175292968750e+01) (9, 7.12716827392578125000e+01) (10, 6.39823646545410156250e+01) (11, 5.76230621337890625000e+01) (12, -5.40976943969726562500e+01) (13, -6.22598838806152343750e+01) (14, 1.22920751571655273438e+01) (15, 6.25669288635253906250e+00) (16, -3.76460342407226562500e+01) (17, 7.35722656250000000000e+01) (18, 2.81122512817382812500e+01) (19, 5.08830528259277343750e+01) (20, -5.52798919677734375000e+01) (21, -3.83616333007812500000e+01) (0, 1.85554389953613281250e+01) (1, 3.28207588195800781250e+00) (2, 3.87869796752929687500e+01) (3, -2.70784676074981689453e-01) (4, -1.91907584667205810547e+00) (5, 3.15521488189697265625e+01) (6, 3.34946327209472656250e+01) (7, -8.13113555908203125000e+01) (8, -5.31961669921875000000e+01) (9, -4.09798088073730468750e+01) (10, -6.37525558471679687500e+01) (11, -6.88247833251953125000e+01) (12, -1.97811377048492431641e+00) (13, 2.65424895286560058594e+00) (14, 4.89317626953125000000e+01) (15, 7.47185058593750000000e+01) (16, 5.97589035034179687500e+01) (17, 4.99606666564941406250e+01) (18, 1.46869754791259765625e+01) (19, -3.69962615966796875000e+01) (20, 1.60588436126708984375e+01) (21, -2.97198028564453125000e+01) (0, -1.02058687210083007812e+01) (1, -2.96651153564453125000e+01) (2, -5.19846305847167968750e+01) (3, -6.42891311645507812500e+01) (4, 5.45327901840209960938e-01) (5, -3.20494079589843750000e+01) (6, 1.60471057891845703125e+01) (7, -5.00545310974121093750e+01) (8, -3.42072792053222656250e+01) (9, 3.45333518981933593750e+01) (10, 6.29711265563964843750e+01) (11, 8.07478485107421875000e+01) (12, 6.93367080688476562500e+01) (13, 3.20549850463867187500e+01) (14, -2.08573398590087890625e+01) (15, -4.50711708068847656250e+01) (16, -4.04068489074707031250e+01) (17, 3.85880126953125000000e+01) (18, 6.82840194702148437500e+01) (19, 2.63599643707275390625e+01) (20, -6.11631660461425781250e+01) (21, 7.16066980361938476562e+00) (0, -8.25595245361328125000e+01) (1, -2.32798137664794921875e+01) (2, -8.32816543579101562500e+01) (3, 5.03792610168457031250e+01) (4, -4.59109153747558593750e+01) (5, 2.56730480194091796875e+01) (6, 9.95217514038085937500e+00) (7, 4.11894416809082031250e+01) (8, 6.76685409545898437500e+01) (9, 3.37046966552734375000e+01) (10, 3.61022567749023437500e+01) (11, 3.04954929351806640625e+01) (12, 3.51209106445312500000e+01) (13, 3.83618888854980468750e+01) (14, -5.84627838134765625000e+01) (15, -4.39651412963867187500e+01) (16, -3.88612098693847656250e+01) (17, -7.36729812622070312500e+00) (18, -1.36011657714843750000e+01) (19, -2.82692089080810546875e+01) (20, -1.51320858001708984375e+01) (21, 2.14531364440917968750e+01) (22, -2.03460717201232910156e+00) (23, -4.40076208114624023438e+00) (24, -1.81253490447998046875e+01) (25, 5.05480337142944335938e+00) (26, -1.03959960937500000000e+01) (27, 1.99713382720947265625e+01) (28, 6.49487781524658203125e+00) (29, -3.47549986839294433594e+00) (30, -4.96281766891479492188e+00) (31, 9.97798383235931396484e-01) (32, 9.84227848052978515625e+00) (33, 1.26560246944427490234e+00) (34, 2.07366580963134765625e+01) (35, 1.54446687698364257812e+01) (36, -7.04889726638793945312e+00) (37, -7.18144941329956054688e+00) (38, -1.38355597853660583496e-01) (39, 1.46686804294586181641e+00) (40, 2.29831333160400390625e+01) (41, 2.26863837242126464844e+00) (42, -7.01181173324584960938e+00) (43, -2.34250760078430175781e+00) (44, 5.31438887119293212891e-01) (45, -1.08018839359283447266e+00) (46, 7.48565196990966796875e+00) (47, -1.81780014038085937500e+01) (48, 3.92734956741333007812e+00) (49, 2.07066669464111328125e+01) (50, -3.36563420295715332031e+00) (51, 1.02604846954345703125e+01) (52, -1.98468837738037109375e+01) (53, -1.23952770233154296875e+01) (54, 3.48699545860290527344e+00) (55, 1.02784051895141601562e+01) (56, 9.55015003681182861328e-01) (57, -1.64770755767822265625e+01) (58, -6.27240228652954101562e+00) (59, -2.07876062393188476562e+00) (60, -5.16881895065307617188e+00) (61, 5.92846202850341796875e+00) (62, -1.94226801395416259766e+00) (63, 1.11488275527954101562e+01) (64, -4.71732473373413085938e+00) (65, 1.52539861202239990234e+00) (66, -2.30169239044189453125e+01) (67, 6.41973352432250976562e+00) (68, 6.68663644790649414062e+00) (69, 6.87261581420898437500e+00) (70, -6.75057992339134216309e-04) (71, -1.88352274894714355469e+00) (72, 1.49552869796752929688e+01) (73, -8.12576770782470703125e+00) (74, 3.56547045707702636719e+00) (75, 8.89164352416992187500e+00) (76, 1.37990560531616210938e+01) (77, -1.10128211975097656250e+00) (78, 8.01355075836181640625e+00) (79, 7.96513855457305908203e-01) (80, 2.00104260444641113281e+00) (81, 8.40868413448333740234e-01) (82, -2.43396511077880859375e+01) (22, -6.13353371620178222656e-01) (23, -2.33089759945869445801e-01) (24, -1.26615390777587890625e+01) (25, 3.96979999542236328125e+00) (26, 5.17525863647460937500e+00) (27, 2.71575012207031250000e+01) (28, 7.31052923202514648438e+00) (29, 7.55249691009521484375e+00) (30, -6.04041957855224609375e+00) (31, 5.11982798576354980469e-01) (32, -1.12259464263916015625e+01) (33, -4.08104991912841796875e+00) (34, 1.89129714965820312500e+01) (35, -7.75203227996826171875e+00) (36, -4.04618549346923828125e+00) (37, -6.20039653778076171875e+00) (38, 1.95018506050109863281e+00) (39, 3.98799657821655273438e+00) (40, 2.78944282531738281250e+01) (41, 1.29740163683891296387e-01) (42, 9.21562862396240234375e+00) (43, 2.98817181587219238281e+00) (44, -9.80749607086181640625e+00) (45, -7.66515016555786132812e+00) (46, 1.32867813110351562500e+01) (47, 2.44001426696777343750e+01) (48, -9.54662609100341796875e+00) (49, 1.75461349487304687500e+01) (50, 7.48985338211059570312e+00) (51, -1.73617477416992187500e+01) (52, -2.25413398742675781250e+01) (53, -3.66936296224594116211e-01) (54, 7.25522947311401367188e+00) (55, 5.15140295028686523438e+00) (56, -1.26197071075439453125e+01) (57, 2.74398756027221679688e+00) (58, -5.75118637084960937500e+00) (59, -8.48838138580322265625e+00) (60, 1.61341629028320312500e+01) (61, -1.52344779968261718750e+01) (62, -1.17592353820800781250e+01) (63, -1.02710866928100585938e+00) (64, -2.11098194122314453125e+00) (65, -4.46054428815841674805e-01) (66, -2.66411094665527343750e+01) (67, -2.00161218643188476562e+00) (68, -4.08934307098388671875e+00) (69, -6.69338846206665039062e+00) (70, -1.76190805435180664062e+00) (71, -8.91045188903808593750e+00) (72, -6.04233646392822265625e+00) (73, -8.48080158233642578125e+00) (74, -1.02578449249267578125e+01) (75, -1.75231781005859375000e+01) (76, -1.62702894210815429688e+00) (77, -2.16553330421447753906e+00) (78, -1.68147315979003906250e+01) (79, 6.54094696044921875000e+00) (80, 1.41676187515258789062e+01) (81, -8.78936958312988281250e+00) (82, -2.82976455688476562500e+01) (22, -4.49847078323364257812e+00) (23, 8.53267383575439453125e+00) (24, -1.82065544128417968750e+01) (25, 7.18110322952270507812e+00) (26, 2.65182781219482421875e+00) (27, 2.67695312500000000000e+01) (28, -3.51528882980346679688e-01) (29, -1.67154073715209960938e+00) (30, -7.89293944835662841797e-01) (31, -1.94485034942626953125e+01) (32, -1.13329820632934570312e+01) (33, -4.30291593074798583984e-01) (34, 2.69287185668945312500e+01) (35, -8.47352218627929687500e+00) (36, -9.33723270893096923828e-01) (37, 3.49724841117858886719e+00) (38, -1.21762931346893310547e-01) (39, 8.59452056884765625000e+00) (40, 2.82208862304687500000e+01) (41, 1.87551939487457275391e+00) (42, 1.26752853393554687500e+00) (43, -2.29078948497772216797e-01) (44, 5.44670057296752929688e+00) (45, -8.15648555755615234375e+00) (46, 1.27474451065063476562e+01) (47, -1.20274085998535156250e+01) (48, 7.97753524780273437500e+00) (49, 2.41523971557617187500e+01) (50, 2.70460963249206542969e+00) (51, 6.22481155395507812500e+00) (52, -2.87482566833496093750e+01) (53, -1.55899286270141601562e+01) (54, 3.51861977577209472656e+00) (55, -2.94202804565429687500e-01) (56, 2.02030777931213378906e-01) (57, -7.47517681121826171875e+00) (58, 4.85245609283447265625e+00) (59, 9.24273681640625000000e+00) (60, -2.14485025405883789062e+00) (61, 1.09217205047607421875e+01) (62, 5.01079177856445312500e+00) (63, 1.31314954757690429688e+01) (64, 3.63092684745788574219e+00) (65, 8.65065479278564453125e+00) (66, -2.92088050842285156250e+01) (67, 3.25646579265594482422e-01) (68, 1.62398374080657958984e+00) (69, -2.30814003944396972656e+00) (70, 1.00554161071777343750e+01) (71, 2.05877094268798828125e+01) (72, -6.84619235992431640625e+00) (73, -1.19921350479125976562e+01) (74, -9.51869189739227294922e-01) (75, 6.64353895187377929688e+00) (76, -8.20159816741943359375e+00) (77, -7.16217422485351562500e+00) (78, 9.55675315856933593750e+00) (79, -8.09960269927978515625e+00) (80, 8.58838081359863281250e+00) (81, 1.87933415174484252930e-01) (82, -3.08511447906494140625e+01) (22, -2.74199724197387695312e-01) (23, 1.55697405338287353516e+00) (24, -4.17873114347457885742e-02) (25, -3.08164978027343750000e+00) (26, -1.10999126434326171875e+01) (27, 1.85917339324951171875e+01) (28, 8.03667736053466796875e+00) (29, -1.04172153472900390625e+01) (30, -5.50710201263427734375e+00) (31, -1.41881341934204101562e+01) (32, 9.92708778381347656250e+00) (33, 6.64184617996215820312e+00) (34, 2.01133251190185546875e+01) (35, 8.03344309329986572266e-01) (36, 6.06570625305175781250e+00) (37, 3.23278522491455078125e+00) (38, -9.09961891174316406250e+00) (39, 8.50889587402343750000e+00) (40, 1.83315086364746093750e+01) (41, 6.94831609725952148438e+00) (42, -4.75107043981552124023e-01) (43, 1.21690690517425537109e+00) (44, 1.26213037967681884766e+00) (45, 5.57048320770263671875e+00) (46, 4.69199180603027343750e+00) (47, -3.40203022956848144531e+00) (48, 1.74106478691101074219e-01) (49, 1.53910255432128906250e+01) (50, -1.66113491058349609375e+01) (51, -5.42521905899047851562e+00) (52, -1.99975566864013671875e+01) (53, 5.67377948760986328125e+00) (54, 5.94222116470336914062e+00) (55, 1.13500728607177734375e+01) (56, 3.03141021728515625000e+00) (57, -1.65485420227050781250e+01) (58, -8.44369125366210937500e+00) (59, 4.53780221939086914062e+00) (60, -3.50867819786071777344e+00) (61, 1.97096347808837890625e-01) (62, -3.63589954376220703125e+00) (63, -7.17294883728027343750e+00) (64, -1.08617057800292968750e+01) (65, -2.87953853607177734375e+00) (66, -2.17645130157470703125e+01) (67, 3.34473156929016113281e+00) (68, 9.75775957107543945312e-01) (69, -1.73835575580596923828e+00) (70, -4.23521423339843750000e+00) (71, 2.07948303222656250000e+01) (72, -1.25553350448608398438e+01) (73, -4.61578083038330078125e+00) (74, -4.98906183242797851562e+00) (75, 5.21174764633178710938e+00) (76, -6.74022614955902099609e-01) (77, -6.08059215545654296875e+00) (78, 4.96333408355712890625e+00) (79, -1.58769550323486328125e+01) (80, -8.74258041381835937500e+00) (81, 5.79959774017333984375e+00) (82, -2.24963417053222656250e+01) (22, -3.60253453254699707031e+00) (23, 1.05670051574707031250e+01) (24, 6.72692728042602539062e+00) (25, -2.16698384284973144531e+00) (26, 1.31862964630126953125e+01) (27, 2.28002872467041015625e+01) (28, -7.74255037307739257812e+00) (29, 1.61955585479736328125e+01) (30, 1.04645366668701171875e+01) (31, -7.47969150543212890625e+00) (32, -1.20873947143554687500e+01) (33, 1.01176471710205078125e+01) (34, 2.31835308074951171875e+01) (35, 2.28166174888610839844e+00) (36, 8.51634311676025390625e+00) (37, -1.54538593292236328125e+01) (38, 1.40463984012603759766e+00) (39, -1.37527537345886230469e+00) (40, 2.23480358123779296875e+01) (41, -2.06730842590332031250e+00) (42, 7.94291734695434570312e+00) (43, -7.08599138259887695312e+00) (44, 5.59433460235595703125e+00) (45, -1.00989401340484619141e+00) (46, -1.09666881561279296875e+01) (47, -8.45237064361572265625e+00) (48, -8.14946269989013671875e+00) (49, 1.72234058380126953125e+01) (50, -3.38195443153381347656e-01) (51, -8.64184260368347167969e-01) (52, -2.55010623931884765625e+01) (53, 5.21527957916259765625e+00) (54, 4.65487098693847656250e+00) (55, -5.07175397872924804688e+00) (56, -2.90709362030029296875e+01) (57, 5.64480972290039062500e+00) (58, -4.45042753219604492188e+00) (59, -8.98125362396240234375e+00) (60, -1.37789564132690429688e+01) (61, 1.30123357772827148438e+01) (62, -2.21218323707580566406e+00) (63, -1.47040739059448242188e+01) (64, -4.16180181503295898438e+00) (65, 4.09231328964233398438e+00) (66, -2.32229137420654296875e+01) (67, 1.57700634002685546875e+00) (68, 4.26581430435180664062e+00) (69, 1.12823748588562011719e+00) (70, -6.95792770385742187500e+00) (71, 8.63194465637207031250e+00) (72, -1.67831802368164062500e+00) (73, 1.00342645645141601562e+01) (74, -1.92120194435119628906e-01) (75, 3.63387799263000488281e+00) (76, -1.71253490447998046875e+01) (77, -5.29278087615966796875e+00) (78, 1.11589765548706054688e+01) (79, 5.25742197036743164062e+00) (80, -1.16590523719787597656e+00) (81, -1.00975065231323242188e+01) (82, -2.62207241058349609375e+01) (22, 3.45441532135009765625e+00) (23, 1.83168971538543701172e+00) (24, -1.63132214546203613281e+00) (25, 7.33797979354858398438e+00) (26, -7.42911386489868164062e+00) (27, 2.00032653808593750000e+01) (28, -7.41377687454223632812e+00) (29, -1.07068557739257812500e+01) (30, -3.43898844718933105469e+00) (31, -7.29608774185180664062e+00) (32, 1.68835258483886718750e+00) (33, 2.26876029968261718750e+01) (34, 1.75421829223632812500e+01) (35, 4.81698083877563476562e+00) (36, 5.21961736679077148438e+00) (37, 1.86128616333007812500e+01) (38, -1.72473869323730468750e+01) (39, 5.53357744216918945312e+00) (40, 1.96040039062500000000e+01) (41, 3.51948308944702148438e+00) (42, -6.65891456604003906250e+00) (43, -9.94497835636138916016e-01) (44, -1.25143241882324218750e+00) (45, -6.81167483329772949219e-01) (46, -5.54684400558471679688e+00) (47, -1.94105768203735351562e+00) (48, 2.90991401672363281250e+01) (49, 1.77854804992675781250e+01) (50, -4.60834121704101562500e+00) (51, -2.36085748672485351562e+00) (52, -1.75489387512207031250e+01) (53, -3.97930431365966796875e+00) (54, -9.29251432418823242188e-01) (55, -4.01190042495727539062e+00) (56, 5.90959358215332031250e+00) (57, 1.10800194740295410156e+00) (58, 7.46870183944702148438e+00) (59, 3.42454791069030761719e+00) (60, 5.62816715240478515625e+00) (61, -1.21439638137817382812e+01) (62, -1.20304069519042968750e+01) (63, 1.29177532196044921875e+01) (64, 1.53692245483398437500e+01) (65, 8.25969505310058593750e+00) (66, -1.77347869873046875000e+01) (67, 1.07241988182067871094e+00) (68, -2.11196517944335937500e+00) (69, 9.14524972438812255859e-01) (70, -7.37561941146850585938e-01) (71, -3.26381540298461914062e+00) (72, 3.42446517944335937500e+00) (73, -1.01525650024414062500e+01) (74, 1.60489768981933593750e+01) (75, -7.53157806396484375000e+00) (76, -7.89213466644287109375e+00) (77, 1.14540348052978515625e+01) (78, -3.58761578798294067383e-01) (79, 6.72050523757934570312e+00) (80, -4.88512086868286132812e+00) (81, -9.47777080535888671875e+00) (82, -2.06255760192871093750e+01) (22, -6.91064178943634033203e-01) (23, 6.48901891708374023438e+00) (24, -1.80198884010314941406e+00) (25, 9.62930023670196533203e-01) (26, -8.87876224517822265625e+00) (27, 1.53775482177734375000e+01) (28, 1.59330964088439941406e+00) (29, -1.97126746177673339844e+00) (30, -4.69802141189575195312e+00) (31, 1.89179058074951171875e+01) (32, 4.30771493911743164062e+00) (33, -1.17341053485870361328e+00) (34, 2.07605113983154296875e+01) (35, 4.96323776245117187500e+00) (36, 1.39417476654052734375e+01) (37, -2.37958759069442749023e-01) (38, 3.70560979843139648438e+00) (39, -1.17445478439331054688e+01) (40, 2.02005271911621093750e+01) (41, 7.74204063415527343750e+00) (42, -6.76361179351806640625e+00) (43, 8.00005149841308593750e+00) (44, 9.02628958225250244141e-01) (45, -2.64222693443298339844e+00) (46, 4.36941909790039062500e+00) (47, 2.74774169921875000000e+00) (48, -4.50047111511230468750e+00) (49, 1.66693840026855468750e+01) (50, -8.14629173278808593750e+00) (51, 1.38858127593994140625e+01) (52, -1.73612957000732421875e+01) (53, -1.06372528076171875000e+01) (54, -1.23097050189971923828e+00) (55, 3.90432476997375488281e+00) (56, 7.64001533389091491699e-02) (57, 5.99723291397094726562e+00) (58, -2.60960865020751953125e+00) (59, 8.13701248168945312500e+00) (60, -5.29396355152130126953e-01) (61, -1.74033713340759277344e+00) (62, 2.43732213973999023438e+00) (63, 5.70326757431030273438e+00) (64, 4.52143478393554687500e+00) (65, -1.12709307670593261719e+00) (66, -2.25199985504150390625e+01) (67, 4.74062681198120117188e+00) (68, 2.04505085945129394531e+00) (69, 8.20342159271240234375e+00) (70, -9.36127376556396484375e+00) (71, -2.44248175621032714844e+00) (72, -1.05308446884155273438e+01) (73, -7.89692974090576171875e+00) (74, -7.03311920166015625000e+00) (75, 2.54337573051452636719e+00) (76, 1.24487667083740234375e+01) (77, 5.20660638809204101562e+00) (78, -1.18813800811767578125e+01) (79, -2.95346045494079589844e+00) (80, 3.90726137161254882812e+00) (81, 6.21248102188110351562e+00) (82, -2.09804935455322265625e+01) (22, -2.66385197639465332031e+00) (23, -3.60302734375000000000e+00) (24, -1.55525035858154296875e+01) (25, 1.87571418285369873047e+00) (26, -9.76374053955078125000e+00) (27, 2.58376312255859375000e+01) (28, 4.00392007827758789062e+00) (29, 4.95672321319580078125e+00) (30, -8.33072948455810546875e+00) (31, -1.78742904663085937500e+01) (32, -6.43210744857788085938e+00) (33, -4.51072025299072265625e+00) (34, 2.14670181274414062500e+01) (35, 6.43270874023437500000e+00) (36, -9.51078319549560546875e+00) (37, 8.11561298370361328125e+00) (38, -4.22264862060546875000e+00) (39, 1.37390506267547607422e+00) (40, 2.60565032958984375000e+01) (41, 7.10931444168090820312e+00) (42, -5.82117223739624023438e+00) (43, -6.25483465194702148438e+00) (44, 1.62546384334564208984e+00) (45, -1.08823909759521484375e+01) (46, 1.49593636393547058105e-01) (47, -1.65332164764404296875e+01) (48, -9.21424865722656250000e+00) (49, 1.70950889587402343750e+01) (50, 7.84925746917724609375e+00) (51, 9.63884353637695312500e+00) (52, -2.23828010559082031250e+01) (53, 1.26362600326538085938e+01) (54, -9.19396591186523437500e+00) (55, -8.27023315429687500000e+00) (56, -1.21677427291870117188e+01) (57, -6.73684930801391601562e+00) (58, 2.41884231567382812500e+00) (59, -2.66342854499816894531e+00) (60, -6.27404880523681640625e+00) (61, -6.17433643341064453125e+00) (62, -1.51299464702606201172e+00) (63, 1.73097968101501464844e+00) (64, 5.49355173110961914062e+00) (65, 1.32087147235870361328e+00) (66, -2.42337112426757812500e+01) (67, -1.07374191284179687500e+01) (68, -1.19006025791168212891e+00) (69, -4.63850355148315429688e+00) (70, -1.37260138988494873047e+00) (71, -1.71686506271362304688e+00) (72, -4.76876258850097656250e-01) (73, -1.47756071090698242188e+01) (74, 1.68278694152832031250e+00) (75, -8.73570537567138671875e+00) (76, -6.60429430007934570312e+00) (77, -3.85347914695739746094e+00) (78, 1.52249269485473632812e+01) (79, 4.08899831771850585938e+00) (80, 2.24649786949157714844e+00) (81, -9.69982910156250000000e+00) (82, -2.73349113464355468750e+01) (22, -4.14932823181152343750e+00) (23, 1.27501783370971679688e+01) (24, 1.02262125015258789062e+01) (25, 3.37685966491699218750e+00) (26, 2.41419410705566406250e+00) (27, 3.68990516662597656250e+01) (28, -3.48473286628723144531e+00) (29, 8.37132167816162109375e+00) (30, -1.05543413162231445312e+01) (31, -1.82088890075683593750e+01) (32, -1.33221387863159179688e+01) (33, -1.25678319931030273438e+01) (34, 2.86308574676513671875e+01) (35, -1.88332862854003906250e+01) (36, -3.91284847259521484375e+00) (37, -9.88200473785400390625e+00) (38, -1.07203855514526367188e+01) (39, 1.11076402664184570312e+01) (40, 3.04873523712158203125e+01) (41, 1.26597344875335693359e+00) (42, -1.13128018379211425781e+00) (43, -1.12533674240112304688e+01) (44, -3.77355813980102539062e+00) (45, 6.40796279907226562500e+00) (46, 3.61385464668273925781e+00) (47, 9.62802124023437500000e+00) (48, -9.10887145996093750000e+00) (49, 2.39498043060302734375e+01) (50, 9.24584960937500000000e+00) (51, -1.03291854858398437500e+01) (52, -3.22682533264160156250e+01) (53, -7.82240927219390869141e-01) (54, -9.98610782623291015625e+00) (55, 4.02217817306518554688e+00) (56, 2.74353384971618652344e+00) (57, 1.06861181259155273438e+01) (58, -3.51680779457092285156e+00) (59, 4.74624443054199218750e+00) (60, 1.91950643062591552734e+00) (61, 8.51033020019531250000e+00) (62, -7.84738016128540039062e+00) (63, -3.01828551292419433594e+00) (64, 7.33663368225097656250e+00) (65, -7.65792083740234375000e+00) (66, -3.15456695556640625000e+01) (67, 9.40975284576416015625e+00) (68, -1.36999521255493164062e+01) (69, 5.50264596939086914062e+00) (70, -1.01613912582397460938e+01) (71, -5.11178922653198242188e+00) (72, -3.21435952186584472656e+00) (73, -1.10779552459716796875e+01) (74, -1.35038280487060546875e+00) (75, -7.48928606510162353516e-01) (76, -5.19622421264648437500e+00) (77, -6.44641876220703125000e+00) (78, 1.20985660552978515625e+01) (79, 2.22016849517822265625e+01) (80, -9.51369380950927734375e+00) (81, -7.89828348159790039062e+00) (82, -3.77644309997558593750e+01) (22, 3.45698285102844238281e+00) (23, 4.26341438293457031250e+00) (24, -1.49915468692779541016e+00) (25, 1.14296808242797851562e+01) (26, -1.10905866622924804688e+01) (27, 2.10361576080322265625e+01) (28, 5.68924713134765625000e+00) (29, -8.44489955902099609375e+00) (30, 1.96804296970367431641e+00) (31, -5.83426284790039062500e+00) (32, -8.38129281997680664062e-01) (33, 2.30828881263732910156e+00) (34, 1.89186439514160156250e+01) (35, 1.11418187618255615234e+00) (36, 4.70686578750610351562e+00) (37, 2.76583313941955566406e+00) (38, 6.85088539123535156250e+00) (39, 1.83445179462432861328e+00) (40, 2.29281406402587890625e+01) (41, 1.37249410152435302734e+00) (42, -1.43583929538726806641e+00) (43, 7.77600860595703125000e+00) (44, -2.44847416877746582031e+00) (45, 7.56635284423828125000e+00) (46, -3.62349472045898437500e+01) (47, 8.33296871185302734375e+00) (48, -6.68367719650268554688e+00) (49, 1.59043064117431640625e+01) (50, 7.07899093627929687500e+00) (51, 9.73334980010986328125e+00) (52, -1.94175071716308593750e+01) (53, -1.41400659084320068359e+00) (54, 4.16067695617675781250e+00) (55, -7.33892774581909179688e+00) (56, 1.30623540878295898438e+01) (57, -1.38963568210601806641e+00) (58, -2.74350047111511230469e+00) (59, 6.86428451538085937500e+00) (60, -5.32415390014648437500e+00) (61, -4.07537937164306640625e+00) (62, -2.41148257255554199219e+00) (63, 1.52750957012176513672e+00) (64, 4.41568899154663085938e+00) (65, -5.17807865142822265625e+00) (66, -1.98149509429931640625e+01) (67, -5.62896907329559326172e-01) (68, 7.29639387130737304688e+00) (69, 5.79736900329589843750e+00) (70, 6.25994205474853515625e+00) (71, 6.19209575653076171875e+00) (72, -1.06407070159912109375e+01) (73, -7.22497177124023437500e+00) (74, -1.24090833663940429688e+01) (75, 2.26475882530212402344e+00) (76, 3.72575831413269042969e+00) (77, 2.20753312110900878906e+00) (78, -1.46048426628112792969e+00) (79, -9.61293995380401611328e-01) (80, 1.87012493610382080078e+00) (81, 1.43501749038696289062e+01) (82, -2.35891551971435546875e+01) (22, 4.51464986801147460938e+00) (23, -1.08734979629516601562e+01) (24, -9.56942081451416015625e+00) (25, 6.14665460586547851562e+00) (26, -4.16667652130126953125e+00) (27, 1.78588542938232421875e+01) (28, -3.67278218269348144531e+00) (29, -7.06007957458496093750e+00) (30, -5.69400215148925781250e+00) (31, 1.36526679992675781250e+01) (32, 1.00956428050994873047e+00) (33, 7.18881034851074218750e+00) (34, 2.01640682220458984375e+01) (35, 1.17629966735839843750e+01) (36, -7.14899158477783203125e+00) (37, 7.93269109725952148438e+00) (38, 1.32159519195556640625e+00) (39, -4.51961565017700195312e+00) (40, 1.65433158874511718750e+01) (41, -1.85316503047943115234e+00) (42, -5.44597959518432617188e+00) (43, -1.03464393615722656250e+01) (44, 1.08323347568511962891e+00) (45, -5.63966989517211914062e-01) (46, 7.58770847320556640625e+00) (47, -8.79124069213867187500e+00) (48, 1.98911333084106445312e+00) (49, 1.41726751327514648438e+01) (50, -1.01947669982910156250e+01) (51, 5.57175970077514648438e+00) (52, -1.66379280090332031250e+01) (53, -5.17227220535278320312e+00) (54, -6.81505823135375976562e+00) (55, 5.36577749252319335938e+00) (56, -1.11112670898437500000e+01) (57, -5.17281675338745117188e+00) (58, 5.44255375862121582031e-01) (59, -3.83446598052978515625e+00) (60, 4.52595090866088867188e+00) (61, 2.60860443115234375000e+00) (62, -5.62867450714111328125e+00) (63, 1.16609442234039306641e+00) (64, 1.72636473178863525391e+00) (65, 3.77535820007324218750e+00) (66, -1.91443347930908203125e+01) (67, -8.50156068801879882812e-01) (68, -8.68775129318237304688e-01) (69, 8.59684467315673828125e+00) (70, -1.92495214939117431641e+00) (71, -5.33898019790649414062e+00) (72, 1.96666014194488525391e+00) (73, -1.01602811813354492188e+01) (74, 2.18151831626892089844e+00) (75, -1.19642744064331054688e+01) (76, -2.88550686836242675781e+00) (77, 1.23111371994018554688e+01) (78, -6.50301027297973632812e+00) (79, 4.83611392974853515625e+00) (80, 2.01086416840553283691e-01) (81, -2.40570511668920516968e-02) (82, -2.00920848846435546875e+01) (22, -2.86894589662551879883e-01) (23, -5.22974915802478790283e-02) (24, 2.21986317634582519531e+00) (25, 5.11560726165771484375e+00) (26, 1.00097370147705078125e+01) (27, 3.39690017700195312500e+01) (28, 1.82825336456298828125e+01) (29, 4.08346271514892578125e+00) (30, -4.82808828353881835938e+00) (31, -1.59740724563598632812e+01) (32, -9.84328174591064453125e+00) (33, 3.96358919143676757812e+00) (34, 3.03017444610595703125e+01) (35, -5.66423225402832031250e+00) (36, -4.29610157012939453125e+00) (37, 2.21394233703613281250e+01) (38, -4.54576671123504638672e-01) (39, -7.42456465959548950195e-02) (40, 3.39857139587402343750e+01) (41, -1.53247632980346679688e+01) (42, -2.03594729304313659668e-01) (43, -9.45278263092041015625e+00) (44, 4.64925575256347656250e+00) (45, 1.27611279487609863281e+00) (46, 1.70611310005187988281e+00) (47, -7.22569465637207031250e+00) (48, 5.01455187797546386719e-01) (49, 2.11668319702148437500e+01) (50, 4.31582331657409667969e-01) (51, -2.63426780700683593750e+00) (52, -2.62578125000000000000e+01) (53, -1.77016997337341308594e+00) (54, 1.04502744674682617188e+01) (55, -1.48288469314575195312e+01) (56, 6.77757883071899414062e+00) (57, -1.63917160034179687500e+01) (58, 1.00766801834106445312e+01) (59, 1.53310899734497070312e+01) (60, -7.82281589508056640625e+00) (61, 1.47204294204711914062e+01) (62, -2.41016006469726562500e+01) (63, -2.12319526672363281250e+01) (64, -1.62878111004829406738e-01) (65, -2.84457015991210937500e+00) (66, -3.29546432495117187500e+01) (67, -5.06156349182128906250e+00) (68, 5.14042806625366210938e+00) (69, -5.52371549606323242188e+00) (70, -4.53418588638305664062e+00) (71, 5.94711351394653320312e+00) (72, 3.78940796852111816406e+00) (73, -3.16349077224731445312e+00) (74, -2.70198106765747070312e+00) (75, 1.06923761367797851562e+01) (76, -1.47155399322509765625e+01) (77, 5.20798635482788085938e+00) (78, 1.98153648376464843750e+01) (79, 2.84591245651245117188e+00) (80, 2.84388351440429687500e+00) (81, -7.37802553176879882812e+00) (82, -3.53452529907226562500e+01) (22, 1.47346982955932617188e+01) (23, 4.22879743576049804688e+00) (24, 7.93042373657226562500e+00) (25, -1.20370702743530273438e+01) (26, -3.60794514417648315430e-01) (27, 1.73407135009765625000e+01) (28, -2.12287163734436035156e+00) (29, 2.23285531997680664062e+00) (30, -2.20317870378494262695e-01) (31, -9.65677499771118164062e-01) (32, 1.40907754898071289062e+01) (33, 6.49361729621887207031e-01) (34, 2.10520992279052734375e+01) (35, 6.75179624557495117188e+00) (36, 4.95878076553344726562e+00) (37, -3.96739959716796875000e+00) (38, 3.84797048568725585938e+00) (39, 4.85620641708374023438e+00) (40, 2.00969734191894531250e+01) (41, 7.57111501693725585938e+00) (42, -4.87964296340942382812e+00) (43, -4.17945623397827148438e+00) (44, -1.18968839645385742188e+01) (45, 3.08183336257934570312e+00) (46, 5.92134428024291992188e+00) (47, -5.52424825727939605713e-02) (48, -8.22100543975830078125e+00) (49, 1.72523250579833984375e+01) (50, -2.10215401649475097656e+00) (51, 8.02623462677001953125e+00) (52, -1.80183143615722656250e+01) (53, 7.84508514404296875000e+00) (54, -1.08952665328979492188e+01) (55, 6.98397016525268554688e+00) (56, -1.81605110168457031250e+01) (57, -8.20464229583740234375e+00) (58, 1.01247358322143554688e+00) (59, 3.07538598775863647461e-01) (60, -2.48702192306518554688e+00) (61, 1.08655309677124023438e+00) (62, 1.05231504440307617188e+01) (63, -1.42590761184692382812e+01) (64, 5.69463396072387695312e+00) (65, -2.04279823303222656250e+01) (66, -1.63291969299316406250e+01) (67, -9.72956371307373046875e+00) (68, -4.70970392227172851562e+00) (69, -7.18344068527221679688e+00) (70, 1.03740978240966796875e+00) (71, 4.00686502456665039062e+00) (72, 6.94211244583129882812e+00) (73, -6.54757452011108398438e+00) (74, -2.66692304611206054688e+00) (75, -1.25755977630615234375e+00) (76, -3.96194189786911010742e-01) (77, 4.37942594289779663086e-01) (78, 5.18306970596313476562e+00) (79, -1.00568284988403320312e+01) (80, -1.10153281688690185547e+00) (81, 9.91409587860107421875e+00) (82, -2.09615859985351562500e+01) (22, -3.13397669792175292969e+00) (23, -2.16063976287841796875e+00) (24, -7.54610729217529296875e+00) (25, -6.42617762088775634766e-01) (26, 7.84433126449584960938e+00) (27, 2.76431522369384765625e+01) (28, 3.70736479759216308594e+00) (29, 1.65092384815216064453e+00) (30, -5.04716396331787109375e+00) (31, -6.27563810348510742188e+00) (32, -1.37881259918212890625e+01) (33, 2.34515714645385742188e+00) (34, 2.69741458892822265625e+01) (35, 9.54093170166015625000e+00) (36, -8.24628353118896484375e+00) (37, -1.00358324050903320312e+01) (38, -5.22863417863845825195e-02) (39, 1.54578816890716552734e+00) (40, 2.84649753570556640625e+01) (41, -1.09892368316650390625e+01) (42, 5.68793010711669921875e+00) (43, -2.97241896390914916992e-01) (44, 3.35265040397644042969e+00) (45, 3.91609501838684082031e+00) (46, 4.20530967712402343750e+01) (47, 2.66401982307434082031e+00) (48, 1.20408277511596679688e+01) (49, 2.35790691375732421875e+01) (50, 7.08389091491699218750e+00) (51, 1.00898094177246093750e+01) (52, -2.28209590911865234375e+01) (53, 9.38850021362304687500e+00) (54, -5.88464307785034179688e+00) (55, -8.93586456775665283203e-01) (56, -1.31501712799072265625e+01) (57, -1.10750494003295898438e+01) (58, -2.46751213073730468750e+00) (59, -4.78518486022949218750e+00) (60, -7.19559717178344726562e+00) (61, -5.49893474578857421875e+00) (62, -4.97249984741210937500e+00) (63, 5.73463773727416992188e+00) (64, 4.79991006851196289062e+00) (65, 4.53995418548583984375e+00) (66, -2.71711711883544921875e+01) (67, -6.33172893524169921875e+00) (68, 4.11039400100708007812e+00) (69, 5.07119238376617431641e-01) (70, -7.47898387908935546875e+00) (71, 7.03974008560180664062e+00) (72, 1.12489604949951171875e+00) (73, 1.00089225769042968750e+01) (74, 1.99836921691894531250e+00) (75, 9.73658275604248046875e+00) (76, -3.81580138206481933594e+00) (77, -3.09461998939514160156e+00) (78, 6.46639442443847656250e+00) (79, 2.48799157142639160156e+00) (80, 1.16431751251220703125e+01) (81, -2.17674179077148437500e+01) (82, -2.90470142364501953125e+01) (22, -9.79610252380371093750e+00) (23, -2.56387758255004882812e+00) (24, -4.29367542266845703125e+00) (25, 3.38959336280822753906e+00) (26, -3.74263024330139160156e+00) (27, 1.81999645233154296875e+01) (28, 6.10884428024291992188e+00) (29, 1.32845735549926757812e+00) (30, -2.08650064468383789062e+00) (31, -7.48459041118621826172e-01) (32, -1.18228750228881835938e+01) (33, 1.39940237998962402344e+00) (34, 2.24920520782470703125e+01) (35, 6.64948177337646484375e+00) (36, 1.46628170013427734375e+01) (37, 8.30109119415283203125e+00) (38, 4.36652517318725585938e+00) (39, -1.32722501754760742188e+01) (40, 1.89234428405761718750e+01) (41, 3.90693426132202148438e+00) (42, -9.67703247070312500000e+00) (43, 6.80303478240966796875e+00) (44, -3.55212712287902832031e+00) (45, 5.41950893402099609375e+00) (46, -7.30574989318847656250e+00) (47, -5.44361257553100585938e+00) (48, -9.37938785552978515625e+00) (49, 1.89103279113769531250e+01) (50, -9.80611896514892578125e+00) (51, -6.61723184585571289062e+00) (52, -1.91332416534423828125e+01) (53, -9.38770103454589843750e+00) (54, 2.78526854515075683594e+00) (55, 4.79372930526733398438e+00) (56, 1.00995836257934570312e+01) (57, -6.82359933853149414062e+00) (58, 8.02487730979919433594e-01) (59, -1.49121499061584472656e+00) (60, 6.60025405883789062500e+00) (61, 2.24702129364013671875e+01) (62, 1.99863612651824951172e+00) (63, 4.00843763351440429688e+00) (64, 7.95846128463745117188e+00) (65, -4.09105956554412841797e-01) (66, -2.08047122955322265625e+01) (67, 9.42142105102539062500e+00) (68, -2.23815396428108215332e-01) (69, 2.37811231613159179688e+00) (70, -3.13999700546264648438e+00) (71, 4.76188325881958007812e+00) (72, -2.40013837814331054688e+00) (73, 9.24290418624877929688e-01) (74, 1.52283611297607421875e+01) (75, -7.82693326473236083984e-01) (76, -3.26976299285888671875e+00) (77, 5.77578306198120117188e+00) (78, -9.17831134796142578125e+00) (79, -6.75911855697631835938e+00) (80, -8.54066085815429687500e+00) (81, -4.28971910476684570312e+00) (82, -2.58302669525146484375e+01) (22, 1.94992721080780029297e+00) (23, 9.65785408020019531250e+00) (24, 1.78923690319061279297e+00) (25, 2.12624812126159667969e+00) (26, 5.31598377227783203125e+00) (27, 2.04030628204345703125e+01) (28, -1.46266546249389648438e+01) (29, -1.18389539718627929688e+01) (30, 6.16006755828857421875e+00) (31, -1.03488361835479736328e+00) (32, -2.91829133033752441406e+00) (33, 4.96127557754516601562e+00) (34, 2.22857761383056640625e+01) (35, 3.84453749656677246094e+00) (36, 9.85154342651367187500e+00) (37, 5.16131591796875000000e+00) (38, -1.13845288753509521484e+00) (39, -6.92887127399444580078e-01) (40, 2.27846546173095703125e+01) (41, -5.27582073211669921875e+00) (42, 3.51497006416320800781e+00) (43, -1.65432596206665039062e+00) (44, 5.81324386596679687500e+00) (45, 1.56591963768005371094e+00) (46, 1.17707271575927734375e+01) (47, 3.62394595146179199219e+00) (48, -3.29360985755920410156e+00) (49, 1.59866380691528320312e+01) (50, 3.10717701911926269531e+00) (51, 7.50728988647460937500e+00) (52, -2.19434871673583984375e+01) (53, -5.48531579971313476562e+00) (54, -1.10114440917968750000e+01) (55, -1.11829738616943359375e+01) (56, -5.39196538925170898438e+00) (57, 1.44996633529663085938e+01) (58, 4.54572677612304687500e+00) (59, -1.02729625701904296875e+01) (60, 1.04718103408813476562e+01) (61, -1.33456916809082031250e+01) (62, 1.30847063064575195312e+01) (63, -1.19925680160522460938e+01) (64, 3.15325951576232910156e+00) (65, 3.57733988761901855469e+00) (66, -2.26862621307373046875e+01) (67, 3.89946007728576660156e+00) (68, 1.78684747219085693359e+00) (69, 1.07079868316650390625e+01) (70, -1.01272881031036376953e+00) (71, -6.31013536453247070312e+00) (72, -4.93071126937866210938e+00) (73, -8.37695407867431640625e+00) (74, -1.52247495651245117188e+01) (75, -1.09075536727905273438e+01) (76, 4.26321172714233398438e+00) (77, 1.15855073928833007812e+01) (78, 3.27628731727600097656e+00) (79, 5.79265058040618896484e-01) (80, -5.08469247817993164062e+00) (81, 4.71553516387939453125e+00) (82, -2.42782497406005859375e+01) (22, 1.00025491714477539062e+01) (23, 9.31967735290527343750e+00) (24, -7.77194023132324218750e+00) (25, 1.09578189849853515625e+01) (26, -1.55555238723754882812e+01) (27, 1.72438907623291015625e+01) (28, 5.06380176544189453125e+00) (29, -5.89975452423095703125e+00) (30, 6.51230049133300781250e+00) (31, -3.15123534202575683594e+00) (32, 9.13889408111572265625e+00) (33, 2.52997899055480957031e+00) (34, 1.87397422790527343750e+01) (35, 1.22322940826416015625e+00) (36, -8.23163890838623046875e+00) (37, -1.53186869621276855469e+00) (38, -3.46157908439636230469e+00) (39, 7.40673971176147460938e+00) (40, 1.50991249084472656250e+01) (41, 5.91146171092987060547e-01) (42, -1.68230330944061279297e+00) (43, 6.34721755981445312500e+00) (44, 3.46097767353057861328e-01) (45, 2.09366393089294433594e+00) (46, -1.26039819717407226562e+01) (47, 5.38237476348876953125e+00) (48, -1.47569918632507324219e+00) (49, 1.33265991210937500000e+01) (50, 3.09405064582824707031e+00) (51, 4.27996015548706054688e+00) (52, -1.31633129119873046875e+01) (53, 1.37103235721588134766e+00) (54, -6.85458755493164062500e+00) (55, 8.24563407897949218750e+00) (56, -3.51577734947204589844e+00) (57, -8.94959354400634765625e+00) (58, -7.20689725875854492188e+00) (59, -2.07417416572570800781e+00) (60, -1.68349301815032958984e+00) (61, 2.34216880798339843750e+00) (62, 2.33134984970092773438e+00) (63, 5.83784484863281250000e+00) (64, -2.94843411445617675781e+00) (65, 1.48172581195831298828e+00) (66, -1.73401527404785156250e+01) (67, 1.86890482902526855469e+00) (68, -2.17397713661193847656e+00) (69, -6.10452413558959960938e-01) (70, 1.10826611518859863281e+00) (71, 1.33631658554077148438e+01) (72, 7.57630109786987304688e+00) (73, 8.31618118286132812500e+00) (74, -3.80032610893249511719e+00) (75, 2.70669341087341308594e+00) (76, -5.23661088943481445312e+00) (77, 7.04768848419189453125e+00) (78, -4.40253067016601562500e+00) (79, -1.03044283390045166016e+00) (80, 3.59439343214035034180e-01) (81, -5.00332772731781005859e-01) (82, -1.85449752807617187500e+01) (22, -3.92908477783203125000e+00) (23, -8.66843605041503906250e+00) (24, 6.26251125335693359375e+00) (25, -2.87307667732238769531e+00) (26, 4.65785169601440429688e+00) (27, 2.28803310394287109375e+01) (28, 1.52413654327392578125e+00) (29, 6.80827045440673828125e+00) (30, -4.12089300155639648438e+00) (31, 1.32806520462036132812e+01) (32, -1.46261215209960937500e-01) (33, -1.38955402374267578125e+00) (34, 2.38154926300048828125e+01) (35, 1.48003816604614257812e+01) (36, 8.98713207244873046875e+00) (37, -6.98037195205688476562e+00) (38, 7.02728939056396484375e+00) (39, -7.28174209594726562500e+00) (40, 2.29746799468994140625e+01) (41, -5.82341766357421875000e+00) (42, -2.51478648185729980469e+00) (43, -2.07298588752746582031e+00) (44, -6.24513006210327148438e+00) (45, -1.95732700824737548828e+00) (46, 1.37297792434692382812e+01) (47, -2.46447920799255371094e+00) (48, 1.20413732528686523438e+01) (49, 2.02020168304443359375e+01) (50, -8.14662647247314453125e+00) (51, -9.19990730285644531250e+00) (52, -2.08124599456787109375e+01) (53, 1.38658361434936523438e+01) (54, -1.04323511123657226562e+01) (55, -2.40011572837829589844e+00) (56, -2.09495067596435546875e+00) (57, 1.03820457458496093750e+01) (58, 1.23686298727989196777e-01) (59, -9.72951602935791015625e+00) (60, 6.08200263977050781250e+00) (61, -1.46846275329589843750e+01) (62, 2.06308155059814453125e+01) (63, 4.23139524459838867188e+00) (64, 4.74903631210327148438e+00) (65, 4.90136194229125976562e+00) (66, -2.33808383941650390625e+01) (67, -4.13395881652832031250e+00) (68, -1.10865488052368164062e+01) (69, -1.59422290325164794922e+00) (70, -1.39876127243041992188e+01) (71, 1.43400979042053222656e+00) (72, -1.23136148452758789062e+01) (73, 1.14539632797241210938e+01) (74, 2.64651560783386230469e+00) (75, -1.10286874771118164062e+01) (76, -1.73154222965240478516e+00) (77, -1.12914419174194335938e+00) (78, -1.97007350921630859375e+01) (79, -8.76322364807128906250e+00) (80, -9.22836244106292724609e-01) (81, 3.26866269111633300781e+00) (82, -2.76714534759521484375e+01) (22, 2.04923558235168457031e+00) (23, 5.83482313156127929688e+00) (24, 6.63424062728881835938e+00) (25, 9.63138198852539062500e+00) (26, 1.53279507160186767578e+00) (27, 2.46239814758300781250e+01) (28, 2.89022707939147949219e+00) (29, 2.97822546958923339844e+00) (30, -4.14674711227416992188e+00) (31, -6.72514820098876953125e+00) (32, -9.86600112915039062500e+00) (33, 8.43643188476562500000e+00) (34, 2.32639923095703125000e+01) (35, -1.04753332138061523438e+01) (36, -6.49951756000518798828e-01) (37, -4.16388559341430664062e+00) (38, 1.71036708354949951172e+00) (39, -1.24226379394531250000e+00) (40, 2.04056205749511718750e+01) (41, 5.87381124496459960938e+00) (42, 5.40257453918457031250e+00) (43, 3.26361799240112304688e+00) (44, -3.69411921501159667969e+00) (45, 2.07008576393127441406e+00) (46, 8.04564094543457031250e+00) (47, 3.24150633811950683594e+00) (48, -4.00098085403442382812e+00) (49, 1.35742187500000000000e+01) (50, -5.40536463260650634766e-01) (51, -4.07190561294555664062e+00) (52, -2.01073226928710937500e+01) (53, -1.14896183013916015625e+01) (54, 5.39609384536743164062e+00) (55, 2.41336727142333984375e+00) (56, 5.34890985488891601562e+00) (57, -1.16249275207519531250e+00) (58, -2.66063904762268066406e+00) (59, 8.25304567813873291016e-01) (60, -1.24951305389404296875e+01) (61, -9.48746299743652343750e+00) (62, 2.17633318901062011719e+00) (63, -3.33559513092041015625e-01) (64, 1.16890466213226318359e+00) (65, -3.20601773262023925781e+00) (66, -2.26646194458007812500e+01) (67, -1.67408490180969238281e+00) (68, 1.17758846282958984375e+01) (69, -6.98934125900268554688e+00) (70, 1.15726127624511718750e+01) (71, 1.36537075042724609375e+01) (72, -7.30013895034790039062e+00) (73, -2.96884179115295410156e+00) (74, -6.52789068222045898438e+00) (75, -1.26765102148056030273e-01) (76, 1.29181098937988281250e+01) (77, 8.72620582580566406250e+00) (78, 3.78650218248367309570e-01) (79, 1.62224864959716796875e+01) (80, -8.09505844116210937500e+00) (81, -7.45295143127441406250e+00) (82, -2.14246082305908203125e+01) (22, -3.44920992851257324219e+00) (23, -3.36460185050964355469e+00) (24, 1.08498010635375976562e+01) (25, 1.53723192214965820312e+00) (26, 1.13707084655761718750e+01) (27, 2.18541831970214843750e+01) (28, -7.31467294692993164062e+00) (29, -6.12140274047851562500e+00) (30, 1.64291942119598388672e+00) (31, 2.30173625946044921875e+01) (32, -2.63042956590652465820e-01) (33, 6.08379304409027099609e-01) (34, 2.38678131103515625000e+01) (35, -2.75784403085708618164e-01) (36, 3.70329880714416503906e+00) (37, -1.32338209152221679688e+01) (38, 8.78584480285644531250e+00) (39, 5.04633808135986328125e+00) (40, 2.13712158203125000000e+01) (41, -1.50493943691253662109e+00) (42, 2.95223689079284667969e+00) (43, -4.88724899291992187500e+00) (44, 3.89346289634704589844e+00) (45, 1.57723665237426757812e+01) (46, -3.49905357360839843750e+01) (47, -2.85672211647033691406e+00) (48, -3.11853098869323730469e+00) (49, 2.22922477722167968750e+01) (50, 4.37004041671752929688e+00) (51, -8.61934375762939453125e+00) (52, -1.95651664733886718750e+01) (53, -5.50719261169433593750e+00) (54, 1.59336099624633789062e+01) (55, -4.92386907339096069336e-01) (56, 2.06161093711853027344e+00) (57, 1.68155822753906250000e+01) (58, 1.41083562374114990234e+00) (59, 7.48916149139404296875e+00) (60, 3.24592423439025878906e+00) (61, 5.00413417816162109375e+00) (62, 2.87896466255187988281e+00) (63, 3.62988114356994628906e+00) (64, -9.52301692962646484375e+00) (65, -6.44856840372085571289e-02) (66, -2.22164459228515625000e+01) (67, 4.48390483856201171875e+00) (68, 5.45982265472412109375e+00) (69, 8.78200531005859375000e+00) (70, 3.39934557676315307617e-01) (71, -3.04477834701538085938e+00) (72, 6.45498085021972656250e+00) (73, 4.20782470703125000000e+00) (74, -5.96686172485351562500e+00) (75, -7.38785648345947265625e+00) (76, 1.15779819488525390625e+01) (77, 3.72861838340759277344e+00) (78, -1.06844434738159179688e+01) (79, -5.16769409179687500000e-01) (80, -1.34202754497528076172e+00) (81, 2.08571839332580566406e+00) (82, -2.49869689941406250000e+01) (22, 9.26362395286560058594e-01) (23, -8.76245021820068359375e+00) (24, 9.48829174041748046875e+00) (25, 6.12713146209716796875e+00) (26, 1.79782791137695312500e+01) (27, 2.28420124053955078125e+01) (28, -7.65089178085327148438e+00) (29, -2.16943597793579101562e+00) (30, -6.48683881759643554688e+00) (31, 1.89773864746093750000e+01) (32, 4.87507534027099609375e+00) (33, 6.85346841812133789062e+00) (34, 2.40947628021240234375e+01) (35, 1.13178911209106445312e+01) (36, 1.10189695358276367188e+01) (37, 3.51344585418701171875e+00) (38, 2.65221297740936279297e-01) (39, -2.94262838363647460938e+00) (40, 1.98940715789794921875e+01) (41, 8.81314086914062500000e+00) (42, 8.82727718353271484375e+00) (43, -8.17817592620849609375e+00) (44, 1.44336616992950439453e+00) (45, -1.10380625724792480469e+00) (46, 3.02545738220214843750e+01) (47, -2.03612060546875000000e+01) (48, 4.54634380340576171875e+00) (49, 1.78122768402099609375e+01) (50, -5.78306388854980468750e+00) (51, -3.82834148406982421875e+00) (52, -2.46850795745849609375e+01) (53, -1.43838529586791992188e+01) (54, 3.62173461914062500000e+00) (55, 4.12915945053100585938e+00) (56, -1.28047904968261718750e+01) (57, -4.88637256622314453125e+00) (58, 1.02468240261077880859e+00) (59, 4.07560300827026367188e+00) (60, -4.40844678878784179688e+00) (61, 9.05605411529541015625e+00) (62, 1.12361657619476318359e+00) (63, -3.19247245788574218750e+00) (64, -5.30367374420166015625e+00) (65, 5.84815835952758789062e+00) (66, -2.32993679046630859375e+01) (67, 5.81885147094726562500e+00) (68, 4.11351156234741210938e+00) (69, 3.65018939971923828125e+00) (70, -6.18270492553710937500e+00) (71, -2.25780439376831054688e+00) (72, 1.06087369918823242188e+01) (73, 1.54756269454956054688e+01) (74, 1.61745250225067138672e+00) (75, 6.29091119766235351562e+00) (76, 5.86386060714721679688e+00) (77, -6.54386806488037109375e+00) (78, 1.29991540908813476562e+01) (79, 4.71805143356323242188e+00) (80, 3.09138441085815429688e+00) (81, -6.36130475997924804688e+00) (82, -2.67496356964111328125e+01) (22, -1.69666373729705810547e+00) (23, 1.08203773498535156250e+01) (24, 7.02346086502075195312e+00) (25, 9.11349010467529296875e+00) (26, 8.90662288665771484375e+00) (27, 2.20779533386230468750e+01) (28, -6.72235536575317382812e+00) (29, 3.32139492034912109375e+00) (30, 9.06497097015380859375e+00) (31, 4.93303537368774414062e+00) (32, -9.04675674438476562500e+00) (33, 5.09887647628784179688e+00) (34, 2.09054794311523437500e+01) (35, -1.22728376388549804688e+01) (36, 3.28567981719970703125e+00) (37, 2.69759416580200195312e+00) (38, -1.72027921676635742188e+00) (39, -5.46000194549560546875e+00) (40, 1.89917488098144531250e+01) (41, -3.17047452926635742188e+00) (42, 6.42374992370605468750e+00) (43, 4.76311206817626953125e+00) (44, 1.03279483318328857422e+00) (45, -5.45789837837219238281e-01) (46, -4.16417980194091796875e+00) (47, 5.59373807907104492188e+00) (48, 7.90771913528442382812e+00) (49, 1.75843772888183593750e+01) (50, -7.23710680007934570312e+00) (51, -1.20984983444213867188e+01) (52, -2.01760559082031250000e+01) (53, -4.50477409362792968750e+00) (54, -9.22614097595214843750e+00) (55, -2.55841493606567382812e+00) (56, 1.35667200088500976562e+01) (57, 3.37903881072998046875e+00) (58, -3.36579847335815429688e+00) (59, -2.33301210403442382812e+00) (60, 8.32548427581787109375e+00) (61, 7.91694784164428710938e+00) (62, -6.48302030563354492188e+00) (63, -8.55433845520019531250e+00) (64, -6.32496976852416992188e+00) (65, -1.50538885593414306641e+00) (66, -2.09853858947753906250e+01) (67, 5.85567140579223632812e+00) (68, 5.61690855026245117188e+00) (69, 4.24897050857543945312e+00) (70, -2.77772855758666992188e+00) (71, 1.90218009948730468750e+01) (72, -7.63411235809326171875e+00) (73, 4.78288412094116210938e+00) (74, 4.76004219055175781250e+00) (75, 6.38688182830810546875e+00) (76, 8.26839160919189453125e+00) (77, -1.90125739574432373047e+00) (78, 1.71891009807586669922e+00) (79, -7.10445785522460937500e+00) (80, -1.29126214981079101562e+01) (81, -3.97232246398925781250e+00) (82, -2.40766563415527343750e+01) (22, -6.09832763671875000000e+00) (23, 4.46680021286010742188e+00) (24, 5.14906501770019531250e+00) (25, -1.22152070999145507812e+01) (26, -6.46486902236938476562e+00) (27, 2.08597946166992187500e+01) (28, 2.36605858802795410156e+00) (29, 6.94027364253997802734e-01) (30, 9.50107097625732421875e+00) (31, 1.24001903533935546875e+01) (32, 5.62167453765869140625e+00) (33, 5.88442802429199218750e+00) (34, 2.06745643615722656250e+01) (35, -1.95582318305969238281e+00) (36, 7.83764934539794921875e+00) (37, -3.51343184709548950195e-01) (38, 1.29256510734558105469e+00) (39, 3.39088082313537597656e+00) (40, 1.99088420867919921875e+01) (41, 1.38613080978393554688e+00) (42, -5.04312992095947265625e+00) (43, 1.04611129760742187500e+01) (44, -7.58781528472900390625e+00) (45, 3.80363655090332031250e+00) (46, -1.37806963920593261719e+00) (47, 2.72659373283386230469e+00) (48, 8.47841739654541015625e+00) (49, 1.73815212249755859375e+01) (50, 2.15550208091735839844e+00) (51, 1.42949676513671875000e+01) (52, -1.88470802307128906250e+01) (53, 4.30176973342895507812e+00) (54, -6.74048995971679687500e+00) (55, 8.81894016265869140625e+00) (56, 6.77655506134033203125e+00) (57, 2.59150099754333496094e+00) (58, 5.94163274765014648438e+00) (59, 3.14641976356506347656e+00) (60, 1.52656049728393554688e+01) (61, 8.62107372283935546875e+00) (62, 9.85305309295654296875e+00) (63, -3.23294329643249511719e+00) (64, 9.17925453186035156250e+00) (65, -1.48516483306884765625e+01) (66, -2.11010742187500000000e+01) (67, -4.97353744506835937500e+00) (68, -7.40915822982788085938e+00) (69, 3.47468543052673339844e+00) (70, 1.15986776351928710938e+00) (71, 3.91121006011962890625e+00) (72, -6.01211643218994140625e+00) (73, -2.28368735313415527344e+00) (74, 3.44432091712951660156e+00) (75, -2.88962364196777343750e+00) (76, 9.86591994762420654297e-01) (77, 1.66250729560852050781e+00) (78, 1.35204219818115234375e+01) (79, -1.16431913375854492188e+01) (80, 3.63304209709167480469e+00) (81, 8.10491657257080078125e+00) (82, -2.20869865417480468750e+01) (22, 6.15427446365356445312e+00) (23, -8.25394248962402343750e+00) (24, -1.79497280120849609375e+01) (25, 6.52251914143562316895e-02) (26, 1.39309673309326171875e+01) (27, 2.20529270172119140625e+01) (28, 1.94426789879798889160e-01) (29, -1.01289558410644531250e+01) (30, -9.99869537353515625000e+00) (31, 7.39198350906372070312e+00) (32, 2.21101999282836914062e+00) (33, -4.85576957464218139648e-01) (34, 1.96116523742675781250e+01) (35, 1.78120079040527343750e+01) (36, 3.26985597610473632812e-01) (37, 6.09996318817138671875e-01) (38, -7.09617853164672851562e-01) (39, -4.06768894195556640625e+00) (40, 1.90991420745849609375e+01) (41, 1.52014551162719726562e+01) (42, -1.68208563327789306641e+00) (43, -3.81618571281433105469e+00) (44, -2.66994524002075195312e+00) (45, -6.81163072586059570312e+00) (46, -2.24353313446044921875e+01) (47, 5.96317338943481445312e+00) (48, 9.52016448974609375000e+00) (49, 1.36704463958740234375e+01) (50, 6.48364591598510742188e+00) (51, 8.06496238708496093750e+00) (52, -1.75765800476074218750e+01) (53, 1.05714788436889648438e+01) (54, 7.15984439849853515625e+00) (55, 1.03506631851196289062e+01) (56, -1.46453866958618164062e+01) (57, -9.63412189483642578125e+00) (58, -2.20642924308776855469e+00) (59, -5.01015722751617431641e-01) (60, 1.13990602493286132812e+01) (61, -1.19989719390869140625e+01) (62, -1.32789039611816406250e+00) (63, 4.92877817153930664062e+00) (64, -2.85048723220825195312e-01) (65, 5.37834644317626953125e+00) (66, -2.11214027404785156250e+01) (67, -5.25763213634490966797e-01) (68, 4.78112602233886718750e+00) (69, 2.51259493827819824219e+00) (70, -4.35916185379028320312e+00) (71, -1.45357294082641601562e+01) (72, 8.13657283782958984375e+00) (73, 1.51638431549072265625e+01) (74, -2.42848053574562072754e-01) (75, -6.42959690093994140625e+00) (76, 7.04028654098510742188e+00) (77, 2.45785975456237792969e+00) (78, -2.78249907493591308594e+00) (79, 2.12522482872009277344e+00) (80, -1.82963430881500244141e+00) (81, 4.73729705810546875000e+00) (82, -2.18697319030761718750e+01) (22, 4.61171007156372070312e+00) (23, -2.52441549301147460938e+00) (24, 7.91756200790405273438e+00) (25, 2.61724901199340820312e+00) (26, 2.18078746795654296875e+01) (27, 1.79872341156005859375e+01) (28, -8.22876548767089843750e+00) (29, -3.98182988166809082031e+00) (30, 9.39084053039550781250e-01) (31, 1.68544578552246093750e+01) (32, -7.27313232421875000000e+00) (33, 4.76551818847656250000e+00) (34, 1.66942272186279296875e+01) (35, 3.90035533905029296875e+00) (36, 9.80161380767822265625e+00) (37, -3.31742143630981445312e+00) (38, 5.57886838912963867188e+00) (39, 3.41377925872802734375e+00) (40, 2.00693302154541015625e+01) (41, 3.71081781387329101562e+00) (42, 5.20915651321411132812e+00) (43, 1.15621948242187500000e+00) (44, 9.14968848228454589844e-01) (45, 6.66317820549011230469e-01) (46, 2.10799961090087890625e+01) (47, 2.11833019256591796875e+01) (48, 6.21513366699218750000e+00) (49, 1.34439020156860351562e+01) (50, -1.93838906288146972656e+00) (51, 2.37932252883911132812e+00) (52, -1.75961742401123046875e+01) (53, -5.53504848480224609375e+00) (54, 5.16991472244262695312e+00) (55, 3.18350601196289062500e+00) (56, -3.92613577842712402344e+00) (57, 2.76563625335693359375e+01) (58, -4.04243659973144531250e+00) (59, -8.39170265197753906250e+00) (60, -3.69940567016601562500e+00) (61, -6.63608121871948242188e+00) (62, 1.50400549173355102539e-01) (63, -1.51948964595794677734e+00) (64, -6.60644292831420898438e+00) (65, -3.87085485458374023438e+00) (66, -1.90062046051025390625e+01) (67, 2.64513671398162841797e-01) (68, 5.04416799545288085938e+00) (69, 1.76869988441467285156e+00) (70, 1.27847278118133544922e+00) (71, -6.42165327072143554688e+00) (72, 